SVM-light Version V6.20
0 # kernel type
3 # kernel parameter -d 
1 # kernel parameter -g 
1 # kernel parameter -s 
1 # kernel parameter -r 
empty# kernel parameter -u 
4128 # highest feature index 
68 # number of training documents 
2 # number of support vectors plus 1 
0.029919177 # threshold b, each following line is a SV (starting with alpha*y)
1 1:-0.0016157138 2:-0.15555377 3:-0.33574849 4:-0.22218046 5:0.41011617 6:-0.026455591 7:0.97789198 8:-0.10920697 9:0.041705579 10:-0.0083197253 11:-0.065685473 12:-0.23453581 13:0.0044525685 14:-9.9411904e-005 15:-7.6603037e-006 16:0.078468733 17:0.41396406 18:-0.26541615 19:-0.069406025 20:-0.016101621 21:1.0090741 22:-0.038688265 23:-0.58597094 24:-0.085976548 25:0.0011879719 26:0.036266923 27:-0.049427401 28:0.090706706 29:-0.00027912989 30:0.13441435 31:0.22907636 32:0.13759291 33:-0.38996902 34:0.14132701 35:0.00013042543 36:-0.050056957 37:-0.03220075 38:0.28238311 39:-0.0043870648 40:0.26833704 41:-0.071811073 42:0.16347888 43:0.75636148 45:0.14746653 46:0.0076168077 47:0.0086402856 48:-0.13699691 49:-0.020528663 50:0.17572141 51:-0.089346603 52:0.00057377934 53:-0.47542819 54:0.011570912 55:-0.0002984023 56:-0.0009244011 57:0.00039764756 58:-0.00013617516 59:-0.04600969 60:-0.56921279 61:0.00019441269 62:0.093503356 63:-0.044074509 64:-0.42719054 65:-0.0038836312 66:-0.0005631916 67:-0.029148936 68:0.068907395 69:-0.13965692 70:-0.011373046 71:0.01159518 72:-0.020687522 73:0.015743263 74:0.0042009703 75:0.00032390683 76:-0.0022241096 77:0.032294579 78:-0.16331477 79:-0.0015134065 80:-0.14021067 81:-4.8180833e-013 82:0.14265409 83:-0.43751276 84:0.0011928896 85:-0.16130221 86:0.076433934 87:0.10230668 88:0.11391768 89:0.15864164 90:-0.0037313814 91:1.1824915e-013 92:-0.070456043 93:-0.02513116 94:0.076631583 95:0.18168776 96:-0.0030382636 97:0.018907532 98:0.08313752 99:-0.18488444 100:0.012315704 101:-0.48556572 102:0.076821581 103:0.17666799 104:-0.062792622 105:-0.078849278 106:0.062627777 107:0.30513752 108:-0.30004293 109:-0.0080892425 110:-0.040079061 111:0.055183109 112:-0.20564097 113:0.065374546 114:0.0053630895 115:-9.3959861e-005 116:-0.36492348 117:-0.00067228934 118:0.1124586 119:-0.02477164 120:7.8295677e-008 121:0.24377498 122:-0.057050969 123:-0.01165617 124:0.00019882378 125:0.039606508 126:0.0054844311 127:-0.050578732 128:0.010145905 129:-0.030092204 130:-0.00014539364 131:-0.2047779 132:-0.21315041 133:1.9835769e-008 134:0.049545411 135:-0.51289612 136:-0.047587253 137:-0.0066975527 138:0.15858501 139:0.0018488022 140:-0.00025030348 141:0.12729765 142:0.089620613 143:0.0023689722 144:0.068965182 145:0.047924716 147:-0.023932746 148:-0.0017161882 149:-0.034420174 150:0.039396565 151:0.0017083174 152:-1.0547724e-006 153:9.6637247e-011 154:-0.31420162 155:1.4891386e-005 156:-0.089560464 157:-0.57083917 158:-0.0019745529 159:-0.00016013131 160:-1.1653402e-015 161:-0.070244223 162:-0.071828194 163:0.20293853 164:0.048263744 165:-0.015155121 166:-3.5231301e-011 168:-0.0012264979 169:-0.02925298 170:-0.022917368 171:-0.21462113 172:0.00067936431 173:-0.1411674 174:0.025248602 175:0.35312098 177:-0.00071849709 178:0.72627002 179:0.045619156 180:-0.026787147 181:-0.2275036 182:0.018890604 183:-0.068807952 184:-0.00020465575 185:0.90433317 186:-0.0050360509 187:-0.039524615 188:0.29469484 189:0.83766955 190:-0.2135223 191:-0.012553466 192:-0.085823677 193:-0.14058883 194:0.15904346 195:-0.01629068 196:-0.00014783694 197:0.0031645878 199:-0.14641899 200:0.045022149 201:-0.1368428 202:-0.015320294 203:-0.0005513411 204:-0.15864164 205:-0.011876434 206:0.021429766 207:-0.047303151 208:0.26766348 209:0.04491872 210:-0.00042483993 211:0.045852609 212:-0.0001451642 213:-0.28752384 214:-0.047826923 215:0.2876952 216:-0.097932525 217:0.64638823 218:0.13567679 219:0.2473532 220:-5.9451672e-006 221:-4.926836e-006 222:-0.13784263 223:0.17883292 224:0.11371084 225:-0.12629661 226:0.048192546 227:0.37467113 228:0.0063477582 229:0.020851986 231:-2.0996416e-005 232:0.037483789 233:-0.00023258984 234:-0.049399052 235:-0.23253837 236:-0.060461238 237:-0.054559927 238:0.00060682127 239:-0.11190581 240:-0.15585443 241:-0.051342495 242:0.051028017 244:-0.0037491168 245:-0.11295459 246:0.27562866 247:-0.30388966 248:-0.0516573 249:0.016254202 250:-0.069902062 251:0.21894324 252:0.31728324 253:-0.012247196 254:-0.12273557 255:-0.11107957 256:-0.085142575 257:-0.063287005 258:3.3644839e-005 259:0.0090686297 260:-3.4696834e-006 261:0.057058845 262:-0.0022400541 263:-0.00042966165 264:1.0663704e-005 265:-0.35721698 266:-0.11888289 267:-0.001169048 268:0.056995694 269:0.016317245 270:0.05659572 271:-0.044389226 272:-0.020601597 273:-0.15925868 274:0.022089714 275:-0.11973349 276:0.016317243 277:-0.0014536786 278:2.404616e-005 280:-0.42969173 281:-0.13116108 282:-0.17135054 283:-0.12247905 285:-0.00056629669 286:0.23754315 287:2.1737569e-005 288:0.12472574 289:-0.0048115049 291:0.25024801 292:0.18528086 293:-0.039786629 294:-0.0063978657 295:0.061630372 296:0.0058429311 297:-0.0012692129 298:0.00010719532 299:-0.033463083 300:-0.12332197 301:-2.8378588e-007 302:0.087345444 303:-0.18510517 304:-0.15302517 305:-0.030215213 306:0.2191835 307:-0.02919814 308:-0.047935218 309:-0.19555983 310:-0.0008081519 311:-0.021362597 312:-0.65210426 313:0.0063876654 314:0.10285769 315:0.01594921 316:-0.25012317 317:-5.7592575e-014 318:-0.00031537411 319:1.9884665e-005 320:0.16370063 321:1.1870093e-014 322:0.39758703 323:-0.046059348 324:-0.001840965 325:0.18449292 326:0.089641519 327:0.12262477 328:0.21906495 329:0.15298325 330:-0.0096334154 331:-0.13128105 332:0.75169402 333:-0.42091534 334:-0.036797196 335:0.80867326 336:-0.13158204 337:0.19180292 338:0.023710722 339:0.052248787 340:-0.055335436 341:2.5675536e-005 342:-0.096235178 343:-0.24848354 344:-0.0079361675 345:-0.12243174 346:0.017424354 347:0.0062326384 348:-0.048239566 349:-0.064350478 350:-0.13842253 351:0.065514065 352:-0.29501402 354:-0.077868618 355:0.096383482 356:0.33114165 357:0.02143435 358:0.06885802 359:0.071660757 360:0.014901538 361:0.098963879 362:-0.028066024 364:-0.064279415 365:0.15326913 366:-0.026366435 367:0.071890786 368:0.085773446 369:0.054117817 370:0.0026630976 371:-0.29269272 372:0.11319281 373:0.091439061 374:-0.090794705 375:0.78800112 376:-0.044387229 377:0.11837286 378:-0.32377139 379:-0.010293345 380:0.053580016 381:0.020567592 382:-0.24682064 383:0.045812551 384:-0.52492976 385:5.1042261e-005 386:0.011587626 387:0.3478339 388:0.32308978 389:-0.042631265 390:-1.8060242e-015 391:0.29358965 392:0.40251803 394:2.7470894e-013 395:0.47191402 397:1.2927765 398:-9.9766192e-005 399:7.7728953e-007 400:-0.58194995 401:-0.089256145 402:-0.0063991887 403:0.13422878 404:0.014117288 405:0.02098703 406:-0.010610727 407:-0.076171562 408:-0.0035499947 409:-0.069881245 410:-0.18526496 411:-0.18209045 412:-0.020330722 413:-0.0070886211 414:-0.30593395 415:0.095613159 416:-0.26368046 417:0.03202093 418:-0.12167599 419:-0.094749019 420:0.76261425 421:-0.0082661146 422:0.047501761 423:0.020910658 424:-0.11816915 425:-0.31970209 426:-0.33274078 427:-0.43714857 428:-0.086444937 429:-0.3342143 430:-0.097801156 431:-0.26300871 432:-0.247962 433:0.086797878 434:-0.0058153113 435:-0.16684362 436:-0.0021239673 437:-0.038855437 438:-0.19380623 439:-0.48951152 440:-0.12229358 441:0.30891255 442:-0.23275504 443:0.045093529 444:-0.18449216 445:-0.092662454 446:-0.0016247575 447:0.1949466 448:0.28864181 449:0.48106226 450:0.050980162 451:0.12157975 452:-0.01514216 453:0.35484886 454:-0.041202791 455:0.14655353 456:-0.035064131 457:0.11185139 458:0.18843378 459:0.037354935 460:-0.096030489 461:-0.32001877 462:0.29689166 463:0.077283137 464:-0.0077966684 465:-0.14814441 466:-0.27416322 467:0.010024627 468:-0.040111363 469:-0.19965701 470:-0.2775481 471:0.032834101 472:-0.061191328 473:0.012541665 474:-0.21522729 475:0.015383223 476:-0.038197022 477:0.31728324 478:0.039955873 479:0.22430553 480:0.014901347 481:0.021008439 482:-0.13047285 483:0.18096454 484:0.032107465 485:0.69335938 486:-0.092119366 487:-0.015996126 488:-0.17409495 489:0.27143404 490:-0.05583705 491:0.24578761 492:-0.063151464 493:0.029485483 494:0.16150421 495:-0.0042099846 496:0.1949466 497:-0.0051448653 498:-0.11656957 499:-0.025998341 500:-0.064476557 501:-0.11997914 502:-0.03948221 503:-0.29141226 504:-0.11999647 505:0.28547826 506:0.45495215 507:-0.07560125 508:-0.24161968 509:-0.0023106297 510:0.31335011 511:0.055253372 512:0.01154567 513:0.21613194 514:-0.051554449 515:0.063819028 516:-0.031060161 517:-0.016317243 518:-0.0051407041 519:-0.063649923 520:-0.078044161 521:0.13357365 522:0.33442652 523:0.033043336 524:-1.2174246e-012 525:-0.21339862 526:0.065542668 527:0.20385008 528:-0.019856719 529:-0.35036808 530:-0.37019569 531:-0.036344074 532:0.021072358 533:-0.019063624 534:-0.13118926 535:-0.011941835 536:0.26171279 537:-0.038607828 538:-0.1132838 539:-0.00058389426 540:-0.058896724 541:-0.0024066549 542:0.93895668 543:-0.34991622 544:-0.08098615 545:-0.083739206 546:0.01739586 547:0.31728324 548:-0.15988359 549:0.022205843 550:0.59474802 551:-0.34829608 552:-0.026904108 554:-0.080177523 555:-0.076002456 556:-0.048299201 557:0.026114745 558:-0.030235276 559:-9.4717443e-008 560:-0.13797989 561:-0.60507607 562:0.48673463 563:-0.21925369 564:-0.1661519 565:-0.14063506 566:-0.35272345 567:-0.10010093 568:-0.36907321 569:-4.3018212e-013 570:0.099217258 571:-0.10063671 572:0.24038115 573:0.23024264 574:-0.11154793 575:0.050288383 576:-0.0034745811 577:-0.30444643 578:-0.087156862 579:0.10530472 580:-0.15864164 581:-0.076541558 582:-0.3456541 583:-0.050207164 584:0.10153692 585:0.40138152 586:-0.11570042 587:0.43160316 588:-0.47872841 589:-0.11767416 590:0.077851154 592:-0.32739827 593:-0.60796738 594:-0.037606429 595:-0.099013254 596:-0.26911286 597:0.0037313816 598:-0.012553177 599:0.03624367 600:-0.095979556 601:0.0014752743 602:-0.59595919 603:-0.068858452 604:-0.02594487 605:-0.0087473877 606:0.0098323729 607:-0.063353963 608:0.02309134 609:-0.014553529 610:-0.0071535739 611:-0.28349879 612:3.907388e-006 613:-0.57168365 614:0.059568916 615:0.0053323619 616:0.066901222 617:-0.032424938 618:0.011194144 619:-0.09149611 620:-0.17685476 621:0.049603585 622:-0.43347806 623:-0.214829 624:-0.13031843 625:-0.0094095264 626:-0.00081999425 627:-0.00065080554 628:0.008703677 629:-0.34679982 630:0.34454969 631:-0.0307697 632:-0.38575092 633:-0.023309845 634:-0.17078571 635:-0.43809885 636:-0.048403502 637:0.00016676947 638:0.049013413 639:-0.00093404995 640:-0.057700865 641:-0.26091996 642:0.27255675 643:-0.020097943 644:-0.22626553 645:0.037072342 646:-0.11969297 647:-0.15109317 648:-0.00056679361 649:0.062572777 650:-0.39052442 652:-0.20657682 653:0.13992427 654:-0.2930893 655:-0.033452317 656:0.18431103 657:0.054743584 658:0.029359186 659:-0.02995762 660:0.077855796 661:-0.14488092 662:-0.072135136 663:-0.0090092756 664:-0.045448698 665:0.34144348 666:-0.068118013 667:0.00021344404 668:0.45063594 669:0.33762732 670:-6.1988381e-013 671:-0.0028744712 672:0.21375126 673:0.053580016 674:-0.0064132069 675:0.0046927826 676:0.0029405402 677:-0.15977526 678:0.62788993 679:-0.36716127 680:0.23649129 681:0.16130649 682:-0.3762379 683:-0.026643019 684:-0.0005574383 685:-0.28590187 686:0.19341414 687:-0.042890519 688:0.84377575 689:0.068796568 690:-0.23858365 691:0.035882339 692:-0.084766991 693:0.023561779 694:-0.3934795 695:-0.10452351 696:-0.0098539554 697:-6.4516098e-005 698:0.20466813 699:-0.10258043 700:0.50216025 701:-0.054752279 702:0.073313519 703:-0.47955272 704:0.0016019738 705:-0.022199502 706:-0.060320485 707:0.0022802076 708:-0.1473687 709:-0.14263868 710:0.0043241135 711:-0.55831188 712:0.0029490511 713:0.080234677 714:-0.00074897771 715:-0.040497094 716:0.20880276 717:-0.033406612 718:-0.0038696073 719:-0.013426881 720:-0.31575388 721:0.096553214 722:-0.0087876739 723:-0.34450561 724:0.01815284 725:0.051525954 726:-0.2525425 727:-0.0066761966 728:-0.92041087 729:-0.16608895 730:-0.003977519 731:-0.21705951 732:-0.027723804 733:-0.10949355 734:0.64638823 735:0.27273232 736:0.13682613 738:0.17883292 739:0.12218381 740:-0.06081932 741:0.10282144 742:-0.026123079 743:-0.18128265 744:0.2149175 745:0.0010268911 746:-0.3352271 747:-0.23905112 748:-0.002712341 749:0.032261997 750:-0.19215207 751:0.13643107 752:0.0030827171 753:-0.011578365 754:-0.22152156 755:0.015983481 756:-0.086868212 757:0.010368051 758:0.093293078 759:-0.078849413 760:-0.29049069 761:-0.014003855 762:-0.027849492 763:0.59259689 764:6.3758765e-014 765:-0.099777788 766:0.00013049263 767:-0.002747467 768:0.0010954505 769:-0.048718877 770:-0.039358024 771:0.15864162 772:-0.24750954 773:0.13009797 774:0.072552577 776:-0.59858674 777:0.070260346 778:-0.1137158 779:-4.4883227e-013 780:-0.099695876 781:-0.075698398 782:-0.1485467 783:-0.00083457318 784:-0.036926165 785:-0.082589097 786:-0.22716318 787:-0.15090123 788:0.00065651874 789:0.16146027 790:0.10191533 791:-0.14531237 792:0.023415994 793:-0.17054385 794:-0.032579783 795:1.3329945e-013 796:-0.25426158 797:-0.037009023 798:0.05279864 799:0.26659083 800:0.64638823 801:-0.029063893 802:0.32679021 803:-0.075097024 804:3.3110661e-007 805:-0.044109594 806:-0.15829504 807:-0.1159581 808:-0.018399216 809:-0.10429282 810:0.39679664 811:0.0081975227 812:0.38036153 813:0.0038120449 814:0.083258189 815:-0.17540607 816:0.069645166 817:-0.082349643 818:0.22187741 819:0.12472575 820:0.022388501 821:-0.13318171 822:-0.019990796 823:-0.061061762 824:-0.16046505 825:0.19864219 826:0.069150358 827:-0.22912614 828:0.08495114 829:-7.3766216e-014 830:-0.10496375 831:-0.084892362 832:-0.43779173 833:-0.41390935 834:-0.34404618 835:-0.10012966 836:-0.5697071 837:0.18710528 838:0.64638823 839:-0.027751282 840:-0.20125903 841:0.0017299628 842:0.07237193 843:0.034754891 844:-0.33646342 845:-0.010747354 846:0.014847551 847:-0.057213888 848:-0.34574324 849:0.10962599 850:-0.35713264 851:-0.016010603 852:-0.15732993 853:0.089237474 854:0.0023935202 855:0.14117895 856:0.23286036 857:-0.15864162 858:-0.26258171 859:-0.0011947041 860:0.019318763 861:0.16504294 862:0.059504882 863:-0.2659204 864:0.00018560732 865:0.62448329 866:-0.050661419 867:0.28757399 868:0.15864162 869:-0.13658291 870:0.11176769 871:-0.072745293 872:0.45150658 873:0.099131249 874:0.01729461 875:0.00059338234 876:0.30703244 877:-0.10888307 878:-0.17462581 879:0.079025358 880:0.0094323773 881:0.15864164 882:-0.17020231 883:0.17883292 884:0.069789618 885:-0.16526842 886:0.60279089 887:0.91391897 888:0.024224145 889:-0.081227086 890:0.35548756 891:0.37260637 892:0.026271742 893:-0.039306276 894:0.39117047 895:0.25225204 896:0.4424068 897:0.59093606 898:0.048930544 899:-0.021165257 900:0.098963872 901:-0.055921923 902:-0.051872306 903:-0.018343212 904:-0.36371168 905:-0.1328707 906:0.23655871 907:-0.16237503 908:-0.136241 909:-0.16735573 910:-0.16595989 911:0.31901777 912:0.12472575 913:-0.05876293 914:0.2832112 915:-0.087288484 916:0.055141971 917:0.0096069118 918:0.32377139 919:-0.064517662 920:-0.00043813232 921:0.17002091 922:0.37461177 923:-0.33720025 924:-0.061855871 925:0.45259959 926:-0.012417434 927:0.31895047 928:-0.066927083 929:-0.0038388073 930:0.038584139 931:-0.0090296054 932:-0.14187075 933:0.23979411 934:0.1843452 935:0.020721642 936:-0.51493609 937:-0.28444424 938:0.21674849 939:0.17408247 940:-0.19300368 941:0.21993668 942:-0.079633147 943:-0.090608053 944:0.14397854 945:-0.12378113 946:0.12472575 947:0.32120073 948:0.81594187 949:-0.23757859 950:-0.23012537 951:0.015453488 952:-0.22498913 953:0.034103185 954:-0.028195463 955:0.37417725 956:0.12367927 957:0.0091669587 958:0.097069643 959:-0.12518403 960:0.084529027 961:-0.15832129 962:0.0826611 963:-3.7554575e-005 964:0.28633457 965:0.052481554 966:-0.1162701 967:1.0565476 968:-0.026292849 969:-0.22104125 970:0.21621262 971:0.05132328 972:-0.33326256 973:0.032900628 974:0.11940482 975:-1.5658026e-005 976:0.57309157 978:-0.0060711782 979:-0.51377499 980:-0.011890332 981:0.23218739 982:0.17407715 983:0.31156522 984:-0.035932358 985:-0.61983901 986:0.016317245 987:-0.21480551 988:-0.022961402 989:0.026361339 990:-0.16707915 991:-0.0089964671 992:-0.21421215 993:-0.030492228 994:0.16386244 995:0.016713899 996:0.77710879 997:0.065326057 998:0.28102887 999:-0.010057745 1000:-0.37236279 1001:0.19792774 1002:0.87900168 1003:0.042369537 1004:-0.13383304 1005:0.00051036122 1006:-0.022365551 1007:1.1824916e-013 1008:-0.10404358 1009:-0.24147005 1010:-0.3542203 1011:0.47592488 1012:0.56417537 1013:-0.19832779 1014:0.70736343 1015:0.20413731 1016:0.047106788 1017:0.00082760438 1018:0.15864162 1019:0.01967423 1020:-0.033230036 1021:0.050236817 1022:0.75121838 1023:-0.41395605 1024:0.025772205 1025:0.28152782 1026:-0.0032034495 1027:-0.036012698 1028:-0.45541325 1029:-0.11814655 1030:-0.0062573329 1031:-0.18119174 1033:-0.012174437 1034:0.0026244391 1035:0.46917683 1036:-0.23265383 1037:0.034446422 1038:0.22814202 1039:0.45848301 1040:0.15811551 1041:-0.56553113 1042:0.048355397 1043:0.088093475 1044:-0.0067583579 1045:-0.040184509 1046:-0.2983925 1047:-0.01357851 1048:-0.2027849 1049:-0.0034661065 1050:0.039165877 1051:-0.062792629 1052:0.10602964 1053:-4.9262828e-005 1054:-2.3914831e-006 1055:-0.13740884 1056:0.56290203 1057:0.32379347 1058:0.25810716 1059:0.18344253 1061:0.055561677 1062:-0.07489799 1063:0.0212366 1064:0.13777153 1065:0.0055837692 1066:-0.0014019849 1067:-0.07034158 1068:-0.096767232 1069:0.038749669 1070:1.0975629 1071:-0.01961978 1072:0.064226262 1073:-0.15835716 1074:-0.12426531 1075:0.39908236 1076:-0.57194293 1077:-0.004965073 1078:-0.2982693 1079:0.20927858 1080:-0.13617583 1081:0.0018581328 1082:0.095138058 1083:0.15059717 1084:0.39289057 1085:0.23036781 1086:-0.090424493 1087:-0.34006456 1088:-0.42034808 1089:0.00078415318 1090:0.26360136 1091:0.061557956 1092:-0.12432969 1093:-4.7455713e-005 1094:0.22599567 1095:0.39819744 1096:0.04895173 1098:0.084935762 1099:0.05235377 1100:-0.21774045 1101:0.090251014 1102:-0.038976759 1103:-0.0045994828 1104:0.29455206 1105:0.42144147 1106:0.013593224 1107:0.039835762 1108:-0.26634946 1109:0.0026804572 1110:0.02186266 1111:0.22241299 1112:-0.33484307 1113:0.049466059 1114:0.17474769 1115:-0.047296282 1116:0.041472215 1117:0.055003349 1118:-0.069428496 1119:0.21832441 1120:0.14024745 1121:-0.11500866 1122:-0.054033726 1123:-0.11116557 1124:0.003049138 1125:0.0048653926 1126:-5.0514553e-012 1128:-0.5926069 1129:-0.039764173 1130:-0.2815662 1131:-0.098482609 1132:0.1405119 1133:0.31388366 1134:0.15549386 1135:-0.36609057 1136:0.00046220055 1137:-0.55093092 1138:0.15632954 1139:3.6745512e-010 1140:-2.0620455e-007 1141:0.0023542796 1142:-0.17732446 1143:-0.19017141 1144:0.035656832 1145:0.032757968 1146:0.93974364 1147:-0.0035926718 1148:0.16595247 1149:-0.17885678 1150:0.043866526 1151:-0.14763831 1152:0.50743002 1153:0.082356744 1154:0.016344117 1155:-0.020789105 1156:-0.035534255 1157:0.0019341914 1158:-0.18443386 1159:-0.0083299112 1160:0.19617528 1161:-0.012825704 1162:0.032702561 1163:-0.037665926 1164:-0.13107891 1165:0.26610035 1166:0.093894325 1167:-0.13890289 1168:0.12048911 1169:0.020792296 1170:-0.49296606 1172:0.30725017 1173:-0.032417096 1174:-0.35502362 1175:-0.26875305 1176:-0.17465304 1177:0.58372968 1178:-0.0047279368 1179:-0.0023028406 1180:0.016900634 1181:-0.096754611 1182:0.01625135 1183:2.4809995e-006 1184:-0.36325848 1185:-0.28037611 1186:0.26766559 1187:-0.086354665 1188:-0.038933843 1189:0.03834758 1190:-0.30151686 1191:0.14981192 1192:0.039930459 1193:5.7395312e-008 1194:-0.15045808 1195:0.00020770956 1196:-0.0012967753 1197:-0.14195046 1198:0.13406734 1199:-0.017035374 1200:-0.11314055 1201:0.28261819 1202:0.10715201 1203:-0.19584264 1204:0.32337633 1205:-0.00054012286 1206:-0.00040292906 1207:-0.057981014 1208:0.012372585 1209:0.01887835 1210:-0.20654222 1211:0.32467225 1212:-0.0030617639 1213:0.16904855 1214:0.038641568 1215:-0.039077066 1216:-0.044833452 1217:-0.41607869 1218:0.0030232817 1219:0.0013115417 1220:0.055139437 1221:-0.14886045 1222:-0.14767283 1223:0.20422941 1224:0.0010359384 1225:-0.016339887 1226:-0.28949541 1227:0.039654177 1228:-0.12309672 1229:-0.53341883 1230:0.61406666 1231:0.6255033 1232:0.18608238 1233:-0.46063846 1234:0.11401454 1235:0.14749712 1236:-0.24801172 1237:0.44452748 1238:-0.040731058 1239:-0.042194467 1240:0.016317243 1241:-0.03888661 1242:-0.089536287 1243:-0.0016573049 1244:-0.07586123 1245:-0.15533432 1246:-0.05641713 1247:0.2457245 1248:-0.0069608199 1249:0.15627867 1250:-0.25352719 1252:0.14058337 1253:0.2494515 1254:0.088582888 1255:-0.13050158 1256:-0.02476901 1257:-0.090495788 1258:-0.18685839 1260:0.06069725 1261:-0.027211282 1262:-0.01309133 1263:0.56002903 1264:0.47038406 1265:-0.26360676 1266:-0.08867994 1267:0.064783253 1268:0.31728324 1269:-0.021890868 1270:-0.092468321 1271:0.049809095 1272:-0.14573471 1273:0.052353773 1274:-0.15864164 1275:-0.1274031 1276:-0.34419769 1277:0.011746475 1278:0.10831954 1279:-0.036330406 1280:-0.08223886 1281:-0.10678057 1282:0.09355142 1283:-0.51995951 1284:-0.010048907 1285:0.46646848 1286:-0.59848303 1287:-0.20762816 1288:-0.11786121 1289:-0.19654702 1290:0.37031201 1291:0.3523376 1292:0.29484195 1293:0.18181249 1294:0.011895544 1295:-0.027834445 1296:0.27966866 1297:-0.21581733 1298:-0.17883292 1299:0.28878981 1300:-0.051753532 1301:0.013667334 1302:-0.20906451 1303:-0.10571533 1304:0.35999772 1305:0.26838428 1306:0.79431355 1307:0.19717436 1308:0.0099138096 1309:0.028610934 1310:0.35358822 1311:-0.032221328 1312:0.0081289513 1313:-0.30975544 1314:0.09696994 1315:-0.010328523 1316:-0.15129088 1317:-0.13102956 1318:-0.0081998911 1319:0.030910013 1320:0.066208325 1321:0.62362874 1322:-0.5936479 1323:0.0058831079 1324:-0.015686719 1325:-0.059423219 1326:0.012677486 1327:-0.34086975 1328:0.065312132 1329:-0.21925113 1330:0.03709219 1331:-0.25819784 1332:-1.9425062e-005 1333:0.082022853 1334:-0.14807148 1335:0.31728324 1336:0.087426402 1337:0.077545516 1338:-0.087215468 1339:0.15242894 1340:-0.115117 1341:-0.28470519 1342:-0.13469532 1343:0.13423683 1344:0.077360712 1345:-0.053378217 1346:0.26249748 1347:0.077398747 1348:-0.15864162 1349:-0.35201904 1350:-0.26580858 1351:0.0068397098 1352:0.015614806 1353:-1.1354918e-005 1354:-0.086669154 1355:0.080664776 1356:0.0086396299 1357:-0.0061161406 1358:-0.028131258 1359:-0.0063261953 1360:0.17657168 1361:-6.1060302e-005 1362:0.34937271 1363:-0.028386509 1364:0.10368444 1365:0.0052208207 1366:-0.010958639 1367:0.00076897064 1368:-0.12190059 1369:0.42638895 1370:-0.02266904 1371:-0.039638493 1372:-0.085059561 1373:-0.20551848 1374:0.2811999 1375:-2.5257275e-012 1376:0.16573326 1377:0.031738866 1378:0.22259562 1379:-0.27776468 1380:0.53216755 1381:-0.073771454 1382:-8.7353335e-005 1383:-0.79183829 1384:-0.39274988 1385:0.15167022 1386:0.22235765 1387:0.0044321306 1388:-0.3171446 1389:-0.38149327 1390:0.33945993 1391:0.15186325 1392:-0.011853748 1393:0.011587979 1394:-0.012318239 1395:-0.11051533 1396:0.00030966452 1397:0.0072869342 1398:0.0019698592 1399:-0.44098011 1400:-0.068501011 1401:-0.044926036 1402:0.057850543 1403:-0.14492804 1404:0.057798669 1405:-0.31108546 1406:-0.616732 1407:0.016317243 1408:0.21659507 1409:0.6105634 1410:-0.63271713 1411:0.48390383 1412:-0.0028368703 1413:0.041211173 1414:-0.030784914 1415:-0.080025889 1416:-0.16031626 1417:0.2133327 1418:-0.035973892 1419:0.007437929 1420:-0.26861471 1421:-0.027834442 1422:-0.10853274 1423:-0.25124851 1424:-0.00064504851 1425:0.34778923 1426:9.2377151e-005 1427:-0.15793522 1428:-0.28805107 1429:0.25154349 1430:-0.14142333 1431:-0.24818014 1432:-0.11766697 1433:-0.10256713 1434:-0.16973053 1435:0.26732206 1436:-0.35717192 1437:0.027008038 1438:0.041647997 1439:0.18723801 1440:-0.10085677 1441:0.040039208 1442:-0.22757752 1443:-0.066943929 1444:-0.067980848 1445:-6.9878012e-013 1446:0.39241165 1447:0.54425496 1448:-0.24197328 1449:0.049608257 1450:-0.25439212 1451:-0.059822388 1452:0.21099539 1453:0.23987633 1454:0.10455126 1455:-0.049830619 1456:0.006212174 1457:-9.2483031e-005 1458:2.6910635e-005 1459:0.17659898 1460:-0.060859796 1461:0.039074227 1462:-0.040803637 1463:0.83659405 1464:-0.014287274 1465:0.351244 1466:-0.073505051 1467:0.29511642 1468:0.042234361 1469:-0.073313758 1470:-0.15119241 1471:0.19761878 1472:-0.0053893239 1473:0.25013635 1474:-0.37195683 1475:-0.38892388 1476:-0.31326589 1477:-0.083185613 1478:-0.40185776 1479:0.31728324 1480:0.48536229 1481:-0.0076073222 1482:0.23201132 1483:-0.097691566 1484:0.2494515 1485:0.0097751198 1486:-0.11208569 1487:0.77206975 1488:-0.029870415 1489:0.50784022 1490:0.034061342 1491:0.080778554 1492:-0.48597291 1493:0.29025528 1494:-0.03596846 1495:0.62642634 1496:-0.11435937 1497:-0.083981022 1498:0.012123381 1499:-0.25100407 1500:-0.0015932391 1501:0.070529915 1502:-0.23420043 1503:0.19046541 1504:0.12296844 1505:-0.041350614 1506:0.002356251 1507:-0.21587534 1508:0.061989043 1509:-0.20635088 1510:0.49349385 1511:-0.20141909 1512:0.040657427 1513:-1.9952401e-012 1514:-0.1068641 1515:0.82392436 1516:0.042274531 1517:0.096030176 1518:0.24945152 1519:0.022849033 1520:0.0015764959 1521:0.0033307248 1522:0.17273426 1523:0.58323264 1524:-0.021569697 1525:-2.1893728e-012 1526:0.017055323 1527:0.036018517 1528:0.19792774 1529:0.0052322168 1530:-0.21933414 1531:-0.11086448 1532:0.23382194 1533:-0.00080823433 1534:-1.0882487e-006 1535:-0.15463117 1536:-0.7968511 1537:-3.1511227e-006 1538:0.12415093 1539:0.64638823 1540:-0.058742672 1541:0.72613055 1542:1.7184441e-006 1543:-0.070941404 1544:-0.0019032487 1545:0.062492907 1546:0.0157717 1547:0.097648561 1548:-0.11931669 1549:1.0528859 1550:-0.11671241 1551:-0.32714918 1552:-0.16111851 1553:0.020688225 1554:0.19411214 1555:0.13042384 1556:-0.097481057 1557:-0.082044601 1558:-0.0021568558 1559:-0.1174216 1560:0.30789134 1561:-0.44124174 1562:-0.013608777 1563:-0.31156519 1564:0.35494393 1565:1.7147246e-007 1566:-0.16737814 1567:0.1708421 1568:-0.16575326 1569:-0.29173374 1570:4.1748085e-006 1571:-0.0030362795 1572:0.018854812 1573:0.045812774 1574:-0.099724829 1575:-0.025102016 1576:0.0002312487 1577:-6.8466028e-007 1578:-0.0030219783 1579:0.43963805 1580:-0.27371496 1581:0.011120793 1582:-0.0022780704 1583:-0.33506629 1584:-0.0062570381 1585:0.000838254 1586:-0.24393931 1587:2.3831365e-006 1588:-0.35970929 1589:-0.09474846 1590:-0.022281192 1591:0.079174355 1592:-0.15302312 1593:-0.54588258 1594:-0.034259524 1595:-0.088513985 1596:0.040229276 1597:0.57224429 1598:-0.002690132 1599:0.49896491 1600:0.017133398 1602:-0.2299073 1603:-0.30484346 1605:0.78184003 1606:0.032180637 1607:0.23188154 1608:0.39308277 1609:0.31728324 1610:-0.047193151 1611:0.020702982 1612:0.024684822 1613:-0.12331707 1614:-0.03571571 1615:-0.068120494 1616:0.37705538 1617:0.17434055 1618:0.00039411298 1619:0.14156944 1620:0.011049226 1621:-0.12833714 1622:-0.21570189 1623:0.1855896 1624:0.034198999 1625:0.084833682 1626:0.040368587 1627:0.10222074 1628:-0.10951348 1629:-9.605712e-005 1630:0.00027579558 1631:0.20624177 1632:0.043782543 1633:-0.23471478 1634:-0.055564865 1635:-0.049558964 1636:-4.9810033e-006 1637:0.17883292 1638:-0.17042923 1639:-0.50086808 1640:0.050236754 1641:-0.00020752523 1642:6.163109e-007 1643:0.00020797479 1644:-0.53657258 1645:-0.00071963866 1646:-0.064419761 1647:-0.012712042 1648:-0.10308037 1649:0.30215883 1650:0.038652837 1651:-0.093696885 1652:0.0057438961 1653:-0.18532412 1654:-0.29500073 1655:-0.00059310655 1656:-0.035052482 1657:0.011077059 1658:-0.012824446 1659:-0.084500939 1660:-0.2740137 1661:-0.071978569 1662:0.19607714 1663:-0.15596627 1664:0.2230397 1665:0.25771642 1666:-0.058051191 1667:-0.022958633 1668:-0.13024139 1669:0.037629463 1670:-0.4423961 1671:1.7039413e-012 1672:0.59838408 1673:0.036983948 1674:-0.090155408 1675:0.029658336 1676:0.49170941 1677:-0.0018503247 1678:6.9487169e-007 1679:0.29997545 1680:0.24667689 1681:0.31082186 1682:-0.012325545 1683:-0.26708335 1684:-0.09002763 1685:-0.013506226 1686:0.34199682 1687:0.15002128 1688:0.14388628 1689:0.0011013643 1690:-0.057560578 1691:0.030996921 1692:0.19969612 1693:0.051956642 1694:0.64638823 1695:-0.073543414 1696:0.053580016 1697:-0.021184577 1698:-0.047938418 1699:-0.35438839 1700:-0.0026310061 1701:-0.025982538 1702:-0.11391376 1703:-0.065975957 1704:0.0018488022 1705:-0.0130939 1706:-0.022822417 1707:0.00085913209 1708:-0.0061737383 1709:0.043919791 1710:-0.20144153 1711:-0.07686726 1712:0.048827522 1713:-0.11190291 1714:0.046916917 1715:0.96558094 1716:-0.03644564 1717:-0.34935877 1718:0.10297275 1719:0.13203833 1720:-0.18680978 1721:-0.052997433 1722:-0.31600705 1723:0.2048296 1724:-0.10407509 1725:-0.47123864 1726:0.00014976622 1727:0.064442731 1728:0.62279546 1729:0.00013899321 1730:-0.025917098 1731:0.00028400807 1732:-0.044566493 1733:2.0702212 1734:0.0082921907 1735:-0.028807638 1736:-0.3915444 1737:-0.10315651 1738:-0.0022523219 1739:0.86223871 1740:0.13032147 1741:0.44813806 1742:-0.19790548 1743:-0.38604513 1744:0.00085028919 1745:-0.0018650723 1746:0.17752916 1747:-0.017006468 1748:0.28452763 1749:-0.015940974 1750:0.47592482 1751:0.04179975 1752:-0.015098601 1753:0.15183085 1754:0.0016967705 1755:0.0018631645 1756:-0.026407929 1757:-0.0017131101 1758:0.023004131 1759:-1.2174246e-012 1760:-0.052083712 1761:0.17030367 1762:0.11241312 1763:-0.075882994 1764:0.1285017 1765:-0.16338126 1766:-0.021960009 1767:0.44052064 1768:-0.041512776 1769:-0.26265538 1770:0.0093649812 1771:-0.13198036 1772:-0.01734443 1773:0.08285702 1774:0.12171689 1775:-0.0038813353 1777:0.079577066 1778:-0.030564498 1779:-0.00042836048 1780:-0.080848664 1781:-0.20333432 1782:0.018711101 1783:0.12472575 1784:-0.0080914032 1785:-0.15378493 1786:0.2681486 1787:-0.039140765 1788:0.2244709 1789:-0.56420487 1790:-0.082184881 1791:-0.20234349 1792:-0.31728324 1793:-0.077168718 1794:-0.08686702 1795:-0.14279683 1796:0.0073098573 1797:0.23378161 1798:-0.11329171 1799:-0.027792748 1800:0.059816081 1801:0.071989365 1802:-0.0055350391 1803:-0.033541255 1804:-0.13299416 1805:-0.1795591 1806:-0.046449035 1807:0.15864164 1808:-0.15970626 1809:-0.33572206 1810:-0.19040492 1811:0.16523533 1812:-0.18009695 1813:-0.025795167 1814:-0.016181549 1815:-0.61680835 1816:-0.001570866 1817:-0.23144713 1818:-0.11330913 1819:-0.054320924 1820:0.042893097 1821:-0.20580809 1822:-0.26655301 1823:0.024779473 1824:-0.011439543 1825:-0.11615536 1826:0.082276277 1827:0.17823589 1828:-0.34523883 1829:-0.028384371 1830:0.083522961 1831:0.21975866 1832:-0.15153192 1833:0.26578888 1834:-0.068436988 1835:0.30678359 1836:-0.0002201919 1837:0.10843445 1838:0.12082031 1839:-0.0073106037 1840:0.23838994 1841:0.072152995 1842:0.63836241 1843:-0.46657035 1844:0.25173113 1845:-0.21499601 1846:-0.25559106 1847:-0.088097841 1848:-0.10480092 1849:0.55621368 1850:1.3428948 1851:-0.18605085 1852:-0.025704969 1853:0.15864164 1854:-0.0058669425 1855:0.12472575 1856:0.035162602 1857:-0.025640335 1858:0.33489841 1859:-0.1860932 1860:-0.14581829 1861:-0.051941603 1862:0.0037313814 1863:0.011098099 1864:0.11882109 1865:-0.27934518 1866:0.036141098 1867:0.47592482 1868:0.023108725 1869:-0.045984186 1870:0.074356258 1871:-0.16540925 1872:0.024041053 1873:-0.15706226 1874:-0.40970111 1875:-0.1447973 1876:0.011620542 1877:0.00053699274 1878:0.0025978994 1879:-0.095649108 1880:9.2620512e-006 1881:0.10725548 1882:1.9833164e-005 1883:0.04133331 1884:-0.081399709 1885:0.0057248049 1886:0.098963886 1887:0.051200286 1888:-0.58017254 1889:0.05044068 1890:0.12739378 1891:0.00016911491 1892:0.29752305 1893:-0.15445925 1894:0.12472575 1895:-0.2722373 1896:0.20290709 1897:0.28768846 1898:0.060824275 1899:0.029128416 1900:-0.0025364505 1901:-0.0003134397 1902:-0.26019165 1903:-0.0049987594 1904:-0.07247781 1905:-0.15144476 1906:0.073144503 1907:0.099007465 1908:0.033878226 1909:1.0227537 1910:-0.10178878 1911:0.017938919 1912:-1.2174246e-012 1913:-0.029742513 1914:-0.063294463 1915:-0.0026670725 1916:-0.030100141 1917:0.17028581 1918:-1.2136926e-008 1919:-0.005505227 1920:-0.014721058 1923:0.011990323 1924:0.15282845 1925:0.20163083 1926:0.15901667 1927:-0.16725694 1928:0.008960763 1929:0.10323104 1930:-0.18812822 1931:0.061531704 1932:-0.048611019 1933:0.012823326 1934:0.12697467 1935:-0.3509036 1936:-0.089768656 1937:-0.2040216 1938:0.00046220055 1939:-0.20942868 1940:-0.20103577 1941:0.11680928 1942:-0.066016756 1943:-0.018117249 1944:0.0033979055 1945:-0.032275453 1946:0.1280093 1947:-0.084970042 1948:-0.22973716 1949:-0.031904861 1950:0.44282657 1951:0.26258349 1952:-5.7909416e-005 1953:0.066001125 1954:0.019929517 1955:-0.15036839 1956:0.029794177 1957:-0.0036624121 1958:0.13449068 1959:0.43687382 1960:-0.11108939 1961:0.038723081 1962:0.3321192 1963:0.34190589 1964:0.49076083 1965:-0.13417175 1966:0.60959691 1967:-0.089024216 1968:-0.033868179 1969:-0.065136157 1970:0.15811551 1971:0.15162195 1972:-0.16693026 1973:-0.28632125 1974:-0.017800895 1975:-0.073187694 1977:0.10290158 1978:0.43012723 1980:0.11615884 1981:0.020959169 1982:-0.19011819 1983:-0.2494515 1984:1.9304841e-007 1985:-0.016414557 1986:0.70025587 1987:0.61282825 1988:-0.1525196 1989:-0.15767637 1990:0.25245067 1991:0.0053506074 1992:-0.39742258 1993:-0.19446117 1995:-1.0784474e-005 1996:0.15864162 1997:-0.0018170171 1998:-0.37632695 1999:-0.020972548 2000:0.26044214 2001:0.21432006 2002:-0.0063243033 2003:-0.075996883 2004:5.3999058e-005 2005:-1.7132926e-006 2006:0.24786977 2007:4.3160369e-005 2008:-0.22961184 2009:-2.3689925e-010 2010:-0.032634486 2011:0.11967705 2012:0.10917859 2013:0.035892904 2014:0.058255065 2015:0.0014724394 2016:0.21945101 2017:0.23302381 2018:0.090379 2019:-0.42567465 2020:-1.7845695e-009 2021:0.10143559 2022:0.11197673 2023:-0.04100943 2024:-0.021818085 2025:0.038241819 2026:0.16269654 2027:0.008887562 2028:-0.00072051119 2029:-0.00033747562 2030:6.5755717e-006 2031:-0.14151658 2032:-0.05101632 2033:0.51104665 2034:-0.13616133 2035:-0.012120277 2036:-0.14142595 2037:0.010699451 2038:0.071310624 2039:0.00022345087 2040:0.42395025 2041:-0.016351748 2042:-0.62992436 2043:-0.01537946 2044:-0.43485233 2045:-0.018562872 2047:0.23542131 2048:0.67429608 2049:0.023689354 2050:0.22861695 2051:-0.16329214 2052:-0.3915233 2053:0.00032935047 2054:-0.075795524 2055:-0.20758744 2056:-0.14203018 2057:-0.097923666 2058:-0.075178981 2059:-0.18385136 2060:-7.2444801e-013 2061:-0.2430113 2062:0.079869591 2063:-0.17702457 2064:0.0058368025 2065:0.31394926 2066:0.029378675 2067:-0.042470112 2068:-0.51373178 2069:0.046516147 2070:-0.11365966 2071:-0.55689257 2072:-0.0071127629 2073:-0.057519253 2074:0.12525585 2075:-0.30884534 2076:-0.018973013 2077:-0.036349185 2078:0.059593081 2079:0.089887418 2080:-0.0091269305 2081:0.042253818 2082:0.012220392 2083:0.19464149 2084:1.5687408e-005 2085:0.36862957 2086:0.080068566 2087:0.75727636 2088:0.65067613 2089:0.14072706 2090:-0.013320833 2091:0.68434858 2092:0.18593517 2093:-0.51515847 2094:-0.018804088 2095:0.27105829 2096:-0.21398287 2097:0.25438604 2099:0.0025193451 2100:-0.084807806 2101:-0.23253837 2102:0.0011861892 2103:-0.019466553 2104:0.68325526 2105:-0.13891107 2106:-0.11643474 2107:-0.45592982 2108:1.6785121e-005 2109:0.022249606 2110:0.0096620386 2111:-0.16912843 2112:-0.029018806 2113:-0.033921018 2114:0.3436864 2115:0.056407198 2116:-0.0050423336 2117:-0.00021214173 2118:0.2286493 2119:0.090465054 2120:-0.041222315 2121:0.23696314 2122:-0.04243122 2123:-0.024042381 2124:0.027014164 2125:-0.045404103 2126:0.079492062 2127:4.6176269e-006 2128:0.033825465 2129:-0.07227651 2130:0.011421272 2131:0.12278233 2132:1.2130935 2133:0.0091423523 2134:-0.16117957 2135:0.092468008 2136:-0.51321959 2137:0.016746128 2138:0.22768135 2139:0.24982698 2140:-0.10316162 2141:-0.00020260894 2142:-0.18276523 2143:-0.042050038 2144:-0.21224193 2145:0.16347635 2146:0.090518408 2147:0.04342249 2148:-0.018679727 2149:-0.15806599 2150:0.20430367 2151:-0.066144302 2152:0.17839924 2153:-0.26668975 2154:0.025087262 2155:-0.19723359 2156:0.044217549 2157:-0.19543321 2158:0.07774733 2159:-0.0012336605 2160:-9.3736424e-005 2161:0.0058488916 2162:-0.037396215 2163:-8.4978958e-005 2164:0.062832043 2165:-0.13890663 2166:-0.00021153844 2167:-0.15442507 2168:-0.30776295 2169:-0.0046519069 2170:-0.19310494 2171:0.002544916 2172:0.00022206352 2173:-0.13102113 2174:0.12748834 2175:-0.055401776 2176:-0.0072687888 2177:-0.11791412 2178:0.40254384 2179:-0.031628404 2180:-0.0056835185 2181:-0.24811116 2182:0.16074005 2184:-0.13072239 2185:0.010447109 2186:1.3784064e-006 2187:-0.099458963 2188:0.11704808 2189:0.20639659 2190:-0.10970824 2191:0.19142082 2192:-0.25321579 2193:0.088542834 2194:0.63424045 2195:0.53337735 2196:-0.1056106 2197:0.13692757 2198:-0.20425372 2199:-0.0003521707 2200:0.020765705 2201:0.34675163 2202:0.18497258 2203:0.13534932 2204:0.0014512818 2205:0.01843968 2206:-1.5726388e-005 2207:-0.001570866 2208:-0.015537745 2209:0.061953247 2210:0.51785779 2211:0.0019141008 2212:-0.14515762 2213:-0.0039232415 2214:0.044012811 2215:0.0046732719 2216:-0.067003354 2217:0.07461565 2218:0.49606717 2219:-0.38232818 2220:-0.021666655 2221:-0.17568786 2222:-5.7376205e-008 2223:0.0020858101 2224:-0.028199924 2225:0.12357939 2226:0.56338573 2227:0.061337132 2228:0.25281838 2229:-0.0029543124 2230:6.7163899e-005 2231:0.26763552 2232:0.88018757 2233:0.36519423 2234:0.063135095 2235:1.1221502 2236:-0.009350203 2237:0.0085529964 2238:-0.083564654 2239:0.020905798 2240:-0.00019611094 2241:-0.018280042 2242:0.10780686 2243:-0.67448789 2244:0.9825713 2245:-0.15523234 2246:-0.36839095 2247:-0.07265155 2248:0.59026992 2249:-0.14581831 2250:0.013157613 2251:-0.044144221 2252:0.19921876 2253:0.098802619 2254:-0.24691677 2255:-0.22257353 2256:-0.11565667 2257:-0.07937476 2258:-0.11366501 2259:-0.25637415 2260:0.16323026 2261:-0.085882723 2262:0.008286288 2263:-0.67395079 2264:-0.064335197 2265:1.3222125 2266:0.054032758 2267:0.46842903 2268:-0.015462398 2269:-0.00070475735 2270:0.65035939 2271:-0.17406319 2272:-0.18430379 2273:0.10916019 2274:-0.019366208 2275:-0.044339396 2276:0.00060334272 2277:0.11589184 2278:0.14884825 2279:-0.11226057 2280:0.17456758 2281:-0.20218936 2282:0.0039939461 2283:-0.1530614 2284:0.25111717 2285:-0.38521737 2286:-0.022674216 2287:-0.27266523 2288:1.0529909 2289:-0.096450374 2290:-0.047681157 2291:-0.28101763 2292:-0.038169805 2293:-0.25265393 2294:-3.0230836e-013 2295:0.27524054 2296:-0.0069199908 2297:-0.018165631 2298:-0.11783668 2299:0.83936316 2300:0.075657405 2301:-0.094886042 2302:-0.079671994 2303:0.075573467 2304:0.18831046 2305:0.082358889 2306:0.00079799473 2307:0.17293325 2308:-0.15112695 2309:-0.18579152 2310:0.048045631 2311:-0.10716003 2312:0.033811603 2313:-0.14548796 2314:-0.52980965 2315:-0.16400152 2316:-0.059742346 2317:0.27522039 2318:0.093222097 2319:-0.45719033 2320:0.12865502 2321:-0.41852754 2322:-0.48913476 2323:0.91577977 2324:-0.13048367 2325:0.013828613 2326:0.43245071 2327:-0.15694611 2328:-0.090497285 2329:-0.13855615 2330:0.098963879 2331:0.055910517 2332:-0.32426676 2333:-0.04861949 2334:0.27736679 2335:-0.085570671 2336:-0.0035332225 2337:-0.12536602 2338:-0.060748842 2339:-0.61708546 2340:0.29103279 2341:0.16790766 2342:0.017459948 2343:0.5045175 2344:0.0052208207 2345:-0.014012558 2346:0.0056355242 2347:-0.11781687 2348:-0.12517023 2349:0.068532646 2351:-0.0076540904 2352:-0.010457132 2353:0.023917632 2354:-0.00085028925 2355:0.060600627 2356:-0.093704611 2357:-0.059953284 2358:-0.38301936 2359:-0.28295022 2360:0.096119948 2361:-0.10311786 2362:-0.092165567 2363:-0.26702356 2364:0.0490859 2365:-0.077283137 2366:-0.22722101 2367:0.021811604 2368:0.47142482 2369:-0.023697717 2370:0.16218966 2371:0.35445434 2372:0.33961487 2373:-0.0011106641 2374:-0.10937978 2375:-0.036887784 2376:0.16772594 2377:0.060672786 2378:0.0076129278 2379:-0.36174527 2380:0.28219035 2381:-9.3797744e-006 2382:-0.00035849345 2383:-0.0080048135 2384:0.00041564374 2385:-0.080084458 2386:-0.0031180657 2388:-0.00034067963 2389:0.44750139 2390:0.20125902 2391:-0.051248714 2392:-0.061364397 2393:0.003235518 2395:-0.044990353 2396:-0.22761531 2397:0.079011738 2398:-0.47622037 2399:-0.50521863 2401:0.088651232 2402:-0.057339888 2403:0.084564909 2404:-0.14298409 2405:0.048462518 2406:0.16270326 2408:0.062036894 2409:0.10558076 2410:0.12416946 2411:-0.086917318 2412:-0.046649154 2413:0.077432647 2414:-0.21833178 2415:-0.041909419 2416:-0.17618309 2417:-0.1006026 2418:-0.048880111 2419:0.0082153371 2420:0.0070593669 2421:-0.018576447 2422:0.41822389 2423:0.037823435 2424:0.011267974 2425:-0.26637694 2426:0.2432676 2427:0.27030909 2428:0.026726548 2429:0.33029729 2430:0.13924161 2431:-0.3230463 2432:-0.39517179 2433:0.85137039 2434:0.076519027 2435:0.16478047 2436:0.031852063 2437:0.1889517 2438:1.0431538 2439:-0.01091638 2440:-0.10059599 2441:-0.02221055 2442:0.022948675 2443:-0.11152801 2444:0.22046706 2445:0.023029087 2446:0.13045456 2447:0.0021063504 2448:-0.085313298 2449:0.069792427 2450:-0.022426326 2451:0.00031770364 2452:-0.2443812 2453:-0.48442364 2454:0.043881942 2455:-0.030962819 2456:0.1082368 2457:0.00045273438 2458:0.014774736 2459:-0.11608422 2460:-0.25530863 2461:0.10430287 2462:0.020134365 2463:-0.00024601817 2464:0.14336599 2465:-0.20876615 2466:0.11297176 2467:0.1136676 2469:-0.15023321 2470:-0.014681559 2471:0.63766944 2472:-0.039269209 2473:-0.010726654 2474:-0.31156519 2475:-0.11478592 2476:-0.050029833 2477:0.055213694 2478:-0.21041562 2479:0.27464134 2480:-0.11472458 2481:0.00026020117 2482:-0.022415401 2483:-2.1711716e-005 2484:-0.067955673 2485:-0.054385453 2486:-0.10629228 2487:0.072055466 2488:-0.07870248 2489:-0.28756216 2490:-0.010668729 2491:0.0065671825 2494:0.16877995 2495:-0.027883772 2496:-0.0086797914 2497:0.16998123 2498:-0.10058253 2499:0.90347278 2500:-4.8180833e-013 2501:0.20046425 2502:0.015427635 2503:0.032113668 2504:0.090416595 2505:-0.024061738 2506:0.10804718 2507:0.058861826 2508:-0.062980257 2509:0.029285992 2510:-0.14349712 2511:-0.044667959 2512:0.0087818569 2513:-0.0011856409 2514:-0.34831908 2515:1.4639721 2516:-0.016347378 2517:-0.043244433 2518:0.042022042 2519:-0.40739611 2520:0.040838711 2521:0.20248616 2522:0.16851282 2523:0.063215286 2524:-0.0047188299 2525:-0.28781596 2526:0.29883742 2527:0.25450528 2528:0.13762261 2529:-0.24737073 2530:0.510625 2531:-1.9494371e-012 2532:0.30750072 2533:-0.0064865965 2534:-0.0099976389 2535:-0.15864162 2536:0.26934803 2537:-0.79162401 2538:-0.21626748 2539:0.86176527 2540:-0.026265429 2541:0.049366169 2542:-0.24992573 2543:-0.24653107 2544:0.23709689 2545:-0.050685115 2546:-0.40572938 2547:-0.14734934 2548:0.055819813 2549:0.28778672 2550:-0.18170933 2551:0.082407154 2552:0.0025234288 2553:0.22942843 2554:-0.33900946 2555:0.13579307 2556:0.26088142 2557:0.10782208 2558:-0.071014203 2559:-0.21372356 2560:-0.082245663 2561:0.4447985 2562:-0.43434799 2563:-0.1269774 2564:-0.3861011 2565:0.023372199 2566:0.24711576 2567:-0.14124332 2568:-0.038452595 2569:0.085425094 2570:-0.020799242 2571:-0.097050443 2572:-0.26317739 2573:-0.0056592305 2574:0.31728324 2575:-0.040069122 2576:-0.046669602 2577:-0.3035143 2578:-0.031581093 2579:0.41631544 2580:-0.085728906 2581:0.094355971 2582:0.012790591 2583:-0.0011278416 2584:0.00023643266 2585:0.025172293 2586:0.098963872 2587:6.4005166e-005 2588:-0.063891582 2589:0.14817229 2590:0.54286492 2591:-0.084026217 2592:0.00029657362 2593:0.15146056 2594:-0.068061367 2595:-0.035329252 2596:0.018044144 2597:-0.021192584 2598:0.50375944 2599:0.084535904 2600:-0.066583268 2601:0.35042784 2602:-0.25056353 2603:0.10994768 2604:-0.067371011 2605:0.042499959 2606:0.26159841 2607:-0.21353284 2608:0.21666288 2609:-0.057306115 2610:-0.11915099 2611:0.23085804 2612:-0.011725431 2613:-0.070298977 2614:0.10605368 2615:-0.2775481 2616:-0.0004639262 2617:0.063353561 2618:0.30632365 2619:-0.087350525 2620:0.026928987 2621:0.53898263 2622:0.046358224 2623:0.11903027 2624:0.1196053 2625:-0.027930431 2626:-4.8735928e-013 2627:-0.256217 2628:-0.094702348 2629:-0.24848278 2630:0.033352703 2631:-0.35425135 2633:0.00056315644 2634:-0.020675819 2635:-0.013426555 2636:-0.030036457 2637:0.022260631 2638:0.0052208207 2639:-0.17023005 2640:0.49399543 2641:0.52592778 2642:-0.22541584 2643:-0.051790494 2644:0.048237465 2645:-0.15657814 2646:0.04050668 2647:-0.19776857 2648:-0.21163966 2649:-0.1699708 2650:0.24065036 2651:0.15864162 2652:-1.0773117e-005 2653:-0.33827254 2654:-0.10720585 2655:-0.25728494 2656:-0.1591652 2658:-0.068428494 2659:-0.037932124 2660:-0.22979602 2661:0.42484322 2662:-0.58408159 2663:0.036094666 2664:0.042609233 2665:0.054113105 2666:-0.041597374 2667:-0.20292778 2668:-0.25528446 2669:0.50112647 2670:0.69863713 2671:-0.00042928124 2672:-0.030610209 2673:0.14746846 2674:0.10655224 2675:0.087175854 2676:0.00090057391 2677:-0.096794382 2678:-0.038641535 2679:-0.13031845 2680:0.017157907 2681:0.49547815 2682:-0.24984568 2683:0.18966323 2684:0.11122376 2685:-0.061477311 2686:-0.034473587 2687:0.050537799 2688:0.34998822 2689:0.3577753 2690:0.020629322 2691:-0.2521157 2692:-0.11369923 2694:0.15864162 2695:-0.046781264 2696:0.48837155 2697:-0.11224776 2698:-0.10804244 2699:-0.1940998 2700:0.34803662 2701:-0.083449982 2702:0.10240056 2704:2.1056662 2705:-0.21465258 2706:-0.34714249 2707:-0.091052644 2708:-0.015750114 2709:0.18875569 2710:0.054231014 2711:-0.093768917 2712:0.044179145 2713:0.008385797 2714:0.0017819476 2715:-0.03051913 2716:-0.20457001 2717:-0.23683971 2718:-0.021918856 2719:0.023686301 2720:-0.40963063 2721:0.0025510734 2722:0.21860196 2723:0.0079763783 2724:0.022038713 2725:-0.20982884 2726:-0.16828081 2727:-0.0046739089 2728:-0.030750863 2729:0.0034611179 2730:-0.007411404 2731:0.052591361 2732:-0.39826423 2733:0.026383998 2734:0.015807891 2736:0.20615822 2737:-0.021636248 2738:-0.26663515 2741:0.0017285609 2742:0.0043832413 2743:0.011125606 2744:-0.069001563 2745:-0.036190603 2746:-0.27517942 2747:-0.071988091 2748:-0.081004597 2749:0.44748208 2750:0.12521698 2751:-0.36572245 2752:-0.2659204 2753:-0.06814573 2754:0.12503698 2755:-0.000135136 2756:0.00095947407 2757:-0.047868919 2758:-0.27171481 2759:0.048150275 2760:-0.17423968 2761:0.36017683 2762:0.64638823 2763:0.0018690039 2764:-0.2034886 2765:0.21584384 2766:-0.31131324 2767:-0.0076021883 2768:0.016099568 2769:0.11988327 2770:0.10694864 2771:0.8111465 2772:0.11827037 2773:-0.15475972 2774:0.10240367 2775:-0.69015265 2776:0.0027299949 2777:-0.28463849 2778:0.17681967 2779:0.047034707 2780:-0.36083394 2781:0.0022060685 2782:-0.018788328 2783:-0.044899762 2784:0.088276826 2785:-0.45241439 2786:0.0071729608 2787:0.079265758 2788:0.24170472 2789:-0.30285892 2790:0.00019756677 2792:-0.24420916 2793:-0.10363229 2794:0.23664981 2795:0.20759256 2796:-0.032692432 2797:-0.1291094 2798:-0.32929239 2799:-0.34541446 2800:0.014179759 2801:-0.058982037 2802:0.16562495 2803:-4.0441435e-005 2804:-0.20096238 2805:0.8452903 2806:-0.11190043 2807:0.094871536 2808:-0.53158808 2809:-0.072314642 2810:0.00043787094 2811:0.18504483 2812:-0.16480474 2813:0.020856965 2814:-0.00042296521 2815:0.0058643436 2816:-0.00073351403 2817:-0.36004904 2818:0.14338689 2819:-0.053539645 2820:0.21265638 2821:1.2927765 2822:0.043780159 2823:-0.021300504 2825:0.0260823 2826:-0.010801297 2827:-0.13387379 2828:-7.9723701e-005 2829:0.17670985 2830:0.024328724 2831:1.1306023e-005 2832:0.096393198 2833:-0.046968956 2834:-0.0048057809 2835:-9.2755305e-005 2836:0.031537507 2837:-0.19641733 2838:1.0489305 2839:0.45144311 2840:0.19712797 2841:0.510625 2842:0.086030759 2843:2.0226216e-005 2844:0.0078181466 2845:0.34637526 2846:-0.051200282 2847:-8.6977934e-007 2848:-0.22460629 2849:-0.18373773 2850:-0.091455095 2851:-0.031775374 2852:-0.070722312 2853:-0.11321956 2854:-0.015024108 2855:0.020454846 2856:-0.0082740271 2857:0.048748415 2858:-0.11321948 2859:0.021326577 2860:-0.01519082 2861:0.11369489 2862:-0.16063964 2863:0.64175493 2864:-0.012802549 2865:0.1982391 2866:0.57686484 2867:0.14438102 2868:0.00025509749 2869:-0.062551431 2870:-0.34485316 2871:-0.19599894 2872:-0.017013824 2873:0.20745032 2874:-0.10528683 2875:0.14127132 2876:1.021596 2877:0.00093747635 2878:7.5921399e-014 2879:-0.04269293 2880:-0.019734791 2881:-0.48541433 2882:0.8091923 2883:-0.033032317 2884:-0.065656088 2885:0.17042348 2886:0.073458463 2887:0.040641293 2888:-0.10731459 2889:0.06208862 2890:-0.056620825 2891:-0.1893817 2892:-0.22633372 2893:-0.1091139 2894:0.19259413 2895:0.16341166 2896:0.0086468561 2897:7.157644e-005 2898:0.00018246107 2899:9.9411889e-005 2900:-0.30008057 2901:0.02185856 2902:0.10561138 2903:0.0013833895 2904:-0.03837138 2905:0.26120871 2906:0.20292662 2907:0.19750342 2908:-0.088087112 2909:-0.17194624 2911:-0.023639427 2912:0.030385893 2913:0.19683352 2914:-0.041675862 2915:-0.077323735 2916:-0.7088204 2917:-0.30676666 2918:0.48772904 2919:0.14862101 2920:-0.021367716 2922:-0.45685339 2923:0.0044006002 2924:0.52382106 2925:0.14049955 2926:-0.010536525 2927:-0.00017996038 2928:0.025940547 2929:-0.01662741 2930:-0.0036757181 2931:-0.067350939 2932:0.21400242 2933:0.011900191 2934:-0.31879365 2935:-0.0085461028 2936:-0.085549213 2937:-0.28311387 2938:0.15142554 2939:-0.16805151 2940:0.055137392 2941:-0.035932355 2942:0.14573234 2943:0.072243504 2944:0.31220275 2945:-0.52194583 2946:-0.35105431 2947:-0.32771868 2948:-0.022524213 2949:-0.072372064 2950:0.12079732 2951:-0.00042296521 2952:-0.0087686563 2953:0.093503356 2954:-0.11847733 2955:-0.059822761 2956:1.4330951 2957:0.34707856 2958:-0.070980646 2959:-0.0096138781 2960:0.50199157 2961:-0.05496157 2962:-0.33167577 2963:0.37019557 2964:0.032634486 2965:0.020553147 2966:0.054015078 2967:-0.072463453 2968:-0.2525633 2969:-0.10332739 2970:0.085207768 2971:0.0053504352 2972:-0.0068253851 2973:-0.59104896 2974:-0.41722447 2975:0.22133321 2976:0.0001813311 2977:0.17883292 2978:0.10778871 2979:-0.24802803 2980:-0.099301748 2981:-0.08456897 2982:-0.33668479 2983:-0.01987705 2984:-0.03198377 2985:0.095487662 2986:-0.46435046 2987:-0.23472948 2988:0.18621683 2989:-0.053911448 2990:-0.17736597 2991:-0.55338931 2992:-0.003793722 2993:-0.080997415 2994:-0.12212325 2995:-0.077708453 2996:0.064842567 2997:0.00082029047 2998:0.012648737 2999:0.00037442206 3000:0.0097074118 3001:-0.064748563 3002:0.014373975 3003:-0.023805078 3004:-0.067771994 3005:-0.092733875 3006:0.011570912 3007:1.0397803 3008:0.02876061 3009:-0.060926583 3010:0.015397959 3011:-0.20883304 3012:0.47592482 3013:-0.0087473877 3014:0.16138159 3015:-0.051752638 3016:0.071305871 3017:0.24137008 3018:0.061261036 3019:-0.046019293 3020:0.11465717 3021:0.14983833 3022:-0.36943659 3023:-0.21962276 3024:-0.019711198 3025:-0.16144431 3026:-0.050969817 3027:0.031683587 3028:1.1507506 3029:0.10859587 3030:-0.056402046 3031:-0.19792777 3032:-0.0042851339 3033:0.0064897705 3034:0.38279018 3035:-0.012994451 3036:0.053740684 3037:-0.27056032 3038:-0.033870898 3039:-0.12693195 3040:-0.2542235 3041:0.029951684 3042:-0.0298933 3043:0.02284565 3044:0.063352346 3045:-0.22598161 3046:-0.00026043176 3047:0.23021206 3048:-0.17527451 3049:-0.031435862 3050:-0.016096624 3051:-0.13261387 3052:-0.16874905 3053:-0.29394019 3054:-0.070671543 3055:-0.029478366 3056:0.38098115 3057:-0.72230482 3058:-0.029672656 3059:-0.27919492 3060:0.0018543717 3061:-0.022207405 3062:-0.17236219 3063:-0.46712449 3064:-0.33228219 3065:0.0063973316 3066:0.4768326 3067:-0.0016404319 3068:-0.041331358 3069:-0.20391515 3070:-0.24411668 3071:-0.115504 3072:-0.049100704 3073:0.20911916 3074:-0.13899273 3075:-0.043062698 3076:0.91335338 3077:0.091468781 3078:0.10726357 3079:-0.12051699 3080:0.037534013 3081:-0.0026545394 3082:-0.019046286 3083:-0.053828504 3084:-0.076557755 3085:0.050010819 3086:-0.063599855 3087:-0.22870672 3088:0.23400933 3089:1.0974636 3090:-0.13587883 3091:-0.067880169 3092:0.00064602913 3093:-0.027834442 3094:0.10582861 3096:-0.064470276 3097:0.10470754 3098:0.2385938 3099:-0.16685192 3100:-0.025633944 3101:-0.016314248 3102:0.21538304 3103:0.0003759698 3104:0.015844289 3105:0.38542524 3106:-8.6944696e-005 3107:0.10356588 3108:0.094400883 3109:0.047752455 3110:-0.17791575 3112:0.062404122 3113:-0.0049516764 3114:3.5964207e-005 3115:-0.19496943 3116:0.033826675 3117:-0.31405348 3118:0.021315398 3119:0.37462327 3120:-0.0094983103 3121:-0.16890311 3122:0.020442955 3123:-0.26645002 3124:-0.0032018994 3125:-0.089001462 3126:-1.0774022 3127:0.62547886 3128:-0.032641239 3129:0.14098047 3130:0.025351213 3131:-0.17780158 3132:0.17898317 3134:-0.25572023 3135:-0.075539723 3136:-0.097656786 3137:5.7290297e-005 3138:-0.043927994 3139:0.1483739 3140:-0.068580069 3141:-0.59809357 3142:0.23302731 3143:-0.12500601 3144:-0.064701386 3145:0.0020805572 3146:0.16573326 3147:-0.20084387 3148:0.073513344 3149:-0.1279837 3150:-0.23070966 3151:0.015945718 3152:-0.25401804 3153:0.028843651 3154:-0.2209468 3155:-0.10406911 3156:0.097959816 3157:1.0383675e-008 3158:0.46844298 3159:-0.043730769 3160:0.022528462 3161:-0.0032156468 3162:-0.067429863 3163:-0.20893778 3164:-0.025708189 3165:0.029221281 3166:-0.52841592 3167:0.66180223 3168:0.0011890403 3169:-0.028505122 3170:-0.010566597 3171:0.24666546 3172:-0.027053049 3173:-0.01515491 3174:0.21515331 3175:-0.033528145 3176:-0.082746536 3177:-0.038008723 3178:0.22140104 3179:-0.0040734019 3180:0.025522081 3181:0.47478414 3182:0.12626456 3183:0.12348319 3184:0.061856031 3185:-0.043358136 3186:0.0050269882 3187:1.1945014e-007 3188:0.23435777 3189:-1.7869455e-006 3190:-0.0011688261 3191:7.7751305e-005 3192:0.10212086 3193:0.098963872 3194:-0.28996617 3195:-0.42387822 3196:0.34379107 3197:0.57938361 3198:-0.15319563 3199:-0.17262886 3200:-0.12726161 3201:-0.0016339971 3202:-0.00029302191 3203:-0.069967441 3204:-3.678425e-013 3205:-0.103126 3206:0.64441508 3207:-0.017801682 3208:-0.17728607 3209:0.46143755 3210:-0.050992519 3211:-0.48937193 3212:-0.15462953 3213:0.15864162 3214:0.31728324 3215:0.2977519 3216:-0.0094008744 3217:-0.15893051 3218:0.11713245 3219:0.17883293 3220:-0.12273408 3221:0.047623735 3222:0.46077248 3223:-0.6137948 3224:-0.0017594579 3225:-0.089591652 3226:0.12472574 3227:0.76351243 3228:-0.01587807 3229:0.048367027 3230:-0.052941505 3231:-0.029444501 3232:-0.020172728 3233:0.029523227 3234:-4.1475745e-005 3235:-0.013083463 3236:0.31683335 3237:1.5473189e-010 3238:-0.051507842 3239:0.082633533 3240:-0.37329051 3241:-0.10408454 3242:-0.29092693 3243:-3.3555898e-009 3244:0.033447403 3245:-0.24341168 3246:0.029478366 3247:-0.42127559 3248:-0.0034053836 3249:-0.073520511 3250:0.011570912 3251:0.011353426 3252:0.063217588 3253:-0.060395077 3254:-0.17601977 3255:0.011127716 3256:-0.022513116 3257:0.068493284 3258:0.056743704 3259:-0.0015422822 3260:-0.011308167 3261:0.051841624 3262:0.038154069 3263:0.015527497 3264:0.019727606 3265:-0.0062000612 3266:0.15429914 3267:-0.18431272 3268:0.31728324 3269:0.12075511 3270:-0.21453153 3271:0.058577981 3272:0.14020064 3273:0.082763813 3274:-0.056527603 3275:1.6582749e-008 3276:0.02203902 3277:0.27236536 3278:-0.031657565 3279:-0.022768017 3280:-0.038607832 3281:0.018153168 3282:0.0057432745 3283:0.14905387 3284:0.11360812 3285:-0.12323459 3286:0.2494515 3287:-0.13906522 3288:-0.11856372 3289:-0.022339109 3290:-0.1150504 3291:-0.07141009 3292:0.029621141 3293:0.039020583 3294:0.94059056 3295:-0.62793881 3296:-0.12598681 3297:-0.42655995 3298:-0.043102771 3299:-0.51322633 3300:0.11449771 3301:0.059707705 3302:0.099887706 3303:0.18439235 3304:0.0071006403 3305:-0.01370495 3306:0.00021344404 3307:9.8139324e-005 3308:-0.00040521967 3309:0.031061582 3311:0.53328544 3312:-0.21462449 3313:0.12270927 3314:-4.9313426e-010 3315:0.085244216 3316:0.027665701 3317:0.87082392 3318:0.87898046 3319:-0.090964429 3320:-0.19047652 3321:-0.10035488 3322:-0.080450915 3323:0.42224598 3324:0.0017383831 3325:-0.18963321 3326:-0.10369669 3327:0.010286984 3328:0.42584348 3329:0.060428467 3330:-0.20989761 3331:0.13054396 3332:0.41642973 3333:0.098950393 3334:1.2000783e-014 3335:0.14117894 3336:0.1836057 3337:0.35044339 3338:-0.00039250057 3339:-0.10559943 3340:-0.21127525 3341:-0.047020104 3342:0.77288347 3343:0.32157126 3344:0.090725459 3345:0.48202556 3346:-0.58471453 3347:0.005110871 3348:-0.053934082 3349:0.15726735 3350:-0.053872515 3351:0.25835899 3352:-0.034468785 3353:0.45425132 3354:0.00062872726 3355:0.0034268878 3356:-0.077638656 3357:-0.087048739 3358:0.0061728591 3359:0.033115942 3360:7.1358181e-006 3362:-0.096411675 3363:0.075422861 3364:0.060664281 3365:-0.12040316 3366:0.061699349 3367:0.022966592 3368:-0.40525645 3369:-0.49927691 3370:-0.011873632 3371:0.025724364 3372:0.090907872 3373:-0.29057771 3374:-0.0327917 3375:-0.4259057 3376:0.12107925 3377:0.052277941 3378:0.13552487 3379:0.80651945 3380:-0.30698833 3381:1.2471093 3382:0.11045115 3383:-0.0055596572 3384:-0.13924739 3385:-0.12940094 3386:0.87825876 3387:0.010362248 3388:0.15530109 3389:0.02387902 3390:0.59640121 3391:0.050507873 3392:-0.0038270452 3393:0.018158145 3394:-0.082126178 3395:0.11931079 3396:-0.09659633 3397:0.26211315 3398:-0.05780071 3399:0.066397563 3400:0.32676795 3401:0.22953397 3402:-0.23213775 3403:0.074013315 3404:0.11275828 3405:0.052201919 3406:0.97478712 3407:0.15939227 3408:-0.016953064 3409:-0.33352986 3410:0.053108856 3411:0.052248873 3412:0.0025638898 3413:0.021899065 3414:0.31728324 3415:-0.0033443216 3416:-0.069356941 3417:1.9021028e-008 3418:-0.037502114 3419:0.27540436 3420:-2.7813174e-015 3421:1.7339189 3422:-0.019302281 3423:0.43391052 3424:0.35452461 3425:-0.25301021 3426:0.21958643 3427:-0.10567332 3428:-0.11513031 3429:-0.40525794 3430:0.51062506 3431:-0.24167214 3432:0.25381908 3433:0.25875908 3434:0.1401512 3435:-0.14262411 3436:-0.18771216 3438:-0.035111062 3439:0.066752277 3440:0.45393822 3441:0.014386168 3442:-0.64924598 3443:-0.24370399 3444:0.25488564 3445:-0.080901809 3446:0.00046220055 3447:-0.0059406785 3448:0.014003979 3449:0.73639858 3450:0.61614209 3451:-0.48201391 3452:0.94319892 3453:-0.13816437 3454:-0.099022873 3455:-0.003591449 3456:-0.12946916 3457:-1.0418117e-005 3458:0.020993615 3459:0.21936876 3460:-0.0005416224 3461:-0.12743177 3462:0.51948738 3463:0.15864162 3464:-0.10689356 3465:-0.21731256 3466:-1.6854035e-006 3467:-0.00097106502 3468:-0.038352363 3469:-0.0012189156 3470:-0.33720025 3471:-0.025899911 3472:0.16854438 3473:0.054663401 3474:6.198837e-013 3475:0.10742772 3476:0.352891 3477:0.46245429 3478:-0.033405181 3479:2.5361007e-005 3480:-0.04451979 3481:0.10959434 3482:-0.61110359 3483:-0.15124696 3484:-0.45741245 3485:-0.1892847 3486:0.031690966 3487:-0.03630437 3488:-0.063075289 3489:-0.069977053 3490:-0.23609491 3491:0.17778029 3492:0.24439758 3493:0.0016993944 3494:0.25438192 3495:0.0066875848 3496:0.042097583 3497:-0.0075099366 3498:-0.56261569 3499:0.011952907 3500:0.0081704715 3501:1.8060242e-015 3502:-5.3476397e-006 3503:0.3376599 3504:-0.21548322 3505:0.015435392 3506:0.16572127 3507:0.1155085 3508:-0.0030638771 3509:-5.566821e-005 3510:0.00033764713 3511:-0.13691556 3512:0.058207799 3513:0.083068751 3514:-0.0020972171 3515:-1.2842102e-012 3516:-0.027309675 3517:0.55589086 3518:0.29991987 3519:0.5078392 3520:0.00081737153 3521:-3.8355724e-005 3522:0.74266368 3523:0.10932825 3524:-4.3753185e-005 3525:-7.8888206e-008 3526:0.053742729 3527:0.34058976 3528:0.66107059 3529:0.066952035 3530:0.00029931738 3531:0.056161728 3532:-0.00090418744 3533:-0.21455573 3534:-0.0014110808 3535:-0.15544811 3536:-0.15591344 3537:0.14390047 3538:0.79355049 3539:0.090113968 3540:-0.2280912 3541:0.00057076308 3542:-0.11720904 3543:-0.17808893 3544:9.9241597e-006 3545:0.05314853 3546:-1.5923036e-006 3547:0.23001242 3548:-6.9670842e-013 3550:-0.58959734 3552:-0.061858039 3553:0.15864162 3554:0.13533829 3555:-0.0074816146 3556:-0.01447184 3557:-0.36878374 3558:0.20622484 3559:0.079376623 3560:-0.15286604 3561:-0.35766584 3562:-0.25927985 3563:0.036742862 3564:0.067610629 3565:-0.22335924 3566:1.7370645e-008 3567:-0.50908971 3568:0.37784395 3569:-0.060619038 3570:0.0044949586 3571:-0.12052445 3572:-0.30778059 3573:-8.7205837e-007 3574:0.27211228 3575:0.052921105 3576:-0.19324797 3577:-0.0076901317 3579:-0.043914206 3580:-0.25275713 3581:-0.018133748 3582:0.11930528 3583:0.16016631 3584:-0.12332197 3585:-1.7318855e-011 3586:-0.19160898 3587:0.011914744 3588:0.0074627628 3589:0.0012238113 3590:0.21736212 3592:-1.0986371e-014 3593:-0.22335923 3594:0.11789244 3595:0.10679368 3596:0.15676205 3597:-0.057064526 3598:-0.060984436 3599:0.47592488 3601:-0.12422358 3602:-0.28641576 3603:0.30886072 3604:-0.23590009 3605:0.0012182845 3606:0.11065347 3607:0.15864164 3608:-0.085485011 3609:0.004063501 3610:0.039789878 3611:-0.071828194 3612:-0.071829326 3613:0.049018536 3614:0.18578099 3615:-0.068078905 3616:0.32358998 3617:-0.54677969 3618:-4.8180833e-013 3619:-0.2523441 3620:0.42533475 3621:0.032463908 3622:-0.13494454 3623:0.35572094 3624:-0.0074246852 3625:-0.038939368 3626:0.43135977 3627:-0.13141172 3628:0.00031436363 3629:0.47592482 3630:0.69761693 3631:0.052248873 3632:0.0085940994 3633:-0.11852931 3634:-0.12062108 3636:-0.07250943 3637:-2.7334635e-009 3638:-0.13637029 3639:-0.066387646 3640:-0.081430845 3641:9.9411889e-005 3642:-0.082051612 3643:0.8992734 3644:-0.33293253 3645:-0.0019780435 3646:-9.9411904e-005 3647:-0.013860889 3648:0.00023779905 3649:-0.10676989 3650:0.098691583 3651:-0.31469387 3652:-0.0041922 3653:0.13334721 3654:0.048741627 3655:-0.31093782 3657:-0.11065702 3658:-0.093923703 3659:0.30114853 3660:-3.08914e-013 3661:-0.025028219 3662:-0.14904369 3663:-0.092857763 3664:-0.53363901 3665:0.15864162 3667:0.0047051832 3668:0.12675771 3669:-0.25135332 3670:-0.11119754 3671:0.07187441 3672:0.020907657 3673:0.19792774 3674:-0.24636191 3675:0.12472575 3676:0.24185008 3677:0.058322571 3678:-0.29501402 3679:0.0065270169 3680:0.00046220055 3681:-0.18443285 3682:-0.037977014 3683:-0.019930918 3684:0.71787649 3685:0.25654379 3686:-0.039417353 3687:-0.030697007 3688:-0.00071009854 3689:0.0074627628 3690:-0.07319843 3691:0.0053264298 3692:-0.072000898 3693:-0.10788909 3694:-0.0039064507 3695:-0.65296507 3696:0.044193991 3697:-0.11979968 3698:-0.13031845 3699:-0.00051114027 3700:0.00019882378 3701:-0.0013626181 3702:0.0011055251 3703:0.18471822 3704:0.42079324 3705:0.48624179 3706:-8.7660693e-015 3707:0.0038897833 3708:0.053580012 3709:0.090842463 3710:0.0038569705 3711:-0.44817123 3712:0.37572393 3713:-0.10638073 3714:-0.18090069 3715:-0.00046892659 3716:0.002306063 3717:-0.1876262 3718:0.14687791 3719:0.083769932 3720:-0.13047285 3721:-0.036344074 3722:0.0050327876 3723:0.22205351 3724:0.20737313 3725:-0.1061218 3726:0.016317243 3727:0.02520518 3728:-0.074155107 3729:-0.014795546 3730:0.11725995 3731:0.0027834307 3732:0.26161435 3733:0.15864164 3734:-0.011966018 3735:-0.19109507 3737:-1.3329945e-013 3738:0.16509111 3739:-0.0090296054 3740:-0.055888493 3741:1.0212501 3742:-1.5658026e-005 3743:0.020463256 3744:-1.8060242e-015 3745:-0.2606369 3746:2.3335533e-005 3747:0.14871593 3748:0.0014073864 3749:0.0009244011 3750:-0.28607643 3751:-0.35836658 3752:-0.40557325 3753:3.6745512e-010 3754:-0.197689 3755:0.34288624 3756:0.15864162 3757:-0.024008563 3758:0.048247796 3759:0.098963879 3760:0.10775814 3761:0.19874842 3762:-0.36325848 3763:0.039930459 3764:0.0024671606 3765:-0.00013602788 3766:-0.003132425 3767:-0.0019088864 3768:-0.25481603 3770:-0.44168854 3771:-0.11103228 3772:-0.039123602 3773:0.19848552 3774:0.47111005 3775:2.0936108e-013 3776:0.045493722 3777:-0.28857708 3778:0.050467663 3779:3.9589675e-005 3780:-0.0033377029 3781:-0.11315507 3782:0.40962493 3783:-9.6723779e-006 3784:-0.0050353399 3785:-0.026271582 3786:-7.3813286e-013 3787:-0.30830625 3788:0.40019539 3789:0.00043607067 3790:0.028407708 3791:-0.00020752523 3793:0.0021313906 3794:-0.41280466 3795:-0.10716003 3796:0.2230397 3797:0.048194151 3798:-0.010959506 3799:-0.096892923 3800:0.013181997 3801:0.42294303 3802:0.16900857 3803:0.22258766 3804:-0.061443362 3805:0.04561495 3806:-0.056417122 3807:-0.16540925 3808:-0.015272357 3809:-0.31146717 3810:0.14927068 3811:-0.019926896 3812:0.11697514 3813:0.073226459 3814:0.33852822 3815:-0.0062332577 3816:0.013869805 3817:0.045148004 3818:0.64638823 3819:0.40076569 3820:-0.0087842681 3821:0.0019221238 3822:-0.29163659 3823:-1.859375e-013 3824:-0.01416635 3825:0.35214949 3826:-0.40090257 3827:-0.034528993 3828:0.46489802 3830:-0.077342793 3831:-0.11868662 3832:0.23615669 3833:0.0024572839 3834:0.11152636 3835:0.19411142 3836:0.13817035 3837:-0.27352169 3838:0.24945152 3840:0.10093266 3841:0.12270927 3842:0.36225981 3843:0.16528651 3844:0.69765562 3845:0.16794844 3846:0.07271383 3847:-0.0030840696 3848:0.31156519 3849:0.082138181 3850:-0.027614158 3851:-0.1864038 3852:0.15864162 3853:-0.045880858 3854:3.9589675e-005 3855:-0.033851534 3856:0.00046220055 3857:-0.34283328 3858:-0.00017086696 3859:0.081598766 3860:0.38099137 3861:-0.37491953 3863:-0.08529032 3864:0.064236499 3865:-0.065906994 3866:0.098802052 3867:0.051764321 3869:0.03036092 3870:-0.090714894 3871:-0.33147749 3872:0.065528624 3873:0.17336851 3874:-6.198837e-013 3876:0.020008197 3877:-0.13964255 3878:-0.1064564 3879:0.098963879 3880:0.9376232 3881:0.14836267 3882:0.26138791 3883:0.099211194 3884:-0.0090296054 3885:-0.33913434 3887:0.040722571 3888:0.15864162 3889:-0.053379614 3890:0.012546731 3891:0.058177933 3892:-0.044248786 3893:-0.027439935 3894:-0.6825285 3895:0.15186279 3896:0.34170553 3897:0.015983481 3898:-0.075152323 3899:0.14347313 3900:-0.10440714 3901:0.070560917 3902:-0.12322808 3903:-0.14368354 3904:0.042984318 3905:0.47592482 3906:0.072263211 3907:0.018125445 3908:0.010668268 3909:0.013347223 3910:-0.12000995 3911:0.10966036 3912:0.4638817 3913:-0.13684921 3914:0.035924446 3915:-0.36588746 3916:0.0095525486 3917:0.24613723 3918:-0.11006317 3919:-0.019443078 3920:0.319998 3921:-7.0490882e-005 3922:0.0065270169 3923:-0.4513438 3924:-0.040838398 3925:0.17883292 3926:0.68754828 3927:-0.038267467 3928:-0.0072696656 3929:-0.095653489 3930:0.23361856 3931:0.25014934 3932:0.23340569 3933:-0.0098843714 3934:-0.097873583 3935:0.33228934 3936:-0.17000233 3937:-0.0050530857 3938:0.012297953 3939:-0.099953115 3940:0.17883292 3941:0.43667662 3942:0.034047782 3943:0.11744768 3944:-0.037712496 3945:0.042760033 3946:0.0024584264 3947:0.11680928 3948:0.0064767972 3949:-0.00011383286 3950:2.1666669e-006 3951:-0.00023313936 3952:0.15522812 3953:-0.00046220055 3954:-0.004930425 3955:-2.5257277e-012 3956:0.016949307 3957:0.068526059 3958:-0.76527137 3959:-0.17056069 3960:-0.067414835 3961:-0.042571515 3962:-0.0012670631 3963:0.1802507 3964:1.1306023e-005 3965:-0.19641733 3966:0.2629042 3967:-0.00017086689 3968:0.53499681 3970:-0.12230352 3971:-4.8180833e-013 3972:-0.06772165 3973:0.47592482 3974:-0.11888122 3975:-0.25187668 3976:-0.00017414465 3977:0.60578966 3978:-0.20211269 3979:-0.46293381 3980:0.14261086 3981:0.31340474 3982:-0.025431938 3983:-0.015750756 3984:0.077367797 3985:-0.076331563 3986:-0.0085873259 3987:0.027628243 3988:-0.19410032 3990:-0.36473203 3991:0.01192168 3992:-0.01097889 3993:0.22369966 3994:-0.046078362 3995:-0.05478527 3996:-0.10068054 3998:0.78224432 3999:-0.16169518 4000:0.21722378 4001:-0.059011545 4002:0.08985851 4003:9.2968744e-014 4004:0.058260307 4005:0.14870408 4006:-0.51864529 4007:0.039268658 4008:-0.077205919 4009:0.31528521 4010:0.3071886 4011:0.14079361 4012:0.46416 4013:0.89233303 4014:-0.07708858 4015:-0.1149943 4016:-0.010391544 4017:-0.070147187 4018:-0.15128955 4019:0.0008700933 4020:-0.046920273 4021:6.9878012e-013 4022:0.35766584 4023:0.058106877 4024:-0.27926183 4025:0.0074627628 4026:0.20699823 4027:-0.073205702 4028:-0.077106915 4029:0.15864164 4030:0.2212694 4031:-0.058824856 4032:0.027323473 4033:-0.13017243 4034:0.27260044 4035:0.2107287 4036:0.016317243 4037:-0.22272031 4038:9.7378463e-005 4039:0.30308992 4040:-0.00035284669 4041:-0.014859352 4042:0.12510906 4043:-0.50147009 4044:0.071126886 4045:7.1358181e-006 4046:-0.28543288 4047:-0.0046007624 4048:-0.0418818 4049:0.59640121 4050:-0.075328901 4051:0.066568159 4052:-0.0014746926 4053:0.3136729 4054:0.14340064 4055:0.070845693 4056:0.00046220055 4057:-0.0059406785 4058:-0.095432542 4059:-0.30022851 4060:0.7872594 4061:-0.2428239 4062:0.20697463 4063:-0.0001182683 4064:-0.014923294 4065:0.0081704715 4066:-0.068375334 4067:0.033056382 4068:-0.047706716 4069:-0.0020972171 4070:0.00081737153 4071:-4.3753185e-005 4072:-0.00012400886 4073:-0.0185926 4074:-0.00090418744 4075:0.11697514 4076:-0.29712912 4077:-0.033851534 4078:0.00046220055 4080:-0.00017086696 4081:0.081598766 4082:-0.0016476408 4083:-0.37266746 4084:-0.09102235 4085:0.31415015 4086:-0.20478445 4087:0.11970226 4088:0.0025920032 4089:9.7378463e-005 4090:0.0074627628 4091:-1.0986371e-014 4092:0.10679368 4093:-0.23590009 4094:0.18578099 4095:0.40962493 4097:0.58171499 4098:-0.011475936 4099:0.13959327 4101:-0.036331832 4102:0.32483867 4103:0.0065270169 4104:0.00046220055 4105:0.21112287 4106:0.42079324 4107:0.12029943 4108:0.014455427 4109:-0.14203843 4111:0.14322643 4112:0.082879901 4113:-0.12143715 4114:0.01192168 4115:0.000224501 4116:0.11680929 4117:-0.44434327 4118:0.23064995 4119:0.21999636 4120:0.045148004 4121:3.9589675e-005 4122:-0.0007471969 4123:-0.0090296054 4124:-0.044248786 4125:-0.30715552 4126:-0.033126954 #
