SVM-light Version V6.20
0 # kernel type
3 # kernel parameter -d 
1 # kernel parameter -g 
1 # kernel parameter -s 
1 # kernel parameter -r 
empty# kernel parameter -u 
4128 # highest feature index 
378 # number of training documents 
2 # number of support vectors plus 1 
1.0916277 # threshold b, each following line is a SV (starting with alpha*y)
1 1:-0.14072968 2:0.02395842 3:-6.3590626e-014 4:-1.1522641e-014 5:-2.3344814e-014 6:0.14369725 7:-0.0022719456 8:-2.4088997e-005 9:-0.11920644 10:-0.031237505 11:0.025402566 12:0.0080350265 13:0.23213844 15:0.36912256 16:-0.084096104 17:0.051222775 18:-0.065852731 19:-0.35557386 21:0.029977549 22:0.58777916 23:0.0482479 24:-0.19540761 25:-1.8411574e-011 26:-0.39219046 27:0.0054484429 28:-0.025770839 29:0.26667139 30:-0.10763344 31:-0.23207968 32:0.05244517 33:0.095331602 35:7.6340295e-011 36:0.17653579 37:0.20112297 38:-0.92989552 39:0.0010061223 40:0.2217197 41:-0.20098719 42:0.67502648 43:-0.006913404 44:-0.3597101 45:-1.644644e-006 46:0.19037317 47:0.39997825 48:0.12423808 49:-0.031784665 50:-0.066501498 52:-0.075230837 53:-0.12214981 54:-0.18677413 55:-0.05593032 56:4.0989826e-019 58:2.0494913e-019 59:-0.1596915 60:-3.2472851e-017 61:0.31417045 62:-0.013090034 63:-0.058035228 64:6.2498868e-005 65:0.19501477 66:2.0494913e-019 68:-0.04025393 69:0.021513421 70:-1.8023961e-011 71:0.2045816 72:0.38447735 74:-1.24305e-017 75:0.20649418 76:0.059347447 77:-0.0011518714 78:-0.0010203155 79:-0.15351924 82:-0.57128346 83:-0.05748887 84:0.43437067 85:0.066550158 86:-0.071486615 87:0.20258713 88:1.3058129e-018 89:-0.14683901 90:-0.12921022 91:-4.9550691e-020 92:0.39685103 93:-0.18905537 94:-0.084335871 95:0.28659481 96:-0.29480284 97:-0.6035974 98:-0.06983687 99:-0.00014360703 101:0.00088721176 102:-0.14511605 103:0.057829831 104:-0.52849042 105:-0.40439335 106:-4.8591453e-013 107:2.3206792e-016 108:-0.12128294 109:-0.062176958 110:-0.0020595521 111:-0.17090251 112:-0.024118025 113:-0.0011419097 114:-0.94413698 116:0.0095413616 117:0.15411142 118:-0.013782482 119:0.97899824 120:-0.010662735 121:0.0014289995 122:-0.14206947 123:-0.50420398 124:1.862151e-016 125:-0.66580737 126:-0.062865719 127:0.22511381 128:-0.066037744 129:-0.44631979 130:8.1842203e-017 131:-0.19786264 132:0.00033859973 133:-0.00076037471 134:0.025599517 135:-0.00037080972 136:-0.16445667 137:-2.8631829e-016 138:0.8589167 139:2.3172873e-017 140:-0.041084632 141:-2.565388e-013 142:0.10158391 143:0.12133945 144:-3.6126616e-012 145:-2.4575223e-013 146:0.00044937286 147:0.23742875 148:9.0247462e-012 149:0.25891638 150:-0.038446356 151:0.010256671 152:-0.16412146 153:0.099733621 154:-0.32135954 155:-0.1565859 156:-0.057375431 157:0.00016114055 158:0.16721845 159:0.080738544 160:2.5618639e-019 161:-2.3716906e-018 162:-3.084398e-013 163:0.14998941 164:-0.091506422 165:-0.25020093 166:0.15015694 167:0.15695623 168:0.093540221 169:-0.16138278 170:0.3519738 171:-7.9858088e-005 172:0.18771346 173:-4.9550691e-020 174:-0.057729986 175:0.81454021 177:3.0918784e-017 178:0.00017144076 179:-0.43507096 180:-0.43104917 181:-0.05035159 182:1.3323828e-017 183:-2.8990846e-005 184:0.20217256 185:-0.47144538 186:-0.10779606 187:-0.10331709 188:1.1025884 189:-0.05038283 190:-0.10035788 191:0.32529333 192:-0.18681838 193:-0.019566337 194:1.1515977 195:-0.22074892 196:0.22819428 197:2.3847537e-011 199:-0.021286603 200:-0.18941136 201:-0.12226298 202:0.34608656 203:5.883026e-016 204:-0.041252948 205:0.25712186 206:0.063676372 207:0.00018904118 208:-0.1597964 209:0.23609708 210:0.40292451 211:0.30329797 212:0.1456054 213:2.0945291e-013 214:-0.020866321 216:-0.00010711703 217:-0.00048861105 218:0.015850302 219:-0.17711322 220:0.10303686 221:0.058577396 222:-0.052848037 223:-0.079795986 224:-0.24296583 225:-0.0017700705 226:0.14920759 227:-0.21992011 228:0.42030823 229:0.19024585 232:-0.44477567 233:0.091264829 234:-0.00078810711 235:-1.7489822e-016 236:0.05016391 237:-0.13670924 238:0.14697808 239:-0.057805691 240:0.00015047827 241:8.0188547e-006 242:-0.068348505 243:0.04039957 244:-1.1132133e-013 245:-0.059792072 246:-0.20183483 247:-0.41140953 248:-0.85819453 249:0.185495 250:-0.08552172 251:0.70913672 252:-2.4775345e-020 253:0.064058378 254:-0.1961409 255:-0.34228832 256:-0.44923523 257:-0.15584305 258:-0.23790707 259:-0.15260217 260:0.18219684 261:0.0008872117 262:0.91869187 265:0.0047372854 266:-0.40429688 267:-0.52492231 268:-0.21866107 269:0.11889622 270:0.0078714257 271:-0.46616098 272:0.2738196 273:0.19122073 274:-0.0030096199 276:0.18793599 277:0.4778623 278:2.3385605e-017 279:0.18089774 280:0.27989888 281:-0.10266335 282:0.00038892505 283:0.026381368 284:0.014237238 285:0.43269831 286:-0.028025245 287:0.054906044 288:-0.013236775 289:0.76963586 290:-7.4326043e-020 291:-0.073351391 292:0.14938529 293:0.90167332 294:-0.12963337 295:-0.012949578 296:0.0062525542 297:0.0069442876 298:0.32026437 299:0.032416657 300:0.091626912 301:0.22708167 302:0.00016278305 303:0.16789857 304:-0.077412464 305:0.2498078 307:0.066718109 308:-0.1687912 309:9.4335752e-005 310:8.0106652e-017 311:0.0008872117 312:0.1184265 313:-0.56830049 314:-0.0012461226 315:-0.11404368 316:3.2303506e-005 317:-0.022554554 318:0.81415623 319:0.0038781872 320:-0.017852075 321:0.0016250345 322:0.01614845 323:0.09808965 324:-0.16112462 325:0.018301286 326:0.058630314 327:-0.31383917 328:-0.021258658 329:9.3056247e-018 330:-0.60051155 331:-0.27381998 332:0.29726398 334:-0.13203241 335:0.0026247499 336:-0.23188327 337:-0.00056238542 338:-0.078768268 339:-0.20276436 340:-0.14484411 341:-0.090825044 342:-1.1989863e-012 343:-0.32366043 344:0.082782708 345:-1.5275293e-013 346:-0.26891279 347:-0.25525224 349:0.33730799 350:-0.04201303 352:0.00085626857 353:-0.086063474 354:-6.4577987e-013 355:-0.0012584939 356:-0.01222257 357:-9.0716095e-018 358:0.38452044 360:1.237973 361:-0.51479304 362:0.035459455 363:0.025249554 364:-0.0013279972 365:-0.44309512 366:-2.1064286e-013 367:0.047879804 368:0.074841373 369:-0.9371177 370:-0.041401181 371:-1.8530941e-018 372:0.13996145 373:-0.67480028 374:-0.012063365 375:0.88028616 376:0.037533239 377:-0.345292 378:0.021411141 379:0.26581383 380:0.3104471 381:-0.29402116 382:-0.12984483 383:-0.04960119 384:-0.22861916 385:0.27761906 386:-0.43522415 387:0.00046770132 388:-0.033783585 389:0.31314966 390:0.080941685 391:-2.180218e-020 392:-0.37347695 393:0.047177602 394:0.082990415 395:-0.021156799 396:0.0062017175 397:-9.2936949e-021 398:0.062882319 399:0.14783682 400:-0.0011754425 401:0.21152481 402:-0.45531976 404:-1.4733194e-016 405:0.086042494 406:-0.018059427 407:-2.2329135e-012 408:-0.051143032 409:-2.4775345e-020 411:-3.2045579e-017 413:-3.2288999e-013 414:0.0097682551 415:0.31195128 416:-8.5349488e-018 417:-0.020190507 418:-3.0462334e-014 419:-0.011446782 420:-0.0016922377 421:-0.0836927 422:-1.5752141e-018 423:-8.480929e-018 424:-0.55661064 425:-0.041686758 426:1.0919871e-018 427:-0.083692692 428:-0.053238966 429:-1.1734979e-017 430:-4.9550691e-020 431:0.04338979 432:0.030092834 433:-5.5744529e-020 434:-0.17891829 435:0.86780041 436:-0.43074539 437:0.60665601 438:-0.02207572 439:0.004488918 440:0.042013548 441:-0.10776962 442:-0.1637252 443:-1.1957623e-005 445:-0.46595013 446:0.58602804 447:-0.032785963 449:0.00082216365 450:0.00019981041 451:-1.0035583e-017 454:-2.2572612e-017 455:0.0058627906 456:-0.0836927 457:-4.8525328e-013 459:0.52170885 460:-0.016740842 461:0.025211155 462:-1.5188384e-017 463:2.5486724e-012 464:0.12777457 465:-0.0265764 466:7.5130658e-005 467:0.65713865 468:-1.4151778e-005 469:0.14484002 470:-8.1808025e-021 471:-0.12037054 472:-8.0121681e-006 473:0.012221592 474:-0.00043279154 475:0.90626454 476:-0.20265423 478:-0.0023115403 480:-0.13921185 481:-0.1020871 482:-2.2466088e-019 483:0.078072369 484:-0.011446782 485:0.5740546 486:0.00078462512 487:-0.0012074362 488:-1.1753609e-013 489:-0.052125588 490:-2.0945371e-013 491:-4.9555728e-012 492:0.00025757024 494:-3.7163015e-020 495:1.0091615 496:-1.5906399e-018 497:-0.045646451 498:-1.5277321e-013 499:-0.44874713 500:4.5447987e-018 501:-0.21950878 502:-0.0076130969 503:-9.8165139e-005 504:-2.5399306e-014 505:-0.25475273 507:0.0020391501 508:-2.8017557e-006 509:-0.93775898 510:-0.39414677 511:-0.069601201 513:-0.0046484056 514:-1.7351683e-017 515:-0.64303231 516:-0.2511484 517:0.346645 518:0.076224752 519:-0.008704843 520:-0.16372238 521:-0.032946751 522:1.1630371e-012 523:6.3210244e-017 524:0.02749411 525:0.042306658 526:-2.1185855e-018 527:0.00088992645 528:-0.049178943 529:0.0025671821 530:-1.2824038e-015 531:0.0014367716 532:0.64898992 533:-1.1148906e-019 534:3.9331269e-005 535:-0.26226649 536:-2.1044889e-013 537:-0.019728223 539:0.29793155 540:0.008609849 541:0.66936195 542:-1.019342e-020 543:-6.0685723e-014 544:-1.4609457e-012 545:8.4146748e-005 546:0.23918468 547:-1.4242465e-012 548:-0.48462579 549:-4.1647274e-018 550:0.0013374256 551:-1.4905464e-019 552:0.76696664 553:-0.028414635 554:-0.083698869 555:0.00025736602 556:0.19643311 557:-0.086898997 559:0.16818893 561:0.00097749406 562:0.041028462 563:3.9727366e-015 564:-0.03278596 565:1.1752247e-012 566:-0.0021088216 567:-2.4775345e-020 568:-0.00023970658 569:0.0027925123 571:-5.9236336e-005 572:-0.10311098 573:-0.030638853 575:-0.090836637 576:-0.047657739 577:-0.39471617 578:0.002843282 579:-5.3363034e-018 581:-4.8232275e-015 582:0.037713937 584:-0.14365231 585:-0.17482442 586:-0.057996087 587:-2.4088995e-005 588:0.015183785 589:-2.4664503e-017 590:-0.063364029 592:-3.230831e-018 593:0.18243565 594:-5.5321149e-018 595:-0.010506304 596:-0.094004139 597:0.22084975 598:0.009606367 599:-5.5902765e-012 601:0.47711706 602:-0.032736715 603:-0.14452168 604:-0.00021705778 605:-0.045884747 606:-1.9074098e-011 607:0.49641949 608:-3.4571421e-012 609:-0.26914936 610:-6.0736941e-013 611:8.4895364e-005 612:0.18484277 613:0.00062577095 615:-2.0849336e-012 616:-0.0094437404 617:-0.10107057 618:0.41366923 619:0.0074559608 621:-0.18243758 622:2.0293428e-005 623:0.35302824 624:-7.5830496e-005 625:-0.16603166 626:-0.12264933 627:0.30967411 628:0.48346594 629:-0.0240572 630:-0.0082997857 631:-0.4388718 632:-0.23665293 633:-1.1196677e-011 634:-0.14212134 635:0.0010367193 636:-0.43511194 637:-0.34165829 638:-0.21529104 639:-0.013215953 640:-0.0046021831 641:-3.0266716e-012 642:-0.23856725 643:-1.2650129 644:-2.1044904e-013 645:-0.00038761357 646:-0.23753111 647:-0.00011296807 648:2.396108e-011 649:-6.4334665e-005 650:-0.5274514 651:1.4932879e-005 653:-2.4775345e-020 654:-0.024402022 655:-0.21566044 656:-0.067518465 657:0.22235742 658:-0.17084703 659:0.68485045 660:0.054186814 661:-0.0071274773 662:-0.28869236 663:-4.3604361e-020 664:-0.025260335 665:-0.00016715082 667:9.8096697e-018 668:0.0030262312 669:0.36966291 670:-0.25008348 671:0.10683448 672:-0.18084478 673:-0.0015554241 674:-0.13355422 675:-0.1830404 676:0.59273529 677:-0.020591941 678:-0.014584839 679:0.4075745 680:0.1988028 681:-6.0636148e-014 682:-0.064356178 683:-0.80557603 684:-0.15195319 686:-2.4084773e-013 687:0.23515117 688:-3.727126e-005 689:0.42896008 690:-0.86780024 691:-2.0071165e-017 692:5.8725975e-005 693:-4.4712484e-005 694:-1.5246383e-021 695:-0.092134021 696:0.19342515 697:0.15300231 698:0.01754581 699:0.013059172 701:0.81454021 702:-2.4775345e-020 703:-0.00062710262 704:-0.0089631826 705:0.32353422 706:-0.0769879 707:0.37228873 708:-0.0024489614 709:4.289027e-018 710:0.29286978 711:7.9705052e-005 712:0.16504672 713:-0.057662934 714:0.28300881 715:-0.48706183 716:-0.0029007546 717:-0.0016913153 718:0.33003923 719:-0.2825979 720:-0.00014399835 721:-0.092248894 722:-0.15462352 723:0.074401006 724:-0.59982145 725:0.43894792 726:-0.00013044318 727:0.079693139 728:0.0032695294 729:-3.2894846e-013 730:0.077004626 731:-0.10675736 732:-0.18220095 733:-0.11426793 735:0.067721345 736:0.065247528 737:-0.020995099 738:-0.034218371 739:0.035673615 740:0.066377282 741:-0.15025552 742:0.79665112 743:0.17125313 744:1.1768334e-016 745:0.2272467 746:8.5837491e-005 747:-0.00049069372 748:-0.55895549 750:0.06239377 752:0.58950466 753:0.73758888 754:-0.41288504 755:0.25236219 756:-1.8397024e-018 757:0.012441641 758:0.13865797 759:-0.013356863 760:0.004108639 761:0.029671157 762:-0.0036729812 763:0.016846152 764:0.37995097 765:-1.2925839e-013 766:0.017401744 767:3.9817012e-016 768:-0.38069895 769:-0.0014160568 770:-7.3064453e-017 771:-2.4775345e-020 772:0.019750876 773:-0.56223512 774:-0.33346483 775:3.1793896e-015 776:0.0068095052 777:-1.5906398e-018 778:-0.27668115 779:-0.84248948 780:-0.27992532 781:0.5081107 782:-0.32670167 783:0.0098228594 784:-0.4891699 785:-0.045379531 786:0.0011519091 787:0.1753349 788:0.0020186515 789:0.0010205182 790:-0.09800633 791:-0.12456793 792:-0.08394742 793:-2.4775344e-020 794:0.3168588 795:-0.0086691091 796:0.30227786 797:-0.083704449 798:-0.10049357 799:6.2604549e-017 800:-9.617945e-005 801:-1.4977392e-019 803:-0.027912725 804:0.175606 805:-1.3550639e-014 806:-0.050152496 807:-2.6550436e-015 808:-1.2639642e-012 809:-0.40517229 810:-0.054603554 811:-0.14622571 812:3.5394346e-013 813:-0.064108379 814:-0.029273471 816:-0.57891995 817:0.57820463 818:0.0025102457 820:-0.097666621 822:-1.2125034e-012 823:-0.00040655787 824:-0.074400283 825:-0.05951291 826:1.1356155 828:0.0042498596 829:-0.030190442 830:0.50160891 831:-0.14035903 832:-8.1111594e-019 833:-0.2390597 835:0.077321969 836:0.0055062813 837:-0.56332952 838:-3.727126e-005 839:-0.069996022 840:-0.12507012 841:-8.8160481e-016 842:0.16160239 843:0.43661842 844:0.03365086 845:0.071904331 846:-0.093718521 847:-5.0055298e-012 848:-1.130016 849:-2.4413303e-013 850:-0.10388402 851:0.85896426 852:-0.089142732 853:-0.18762301 854:-0.32521597 855:-0.096588127 856:0.0013370223 857:-0.11576504 858:0.26737931 859:-0.46115872 860:-0.0075918571 861:-0.3868621 862:0.0015157202 863:-3.1985531e-015 864:0.23464532 865:-1.7181633e-012 866:0.49191013 867:-0.09950006 868:-1.2106206e-018 869:-0.1255742 870:-0.1785643 871:-0.24299921 873:1.6912787e-005 874:-0.052439142 875:-1.9469906e-015 876:-0.0076094507 877:0.00077046221 878:0.0722965 879:0.030268593 880:-0.0047078505 882:0.030088976 884:-0.02159347 885:-0.054816458 886:2.2602341e-017 887:-6.5786131e-005 888:-2.8269764e-018 889:-0.032040015 890:0.012252208 891:-0.0061247488 892:-0.11205263 893:-6.7903654e-017 894:-3.7163015e-020 895:-0.02284156 896:0.0019549879 897:0.052385706 899:-0.070749395 900:-0.22311407 901:0.0004707792 902:-0.20119452 903:-0.096861258 904:0.014511872 905:-0.0071997005 906:-2.4775345e-020 907:-4.95507e-020 908:-2.1368343e-017 909:-0.0089880405 910:0.019173345 911:-4.0988505e-015 913:-0.27295837 914:-2.3747323e-023 915:-3.096918e-020 916:-0.21345606 917:-0.035061445 918:0.23848195 919:-3.0475175e-014 920:-0.058121841 921:-1.4865209e-019 922:0.0030419636 923:-8.9813904e-005 924:0.23576419 925:0.060706429 926:-0.11000752 927:-1.9882998e-018 929:0.13436881 930:-1.290598 933:0.026918817 935:-0.11095279 937:-0.047657739 938:-4.9550691e-020 939:0.00014662503 940:-0.015935073 941:-0.36804935 942:-0.32889754 944:-3.8928774e-017 945:-0.29121736 948:-0.029321548 949:1.6509246e-005 950:0.015183785 951:-9.9101381e-020 952:-0.1940368 953:-3.096918e-020 954:-2.6731774e-013 956:0.40167549 957:0.00012812043 958:-2.3716906e-018 959:0.024040027 960:-3.096918e-020 961:-0.11244628 962:-0.70810944 963:2.8709904e-017 964:0.031496286 966:-9.5560956e-014 967:0.015597943 968:0.93370068 969:0.00033641851 970:-2.4775344e-020 971:0.080967151 972:-3.6135837e-020 974:0.39317954 975:0.063476205 976:-0.25782976 977:0.0073496411 978:0.98233604 979:-0.010627519 980:0.17768712 981:0.06504976 983:0.022895377 984:-4.9550691e-020 985:0.00063865579 986:0.37289655 987:-0.075639583 988:-0.076713823 989:0.11911722 990:-7.432603e-020 991:-0.13142982 992:0.071287639 993:-2.7369212e-013 994:-2.4775345e-020 995:-0.042790093 996:-0.0094428677 997:-3.096918e-020 998:-0.00093459198 999:-0.20262136 1000:0.4155888 1001:-0.2040538 1002:-0.11005654 1004:-0.052125588 1005:-0.20096156 1006:0.0029622759 1007:-0.095012441 1008:0.0082197059 1009:-0.07122273 1011:-0.010919125 1012:-0.011176981 1013:-0.054514937 1014:0.00028797681 1015:0.051522151 1016:-0.058476783 1017:6.5212625e-005 1019:-0.10360052 1020:-3.3819915e-017 1021:-0.33440292 1022:-4.2728671e-019 1023:0.00087029731 1024:-0.018488441 1025:-0.019921817 1027:0.00068882224 1028:-1.7759583e-005 1029:-0.3495177 1030:0.25790074 1031:0.0030386001 1032:0.019587293 1033:-0.21877472 1034:-0.21544722 1035:-0.030443842 1037:-0.0054321904 1038:-0.076483093 1039:-0.061373763 1040:-0.2902585 1041:-0.016776869 1042:-0.2071249 1043:-0.17563693 1044:0.49876282 1045:-0.047368623 1046:0.00079014327 1047:-0.56821179 1048:-0.13299364 1049:0.15858684 1050:-0.086334616 1051:-0.012949578 1052:-0.045600098 1053:-0.14124919 1054:-0.22719271 1056:0.067498267 1057:-0.0011078492 1058:-0.039456446 1059:0.00074129936 1060:-0.003717148 1061:-2.6540069e-006 1062:4.1992655e-018 1063:-0.029955754 1064:-0.93853569 1065:0.33788791 1066:-0.63491893 1067:-0.12330022 1068:-0.19139925 1069:-0.10955149 1070:-7.6451541e-020 1071:-0.011689632 1072:-0.14863615 1073:-0.00072444289 1074:0.56132126 1075:0.031596709 1077:-0.043526184 1078:-3.2894846e-013 1079:-2.4775344e-020 1080:-0.037480712 1081:0.2283659 1082:-2.1185855e-018 1083:-0.010578063 1084:-0.022890531 1085:-0.0037289287 1086:-0.013969734 1087:-1.3460161e-016 1088:-0.38671613 1089:0.69665235 1090:-1.3460013e-016 1091:-0.34213108 1092:0.055691469 1094:-0.0045892899 1095:1.6929597 1096:-9.0110645e-020 1098:-0.061529323 1099:-7.4326043e-020 1100:-2.4775345e-020 1101:0.0049795741 1102:-0.052201305 1103:-0.28082022 1104:0.058453497 1105:-0.013203089 1106:-0.21146992 1107:-0.0089578796 1108:1.75337e-019 1109:-0.26031989 1110:-0.21515869 1111:-0.037895042 1112:0.31864378 1113:-2.6392617e-014 1114:-0.0026531527 1115:-0.40064231 1116:-0.1690405 1117:-0.019954413 1118:-0.43830526 1119:-0.019533748 1121:-4.3356843e-020 1122:-3.096918e-020 1123:0.45968539 1124:-0.054497771 1125:-0.097946517 1126:-6.9302878e-020 1128:5.9872229e-005 1130:0.016341528 1131:-1.6284898e-016 1132:-6.193836e-020 1133:-0.012415088 1134:-0.032777917 1135:-7.1588961e-019 1136:0.11853027 1138:0.56486231 1139:0.023197696 1140:0.011558339 1141:0.37550253 1142:-0.51889557 1143:0.12187623 1144:0.0014467337 1145:-0.024609912 1146:0.0008872117 1147:-0.035624608 1149:-0.40808445 1150:4.7741738e-017 1151:0.012509235 1153:-0.024856569 1154:-0.059572175 1155:0.010083971 1156:-0.080856472 1157:-0.20261712 1158:-4.0100974e-012 1159:3.0952437e-017 1161:0.00030297245 1162:0.040894423 1163:-0.022927916 1165:-0.61749309 1166:-6.071818e-015 1167:-4.3356853e-020 1168:0.7050432 1169:-0.058476783 1170:-0.10176443 1171:-3.2288996e-013 1172:-1.1637057e-012 1173:-0.092545807 1174:-0.09272638 1175:-2.4775344e-020 1177:0.0072041177 1178:-0.064784087 1179:-0.035906404 1180:-0.058032192 1181:-6.4151709e-012 1182:-0.011969157 1183:-0.055410843 1184:0.49999139 1185:0.56470096 1186:-0.1605241 1187:-0.0061247488 1190:-0.15821405 1191:-0.019406645 1192:-0.0076521337 1193:-0.075233385 1195:0.076048039 1196:7.2361904e-006 1197:-1.1385761e-017 1198:0.0082903821 1199:5.7853314e-018 1200:-0.059834953 1201:-0.070607379 1202:0.00014768016 1203:-0.15266098 1204:1.1406308e-019 1205:0.23362342 1206:0.5235219 1207:-7.6989418e-005 1208:0.17396595 1209:-0.091905735 1210:-0.059755314 1211:-0.00079704006 1212:-0.78290153 1213:-3.1780073e-005 1214:0.029026527 1215:-0.062134139 1216:-0.16408889 1217:-0.0033850262 1218:-0.089316532 1220:-0.032780383 1221:-0.24335612 1222:-3.1698324e-021 1223:-0.047508031 1224:3.9380527e-017 1225:-0.10164208 1226:5.4063351e-012 1227:-0.67260206 1228:-0.0025715926 1229:-0.0034641391 1230:-0.0012056148 1231:-0.015609353 1232:0.057215579 1233:-0.045350738 1234:-0.059873022 1235:1.1537646 1236:3.4064435e-020 1237:-1.9364364e-020 1238:0.14589642 1239:-0.42716855 1240:0.314051 1242:-0.00078895531 1243:-0.10533803 1244:-0.21786919 1245:0.025470817 1246:-0.4346194 1247:-0.0028176333 1248:-0.016860612 1249:0.19868021 1250:-0.0029609511 1251:-3.1812798e-018 1252:-5.0345573e-013 1253:-0.43847159 1254:-0.22836582 1255:-0.084026068 1256:0.0022186136 1257:-0.21739337 1258:-0.036655758 1260:-0.091292903 1261:-0.44056979 1262:0.0023938257 1263:-0.00024855591 1264:1.0253788 1265:-0.30051661 1266:0.56762141 1267:-0.15931487 1268:-0.25008348 1269:-0.024849314 1270:-4.9555728e-012 1271:-0.1616255 1274:-0.22134492 1277:0.058668099 1278:-0.30067486 1279:-0.38279849 1281:-0.11940929 1282:-0.63001448 1283:-0.00099615788 1284:-0.23246694 1285:0.057920124 1287:0.033547293 1288:0.0005725146 1289:-0.16601604 1290:7.6168588e-005 1291:-4.0139366e-005 1293:-0.068393663 1294:-0.45295516 1295:-0.22393391 1296:-0.075707488 1297:-0.017246434 1298:0.066013321 1299:2.7655685e-013 1300:-6.193836e-020 1301:-0.13171645 1302:-0.0023062548 1304:-2.0948037e-013 1305:0.23179364 1307:-0.0052199527 1308:-0.037728328 1309:0.39044842 1311:0.17080531 1312:-5.5744522e-020 1313:-0.045482811 1314:0.00076208846 1315:-0.0048429403 1316:-1.4784882e-017 1318:0.04282349 1319:-0.22075288 1320:0.29557189 1322:0.15866175 1323:-8.3425463e-012 1324:-0.45904657 1325:-8.0519861e-020 1326:-2.7342337e-016 1327:-0.18985286 1328:-0.10189947 1330:-0.10943649 1331:-0.073095977 1332:-0.087602518 1333:-6.433709e-019 1334:0.069021896 1335:-0.2734668 1336:0.65120071 1337:0.026474614 1338:-4.9550684e-020 1339:-0.00052935514 1340:0.022406215 1341:-1.655798e-005 1342:-4.9550691e-020 1344:-0.011631782 1345:-9.4989298e-023 1346:0.0024435543 1347:-0.60650295 1348:-0.040428225 1349:-2.8334464e-013 1350:0.14112024 1351:-0.41187915 1352:-0.36710626 1353:-0.57713437 1354:-0.28599769 1355:-9.1093441e-013 1356:-0.095620871 1357:2.9261365e-017 1358:0.15226547 1359:-0.1080607 1360:-0.1216736 1361:-0.099132173 1362:-0.015841737 1363:-7.6250956e-014 1364:-0.19908777 1365:-0.16612801 1366:-0.0075394581 1367:0.23872393 1368:-0.42962447 1369:0.0055821883 1371:-0.30099803 1373:-0.24643342 1374:0.39151728 1375:-2.4032781e-005 1376:-4.6683664e-012 1377:-7.4863783e-007 1378:0.98200345 1379:0.0013370223 1380:0.0019549879 1381:1.1594249 1382:0.062922105 1383:-0.16545431 1384:0.001899118 1385:0.054817047 1386:0.027835593 1387:-0.18991174 1388:-0.020728471 1389:-0.0034313241 1390:-0.021997508 1391:1.2562846e-012 1392:0.23976815 1393:-2.462089e-017 1394:2.094531e-013 1396:-0.28585744 1397:0.40432927 1398:-0.13083085 1399:-0.00043869074 1400:-0.13359997 1401:-0.060461614 1402:-0.30152321 1403:-2.0177872e-017 1404:-1.4823065e-018 1405:0.050070815 1406:9.1313115e-005 1407:0.6650033 1409:0.0584535 1410:0.0008872117 1411:0.85939896 1412:-4.95507e-020 1413:2.180218e-020 1414:0.45402533 1415:-0.23685335 1416:-0.01059451 1418:1.5801768e-019 1419:-4.1904184e-013 1420:-0.46070454 1421:-0.026180068 1422:0.033112857 1423:0.025781775 1424:-0.004452283 1425:-2.3747323e-023 1426:0.061777793 1427:-0.48442525 1428:0.29149607 1429:-6.4087348e-005 1430:0.013248568 1431:-5.389881e-019 1433:0.011285204 1434:-0.00017783028 1435:3.6113324e-014 1436:0.21717042 1437:-0.24112321 1438:-0.13612662 1439:0.010885623 1440:-0.084468409 1441:0.0033032163 1442:-1.4057754e-017 1443:-9.4233703e-013 1444:1.6903875 1446:-0.49391675 1447:-0.0018434365 1448:0.63529432 1449:0.088385306 1450:0.78574538 1451:-0.095115319 1452:-0.11854775 1453:-0.12302031 1454:9.6631966e-006 1455:0.22716151 1456:-0.65358007 1457:-0.5346415 1458:-0.099812649 1459:-0.5315544 1460:0.064550027 1461:-1.8532958e-013 1462:-0.097625196 1463:0.00052541547 1464:-1.1117715e-018 1465:-0.13854618 1466:-0.92561907 1467:8.0998198e-006 1468:0.0058533926 1469:0.0019828142 1470:-3.2288996e-013 1471:0.024069909 1472:6.7936584e-018 1473:9.1530316e-012 1474:-0.013681865 1475:-0.057322413 1476:-4.9550691e-020 1478:4.363347e-005 1480:-0.32365394 1481:0.16069633 1482:-1.2106205e-018 1483:-7.1241978e-023 1484:-3.096918e-020 1485:-0.36055151 1486:0.0028897859 1487:-0.0091383243 1488:-1.7588121e-013 1489:-0.041531041 1490:-0.022502733 1491:-1.2861775 1492:-0.01846946 1493:0.14256382 1494:0.39495128 1495:0.00010182223 1496:7.6084089e-018 1497:-0.91403759 1498:0.99096131 1499:2.5534176e-018 1500:0.24903974 1501:0.004702596 1502:0.28212011 1503:-0.51511073 1504:-0.47836101 1505:0.21882696 1506:-0.030806884 1507:-0.00022977586 1508:-0.28137621 1510:1.4778203e-019 1511:-0.060066685 1512:-0.12360189 1513:-1.3932465e-012 1514:0.42261159 1515:-0.15478942 1516:0.73174673 1517:0.32259047 1518:-1.2606417e-017 1519:-3.096918e-020 1520:0.013950514 1521:-0.0160188 1522:-2.4574928e-013 1523:-3.6818851e-018 1524:-0.40613389 1525:-0.030156516 1526:0.8395285 1527:0.48235682 1528:-4.2362669e-017 1529:-0.010287414 1530:-0.19126624 1531:-0.0004794132 1532:-0.095528878 1533:0.36394438 1534:0.32009551 1535:-0.8982358 1536:0.16265282 1537:-0.02282971 1538:6.7593266e-012 1539:3.9472216e-005 1540:-0.037273966 1541:-0.052557118 1542:-0.049224999 1543:0.027946787 1544:0.16930972 1545:-5.2349272e-020 1546:-0.28503737 1547:-0.048943292 1548:-2.6790207e-014 1549:-0.048774581 1550:-0.0052103056 1551:-0.0047075851 1552:1.1520083 1553:0.54294616 1554:0.0053232699 1555:0.045924895 1556:0.26220071 1557:-2.737073e-013 1558:-5.3900023e-014 1559:0.58891946 1560:-0.13479778 1561:-0.00016972424 1562:0.15482521 1564:0.07334476 1565:0.11728813 1566:-0.18320215 1567:1.0217358e-018 1568:-1.1180835 1569:-1.6401906e-018 1570:-0.096532427 1571:0.2189018 1572:-0.0099572167 1573:0.12054732 1574:0.0038033561 1575:-0.028196627 1576:-0.065576501 1577:2.5446733e-011 1578:0.31910616 1579:-2.3747323e-023 1580:-0.059521433 1581:-0.32600632 1582:-5.3466552e-013 1583:0.10314135 1584:-0.09512765 1585:-0.023965918 1586:0.40478882 1587:0.016252065 1588:0.0011907762 1589:-0.34609234 1590:-0.16866426 1591:-0.0045795599 1593:0.022902975 1594:0.077548638 1595:-0.30395755 1596:0.14894396 1597:-0.033597253 1598:0.058808558 1599:-0.1788124 1600:-0.074344136 1602:0.00082475063 1603:-0.0090813329 1604:-0.053839516 1606:-0.29072481 1607:-4.8435008e-013 1608:-9.2580325e-005 1609:-0.30593511 1611:0.0063452832 1612:-0.057238393 1613:0.21628198 1614:0.004763105 1615:-0.012314145 1616:-0.00065313169 1617:-0.97405404 1618:1.1616541e-012 1619:-6.6747356e-013 1620:0.36430338 1622:-0.058507398 1623:-0.14380772 1624:-0.053247843 1625:-0.17308061 1626:-1.1942699e-011 1627:-0.027360061 1628:-0.038744006 1629:6.7150083e-016 1630:0.24072054 1631:-0.50016707 1632:-1.1858453e-018 1633:-0.12409598 1634:-0.11564885 1635:-0.20558652 1636:-0.019616606 1637:0.022776484 1638:-1.0435379e-018 1639:-0.06158055 1640:-4.9550687e-020 1641:0.12550512 1642:0.25484407 1643:-0.10467612 1644:0.50698531 1645:3.9224346e-016 1646:5.8309492e-018 1647:-0.018434949 1648:-0.12900035 1649:-0.00012036366 1650:-0.3419849 1651:0.17512049 1652:-0.16902807 1653:-0.18568182 1654:0.00012526558 1655:-0.19086429 1656:-0.06580054 1657:0.0040677302 1658:-0.21277384 1659:0.0094650397 1660:-3.6219235e-015 1661:-0.60430622 1662:0.76698411 1663:0.7522524 1664:0.48812971 1665:-0.078506961 1666:0.061880391 1667:-0.094237372 1668:0.3936775 1669:0.16802508 1670:0.41612867 1671:-0.013276103 1672:0.36214238 1673:-1.225841e-014 1675:-0.33223602 1676:1.0045002e-019 1677:-0.7446478 1678:0.27067488 1679:-4.6564153e-021 1680:-0.46103674 1681:-2.0318235e-014 1682:-0.68472123 1683:-0.039648503 1684:-0.28710076 1685:-0.072101079 1686:-0.69674546 1687:0.06637226 1688:-0.078420244 1689:-0.047518633 1690:-0.059572175 1691:6.8384458e-019 1692:-3.3397613e-015 1693:-0.088411748 1694:1.855982e-005 1695:-2.522234e-017 1696:0.016584918 1697:-7.6533696e-015 1698:-0.268383 1699:-0.47665912 1700:-0.76095921 1701:-0.23298049 1702:0.15782061 1703:-0.21545048 1705:-8.5027698e-018 1706:-0.16392981 1707:-0.11678936 1708:-0.41899279 1709:-0.07862436 1710:0.043211002 1711:-0.60869843 1712:8.0994483e-005 1713:-0.078826629 1715:0.022124885 1716:-5.0798925e-015 1717:3.1098182e-012 1718:-1.1858452e-018 1719:-0.45072684 1720:-1.4051159e-013 1721:-1.8159309e-018 1722:-0.0013521869 1723:1.5838692e-005 1724:-3.7072301e-013 1725:0.00025553117 1726:0.21027124 1727:0.10412876 1728:-0.00075131486 1729:0.2066614 1730:0.095173515 1731:-0.029041085 1732:-0.1060856 1733:0.31735063 1734:-1.4242465e-012 1735:0.01546724 1736:-1.137252e-018 1737:0.019381549 1738:0.76750773 1739:-0.0060118907 1740:-0.481877 1741:0.096451744 1742:0.17911828 1743:-5.095354e-006 1744:0.4840382 1745:0.27981278 1746:0.34449115 1747:-0.31045893 1748:-0.00084575679 1749:0.071111403 1751:-0.71779311 1753:-1.1858452e-018 1754:-0.13536108 1755:0.24835338 1756:-0.10833515 1757:-0.17956464 1758:0.00023476459 1759:0.044081502 1761:-3.1812804e-018 1762:-0.032809161 1763:-3.6696388e-012 1764:0.32481274 1765:-0.25915039 1766:0.015312749 1767:0.027824594 1768:-2.4775344e-020 1769:-4.9550691e-020 1770:-0.0055324337 1771:-0.0038992541 1772:-1.3372428e-013 1773:-0.84866244 1774:-0.13573065 1776:-4.0276615e-013 1777:-0.10306337 1778:-4.9550684e-020 1779:-0.11456999 1780:-0.024197264 1781:-1.2076752e-017 1782:-0.24167986 1783:-1.2120024e-017 1784:-0.0026279588 1785:0.045061417 1787:-0.15678504 1789:0.00033278565 1790:-1.4823065e-018 1791:-0.0013206627 1792:-7.0712362e-017 1793:-2.6469835e-012 1794:-3.7163021e-020 1795:-0.082450695 1796:-0.040982451 1798:-0.024076717 1800:-7.6778861e-012 1801:-0.0021412345 1802:-0.058459166 1803:-0.20274155 1804:-9.9101381e-020 1805:-0.010580944 1806:-0.027183091 1807:-1.4042855e-013 1809:0.020905277 1810:-0.078809768 1811:-4.2103344e-017 1812:-0.012527463 1813:-0.0013589415 1814:-0.023760928 1815:0.0044648577 1816:-0.11215225 1817:-0.039490476 1818:-2.8505858e-017 1819:-2.4088995e-005 1820:-0.031341452 1821:-0.0080694342 1822:-0.58999741 1823:-1.0102071e-017 1824:-0.32274565 1826:-1.0430249e-017 1827:-3.6919966e-018 1828:-0.52985537 1830:-0.065548927 1831:1.2363863e-013 1832:0.39834806 1833:-0.0077081854 1834:-0.017149244 1835:0.0580655 1836:-0.20816891 1837:-0.010589419 1838:-0.44445398 1839:-0.17295884 1841:0.045807831 1842:-4.0465362e-005 1844:-0.088379458 1845:0.00016114055 1846:-0.0085057123 1847:-3.5311278e-017 1848:0.12671483 1849:0.0035382034 1850:1.4279276e-020 1851:-0.0021873969 1852:-0.016362542 1853:-7.4326043e-020 1854:1.8301683e-011 1855:-2.0502381e-018 1857:-0.8988384 1858:-0.074344136 1859:-0.01526327 1860:-6.2825138e-014 1861:-0.1617377 1862:0.0029330978 1863:-0.038439393 1864:-1.6512229e-012 1865:0.081482127 1867:-0.051271468 1868:0.40821099 1869:-0.032725085 1870:-0.052267313 1871:-0.32606456 1872:0.020384489 1873:-3.6880766e-018 1874:0.00063345686 1876:0.80800295 1877:0.75825483 1878:-0.080743901 1879:-0.2601442 1880:0.31680334 1881:-0.12906957 1882:0.23684731 1883:-0.02989883 1884:-0.0050177812 1885:-7.4326043e-020 1886:-0.0820724 1887:-4.1054077e-013 1888:-0.00012985365 1891:-0.026779598 1892:-0.21856472 1894:-2.5383766e-014 1895:-1.276526e-017 1896:0.78880829 1897:-3.6215582e-017 1898:-0.53162527 1899:-0.095671937 1900:0.65951276 1901:0.64840835 1902:0.0013766914 1903:0.15927194 1904:-0.50547296 1905:-0.0017877572 1906:-0.012241505 1907:-1.8316362e-018 1908:0.01234028 1909:-0.35009134 1910:-0.054985777 1911:0.71231925 1912:-0.350591 1913:-0.30299026 1914:-0.0018134582 1915:-0.25058511 1916:-0.34389243 1917:0.27037045 1918:-0.12127011 1919:-0.015942886 1920:-0.20349455 1921:0.026816074 1922:-1.5132757e-018 1923:-2.4775345e-020 1924:-0.09705551 1925:-2.1468006e-015 1926:-0.0073927832 1927:0.56290513 1928:-0.17312865 1929:5.7318691e-018 1930:0.019703276 1932:-0.022800049 1933:-1.1858453e-018 1934:-1.4042696e-013 1935:5.2808246e-005 1936:0.013621224 1937:-0.13861336 1938:0.17514059 1939:0.058191031 1940:0.028853685 1941:-0.27095962 1942:-0.36286131 1943:-0.24129097 1944:-0.03372759 1945:-2.7995103e-018 1946:-0.22681862 1947:-0.013168194 1948:0.016526561 1949:-0.61581826 1950:-0.00043797764 1951:-0.054714929 1952:2.8342726e-019 1954:-0.1687389 1955:0.027937511 1956:-0.37356132 1957:-0.13760002 1958:-0.020460766 1959:-0.011178116 1961:-0.037568625 1962:-0.025073161 1963:-0.00039599949 1964:-0.2796402 1966:1.5246383e-021 1967:0.00045291992 1968:0.34757286 1969:0.27644807 1970:-0.37910601 1971:0.22541222 1972:6.0247679e-019 1973:7.7599644e-022 1974:-2.1175633e-012 1975:0.0088199172 1976:0.31656322 1977:-0.033906836 1978:0.67168438 1979:-0.024304468 1980:-0.77061391 1981:-0.63122547 1982:-9.6191686e-021 1983:-0.60882729 1984:-0.0087575354 1985:0.54930139 1986:0.33466932 1987:0.057215583 1988:-0.24954565 1989:-0.086899005 1990:-0.2927509 1991:-0.29636937 1992:0.23003773 1993:-0.012200615 1994:-9.798707e-013 1995:0.028428579 1996:-0.125631 1997:0.65011686 1998:-0.42572707 1999:-0.012286169 2000:-4.4574861e-019 2001:0.89159578 2002:-1.1592352e-011 2003:-5.0176887e-013 2004:0.0091560828 2005:-0.13624416 2006:0.00012223978 2007:-0.15346159 2008:-0.14725834 2009:0.048683506 2010:0.090651728 2011:-0.073522806 2012:-0.048203915 2013:-0.21886183 2014:-0.33186975 2015:-0.063580714 2016:-0.041288078 2017:-0.39501292 2018:-0.29049227 2019:-0.47493348 2020:-0.040981345 2021:0.43494168 2022:0.14856009 2023:-0.15948191 2024:0.066611819 2025:-1.5091892e-015 2026:0.012624934 2027:-0.62122136 2028:-0.021931304 2029:-0.34407282 2030:-0.071116805 2031:-0.40586686 2032:0.74069643 2033:0.046425231 2034:-0.043031733 2035:-1.1795737e-012 2036:-0.073979929 2037:0.353751 2038:-0.0023199974 2039:-0.51310652 2041:0.084542982 2042:-0.00025840901 2043:0.026414098 2044:0.057700973 2045:-0.085598931 2046:-0.024149697 2047:0.10213108 2048:-0.17040212 2049:-0.18072024 2050:0.047237586 2051:0.044757947 2052:-0.0010183452 2054:0.26786336 2055:-0.08187139 2056:0.2741642 2057:-0.022807537 2058:-0.0049500023 2059:-1.0012049e-012 2060:-0.0013050638 2062:-0.1461987 2063:-5.5944217e-017 2064:-0.44478402 2065:-0.54068649 2066:0.00088721176 2067:-6.6034255e-014 2068:1.1105208e-014 2069:-0.002761378 2070:-1.5906398e-018 2071:0.040863406 2072:0.36304918 2074:-3.3923936e-012 2075:0.0046352888 2076:-2.767249e-016 2077:0.0055627921 2078:-0.0093547069 2079:-1.2106206e-018 2080:1.7427593e-015 2081:-0.087729722 2082:-0.078658707 2083:-4.1712731e-012 2084:-0.069986396 2085:-0.24802487 2086:-1.012559e-017 2087:0.0011412945 2088:-0.36074391 2089:0.17553812 2090:-0.17461801 2091:0.00086258707 2092:-0.1931763 2093:-4.9555837e-012 2094:-0.28809488 2095:0.23244728 2096:-0.33773428 2097:-0.28723308 2099:-0.070905775 2100:-0.45417029 2101:-4.0269755e-005 2102:0.0080338791 2103:0.10685571 2104:-1.5645805e-021 2105:-3.7128523e-018 2106:-0.12630628 2107:-0.0012039745 2108:-0.00088694756 2109:0.22151358 2110:0.36778003 2111:-2.4775344e-020 2112:0.04423444 2113:-0.054500125 2114:0.0028408829 2115:-0.026997078 2116:-0.01323682 2117:-0.003007784 2120:-0.17017043 2121:0.053445518 2122:-3.5575359e-018 2123:-0.018127924 2125:-0.011309072 2126:-1.0359932 2127:-0.021663362 2128:-0.23505543 2130:-0.35373941 2131:4.8995607e-005 2132:-7.8900198e-016 2133:-0.12916008 2134:0.0025499281 2135:-0.10331709 2136:-0.01453711 2137:-0.37412292 2138:0.014604092 2139:6.3418382e-005 2140:0.38083121 2141:-0.28617266 2142:0.0092205675 2143:-0.28749156 2144:-3.68857e-005 2145:-0.045429111 2146:-1.1858453e-018 2147:1.0713276e-021 2148:-0.33354849 2150:-6.193836e-020 2151:-2.4775345e-020 2152:-0.0018173383 2153:1.2606215e-015 2154:0.069187135 2155:-0.0008235955 2156:-0.24868201 2157:2.6392613e-014 2158:-0.048971936 2159:3.9238018e-016 2160:0.08928594 2161:0.050005522 2162:-0.46486175 2163:-0.11996926 2164:-0.07720691 2165:-0.38526952 2166:0.02716613 2167:-0.002517093 2168:0.16857621 2169:0.15428214 2170:-0.078219846 2171:-0.40389001 2172:0.064118512 2173:0.2498606 2174:-0.0087615885 2175:-0.0056555774 2176:-0.036480073 2177:-5.7491864e-013 2178:-0.10099464 2179:0.33113962 2180:0.4878847 2181:-0.00091904588 2182:0.29201674 2183:-0.0004426293 2184:-0.00081608759 2185:-0.039714053 2186:0.1297673 2188:-0.054514114 2189:-0.055817895 2190:-8.159899e-012 2191:-0.081663251 2192:-0.023799943 2193:-0.044962578 2194:0.088105738 2195:0.0077751712 2196:0.018378584 2197:0.21030308 2198:-2.0691722e-018 2199:-0.3573378 2200:1.1974637e-017 2201:-0.12781298 2202:-0.16909944 2203:-0.0046711643 2204:-0.18786763 2205:0.041994072 2206:-0.21894915 2207:-1.4823065e-018 2208:-0.047385152 2209:-0.13972804 2210:0.00011365183 2211:-0.83632398 2212:-1.2582341e-012 2213:-0.58048588 2214:0.059258483 2215:-0.09757106 2216:0.37122649 2217:0.15593685 2218:-0.020064143 2219:0.019599646 2220:-0.14376964 2221:4.620488e-016 2222:0.063931182 2223:0.45392689 2224:0.12619177 2225:-0.12563862 2226:-0.031179488 2227:-1.5705994e-013 2228:-6.3169982e-013 2229:0.63144535 2230:0.50467086 2231:-0.24518265 2232:0.013668181 2233:-9.2587856e-012 2234:-3.8539974e-018 2235:-0.00019667707 2236:0.69082743 2237:0.10311501 2238:-0.17007259 2239:0.59712464 2240:0.10520186 2241:-0.30879042 2242:-3.7163015e-020 2243:0.015591091 2245:0.0078037959 2246:0.0067015383 2247:-0.028557522 2249:-0.084490374 2250:-0.22128098 2251:0.21160331 2253:0.81454021 2254:0.0082260109 2255:1.2357595e-013 2256:-2.094537e-013 2257:0.054374661 2258:-0.013392672 2259:0.0058627906 2260:-0.11895064 2261:0.19022697 2262:1.3518972e-011 2264:1.3997551e-018 2267:0.047916833 2268:-0.00011039185 2269:0.71647453 2270:3.2126354e-014 2271:0.90895671 2272:0.06429375 2273:0.081525587 2274:-0.062836185 2275:0.0004471959 2276:0.17514059 2277:0.0023247618 2278:1.1575159 2279:-0.33439597 2281:-0.25647232 2282:-7.2459831e-018 2283:-0.41327289 2284:3.5298176e-016 2285:-0.27248392 2286:-3.5106737e-013 2289:0.012849646 2291:0.14276542 2293:-2.9301844e-017 2295:0.21338786 2296:5.4431062e-016 2297:-0.27017185 2298:0.12239393 2299:0.017446494 2300:0.97399294 2301:-4.0435608e-014 2302:-1.4135394e-013 2303:-0.00069978397 2304:0.0038392693 2305:-0.031414758 2306:-0.37587467 2307:-0.025625246 2308:-3.8465342e-012 2309:-0.17396595 2310:0.00048790831 2311:-0.20872708 2312:-0.026180068 2313:-2.3747323e-023 2314:-0.00026505813 2315:-1.4683539 2316:-1.5320775e-012 2317:-1.2824038e-015 2318:2.7995103e-018 2319:0.39805731 2320:0.149422 2321:3.1151376e-020 2322:-0.018710343 2323:0.045951154 2324:-4.3846296e-013 2325:-7.6676321e-017 2326:0.032722425 2327:-0.20373739 2329:-0.14712335 2331:-0.29482508 2332:-1.7483193e-005 2333:-0.24829349 2334:-0.031873636 2335:5.2654723e-013 2336:0.69647592 2337:0.87626553 2338:0.17538038 2339:0.03854828 2340:-0.20219666 2341:-0.63176924 2342:-0.021479445 2343:-4.7292353e-005 2344:-6.6335886e-012 2345:-0.45779151 2346:-0.34902999 2347:-0.13227023 2348:-0.0051784865 2349:-2.964613e-018 2350:-1.1148906e-019 2352:-0.39604467 2353:0.80972451 2354:2.9552594e-015 2355:0.0087184422 2356:-1.1406197e-005 2357:-0.019714724 2358:0.12821327 2359:0.057507638 2360:0.03466529 2361:-0.1584747 2362:0.42009765 2363:-0.11314276 2364:-0.21351658 2365:0.18506128 2366:-0.0032136273 2367:-0.38697937 2368:-0.26845586 2369:0.53499192 2370:-0.018275734 2371:0.065528303 2372:-0.04659852 2373:0.014851958 2374:0.08652731 2375:-0.00086154987 2376:-0.042722516 2377:0.095363364 2378:-0.026180074 2379:-1.5645805e-021 2380:-0.48692322 2381:-0.43361768 2382:-0.33143583 2383:-0.44269153 2384:-0.13871461 2385:-0.19647448 2386:-0.21540301 2387:-0.10947628 2388:-0.035762943 2389:-3.17913e-015 2390:0.363796 2391:-0.049729455 2392:-0.040428229 2393:-0.073992401 2394:0.018262709 2395:0.07114841 2396:-0.095705226 2397:-0.008368019 2398:7.809652e-005 2399:-2.5127761e-014 2400:0.44212577 2401:0.0008872117 2402:0.045419976 2403:0.59471649 2404:-0.087048203 2405:-0.097169317 2406:0.013814608 2407:-3.8583636e-005 2408:-2.4775345e-020 2409:-0.083143294 2410:-0.028808584 2411:0.053407572 2412:0.7425831 2413:0.00035954232 2414:0.0012418525 2415:5.7776422e-014 2417:-0.75878799 2418:-0.10681541 2419:-0.38513321 2420:-3.096918e-020 2421:0.0082578901 2422:-0.045646451 2423:0.43363711 2424:0.0028277338 2425:-0.0356691 2426:0.012624932 2427:0.25814825 2428:-2.421491e-018 2429:0.0046318616 2430:0.089498997 2431:-0.21511163 2432:-1.0353893e-005 2433:0.17951533 2434:-0.10772359 2435:0.19911925 2436:-0.0048997994 2437:-0.30163145 2438:0.033780448 2439:-0.00041974592 2440:-2.4775345e-020 2441:-0.20000942 2442:-1.4865209e-019 2443:0.33058646 2445:-0.21589284 2446:-0.42131805 2447:-6.193836e-020 2448:-0.0057226317 2449:-0.13609654 2450:-7.6038167e-013 2451:-0.089722164 2452:0.0070793373 2453:0.013787376 2454:-0.15152536 2455:-0.16663635 2457:-0.019890945 2458:-0.47488466 2459:-1.5906399e-018 2460:0.0004737463 2461:-0.046111129 2462:0.068066351 2464:-0.016740842 2465:-2.0333558e-014 2466:-0.15104993 2467:0.11745097 2468:0.13436881 2469:0.25829527 2470:2.5739298e-015 2471:0.0584535 2472:-3.096918e-020 2474:0.025105119 2475:-5.9412233e-014 2476:-0.48989743 2477:0.38484401 2478:-1.7605623e-017 2479:-0.31187162 2480:-0.00036870179 2481:0.098280326 2483:0.094053321 2484:-0.23464301 2485:0.082693592 2486:-3.0949051e-016 2487:-0.42683923 2488:-0.013737583 2489:0.10947593 2491:8.7099777e-013 2493:-0.063178256 2494:-0.0059742117 2495:-0.22235526 2496:-0.17978224 2497:-0.042375442 2498:0.016632641 2499:-9.1070018e-005 2500:-1.1603875e-021 2501:-0.055583626 2502:-0.0051825624 2503:-0.010159561 2504:0.33041677 2505:-2.4775345e-020 2506:-0.040666763 2508:-0.16718028 2509:-0.42554775 2510:-2.6031281e-016 2511:-0.014591933 2512:-0.12547742 2513:-0.11126533 2514:0.045189109 2515:-0.00091592735 2516:-0.013392674 2517:-0.0093327686 2518:2.4307585e-018 2519:-0.0065786354 2520:-0.30895373 2521:-0.040982451 2522:-3.129161e-021 2524:-4.6100959e-018 2525:-0.033558354 2526:0.59327805 2527:-0.30685729 2528:0.12086605 2529:-6.193836e-020 2530:0.0040387777 2531:-0.066963367 2532:0.35790262 2534:0.073030494 2535:-0.18355186 2536:-1.9465814e-012 2537:-5.3515211e-015 2538:0.11587168 2539:-9.3128307e-021 2540:-0.024765879 2541:0.061734125 2542:-0.16542581 2543:-0.13234065 2544:0.1628788 2545:0.054480307 2546:-0.009693468 2547:0.0080775451 2548:-0.43689045 2549:-0.08646141 2550:-0.00026894413 2551:0.0067483569 2552:-0.37754956 2553:-2.6808835e-014 2554:0.22977531 2555:-4.5853925e-019 2556:0.0003495386 2557:-0.10835929 2558:0.016636889 2559:1.2048782 2560:-1.6227311e-018 2561:0.068881899 2562:-0.0020641093 2563:-0.025746729 2564:-2.2832834e-005 2565:-0.62336516 2566:0.073167518 2567:4.9125625e-005 2568:0.15106696 2570:-0.20589305 2571:-0.022590315 2572:0.001857807 2573:-0.25262517 2574:-2.4775344e-020 2575:0.20241636 2576:-0.081959173 2577:-8.2942563e-020 2578:0.16249569 2579:0.014782585 2580:-2.7764851e-018 2581:-0.0011320701 2582:-2.1458898e-017 2583:0.10695586 2584:-0.056738678 2585:-0.3432613 2587:-0.042427626 2588:-0.22117849 2589:0.398606 2590:0.082286172 2591:0.026427329 2592:-0.037148118 2593:0.15985604 2594:-0.014769753 2595:-0.068574913 2596:-2.4775344e-020 2597:-0.071523853 2598:-2.8355691e-007 2599:1.9977142e-016 2600:-2.1064284e-013 2601:0.44243661 2602:-8.5101739e-018 2603:3.614739e-005 2604:-0.065782674 2605:-1.5132757e-018 2606:-0.031229338 2607:-0.00026819203 2608:0.047497641 2609:-2.4775344e-020 2611:-7.1020569e-019 2612:0.085178658 2613:-4.4507591e-017 2614:-4.9550691e-020 2615:5.8886468e-005 2617:0.012759272 2618:-1.3460164e-016 2619:-7.083992e-017 2620:-7.4123762e-018 2621:6.2250605e-005 2622:-0.28955868 2623:-0.46997505 2624:-0.052516289 2625:-0.15731743 2626:-3.096918e-020 2627:-0.0032927019 2628:-0.10767627 2629:-1.1311435e-017 2630:-0.40657592 2631:0.00066723587 2633:-0.06759274 2634:-4.6022162e-017 2635:-0.53695112 2636:0.71639895 2637:-0.4380928 2638:-2.4775344e-020 2639:0.16335481 2640:0.068461932 2641:0.0023562068 2642:0.0046578916 2643:-0.0021240846 2644:-1.6154151e-018 2645:0.057793073 2646:-0.16490139 2647:0.074532658 2648:-0.0028778822 2649:0.082404763 2650:-0.048881095 2651:-0.3458485 2652:0.094825223 2653:-2.0296762e-015 2654:0.027357368 2655:-0.0019649926 2656:-4.7494646e-023 2659:0.1239308 2660:-3.0569046e-014 2661:-0.0021519323 2662:-0.055911057 2663:2.3006403e-005 2664:-0.049178943 2665:-9.6960192e-018 2666:-0.0044262046 2667:-0.048745923 2668:-0.45887968 2669:0.01144822 2670:4.6686597e-005 2671:9.0247558e-012 2672:-0.016740842 2673:1.1042644e-016 2674:-0.025158701 2675:-0.40252775 2676:0.065817811 2677:-0.057473652 2678:-0.052749936 2680:-0.50374532 2681:0.00050213729 2682:0.018710343 2683:-0.048815642 2684:0.0015528385 2685:-0.096821398 2686:-8.8312631e-018 2687:-0.26767108 2688:0.010175589 2689:0.00076049723 2690:-0.095666803 2691:-0.16285339 2692:-0.19775748 2693:0.0006867607 2694:-0.17043991 2695:0.076411247 2696:-0.025458999 2697:1.0045003e-019 2698:-0.10371765 2699:0.0021923799 2700:0.53468949 2702:-0.1443011 2704:-0.19412734 2705:-1.8581509e-019 2706:-0.033860043 2707:-0.14605667 2708:0.014814879 2709:-0.1904498 2710:0.57985646 2711:0.0015326914 2712:0.31630662 2713:0.44485486 2714:0.31765747 2715:-0.1810351 2716:0.00053359353 2717:-2.6333166e-020 2718:-0.0099677341 2719:-6.0689518e-014 2720:-0.00013271441 2721:0.57722628 2722:0.94466347 2723:-6.7928575e-012 2724:-0.27459371 2726:-0.56190819 2727:-0.24841927 2728:-0.023625815 2729:0.049259119 2730:-4.1093509e-017 2731:-0.16627175 2732:-0.30506775 2733:-0.30283013 2734:-4.6564153e-021 2735:0.0087269302 2736:-0.049189236 2737:-0.15090775 2738:-0.0056166006 2739:0.066309959 2740:0.1401145 2741:0.95310801 2742:-0.29701304 2743:-0.070817158 2744:-0.024825988 2745:-1.868238e-020 2746:-2.6761409e-015 2747:-0.0073593874 2748:-0.35353798 2749:0.32008421 2750:-0.058303896 2751:-0.0002597073 2753:0.29962623 2754:0.0043977783 2755:-0.13977753 2756:-0.20870326 2757:-0.28279001 2758:-0.25448444 2759:-0.057321783 2760:0.062229905 2761:-0.00016336775 2762:-3.9541206e-005 2763:-0.70510155 2764:0.21181069 2765:-0.00026817547 2767:2.0348509e-017 2768:-0.16875084 2769:0.062762633 2770:-3.6119493e-013 2771:-0.0028150254 2772:-0.21847169 2773:-0.50016695 2774:0.0085175298 2775:0.0001730567 2776:-0.033044405 2777:-0.027673213 2778:-8.0555701e-013 2779:-0.40975535 2780:0.13840574 2781:0.11830378 2784:0.030687809 2785:4.9554743e-017 2786:-0.02907463 2787:-0.20745984 2788:0.0043865861 2789:0.17396595 2790:0.16462366 2791:0.45808014 2792:-0.039630681 2793:-0.20219666 2796:-2.7049972e-017 2797:0.052974895 2799:0.0041482705 2800:-0.20072466 2801:-0.00036262302 2802:-0.024639955 2804:-1.8246141e-013 2805:0.12541842 2806:-0.0087433793 2807:-0.10095599 2809:0.0060300981 2810:-0.1296645 2811:-0.01668698 2812:-0.040059432 2813:-0.48431462 2814:0.19670142 2815:-0.0013960366 2816:-0.0053137601 2817:-0.36750379 2818:-0.0043076444 2819:-0.036373004 2820:0.060076796 2821:-0.00016310388 2822:0.11695357 2823:-0.089195706 2824:2.180218e-020 2825:0.00088721176 2826:-0.9200483 2827:-0.11166706 2828:0.068792984 2829:-0.0054495693 2830:0.1463155 2831:0.17289759 2832:0.6232065 2833:-0.00015308165 2834:-0.24784152 2835:0.63879234 2836:-5.9501744e-012 2837:0.00071250257 2838:0.00027780244 2839:-0.0008872117 2840:-0.0007469902 2841:-0.0051574982 2842:0.0098564578 2843:-0.06493292 2845:-0.0046209753 2846:-2.2177329e-017 2847:0.030337889 2848:-0.0214868 2849:-0.029230151 2850:-0.0219645 2851:-0.00071587873 2852:0.00096890383 2853:0.2218838 2854:-6.2718743e-013 2855:-0.16103597 2856:-0.19220725 2857:-3.6880766e-018 2858:-3.096918e-020 2859:-0.34405741 2860:-0.059666876 2861:-0.49479726 2862:-2.0308225e-014 2863:-6.0016583e-015 2864:-0.99735057 2865:-0.059572175 2866:7.3813002e-019 2867:0.0584535 2868:-0.039810069 2869:0.022776484 2870:-0.013759156 2871:-0.013719394 2872:0.01209397 2873:-0.034887623 2874:-1.0045003e-019 2875:-0.06133128 2876:-0.0013607919 2877:-0.45957968 2878:0.63111877 2879:-0.025059354 2880:-0.43286353 2881:0.00016863518 2882:-0.0041472968 2884:0.22891329 2885:-0.11429861 2886:-0.63095683 2887:-0.6955592 2888:0.076094158 2889:-0.0068626483 2890:-0.16279617 2891:0.37878528 2892:0.28076962 2893:-0.032018531 2894:-0.041870978 2895:0.32517084 2896:0.033989951 2897:0.19650549 2898:0.57818627 2899:0.14126706 2900:-0.00019621396 2901:0.0080595203 2902:-0.13330907 2903:-0.058445122 2904:0.3721188 2905:-8.822748e-014 2906:-1.7553571e-013 2907:-0.05847152 2909:-0.060642339 2910:-0.03475339 2911:-0.35801631 2912:0.0013890187 2913:-0.0010142198 2914:0.18722963 2915:-0.019823818 2916:0.049418446 2917:0.0038797052 2918:-7.6813005e-005 2919:8.629635e-005 2920:0.023840535 2921:-0.027183089 2922:-0.11560214 2923:-0.11090361 2924:0.096166618 2925:3.4591102e-013 2926:-0.020843606 2927:-0.03173805 2928:0.040596604 2929:-0.056314923 2930:0.55316311 2931:-0.0021542623 2932:0.080410846 2933:-8.5101748e-018 2934:-0.18283196 2935:0.12971781 2936:-0.30950981 2937:-0.12210068 2938:-0.015380353 2939:0.96690655 2941:-7.4326043e-020 2942:0.00052872777 2943:-0.072353318 2944:-5.2349272e-020 2945:0.037564568 2946:-2.3747324e-023 2947:0.13941525 2948:0.069005601 2949:-6.193836e-020 2950:-3.7437075e-013 2952:-0.26596168 2953:-0.038744502 2954:-0.00088991842 2955:0.19983117 2956:-0.0059046671 2957:-0.11862137 2958:0.14946343 2959:0.001963235 2960:0.069929622 2961:0.1155977 2962:-0.013356022 2963:0.021292184 2964:1.1570663e-017 2965:-0.013210831 2966:-1.6723359e-019 2967:-0.017149244 2968:-8.5845002e-018 2969:-0.80738831 2970:0.18451133 2971:-6.6610351e-013 2972:0.91204786 2973:-0.0043301564 2974:0.019971607 2975:1.3724748 2976:5.6192617e-011 2977:-0.060636673 2978:0.49294502 2979:-1.0538917 2980:-0.037819348 2981:0.01452605 2982:0.044006553 2983:-0.00068643066 2984:-1.8253372e-013 2985:-1.3905302e-016 2986:0.81454021 2987:-9.7876155e-014 2988:-2.3747324e-023 2989:-0.61158937 2990:-3.1329211e-005 2991:-1.3460013e-016 2992:0.0084989136 2993:-0.0001828447 2994:7.7381664e-014 2995:-0.03264283 2996:0.0039440678 2997:0.34765819 2998:3.7449718e-005 2999:0.19337633 3001:1.1419381e-018 3002:-0.1078537 3003:0.2460551 3004:-0.15915251 3005:-0.51379806 3006:0.44605047 3007:0.017399624 3008:-2.0752293e-018 3009:-0.38545415 3010:-0.043343801 3012:-0.01824004 3013:0.21479444 3014:-7.1117158e-017 3015:0.049498316 3016:-0.0197806 3018:0.10350956 3019:-0.002313046 3020:0.00065400032 3021:-1.8159309e-018 3022:-0.025049018 3023:-3.5085564e-017 3024:0.74959999 3025:0.0065716016 3026:-0.00067626667 3027:1.2207049 3028:9.842705e-016 3029:-0.47909522 3030:-0.2043117 3031:-0.21845472 3032:-0.14699824 3033:0.33280239 3034:0.0014451664 3035:0.41533658 3036:0.23945758 3037:-0.0044705509 3038:-0.0083685117 3039:6.5444338e-019 3040:-0.30970925 3041:0.0017249442 3042:0.011087214 3043:0.32943046 3044:-0.00020467085 3045:0.0019802244 3046:-0.27869222 3048:0.014511872 3049:-0.037573528 3050:0.13054645 3051:0.0024028963 3054:0.003750924 3055:0.31378722 3056:2.0293428e-005 3057:-0.00012036366 3058:-0.19728039 3059:-0.14646222 3060:-0.030963549 3061:-0.012367775 3062:-0.10969988 3063:-0.00026711298 3064:-0.00017824218 3067:-1.5927032 3069:0.024880396 3070:0.0046933256 3071:-1.4419955e-013 3072:0.00063474377 3073:0.71187824 3074:-4.6564153e-021 3075:-0.063029483 3076:0.01573794 3077:-0.00085117586 3078:-2.964613e-018 3079:0.022787815 3080:-0.067064844 3081:0.92254955 3082:-0.46337724 3083:0.047814023 3085:-0.19934575 3086:0.013279792 3087:0.1011848 3088:-0.44131815 3089:-6.1292071e-015 3090:0.034779131 3091:-0.19038248 3092:0.54136693 3093:-0.081669681 3094:-0.034785256 3095:0.00010342459 3096:0.18979056 3097:-0.0043159151 3098:-0.0025170827 3099:-0.18595177 3100:-0.12629721 3101:0.00011197803 3102:-0.020876035 3103:0.069904767 3104:0.063483015 3105:0.006660636 3106:0.56293303 3108:0.013450037 3109:-1.1503231e-017 3110:0.4552452 3112:0.0025485365 3113:0.014481868 3114:-0.19594698 3115:-0.0026936831 3117:0.0094662942 3118:-0.328866 3119:-0.028907811 3120:0.19065893 3121:-0.060642347 3123:-0.0015806746 3124:-0.069844618 3125:0.19543661 3126:-0.00056905835 3127:-0.00052313233 3128:-3.8034443e-005 3130:-0.16042081 3131:0.020063084 3133:-0.095241189 3134:2.6955373e-017 3135:1.2830487e-016 3136:-0.044637397 3137:0.41413513 3138:2.4650952e-018 3139:0.088480465 3140:-0.53312713 3141:0.0054591652 3142:-0.0035732773 3143:-0.015097895 3144:-0.12781006 3145:0.23022081 3146:-0.15165333 3147:-3.096918e-020 3148:-0.31316176 3150:-0.0075983037 3151:-3.8617856e-013 3152:0.32220855 3153:0.0073203137 3154:5.2502643e-015 3155:0.023971563 3156:0.025575329 3157:-0.042739667 3158:-0.83936644 3159:-3.230831e-018 3160:-5.4342858e-012 3161:-0.28793371 3162:0.0044681579 3163:0.024858307 3164:-0.098500349 3165:-0.016352663 3166:0.14898826 3167:-0.00052071398 3168:-0.71143323 3169:0.0050436556 3170:-0.061352216 3171:1.2283965 3172:-0.13479777 3173:0.19143282 3174:-1.3724926e-017 3175:-0.13449866 3176:0.71371388 3177:-0.34517056 3178:0.021304859 3179:-0.03465436 3180:0.42971122 3181:-0.030016053 3182:0.016845724 3183:-0.048208646 3184:-0.10594647 3185:0.0088752797 3186:-2.0752287e-018 3187:0.17223521 3188:-0.13399753 3189:0.12364001 3190:0.15616788 3191:0.21086973 3192:-0.02343718 3193:-1.8159309e-018 3194:0.0584535 3195:-0.019386921 3196:-0.033309348 3197:-1.4151544e-018 3198:-0.047119875 3199:-0.077794828 3200:0.18429218 3201:0.12398696 3202:0.39518404 3203:-0.048605919 3204:-0.21757944 3205:-3.8189679e-015 3206:0.11038578 3207:-1.6401019e-012 3208:0.0022258691 3209:-0.0023131133 3210:-0.04201303 3212:0.0003890135 3214:-4.9550691e-020 3215:-2.3747323e-023 3216:-5.4427444e-020 3217:-0.010153363 3218:-8.6713706e-020 3219:0.14794153 3220:-1.676109e-017 3221:-0.026454518 3222:0.00084212358 3223:-0.22686976 3224:-0.016609352 3225:0.0083651496 3226:-0.3332727 3227:-0.02238695 3228:-0.12500858 3229:0.0039791688 3230:-6.193836e-020 3231:-1.1858453e-018 3232:0.60134625 3233:2.3206792e-016 3234:0.037905954 3235:-0.10929878 3236:1.2114688 3237:-0.17333493 3238:-4.0684449e-014 3239:0.25030529 3240:-0.054522056 3241:-0.27586633 3242:-0.36951783 3243:0.049804416 3244:7.8939521e-016 3245:-0.00045870716 3246:0.86197627 3247:-0.037586886 3249:-4.6839989e-017 3250:0.68749368 3251:-1.4835497e-014 3252:-0.037728336 3253:-0.084026076 3254:-0.4891699 3255:-0.17436731 3257:-2.0192691e-018 3258:-0.91624922 3259:0.15571684 3260:-0.065666907 3261:-0.36027834 3262:-0.0052852533 3263:0.1171979 3264:-3.4706062e-018 3265:0.3377969 3267:-0.16615188 3268:-6.6748121e-013 3269:-0.012726713 3270:-0.04711188 3271:-1.7645554e-013 3272:-2.4775344e-020 3274:-0.17212704 3275:-0.11897466 3276:-0.32732767 3277:-3.0462297e-014 3278:-0.2924822 3279:-0.1563642 3282:-1.3264365e-014 3283:-0.026293628 3284:0.56717086 3285:-2.4775345e-020 3286:-2.5383797e-014 3287:-0.38817337 3289:-0.023920985 3290:0.86972469 3291:0.075585403 3292:-0.11027639 3293:-0.04318694 3294:-1.1522564e-014 3295:-1.4270472e-014 3296:-0.00016043996 3297:2.8938513e-017 3298:-9.0627037e-012 3300:2.421491e-018 3301:0.57610649 3302:-4.3356853e-020 3303:-0.12398993 3304:0.028481463 3305:-2.1170713e-011 3306:0.13560182 3307:0.17547294 3308:0.023691304 3309:0.023058942 3310:-6.4577982e-013 3311:4.9564057e-017 3312:0.024419459 3313:-4.9550691e-020 3314:-0.013281959 3315:-0.048605919 3316:-9.3840038e-021 3317:0.078451067 3318:1.5246383e-021 3319:-1.2765262e-017 3320:-0.0053120027 3322:-0.27425036 3323:0.51211387 3324:-5.6505744e-013 3325:-4.7192415e-013 3326:1.9231953e-016 3327:0.036300927 3328:-0.034496017 3329:-0.00035318191 3330:-3.026681e-017 3331:-0.15995622 3332:-0.053096659 3333:-8.3433737e-013 3334:0.03057448 3335:-0.21810128 3336:-0.02057909 3337:-0.14057066 3338:0.20313521 3339:-0.04098599 3340:-0.069729857 3341:0.073168464 3342:8.6509413e-019 3343:-0.43715909 3344:-0.084466733 3345:-0.01116546 3346:0.025306702 3347:7.172153e-018 3349:-0.25858787 3350:0.86382622 3351:-0.0041769622 3352:-0.33313888 3353:0.042555042 3355:0.12086325 3356:-0.19383031 3357:-5.5358029e-018 3358:0.12629537 3359:1.20333e-011 3360:-0.023858014 3361:-0.42471752 3362:-0.0075141378 3363:0.023658974 3364:0.0080738766 3365:0.69716537 3366:-0.024783116 3367:-0.33119407 3368:-1.1338225e-018 3369:-0.086082943 3370:-0.046146933 3371:0.073005319 3372:-0.54611295 3373:0.0004342586 3374:-0.52085245 3375:0.10984538 3376:0.0015837462 3377:-4.8433496e-013 3378:-0.022678208 3379:0.020927656 3380:0.0088752797 3381:-5.1531126e-014 3382:-0.036517162 3383:-0.18118297 3384:-0.011011042 3385:0.4424248 3386:0.1345908 3387:0.19490796 3388:9.4335752e-005 3389:-0.41210315 3390:0.350591 3391:-0.56529254 3392:-0.22134492 3393:0.0019335273 3394:-0.024613328 3395:-1.1301148e-012 3396:-2.2807678e-013 3397:0.00038115485 3398:-0.27183828 3399:-0.0040965602 3400:-2.334183e-012 3401:-0.075156756 3402:-0.00035100451 3404:-0.11856245 3405:-0.24286814 3406:-0.070976809 3407:-0.085396424 3408:0.19457512 3409:-0.021135239 3410:-0.034601022 3411:-0.00088721176 3412:0.14859556 3413:-0.3191652 3414:-0.22179903 3415:0.52992278 3417:0.051088065 3418:-1.82463e-013 3419:4.1106119e-005 3420:0.46150047 3421:-0.030049989 3422:0.28164551 3423:0.0061017438 3424:-0.036254246 3425:-0.31677103 3426:-0.40787968 3427:0.044737779 3428:-0.13774373 3429:-0.3004849 3430:-0.029771037 3431:-0.182244 3432:0.1565491 3433:0.79064548 3434:4.9493673e-012 3435:0.55096495 3436:-0.57180315 3437:-0.016857641 3439:-0.0002848166 3440:-0.059861794 3441:-1.2076931 3442:-0.62002426 3443:-0.0041838884 3444:0.4652226 3445:-0.03367427 3447:0.03550436 3448:-2.2851671e-020 3449:-0.32416293 3450:-0.0071073454 3451:-0.0063483655 3452:-0.17149371 3453:0.45625281 3454:-0.1988695 3455:0.43980917 3456:0.0052523832 3457:0.62680596 3458:0.025531808 3459:0.083294362 3460:0.13229588 3461:-0.0012875271 3464:-3.2703271e-020 3465:0.0013588142 3466:-0.00085704849 3467:0.018710345 3468:-0.040135887 3469:6.1484738e-019 3470:2.2770399e-005 3471:-0.06497822 3472:0.0006462349 3473:-3.096918e-020 3474:-0.15497333 3476:0.13045503 3477:-2.133894e-017 3479:0.2300068 3480:-0.14897653 3481:-2.0517814e-019 3482:0.012694285 3483:0.0008872117 3484:-0.017928677 3485:-0.001713499 3486:0.41534197 3487:0.27263251 3488:0.037701979 3490:-4.6564153e-021 3491:-9.1214979e-014 3492:-0.0065773153 3493:-0.48987138 3495:0.039549809 3496:-0.099467494 3497:0.60862863 3498:0.24383962 3499:-1.0666081e-013 3500:-2.5604848e-017 3501:0.16017886 3502:0.083010308 3503:-0.061670952 3504:-0.1325939 3505:1.0076452e-016 3506:-6.2924362e-013 3507:-0.27460247 3508:0.0054809498 3509:0.26791355 3510:-0.11166814 3511:-0.350591 3512:0.063781269 3513:-0.014612769 3514:0.097447388 3515:-0.0018400211 3516:0.1001967 3517:-1.9489841e-017 3518:-0.012827491 3519:0.0014375054 3520:0.12757422 3521:0.32090688 3522:0.30591679 3523:0.063715689 3524:0.067244627 3525:0.11035321 3526:0.15058236 3527:0.0071822456 3528:-6.5079788e-013 3529:0.32827535 3530:0.41296902 3531:-0.11386108 3532:0.076099873 3533:-0.01128813 3534:1.143713 3535:-0.40118593 3536:-0.027483502 3537:0.19145383 3538:0.038808394 3539:-0.099125162 3540:-0.00089323078 3541:0.309084 3542:0.086123288 3543:0.006281741 3544:0.3340233 3545:-2.8087415e-013 3546:0.0092023732 3547:-4.4574856e-019 3548:1.1583457e-016 3549:-4.132828e-018 3550:0.18677264 3551:0.0063410052 3552:-2.1946791e-012 3553:-0.032127462 3554:0.81094432 3555:-0.23596314 3556:-0.061084229 3557:7.919346e-006 3558:7.1757795e-020 3559:6.1696601e-013 3560:0.020889662 3561:0.018194027 3562:0.00045904645 3563:0.29709446 3564:-0.015709605 3565:0.067184404 3566:-0.0053998795 3567:-0.020604124 3568:-0.0090088649 3569:-0.012605528 3570:0.059236299 3571:0.33874762 3572:0.00017243803 3573:0.20952733 3574:-0.15071858 3575:0.00036806369 3576:-0.026115274 3577:0.051930897 3578:-0.38267869 3579:0.072856717 3580:-0.080223836 3581:0.5298757 3582:-6.2256872e-018 3583:0.19780774 3584:0.045275055 3585:0.078004055 3586:-0.20134193 3587:0.22023405 3588:0.2104073 3589:0.066103138 3590:0.0075753424 3591:1.1480552e-017 3592:-0.42283955 3593:0.64521009 3594:-0.0074275215 3595:-0.14988627 3596:0.00088721176 3597:-0.2992259 3598:-3.0265515e-018 3599:-4.9550691e-020 3601:0.29983062 3603:0.012786998 3604:-0.00027930824 3605:-0.16687781 3606:0.25162616 3608:-1.7787677e-018 3609:-1.5442449e-018 3610:-0.03085202 3611:-3.084398e-013 3612:-0.027183089 3613:-0.069467582 3614:0.017275525 3616:-0.0046121688 3617:0.0073627895 3620:-0.023785153 3621:-0.0054794326 3622:0.57608676 3623:-0.059475303 3624:-0.10074581 3625:-0.051336441 3626:-4.5311967e-013 3627:-2.3716906e-018 3630:-2.5983149e-015 3631:-2.822352e-005 3632:0.26839668 3633:-0.073509656 3634:-1.2120024e-017 3635:-0.080757141 3636:0.14935489 3637:3.4849619e-012 3638:-9.5470581e-014 3640:-1.2106205e-018 3641:0.53831381 3642:1.3098835e-011 3643:-0.0045583118 3644:-0.037778735 3645:0.61504304 3646:0.12615648 3647:7.4400799e-014 3648:-0.11376747 3649:-4.9550691e-020 3650:-0.40883479 3651:-0.18741846 3652:0.081566095 3653:-0.29129452 3654:-0.039321903 3655:-1.1603875e-021 3656:-0.021793051 3657:-0.021191714 3659:-0.0012879991 3660:-4.6495551e-017 3661:-0.25008348 3662:0.49191013 3663:0.24178667 3665:-0.066311665 3666:-0.33254355 3667:-5.6174705e-013 3668:-0.43758583 3670:-0.48379871 3671:0.17069331 3672:-0.095811576 3673:-0.035128169 3674:-0.00012856949 3675:-0.00088503526 3676:0.0097284755 3678:0.00085626857 3679:-2.9872321e-017 3680:0.2887392 3681:0.0020787721 3682:-2.4775344e-020 3683:-0.00068888906 3684:-0.023058357 3686:-0.012552029 3687:-0.50223237 3688:0.076258518 3689:0.10696934 3690:0.0051064277 3691:0.20465268 3692:-0.018269371 3693:0.00015848066 3694:-0.0064377198 3695:0.010390337 3696:-0.080074258 3697:-0.0048997989 3698:0.00025492153 3699:0.32658842 3700:0.025761548 3701:0.019862836 3702:-6.8989302e-013 3703:-0.041984178 3704:-1.9417581e-013 3705:-0.0085400222 3706:0.074593894 3707:-0.098946415 3708:0.079550117 3709:-0.46353173 3710:0.39315978 3711:-0.033712465 3712:1.837419e-020 3713:-0.028888062 3714:-6.4100268e-019 3715:0.093301713 3716:0.24515522 3717:-9.2907543e-020 3718:-3.7128519e-018 3719:-2.4775345e-020 3720:-2.2466088e-019 3721:0.0014367716 3722:-1.4108325e-017 3723:0.00055451156 3724:0.024523091 3725:-0.11862137 3726:1.3430478e-016 3727:-0.04438043 3728:-0.22595926 3729:-1.7073105e-012 3730:-0.00021393198 3731:-0.00010325373 3732:-4.9550691e-020 3733:-2.3735408e-017 3734:-0.045484833 3736:-3.5575355e-018 3737:-0.083610475 3738:-1.2601713e-018 3739:-2.3716906e-018 3740:-9.7207941e-018 3741:-7.7189274e-019 3742:0.063476205 3743:-0.2376527 3746:1.6361478e-014 3748:-0.010368099 3749:2.5968937e-016 3750:0.004014133 3752:-0.039076116 3753:0.023197696 3754:0.026816074 3755:8.8622379e-005 3756:-2.4775345e-020 3757:-3.9280847e-018 3758:0.018710343 3759:-0.044167977 3760:-1.2353959e-018 3761:0.00039507163 3762:0.49999139 3763:-0.0076521337 3764:0.079358265 3765:0.54339451 3766:-0.15626085 3767:0.17937382 3768:-1.8008539e-017 3769:-0.00070802827 3770:-1.2059779e-015 3771:-3.5095936e-013 3772:-2.3716906e-018 3773:0.17396595 3774:-0.091485828 3775:1.3838007e-017 3776:-0.00013580592 3777:0.021642556 3778:-0.032002483 3779:0.0047364263 3780:0.18934576 3781:-0.011910631 3782:-7.0003851e-005 3784:-0.51489186 3785:-5.3471901e-012 3786:-1.1858453e-018 3787:0.070186347 3788:-0.16348118 3789:0.48987633 3790:-0.015118806 3791:0.12550512 3792:-0.0026192383 3793:-0.015852999 3795:0.5416736 3796:0.48812971 3797:0.18626837 3798:-1.756227e-017 3799:0.098020554 3801:-3.7128523e-018 3803:-0.07321889 3804:-1.8483371e-018 3806:-0.13781403 3807:-0.32606456 3808:5.8057058e-006 3809:-0.00020880811 3810:0.87151557 3811:-0.063963823 3812:-0.52573669 3813:0.00012792303 3814:-0.20849311 3815:0.28097725 3816:-6.8265272e-012 3817:-5.4072881e-013 3818:-0.00011513145 3819:-0.011020171 3820:-0.1648003 3821:0.74169302 3822:-2.3716906e-018 3825:0.10590841 3826:-0.036343288 3827:0.071724325 3828:-2.2753068e-019 3829:-0.058730349 3830:-1.4979518e-017 3832:-0.095100939 3834:-1.6103975e-019 3836:-0.0024108458 3837:0.00014352915 3838:-0.16663635 3839:-0.152806 3840:-0.56169194 3841:-2.4775345e-020 3843:-1.9593266e-018 3844:-0.0023883542 3845:-0.15678504 3846:-1.2359572e-018 3847:0.56091481 3848:-4.4915525e-019 3849:-1.4351609e-016 3850:-0.016953371 3851:-1.0730625e-017 3852:-8.5349496e-018 3853:-2.4240048e-017 3854:0.0047364263 3855:-0.54050404 3856:0.21410799 3857:0.017635262 3858:0.36404976 3859:3.2076218e-017 3860:0.0035195134 3861:0.010976912 3862:0.5074842 3863:0.011551271 3864:-1.193083 3865:-0.200178 3866:0.027306857 3867:-5.2686806e-017 3868:-0.48854592 3869:-0.065782674 3870:-0.24250548 3871:0.00027063303 3872:0.074919358 3874:-4.9550691e-020 3875:-1.3110868e-005 3876:-0.076858953 3878:9.6600847e-016 3879:-2.1064646e-013 3880:-0.0041084974 3882:-9.6323718e-005 3883:-0.47172859 3884:-2.3716906e-018 3885:0.018089455 3886:0.17103107 3887:-0.46917722 3888:-0.047657739 3889:-2.3716906e-018 3890:0.021326201 3891:-0.052028783 3892:0.76037043 3893:-0.27107289 3894:-0.00037080972 3895:-0.10607063 3896:-0.067916483 3897:0.15747988 3898:0.15593925 3899:-0.037361253 3900:-0.028394755 3901:-0.32626966 3902:-3.3000358e-013 3907:-1.2357503e-013 3909:-0.017552286 3910:-1.8246995e-013 3911:-0.14581776 3912:0.00014106484 3914:0.044386473 3915:-0.026261255 3916:0.36579308 3917:0.00065400032 3918:-0.13184419 3919:-0.6482746 3920:-0.075018883 3921:0.02184651 3922:-2.9872321e-017 3923:-0.0033530651 3925:-0.22007222 3926:0.22648925 3927:-0.00016647577 3928:0.068467967 3929:0.93685383 3930:-0.11789331 3931:-8.0140249e-005 3932:0.021224141 3933:-0.021191714 3934:-0.00035344853 3935:0.00040282379 3936:0.044629231 3937:0.91473997 3938:-2.851118e-012 3940:0.20151857 3941:-0.10070041 3942:-0.19492975 3943:-0.14982378 3944:-0.33614036 3945:-0.05172573 3946:-0.38847551 3947:0.33230144 3948:-2.2326732e-016 3949:8.9658762e-017 3950:0.15945475 3951:0.46599945 3952:2.443293e-018 3955:-4.7494646e-023 3956:-0.29931054 3957:-0.00013259061 3958:-0.1389993 3959:-0.018240038 3961:-1.5906398e-018 3962:0.7655316 3963:-1.9882998e-018 3964:0.17289759 3965:0.00071250257 3967:0.3640497 3968:4.4915525e-019 3969:0.035587888 3970:-4.0276457e-013 3971:-0.00012777759 3974:-0.0055715721 3975:0.0079779001 3976:0.18594624 3977:-0.00023987841 3978:0.042660553 3979:-0.04044788 3980:-4.8113761e-012 3981:0.00029673291 3982:-0.24815954 3983:-0.0790786 3984:-0.047096565 3985:0.33867711 3986:0.13242039 3987:-0.076080747 3988:0.11659819 3989:0.014300866 3990:-0.00083598023 3991:0.3905344 3992:0.079291396 3994:-8.6665874e-019 3995:-0.0083700707 3996:0.11411643 3997:-0.49481729 3998:0.043259934 3999:0.37159866 4000:0.0071345046 4001:0.4067719 4002:0.64259648 4004:-5.6624313e-020 4005:0.00010655061 4006:-0.010753345 4007:-0.10858453 4008:-0.41692337 4009:-2.1338942e-017 4010:-0.012129057 4011:-3.3861505e-017 4012:0.51879334 4013:-0.0010849644 4014:-1.1858452e-018 4016:-0.005946422 4017:0.08156199 4019:-0.02986704 4021:1.1754658 4022:0.1609221 4023:-1.3209783e-012 4024:-0.00081777503 4025:0.2866042 4026:-3.2114625e-005 4027:-0.030559968 4028:-0.25008348 4031:-5.8867936e-005 4032:-0.00070802821 4033:-1.2943892e-005 4034:-7.115071e-018 4035:-3.8451733e-012 4036:0.04550761 4037:-0.5170387 4038:0.031844214 4039:-0.35836622 4040:0.18809372 4041:0.18810883 4042:-1.6758429e-013 4043:0.034941353 4044:-3.5575359e-018 4045:-0.023858014 4046:-0.00057962991 4047:-0.41391715 4048:-3.4416509e-005 4049:0.350591 4050:-0.041928884 4051:-0.11208352 4052:0.46234074 4053:0.011504242 4054:-2.4775345e-020 4055:-0.19322124 4057:0.03550436 4058:-1.5172061e-019 4059:0.0019657097 4060:0.0055361153 4061:0.026028002 4062:-0.026470257 4063:2.1913401e-015 4064:0.037381612 4065:-2.5604848e-017 4066:-0.16302492 4067:-4.0614051e-014 4069:0.097447388 4070:0.12757422 4071:0.067244627 4072:0.10956806 4073:-0.13289058 4074:0.076099873 4075:-0.52573669 4076:-0.17388973 4077:-0.54050404 4078:0.21410799 4079:0.061188858 4080:0.36404976 4081:3.2076218e-017 4082:4.9160342e-016 4083:-0.0072832792 4084:-0.083610475 4085:-7.4886955e-020 4086:1.437398e-005 4087:-3.5575359e-018 4088:-0.34557071 4089:0.031844214 4090:0.2104073 4091:-0.42283955 4092:-0.14988627 4093:-0.00027930824 4094:0.017275525 4095:-7.0003851e-005 4096:-0.6488505 4097:-0.16098638 4098:-0.3055822 4099:-0.12143952 4100:-7.183534e-015 4101:-1.2387672e-019 4103:-2.9872321e-017 4104:0.2887392 4106:-1.9417581e-013 4107:-0.29243332 4108:0.031077012 4109:0.033904314 4110:0.014300866 4111:-0.00010493219 4112:0.069233425 4113:-9.7718905e-015 4114:0.3905344 4115:0.29814821 4116:0.29754284 4117:0.77526569 4118:-0.24684882 4119:0.28391665 4120:-5.4072881e-013 4121:0.0047364263 4122:0.23998518 4123:-2.3716906e-018 4124:0.76037043 4125:-0.34450978 4126:1.0188491e-017 #
