SVM-light Version V6.20
0 # kernel type
3 # kernel parameter -d 
1 # kernel parameter -g 
1 # kernel parameter -s 
1 # kernel parameter -r 
empty# kernel parameter -u 
4128 # highest feature index 
344 # number of training documents 
2 # number of support vectors plus 1 
1.1259246 # threshold b, each following line is a SV (starting with alpha*y)
1 1:-0.09991695 2:-0.010968762 3:-0.029236378 4:-5.1049656e-014 5:0.00074700959 6:0.053342443 7:-0.013350909 8:0.00013678864 9:-0.48118293 10:-0.017223323 11:0.1762249 12:0.001807748 13:0.059607252 14:0.0014818398 15:0.49052718 16:-0.32955036 17:-0.08391016 18:-0.1371633 19:-0.14080116 20:-3.0620897e-013 21:0.040954892 22:0.68239003 23:-0.48865148 24:-0.37918508 25:0.03238615 26:-0.38424578 27:0.010334518 28:-4.2700335e-012 29:0.3207725 30:-6.2925672e-012 31:-0.21168257 32:0.04931327 33:0.32693583 35:0.19049896 36:0.25729337 37:0.23476982 38:-0.83349097 39:0.018833872 40:0.49963588 41:-0.14723338 42:-0.03470948 43:1.4435731e-019 44:4.6524199e-018 45:0.10258192 46:0.41466823 47:0.43414208 48:0.16664119 50:0.01469584 52:-0.14024274 53:-0.13833496 54:0.043555666 55:-0.082715139 57:1.9438517e-015 58:0.22587243 59:-0.11480273 60:-0.055529308 61:0.18232532 62:-0.013778659 63:0.013638884 64:0.0004921506 65:0.26182139 66:0.30107936 69:-0.12737763 71:0.39768383 72:0.015610734 74:-0.0059709353 75:0.19368918 76:-0.32447061 77:-0.0091409981 78:-0.00018973502 79:-0.27992746 81:4.7915487e-022 82:-0.44438902 83:-0.007972951 84:0.042096041 85:-0.030413229 86:-0.063409723 87:-0.047671176 89:-0.0037672191 90:-0.043960363 91:-1.0073844e-017 92:0.73731118 93:-0.09300594 94:-0.098617122 95:-0.31421512 96:-0.34849522 97:-0.87551695 98:-0.019257462 99:-7.8664714e-005 100:0.64877516 101:0.00014531544 102:-0.056458265 103:0.01766319 104:-0.29954758 105:-0.20280647 106:-1.8336265e-017 107:0.00071888982 108:-0.14085248 109:-0.23072895 110:-1.068681e-019 111:-0.30994326 112:-7.1255679e-018 113:-0.0021565307 114:-1.0362241 116:-0.0017628832 117:0.11314013 118:-0.0096412329 119:0.38623428 120:0.0026273036 121:0.0022440613 122:-0.27661848 123:-0.29721582 124:0.073297918 125:0.035444707 126:-0.066172883 127:0.61593843 128:-8.7536584e-012 129:-1.210573 130:5.2333473e-014 131:-0.01343001 132:-0.00011895484 133:-0.0043183309 134:0.045005873 135:5.0674983e-021 136:-9.6633251e-017 137:-0.044644751 138:0.9601199 139:0.36307314 140:-0.082436405 141:-0.074599139 142:0.28626576 143:0.11976597 144:-0.0044332519 145:-0.074332133 146:0.00059423328 147:9.3205053e-012 148:1.7080306e-016 149:0.27767164 150:-0.068418145 151:0.026563765 152:0.42624241 153:0.12025197 154:-0.26889807 155:0.014026345 156:-5.4264124e-017 158:0.20449254 159:0.067432985 162:-6.1999754e-017 163:0.062859178 164:0.43298623 165:0.073439837 166:0.15649778 167:0.20139958 168:0.12570845 169:0.27443832 170:0.13458416 171:4.6606142e-006 172:0.2432858 173:-3.9816483e-012 174:-0.078389682 175:0.81454021 176:-0.010791885 177:0.0040265415 179:-8.2332466e-015 180:-0.39441806 181:0.18443833 182:0.042471338 183:0.00011371534 184:0.42922345 185:-0.081425384 186:-0.16341549 187:-0.01484034 188:0.81190169 189:-0.063803144 190:-0.069158174 191:0.051671781 192:-0.59578568 193:0.00050509814 194:1.050506 195:-0.22268859 196:0.20155993 197:-0.046904709 198:0.022227598 199:-0.032854423 200:-0.10772213 201:-0.29769772 202:0.24223948 203:0.023435948 204:-0.048368096 205:0.13175395 207:0.00074143405 208:0.11592019 209:0.074118182 210:0.14553519 211:0.6840868 212:0.22201179 213:-1.5794342e-019 214:-8.2362477e-015 215:-4.9989745e-019 216:-1.349389e-020 217:-0.00049615104 218:0.041326042 219:-0.19272877 220:0.052936148 221:0.21615449 222:-0.014592955 223:-0.11746804 224:-0.48182195 225:-1.1280686e-012 226:-0.19992323 227:-0.043969002 228:0.57394367 229:0.54378742 230:0.0082586948 231:0.01927029 232:-1.0972227e-011 233:0.068147384 234:-0.0010175596 235:3.9471961e-006 236:0.032968186 237:0.24250044 238:-0.0051891305 239:-2.9412575e-014 240:0.00015157762 241:0.00014643594 243:0.023164373 244:0.085855961 245:-0.057665411 246:-0.17670356 247:-0.23220652 248:-0.62572855 249:0.19123988 250:-0.078365348 251:1.4765409 252:-9.9979491e-019 253:-0.1421371 254:-0.34361368 255:-0.70981395 256:-0.06861525 257:-0.20008762 258:-0.2211737 259:-0.17461334 260:0.6759848 261:0.0008872117 262:0.42272213 263:0.32834789 265:0.012413492 266:-0.36460963 267:-0.96136367 268:-0.10646646 269:0.015930181 270:0.0038097305 271:0.41324469 272:-0.021852203 273:0.18106727 274:-0.00060273777 275:-3.7868613e-019 277:-0.39271584 278:0.068768851 279:0.14529248 280:0.17814799 281:-0.082961857 282:-3.5192976e-014 283:-0.0050507835 284:0.023136158 285:0.23628549 286:0.017402895 287:0.12123738 288:-0.27226439 289:0.44899389 292:0.34241435 293:1.0185815 294:-0.12995695 296:-0.0040553734 297:0.17323545 298:0.2119728 299:-0.1833137 300:-0.010882976 301:0.16200206 302:0.00020824031 303:0.094966613 304:0.053838477 305:0.23921289 307:-1.8872238e-013 308:-4.0235813e-014 309:3.0176021e-005 310:0.0010424405 312:0.12010891 313:-0.64976299 314:-5.5161042e-014 315:-0.078589275 316:-1.0872901e-015 317:1.1805155e-013 318:0.26043144 319:-0.075340301 320:-0.01977225 321:0.0021059064 322:-5.8339576e-015 323:0.029702313 324:-0.17364514 325:0.029023651 326:-0.015710317 327:-0.042492837 328:-0.013475937 329:-5.2704087e-013 330:-0.091869876 331:-0.18533316 332:0.036829688 333:0.22329178 334:-0.21964706 335:-0.00012931145 337:-0.00097676751 338:0.0012158871 339:-0.02175007 340:0.10407527 341:-0.10248075 342:-0.27223876 343:-0.33334881 344:0.33334664 345:-2.3559783e-017 346:-0.14665955 347:-0.34804267 348:-0.022929529 349:0.039100267 350:-0.016133701 351:3.488587e-005 352:0.00048432176 353:-0.12802112 354:-6.2709928e-014 355:-0.0043095029 356:-0.056856047 357:-0.0043511833 358:0.209883 360:1.1047654 361:-0.063957572 362:0.020280572 363:0.041649897 364:-0.017843032 365:-0.14450173 366:-0.0070929383 367:-0.13574184 368:0.072825104 369:-0.52416009 370:-0.032310005 371:-0.081686966 372:0.028697737 373:-0.037451234 374:-0.003068225 375:0.55576223 377:-0.45308137 378:0.0040629795 379:0.037775189 380:-0.093311861 381:-0.52091694 382:-0.087164849 383:-0.018642321 384:-0.13381241 385:0.2849623 386:-0.68372095 387:-3.2121898e-005 388:-0.02672313 389:0.29204142 390:0.036231868 392:-0.30788207 393:0.052070234 394:0.066185236 395:-0.051574744 396:0.0089480169 397:7.690947e-020 398:0.1778719 399:0.301274 400:0.00015957217 401:-0.1605947 402:-0.40712258 403:-0.12560715 404:-9.9979491e-019 405:-0.18672273 406:-0.061251387 408:-0.15460807 409:-4.9989745e-019 410:-1.3603232e-017 411:-7.4984615e-019 413:-3.1369072e-014 414:0.0073319403 415:0.65130925 416:-4.9989745e-019 417:0.057765983 418:-1.0933265e-016 419:-0.69527924 420:-0.004072079 421:-0.16662993 423:-0.046856694 424:-0.57380629 425:-0.073736191 426:0.001198733 427:-0.16662993 428:-0.058414351 429:-0.036684517 430:-9.997948e-019 431:0.037106056 432:0.0004533272 433:-1.1247692e-018 434:-0.30218396 435:0.86780041 436:-0.29943794 437:0.47781512 438:-0.015044921 439:0.030082595 440:-0.048689827 441:-0.079139329 442:-0.012332915 443:-4.7556085e-005 444:-0.089520089 445:-0.53951794 446:0.48223144 448:-4.1083166e-017 449:-0.00026062917 452:-2.846516e-012 454:-6.6085879e-018 455:1.1909725e-014 456:-0.16662994 457:-0.0062143072 458:-0.018621327 459:0.12104671 461:0.016654572 462:-7.4984615e-019 463:-0.029122718 464:0.61812061 465:-0.039052412 466:0.00010502112 467:0.2083464 468:0.051783532 469:0.034045696 470:-2.2103046e-020 471:-0.147614 472:-0.014817039 474:-0.0097842384 475:1.2658125 476:-0.158544 478:0.0050351936 479:-0.017281001 480:-0.0069526774 481:-0.19301245 483:0.081529155 484:-0.0034068411 485:0.29538459 486:0.00044464195 487:-0.00059949467 488:-5.4089459e-013 489:-5.4981119e-014 490:-0.00080528774 492:-0.0017507721 494:-0.0044385134 495:0.99188423 497:-0.047967192 498:-9.9979511e-019 499:-0.3155857 500:3.2890723e-017 501:-0.15124661 502:-0.0097510973 503:-0.00067858532 504:-1.1036091e-018 505:-1.6679663e-014 506:-4.9989745e-019 507:-0.022832669 508:-2.7189102e-005 509:-0.57287753 510:-0.48023507 511:-0.2101147 513:0.016372709 514:-7.9697826e-017 515:-0.032434221 516:-6.3965903e-012 517:0.48382235 518:2.0233775e-018 519:-1.918766e-016 520:-0.018268501 521:-9.7492142e-013 522:-0.00094474194 523:0.00019582828 524:0.062457334 526:-0.040291205 527:0.000182841 530:-5.1049656e-014 531:-0.055256896 532:0.47304296 533:-3.54347e-017 534:4.2004496e-005 535:-0.30560282 536:4.8107547e-017 537:-0.50506383 539:0.31946337 540:-0.018982988 541:0.10999019 542:-8.4566676e-019 543:-0.01876368 544:-4.7836823e-014 545:-0.00010089089 546:0.17841336 547:-8.3014337e-017 548:-0.51390678 550:0.0014546135 552:0.7088815 553:-0.035485506 554:-0.14184441 555:-0.00028598914 556:-0.03943821 557:-0.061350103 558:-0.013204521 559:0.074773163 560:4.5046569e-020 561:1.9827222e-015 562:-0.17345266 563:-9.4706642e-020 565:-0.13268007 566:-1.9818299e-015 568:-0.00024868306 569:-0.023864819 570:-0.0063891453 571:-1.5468473e-005 572:-0.16019742 573:-3.6456026e-019 575:-0.045080494 576:-0.009544435 577:-0.38691571 578:-6.3584288e-005 579:-1.5730776e-016 581:-0.0047676214 582:-0.21868651 584:-0.29505655 585:0.17791182 586:-0.048247889 587:-3.4662677e-020 588:0.014157803 589:-3.1151013e-015 590:-0.0039395639 591:-0.072380245 593:0.18330686 594:-0.036414079 595:-0.20945689 596:-0.097524382 597:0.12669069 598:-0.025361309 599:0.052643675 601:0.43511117 602:-0.022968268 603:-0.35329428 604:-0.00027748957 605:-0.069158174 606:0.052210428 607:-0.096523643 609:0.075105615 610:-0.45801187 612:0.25966045 613:-5.6040879e-014 614:-2.4253293e-012 615:-0.10476925 617:-0.043743726 618:0.22755346 619:0.0073560877 621:-1.5917388e-013 622:-4.7915487e-022 623:0.84576237 624:-0.00011769643 625:-0.061018586 626:-0.11659987 627:0.15826146 628:0.37679082 629:-0.021284493 630:0.012577869 631:0.24812269 632:-0.23414491 633:-1.0385678e-011 634:-0.19026557 635:0.0046868166 636:-0.00064805837 637:-0.1687291 638:-0.098555073 639:0.067358308 640:-2.037901e-013 641:0.33165726 642:-0.36472079 643:-1.0356324 644:-0.34257674 645:-0.0016363185 646:-0.11329658 647:-0.0048781801 648:0.18773086 649:-1.4040528e-005 650:-0.28315482 651:2.2533504e-005 654:-0.046860334 655:-0.16168529 656:0.028589673 657:0.34348229 658:-0.033762541 660:0.0069849361 661:-0.003704153 662:-9.2520226e-018 663:0.10990635 664:0.040181786 665:-0.00015170382 666:-9.9979491e-019 668:3.8117531e-017 669:-0.051580619 670:-0.25944856 671:0.012706341 672:-0.029403469 673:-4.44239e-012 674:-0.15163289 675:-0.14291483 676:0.81704921 677:6.0003055e-014 678:-0.0076883081 679:0.15192831 680:0.070821635 681:-0.0050737252 682:-0.028389936 683:0.00076589576 684:-0.74708599 686:0.38926569 687:0.4757399 688:-9.1766868e-021 689:0.31613415 690:-0.4948456 691:-4.9989745e-019 692:6.7465451e-005 693:0.00074204366 694:-4.312997e-005 695:-0.043932192 696:0.20499445 697:0.20619641 698:0.45016432 699:-0.015512621 701:-4.3990726e-019 702:-4.9989745e-019 703:-0.0012481986 704:0.34141311 705:0.36422318 706:-5.980264e-014 707:0.60567945 708:-0.004220135 709:2.8106598e-017 710:-0.30530605 712:0.087942056 713:0.0054739029 714:0.41322258 715:-0.5111956 716:-0.0047587645 717:-0.00036243087 718:0.27986613 719:0.0013077782 720:-4.6955127e-005 721:0.99065781 722:-0.13170512 723:0.049015179 724:-0.17174108 725:-0.035141852 726:-0.004428478 727:-1.8816609e-018 728:0.0044924258 729:-3.1349679e-014 730:-0.16129819 731:-4.1174356e-014 732:0.20082718 733:-3.156888e-020 734:-4.5883434e-021 735:0.065089047 736:0.064453222 737:-2.3556759e-013 738:0.19689615 739:-0.096159801 740:0.76045561 741:-0.35900652 742:0.59178919 743:0.29372725 744:0.00037674751 745:0.004027776 746:-9.5830964e-022 747:-2.0611375e-005 748:-0.32048535 749:-4.9989745e-019 750:0.059505071 751:-4.9989745e-019 752:1.0878696 753:-0.033139806 754:0.32786343 755:0.11659739 757:-0.31556943 758:0.65699834 759:-0.021965131 760:-0.019885773 761:-0.012343925 762:-0.0044375253 763:0.027587617 764:0.00052122027 765:-0.0020006683 766:0.24342838 767:0.12619959 768:-0.80437005 769:-6.2699351e-014 770:-0.16629843 772:-0.00011368748 773:-0.025402216 774:-0.15463093 775:6.8719942e-020 776:-0.054557621 777:-0.096213341 778:-0.29704028 779:-0.91985661 780:-0.073372625 781:2.0195813 782:-0.15053464 783:0.011097201 785:0.18339467 786:-0.03047329 787:-0.15738824 788:-0.012020966 789:-0.00069697428 790:-0.42369083 791:-0.038586475 792:-0.27013299 794:0.7489413 796:0.14868905 797:0.032801833 798:-0.073616683 799:0.19282492 800:-0.00051598216 802:-9.9979491e-019 803:4.6524199e-018 804:-0.022000283 805:-0.014931712 806:0.011191264 807:-0.0019774998 808:0.017686464 809:-0.23319952 810:-0.34921911 811:-0.010206355 812:0.011960643 813:-0.33236417 814:-0.011784836 815:0.001558536 816:-0.15936191 817:0.4679901 818:-0.008654085 820:-0.15736865 821:-5.104932e-014 823:-0.014175801 824:-0.21355431 825:-0.17778468 826:0.97808993 828:1.0018134e-014 829:-7.9303054e-018 830:0.63554454 831:-0.096263714 832:-0.018473387 833:-0.28743118 834:-5.2868707e-018 835:-4.4865615e-018 836:-0.00077054359 838:1.6474272e-005 839:0.0018067107 840:-0.032940272 841:-0.0020051296 842:0.17396595 843:0.71243715 844:0.10795033 846:0.14401948 847:-0.03403246 848:-0.68778521 849:0.0071736258 850:-0.098908953 851:0.81435531 852:-0.083065063 853:-1.032551e-011 854:-0.096902676 855:-2.5553102e-018 857:-0.25748202 858:0.28470391 859:-0.1664571 860:0.38569885 861:-0.21945949 862:-0.00027240172 863:8.3152961e-005 864:0.29747957 865:-0.088285841 866:0.47799924 867:-0.14730123 869:-3.1982956e-012 870:-0.067112356 871:0.022950048 873:-4.1129457e-005 874:-0.058768101 875:-0.036616888 876:0.0025512988 877:-0.0028337492 878:0.055997375 879:0.031086612 880:-0.066435859 882:-0.07081224 884:-0.7723856 885:-0.061952673 886:0.0051888167 887:-3.7977275e-005 889:-0.25509259 890:-0.0042040385 891:-0.15124376 892:0.16062668 893:-0.023303652 895:-0.066674389 896:0.00010317875 897:0.052586466 898:-8.7482053e-019 899:-9.2520226e-018 900:-0.14280345 901:0.0007847207 902:-0.11719319 903:-0.043711994 904:2.9435486e-014 905:0.011447481 907:-0.03226741 910:0.018710343 911:-0.00063297671 912:-0.013934074 913:-0.27526167 915:-0.029125793 916:-0.2730653 917:-1.2497437e-018 918:0.19121143 919:-0.0026300985 920:-0.35354659 921:-7.0590303e-017 922:0.0066184048 923:-3.9614028e-005 924:0.039996136 925:-0.028746378 926:-0.098906733 927:-6.6085879e-018 929:0.087965503 930:-0.703866 932:5.5710319e-007 933:0.0032775979 934:-8.6334056e-012 935:-1.4996923e-018 936:5.8602188e-007 937:-0.009544435 939:1.8774614e-005 941:-0.38825607 942:-0.54789692 944:4.7915482e-022 945:0.86235881 947:1.7685592e-006 948:-0.03852082 949:-1.3967335e-019 950:0.014157802 951:-0.1821501 952:-6.2487183e-019 953:-6.2487183e-019 954:-5.1110583e-017 956:-0.2847093 957:0.00025079015 959:1.857877e-018 960:-6.6085879e-018 961:0.12456715 962:-0.25228107 963:0.0050331764 964:0.0049805837 965:-0.017281001 966:-0.014092488 967:-0.017053502 968:0.90303278 969:2.0437466e-005 970:-4.7869732e-018 971:0.046988387 972:0.012557375 973:-0.14191882 974:0.59572661 975:-0.001396696 976:0.074773513 977:0.014489365 978:0.78189784 979:-4.6268319e-018 980:-0.03963761 981:0.0046289167 983:0.10290235 984:-5.5134469e-012 985:0.0008872117 986:-0.27937195 987:-0.16876951 988:0.010127888 989:-0.097911105 991:0.30581957 992:0.047092848 993:-7.4984626e-019 994:-5.2868707e-018 995:-0.1020577 996:0.0073356726 998:0.0010685828 999:-0.11291653 1000:0.49228874 1001:-0.23161493 1002:-0.045740984 1003:-6.2487183e-019 1004:-0.028233971 1005:-0.46355483 1006:-0.00017320101 1007:-0.18479016 1008:0.0083517339 1009:0.48290461 1010:0.020059457 1011:-0.12099501 1012:-0.015413666 1014:0.00018820536 1015:-0.023500675 1016:-2.7559157e-012 1017:6.9538495e-005 1018:-5.0312005e-014 1019:-0.3595899 1020:-0.0083536459 1021:-0.32837197 1022:-0.009261908 1024:-0.053116228 1025:-0.035881076 1028:-5.9205639e-005 1029:0.12143137 1030:0.0647723 1031:-6.7641816e-019 1032:0.023740038 1033:-0.2541922 1034:-0.18341382 1035:-0.00088215846 1036:-8.0837865e-013 1037:-0.015733244 1038:5.765758e-019 1039:-0.017331205 1040:-0.17687656 1041:-0.0079179341 1042:-0.094415791 1043:-0.094194598 1044:0.87121612 1045:0.0087327603 1046:5.2037416e-016 1047:-0.1041387 1048:-0.10867625 1049:0.14845654 1050:-0.084808931 1051:-0.07354781 1052:-6.2487183e-019 1053:0.072170801 1054:-0.1249778 1056:0.098176718 1057:-0.0008872117 1059:-4.5883434e-021 1060:-0.27264261 1061:0.00088721176 1062:-6.598609e-019 1063:-0.093202554 1064:-0.9722842 1065:-0.0085359607 1066:-0.15562825 1067:-0.27432436 1068:-0.15922815 1069:-1.5860613e-017 1070:0.045409981 1071:-0.016981218 1072:-0.16723527 1073:-6.6085879e-018 1074:-1.531596e-013 1077:-0.1506601 1078:-3.1349679e-014 1080:-0.013144217 1081:0.080549456 1082:-9.2520226e-018 1083:-5.61165e-012 1084:-0.016936963 1085:-0.0014014961 1086:-0.027593547 1087:-0.00012525785 1088:-0.18231222 1089:0.78701949 1090:1.4311818e-005 1091:-0.23576787 1092:0.031414304 1094:0.00020256291 1095:1.3455639 1096:0.54378736 1098:-0.14564349 1101:0.011416413 1102:-0.022663502 1103:-0.1185307 1104:0.0584535 1105:0.019323779 1106:-0.78999597 1107:-0.054906249 1108:-0.00053686113 1109:-0.5149678 1110:-0.32005277 1111:0.062327802 1112:0.23286209 1113:-0.00040565728 1115:-0.18793872 1116:-0.0033884728 1117:-5.8429828e-017 1118:-0.013782566 1119:-0.024277397 1120:-1.4259307e-016 1122:-0.0080132466 1123:0.71882349 1124:-0.14846253 1125:-0.12312463 1126:-1.080619e-005 1127:2.6702214e-021 1128:4.3795466e-005 1130:0.057089191 1131:-0.025366478 1132:-0.017728819 1133:0.082097992 1134:-2.7558973e-012 1135:-3.0233386e-015 1136:0.3150259 1137:0.00021446279 1138:0.094667509 1139:0.035678197 1140:0.030237567 1141:0.1811202 1142:-0.31642264 1143:0.49018875 1144:-0.0052896719 1145:-0.078211673 1146:0.0008872117 1147:-0.12493905 1148:-9.571145e-014 1149:-1.1274325 1150:-0.0042257127 1151:1.6513213e-005 1152:2.0024752e-018 1153:-0.064302675 1154:-0.023309672 1155:-0.57437956 1156:-1.9995898e-018 1157:-0.32949898 1158:-4.6199052e-012 1159:0.51905268 1160:-0.030837171 1161:9.0922615e-005 1162:0.0054327436 1163:-2.8199987e-017 1164:0.069104552 1165:-0.61993694 1166:-0.0038775769 1167:-0.047873266 1168:0.21129535 1169:-2.8465297e-012 1171:-3.1354968e-014 1172:-3.4448774e-012 1173:-0.0032375653 1174:-0.14627524 1175:-4.9989745e-019 1176:-1.2497437e-018 1177:0.015766224 1178:-0.10540494 1179:-0.032605298 1180:-0.035655733 1181:-5.5119308e-012 1182:-0.25045642 1183:-0.011402121 1184:0.75624084 1185:0.49219665 1186:0.33673677 1187:-0.032458659 1189:-0.00033052132 1190:-0.14374262 1191:0.02744749 1192:0.055090174 1193:-0.12518485 1194:-0.010563617 1195:0.15692224 1196:1.8668832e-005 1197:-4.787498e-014 1198:0.0071312208 1199:-0.0092870779 1200:-0.22851424 1201:-0.0069357129 1202:-0.00097289786 1203:-0.0024588199 1204:3.2407722e-017 1205:-0.353044 1206:0.30081269 1207:-6.622923e-005 1208:0.17396595 1209:-0.34241822 1210:-0.066142336 1211:3.8520528e-016 1212:-0.40343809 1213:-0.00013458838 1214:0.16067837 1215:-0.0059772842 1216:-0.29416573 1217:0.0025033844 1218:-1.0981944e-018 1220:-0.015794141 1221:-0.026732642 1222:0.0073499028 1223:-0.010113451 1224:0.11139175 1226:1.9427928e-017 1227:-0.077842608 1228:-0.0015011659 1229:-8.5348249e-005 1230:-0.0013891921 1231:-0.025800351 1233:-0.054648362 1234:-0.1534894 1235:1.1273018 1236:-0.28461665 1237:4.7915487e-022 1238:-0.19626386 1239:-0.25466236 1240:0.02377893 1241:0.96286142 1242:-3.0872906e-013 1243:-0.055959243 1244:-0.14431506 1245:0.012809327 1247:0.004188322 1248:0.043892257 1249:-0.31440684 1250:-2.5577761e-014 1253:-0.27695712 1254:-0.093215346 1255:-4.9989745e-019 1256:0.0028938379 1257:-0.07089182 1258:-0.25476646 1260:-1.3217176e-017 1261:-0.24019186 1262:-0.0035515621 1263:-0.00015684238 1264:0.7852633 1265:-0.29432708 1266:0.2585606 1267:-0.0032944963 1268:-0.25944856 1269:-0.12409148 1270:-2.7559658e-012 1271:-0.021920506 1274:-0.26448965 1275:-1.7004041e-017 1276:3.6704467e-005 1277:-0.043686349 1278:-0.20205308 1279:-0.37578014 1281:-0.2635597 1282:-0.15829396 1283:0.027515735 1284:-0.19082935 1285:-0.027811997 1287:1.8131321e-018 1289:-0.16993147 1290:0.00018091488 1291:-8.371303e-006 1292:9.0702561e-006 1293:-0.016956398 1294:-0.25541514 1295:-0.10677822 1296:-0.01851324 1297:-0.0081867734 1298:0.17298004 1299:7.4363066e-005 1300:-0.04200786 1301:-0.25775048 1302:0.012656604 1304:-0.0014974979 1305:0.082408108 1307:0.002293844 1308:-0.046570744 1309:0.010635111 1310:-0.014183056 1311:0.86910099 1312:-1.1247694e-018 1313:-1.0282403e-011 1314:0.00050337287 1315:-4.4551589e-012 1316:-0.10003083 1317:-5.2868707e-018 1318:0.049062092 1319:-0.0013862036 1320:-0.092336275 1321:-0.026593229 1322:0.068615966 1323:-0.067672633 1324:-0.49988982 1325:-1.0745631e-016 1326:-0.072600596 1327:-0.05674611 1328:-2.0530369e-016 1329:8.0573658e-019 1330:-1.028685e-011 1331:-1.7004041e-017 1332:-0.059022266 1334:0.010342018 1335:-6.688337e-012 1336:0.14022569 1337:0.040950354 1339:0.0074712634 1340:0.018710347 1341:-4.5857666e-017 1344:-4.8258064e-012 1345:0.00024701195 1346:-0.0021222609 1347:-0.50016481 1349:-0.016627356 1350:-0.0056228084 1351:-0.18653768 1352:-0.15165144 1353:-0.51568866 1355:-1.2497437e-018 1356:-0.060846437 1357:0.36532676 1358:0.034597315 1359:-0.10383946 1360:-0.18514256 1361:-0.1328721 1362:-0.0084882472 1363:-1.7939185e-013 1364:-1.0291888 1365:-3.9811223e-012 1366:-0.0027098828 1367:0.14814164 1368:-7.9325672e-014 1369:-5.104723e-014 1370:-0.24464953 1371:-0.45085552 1372:-2.2738121e-017 1373:-0.1453716 1374:0.36160976 1375:0.00036906774 1376:-0.096260518 1378:0.58824736 1380:3.9660488e-015 1381:1.5940381 1382:-0.052696612 1383:0.181206 1384:0.0050466005 1385:0.042570759 1386:0.011130659 1387:-0.27607155 1388:0.0073581883 1389:0.020349516 1390:0.012711394 1391:0.03320577 1392:0.38167694 1393:-0.012369723 1394:1.4435731e-019 1395:-9.4706629e-020 1396:-0.17584427 1397:0.49970064 1398:-0.50459331 1399:-0.00066554331 1400:-0.24215879 1401:-0.24806111 1402:-0.36983532 1404:-1.2497437e-018 1405:0.28984267 1406:0.0016915709 1408:-3.1568876e-020 1409:0.0584535 1410:0.0008872117 1411:1.1021926 1412:-1.9693584e-014 1413:4.1356804e-017 1414:0.9067722 1415:-0.16486211 1416:0.042864352 1417:-1.2791677e-019 1419:-0.012661651 1420:-0.40685716 1421:-0.027557317 1422:-0.0045001549 1423:-3.3386959e-019 1424:-0.055783801 1425:1.7685591e-006 1426:-0.14710175 1427:-0.06398765 1428:-0.037776694 1430:-0.0030815077 1431:-0.0065636132 1432:-1.3603233e-017 1433:0.071673423 1434:-0.00023873983 1435:-3.8265127e-018 1436:0.075944744 1437:-0.23100635 1438:-0.059200179 1440:-0.47866917 1441:3.3386961e-019 1442:-4.7691753e-017 1443:-3.1892577e-012 1444:1.0456508 1446:0.0011389271 1447:-0.0015641181 1448:0.033749413 1449:0.069172718 1450:0.83738619 1451:-0.49659422 1452:-0.0047286255 1453:-0.11176691 1454:3.0056607e-017 1455:0.46901789 1456:-0.52660424 1457:-0.15770967 1458:0.055478603 1459:-0.55993724 1460:-0.066277608 1461:-0.050601803 1462:-0.29867819 1464:-5.8923474e-014 1465:0.15426138 1466:-1.1343401e-012 1467:1.1756344e-005 1468:-6.8151516e-005 1469:-0.09832038 1470:-0.11094759 1471:0.0091251824 1472:-0.1887102 1473:-0.2421225 1474:0.00025777263 1475:0.078310199 1478:4.4504646e-005 1480:-0.36526209 1481:0.58328688 1482:-0.045455728 1484:-6.2487183e-019 1485:-0.70674372 1486:0.0056554643 1487:-0.0041500973 1488:-1.1573536e-017 1489:-0.013954687 1490:0.023623826 1491:-0.18506318 1492:-0.010601619 1493:0.2526561 1494:-0.11836193 1495:0.00065241079 1496:-0.044721257 1497:-0.63634759 1498:-0.28771392 1499:0.012002167 1500:0.49325025 1501:-0.14538954 1502:0.25510442 1503:-0.83490384 1504:-0.46618372 1505:0.21758373 1506:-0.067482352 1507:-0.00015031685 1508:0.017740959 1510:0.00028642011 1511:0.088928491 1512:-0.37112421 1513:-0.032885451 1514:0.72967702 1515:-0.10860115 1516:0.22194436 1518:-0.33404636 1520:-0.010394077 1521:-0.09788011 1522:-0.040291212 1523:0.0035842066 1524:-0.93910384 1525:0.0051317886 1526:0.67741978 1527:0.31605446 1528:-0.010024374 1529:-0.11305208 1530:-0.012676345 1531:-0.00049736613 1532:-0.13941394 1533:0.45111883 1534:0.22593231 1536:0.15123911 1537:0.04609327 1538:-1.0339805e-011 1540:-1.4355129e-013 1541:-0.12817232 1542:0.078883499 1543:0.20264813 1544:-0.0090637011 1545:0.00065711391 1546:-0.13595589 1547:-0.46515825 1548:-0.16956665 1549:0.0038933617 1550:0.0096653663 1551:-0.0001024281 1552:1.149367 1553:0.35867199 1554:0.0052177543 1555:0.031664327 1556:0.29501736 1557:-0.21075331 1558:1.2123041e-012 1559:0.71865624 1560:-0.06398765 1561:-0.0064633861 1562:0.088031255 1563:0.27235889 1564:0.082868449 1565:0.012804151 1566:-0.18626168 1567:-4.3990726e-019 1568:-0.55305994 1569:-2.8346758e-017 1570:0.20907667 1571:0.13158855 1572:0.31481996 1573:0.01742648 1574:-0.12120425 1575:0.038146976 1577:0.048557136 1578:0.067959845 1579:-4.7915487e-022 1580:-0.022370787 1581:-0.12633182 1582:-1.9744378e-016 1583:0.2240632 1584:0.06190249 1585:-0.28207639 1586:-0.44012401 1587:0.049032088 1588:-0.0083823968 1589:-1.1874151 1590:-0.068502672 1591:0.063645966 1592:-0.084101185 1593:1.5726345e-012 1594:0.24187598 1595:-0.38069445 1596:0.032237519 1597:-0.030985095 1598:0.096050374 1599:-0.072325058 1602:0.0002916641 1603:-9.9979491e-019 1604:-2.2559991e-017 1606:-0.095769502 1607:-4.133853e-012 1608:-2.7012644e-005 1609:-0.25944856 1610:-0.1446688 1611:0.09172906 1612:-0.17885774 1613:-0.36062646 1614:0.0019616662 1615:-0.013516631 1616:-2.0784831e-015 1617:-0.78895104 1618:0.032205328 1620:0.18695749 1621:-0.24359149 1622:0.026434166 1623:-0.16002415 1624:-0.45822084 1625:-0.17412977 1626:-0.050367922 1628:-5.8351427e-016 1630:0.0045804298 1631:-0.51889712 1633:-0.29101172 1634:-0.20221737 1635:4.512262e-017 1636:-0.057377994 1637:-0.71150327 1638:0.27545318 1639:-0.5012514 1640:-4.5974635e-016 1641:-8.0467687e-017 1642:0.32899246 1643:0.0025194318 1644:0.0057711843 1645:0.015631076 1646:-1.7341238e-014 1647:0.23001279 1648:6.9636483e-014 1649:-9.4868185e-005 1650:-0.12741354 1651:0.20373958 1652:-0.32979381 1653:-0.0021146969 1654:0.00015169606 1655:-0.20599729 1656:0.15035683 1657:0.0059509748 1658:-0.7074908 1659:3.7297013e-005 1660:-0.00038997471 1661:-0.091046497 1662:-7.2097562e-012 1663:0.54788876 1664:0.28155586 1665:1.021533e-011 1666:0.00047574032 1667:-0.11142483 1669:0.15670149 1670:0.27129367 1671:-0.041102093 1672:0.27906951 1673:-0.00018973638 1675:-0.11026032 1676:3.3386961e-019 1677:-0.35203454 1678:0.4058176 1679:8.7388522e-018 1680:-0.23769282 1682:-1.0398577 1683:-0.022761621 1684:-0.045102891 1685:-0.21174523 1686:-0.057654776 1687:0.071406037 1688:-0.14541072 1689:-0.042814847 1690:-0.011930543 1691:-9.9364347e-019 1692:-4.7915482e-022 1693:-0.056446772 1694:-9.4851777e-005 1696:0.042787854 1697:-0.22396371 1698:-0.085960448 1699:-0.18969651 1700:-0.56304193 1701:-0.29632509 1702:0.03555841 1703:0.056335207 1705:-2.9169657e-017 1707:-0.26317012 1708:0.28680125 1709:-0.10020507 1710:-0.0016738715 1711:-0.65348864 1712:-0.00068830815 1713:-7.8946664e-015 1714:-5.765758e-019 1715:-0.24447133 1716:-0.043946408 1717:-0.039307736 1719:0.07699585 1721:-0.040286157 1722:4.3332185e-015 1723:0.00014051031 1724:1.3619463e-017 1726:0.16667306 1727:0.15538424 1728:-0.0015382968 1729:0.19441843 1730:-0.039072014 1731:-0.031670056 1732:-0.45163259 1733:0.28607044 1735:0.19923574 1736:0.001558536 1737:0.0024787632 1738:0.81454021 1739:-0.0050626094 1740:-0.58725464 1741:-0.0013609672 1742:-9.6105212e-014 1743:-0.00028013138 1744:0.46715745 1745:-0.065943711 1746:0.20386985 1748:0.0029488369 1749:0.087164827 1750:-1.5158748e-017 1751:-0.35966516 1752:-0.1671811 1753:-4.9989745e-019 1754:-0.080443718 1755:0.44389886 1756:1.5440288e-011 1757:0.30588922 1758:0.0002332263 1759:0.10321249 1760:-6.2641322e-017 1762:-0.079952672 1764:0.32020223 1765:-4.0416479e-016 1766:0.16288041 1767:-0.038148403 1770:-0.11367233 1771:-3.135018e-014 1772:0.0029488369 1773:-0.50658673 1774:-0.013934074 1779:-0.044422172 1780:-0.55494332 1781:0.013139536 1782:-1.4282297e-014 1783:-6.6085879e-018 1784:0.0045443983 1785:-3.8555571e-018 1786:-0.060812812 1787:-6.6085879e-018 1788:-4.7869728e-018 1789:0.00050864869 1790:-3.105166e-015 1791:0.003152726 1792:-0.0068454621 1793:-6.9331958e-012 1795:-0.25166661 1796:-8.5751703e-017 1797:-6.2487183e-019 1798:-0.36014181 1799:-8.2678959e-012 1800:-0.034775335 1801:-3.4827385e-013 1802:-0.091746792 1803:-0.23196483 1805:-4.5762255e-017 1807:-0.0047286251 1808:-0.055964358 1809:0.034073807 1810:0.16821598 1811:-4.3167024e-012 1812:-9.997948e-019 1813:7.9798803e-013 1814:-0.015196424 1815:0.007277335 1816:-0.022494111 1817:-0.18617471 1819:-3.4662677e-020 1820:-5.9796033e-014 1821:0.039347306 1822:-0.60498184 1823:-0.12529962 1824:-0.38258648 1826:-0.023210974 1827:-0.050027356 1828:-0.46322459 1829:-9.997948e-019 1830:-0.062859878 1833:0.026817407 1834:-7.7058795e-014 1835:0.02909329 1836:0.4194949 1837:-0.008608941 1838:-0.26092747 1839:-0.15580164 1841:-0.13248283 1842:-0.00058990286 1843:0.003261575 1844:-0.076016016 1845:-0.00088262476 1846:-0.00011959816 1847:-0.13453528 1848:0.08687032 1849:-0.0011251781 1850:0.00042516092 1851:0.020059459 1852:-0.017223323 1854:4.2473707e-016 1856:-1.2602122e-016 1857:-7.9225607e-014 1858:-5.9796033e-014 1859:0.20909692 1860:-3.9799239e-017 1861:-0.011847313 1862:0.046401497 1864:-1.0104668e-012 1865:0.29618734 1866:-0.052398726 1867:-4.3329834e-013 1868:-0.52816063 1869:-0.034446646 1870:-0.0082695391 1871:-0.15304635 1872:0.0076761842 1873:-1.3603232e-017 1874:0.00072292617 1875:1.6474272e-005 1876:0.44223535 1877:1.9228927e-017 1878:-0.063377082 1879:-0.24247178 1880:0.23169677 1881:-3.624999e-012 1882:0.45906502 1883:-0.19002838 1884:0.0046749078 1886:-0.020347677 1888:0.0001386056 1890:-2.65665e-019 1891:0.027435724 1892:-0.20671047 1895:-2.0404848e-017 1896:0.91771644 1897:-5.5514929e-014 1898:-0.3501161 1899:-0.13100013 1900:0.44077933 1901:0.90637535 1902:0.00035079807 1903:0.027294341 1904:0.5013212 1905:-0.0011560748 1906:0.034258403 1907:0.010991116 1908:0.014428837 1909:-2.8658787e-017 1910:-6.984417e-012 1911:0.48776168 1912:-0.38257909 1913:-0.3267054 1914:-0.0011032438 1915:8.9551248e-017 1916:0.075618915 1917:0.42055884 1918:-0.11703316 1919:-0.24265862 1920:-0.43046021 1921:0.018074237 1923:-1.4996925e-018 1924:-0.062472831 1925:-0.00010618545 1926:-4.5020818e-014 1927:0.4127208 1928:-0.011359725 1929:-1.0977535e-017 1930:-0.066454552 1933:-9.9979491e-019 1934:-0.13596201 1935:-0.00048887276 1936:2.7624707e-014 1937:-0.097135797 1938:0.078280024 1939:0.0054340917 1940:0.062647045 1941:-0.16074523 1942:-0.13641351 1943:-0.21105459 1944:-0.022780092 1945:1.1117675e-011 1946:-0.043207012 1947:-2.2559988e-017 1948:0.00048769193 1949:-0.39916787 1950:-0.00022478375 1951:-0.013565118 1952:0.17284226 1953:-7.4984626e-019 1954:-0.29691717 1955:0.001812519 1956:-0.34778908 1957:-0.071418524 1958:-0.032235347 1959:8.9969013e-019 1961:0.18909843 1962:-0.29692513 1963:-0.0015885935 1964:-0.72866052 1966:5.0674983e-021 1967:-0.0028400933 1968:-3.5139562e-017 1969:-0.041150883 1970:-0.0077710766 1971:-0.15205266 1972:-0.0087204874 1973:-9.5830964e-022 1974:-1.0096799e-016 1975:-0.72896385 1976:-0.076109439 1977:-0.095126346 1978:0.0068087191 1979:-0.024009155 1980:-0.15649815 1981:0.063330002 1983:-0.63714248 1984:0.031134455 1985:0.40813357 1986:0.22278979 1987:-0.00069231441 1988:-0.16968994 1989:-2.2495384e-018 1990:-0.047482148 1991:-2.4994873e-018 1992:0.25551343 1993:-6.4724116e-012 1994:-0.066216029 1995:0.049655125 1996:-0.048059564 1997:0.41070038 1998:-0.36251864 1999:-0.00088872394 2000:0.0035570224 2001:1.1614404e-017 2002:0.26074743 2003:-1.3747184e-018 2004:0.12161981 2005:-0.12794654 2006:8.6666281e-005 2007:-0.035992324 2008:-0.066055715 2009:0.03091161 2010:0.0041038659 2011:-0.061133392 2012:0.16360888 2013:-0.12930664 2014:-4.4499696e-016 2015:-0.057275243 2016:-0.032155495 2017:-0.039891891 2018:-0.42934352 2019:-0.34804186 2020:-0.014422975 2021:0.22703338 2022:0.10791871 2023:-0.2813828 2024:0.064429566 2025:-0.001703992 2026:0.0083419494 2027:-0.52462411 2028:0.0092689451 2029:-0.33096495 2030:-0.028475432 2031:-1.2764514e-012 2032:0.86638165 2033:-0.067457572 2034:-0.17560971 2035:-7.6601021e-017 2036:-0.010569762 2037:0.54495496 2038:-4.9365961e-018 2039:-0.23906963 2040:3.7485575e-013 2041:0.016559867 2042:-0.00012266512 2043:0.069805399 2044:-0.0086339992 2045:0.16803834 2046:-0.016032215 2047:0.039311677 2048:-0.061161779 2049:-0.30834949 2050:0.024767112 2051:0.053045418 2052:0.003838595 2053:-0.083359025 2054:0.25063539 2055:-0.061890215 2056:0.33924153 2057:0.063931495 2058:-0.0050140382 2060:0.0077602435 2062:-0.0022706655 2064:-0.51974005 2065:-1.1790639e-012 2066:-8.1539816e-005 2069:0.00078269019 2071:-0.013902005 2072:0.25456578 2073:-1.0202424e-016 2074:-7.5504403e-013 2075:0.0067398548 2076:-1.8934306e-019 2077:4.6447112e-019 2078:-2.2610616e-012 2079:-1.3603233e-017 2080:1.7172825e-013 2081:-0.080370188 2082:-0.20126519 2083:-0.024971908 2084:-0.079515651 2085:-0.51716214 2087:-4.7212878e-005 2088:-0.0039821011 2089:0.36039644 2090:0.030141981 2091:-3.156888e-020 2092:-0.17013933 2093:-4.9989745e-019 2094:-0.2013336 2095:0.19082248 2096:-0.013516101 2097:-0.29689816 2098:-6.3958387e-020 2099:-0.4787215 2100:-0.40216848 2101:1.4311818e-005 2102:-0.13208121 2103:0.029999001 2106:-0.35808191 2107:1.137688e-015 2108:-0.13886566 2109:-0.14122725 2110:0.07035774 2111:-5.2868707e-018 2112:-0.030259263 2113:0.036110044 2114:0.0075076935 2115:-0.038944494 2116:-4.1176746e-017 2117:0.19045556 2118:-4.5860349e-017 2119:-7.4984615e-019 2120:-0.17912254 2121:-0.0049480498 2122:-3.1461554e-016 2123:-0.19347863 2125:-0.0035910029 2126:-1.0781592 2127:-0.052571323 2128:-0.32669911 2129:-2.2559991e-017 2130:-0.62714541 2131:0.00014766883 2132:9.092399e-005 2133:0.046565499 2134:0.0054369853 2135:-0.089340039 2136:-0.02571491 2137:-0.38801563 2138:0.012663928 2139:-8.035604e-005 2140:0.41061026 2141:0.32445484 2142:0.0094914204 2143:-0.48054186 2144:-8.8851384e-015 2145:-0.17773889 2147:0.00040919194 2148:-0.26841959 2150:-4.5840659e-017 2152:-0.00091999845 2153:4.8178263e-005 2154:0.027930196 2155:-1.8210942e-016 2156:-0.026651815 2157:-0.0031828219 2158:-0.16100554 2159:0.094884954 2160:0.21314853 2161:-0.10001616 2162:-0.8220101 2163:-0.36035967 2164:-0.11976859 2165:-0.34902248 2166:0.070816264 2167:-0.011646143 2168:0.083066031 2169:-0.10155444 2170:-0.026262451 2171:-0.69970775 2172:0.13833959 2173:0.0016236964 2174:2.1400441e-005 2175:-0.071056664 2176:-1.0573741e-017 2177:-0.0018888318 2178:-0.07342276 2179:0.33775112 2180:0.059043307 2181:-0.0054501267 2182:0.22758424 2183:-0.00075747928 2184:0.0053185415 2185:0.054307051 2186:0.20390174 2187:-0.013824801 2188:-0.080013193 2189:-0.039401628 2190:0.048172724 2191:-0.10219254 2192:-3.7829536e-012 2193:-0.042702045 2194:0.059519283 2195:0.0049262382 2196:0.018494917 2197:-0.093273014 2199:-0.0081846556 2200:-2.6684193e-011 2201:-0.07562121 2202:-0.13945122 2204:-0.33661726 2205:0.054126196 2206:-0.15353657 2207:-0.15997343 2208:-0.0026375379 2210:1.0612152e-005 2211:-1.0906549 2212:-9.6191067e-017 2213:-0.25980571 2214:-0.091620706 2215:-0.057881195 2216:0.70981961 2217:0.021508977 2218:-0.0045427028 2219:0.12687923 2220:-0.43898657 2221:0.0014377796 2222:0.1003513 2223:0.35175362 2224:0.029052671 2225:0.015504036 2226:-0.017761938 2227:-1.2497437e-018 2228:-6.2487183e-019 2229:-0.039305203 2230:0.47332647 2231:-0.2081726 2232:0.0038947668 2233:-3.637678e-012 2234:-0.32657856 2235:-4.872229e-005 2236:0.3839792 2237:5.6625688e-017 2238:-6.2487183e-019 2239:0.59469146 2240:0.66007638 2241:-0.22404315 2242:-0.18243843 2243:2.3197672e-012 2244:7.6909463e-020 2245:0.00070872263 2246:0.016509378 2247:-0.09313181 2248:-5.024155e-005 2250:-0.22507788 2251:0.16700511 2252:-0.051591441 2253:4.6524199e-018 2254:-0.11447494 2256:-0.0070427232 2257:0.0016236964 2258:-0.10848118 2259:1.1891925e-014 2260:-2.720647e-017 2261:0.83187079 2262:-0.047510188 2263:-0.0023266077 2264:0.013651007 2266:-3.4449566e-012 2267:0.019210363 2268:0.00030002854 2269:0.16267137 2270:-2.8224934e-017 2271:0.011045475 2272:0.043847878 2273:0.012442216 2274:-0.057059269 2275:0.00023097525 2277:-2.0567483e-019 2278:0.57691181 2279:-0.45647734 2281:-0.13558134 2282:-0.15452348 2283:-0.56028432 2284:-5.8752385e-019 2285:-0.12181868 2286:-0.081614785 2287:1.2218103 2289:0.079123087 2290:-0.0064105969 2291:0.027179632 2292:-2.7559658e-012 2293:-0.17562775 2294:-0.00071695627 2296:0.22012545 2297:0.0099175889 2298:-8.2586645e-013 2299:0.0064994013 2300:-0.17576298 2301:-0.0069421399 2303:8.3963259e-006 2304:0.017585624 2305:-5.1494013e-012 2306:-0.56202137 2307:-7.5828054e-013 2308:-0.16850185 2309:-0.17791024 2310:0.000234744 2311:-0.09955775 2312:-0.027557317 2313:5.5710325e-007 2314:-0.00040332117 2315:-0.73297715 2316:-0.067114443 2317:-4.332224e-018 2318:5.0097365e-012 2319:0.35090771 2320:0.20700605 2321:9.8390974e-006 2322:-0.010738229 2323:0.054138493 2324:0.029764609 2325:-0.16629848 2326:0.030779274 2327:-0.036165733 2328:4.6655271e-007 2329:-0.16851446 2330:-7.9303063e-018 2331:-0.27243778 2332:0.00013678863 2333:-0.13416837 2334:-2.7206465e-017 2335:-0.051579192 2336:0.60453349 2337:0.81905895 2338:0.1901326 2339:0.050314158 2340:-0.097600259 2341:-0.037434079 2342:-0.017569168 2343:-0.00012655216 2344:-0.03408812 2345:-0.39292917 2346:-0.18273117 2347:-0.43883967 2348:-0.0050435062 2349:-6.8016163e-017 2351:-9.5700866e-014 2352:-0.42050448 2353:-0.31835482 2354:1.1820883e-014 2355:0.0090816673 2356:-1.8129969e-015 2357:0.16266358 2358:0.066661246 2359:0.0584535 2360:-0.086270884 2361:-0.00071586983 2362:0.34289795 2363:-0.15316772 2364:-0.016026493 2365:0.22382581 2366:-5.765758e-019 2367:-0.42364424 2368:-0.28421736 2369:0.47513011 2370:-0.01724129 2371:0.059734616 2372:-0.073323861 2373:-0.030394038 2374:-0.10916968 2375:1.9051406e-005 2376:-0.022503769 2377:0.094191954 2378:-0.027557323 2379:-1.9266126e-018 2380:-0.38719812 2381:-0.44930691 2382:-0.58168435 2383:-0.15501571 2384:-0.16476583 2385:-0.21020769 2386:-0.23789515 2387:-0.12189206 2388:0.0028456701 2389:0.00021446281 2391:-0.15033475 2394:-0.044395372 2395:0.14251587 2396:0.0088838944 2398:2.5536003e-005 2399:-0.049071513 2400:0.29658911 2401:0.0008872117 2402:0.011851547 2403:0.54632699 2404:-0.26203173 2405:-0.074795105 2406:-0.021039711 2407:-4.7915482e-022 2408:-4.7850931e-014 2409:-0.11675602 2410:-0.068270341 2411:5.4287612e-016 2412:-0.03634328 2413:0.00094557536 2414:-0.0018314623 2415:-0.061565831 2416:-1.0104727e-012 2417:-0.013516631 2418:-0.041208893 2419:-0.019558094 2421:0.13424741 2422:-4.7691753e-017 2423:0.49347827 2424:0.017039562 2425:-0.01507347 2426:0.020577561 2427:0.16415569 2428:0.71223968 2429:0.018669577 2430:0.051786974 2431:-0.17326009 2432:1.5727275e-005 2433:0.25922295 2434:-0.075355679 2435:-0.21642546 2436:-0.030380173 2437:-0.351105 2438:0.048816476 2439:-0.0020013938 2440:-0.0022998452 2441:-0.11301684 2442:-0.12742653 2443:0.009639536 2445:-0.14278448 2446:-0.083290935 2448:-0.0035885824 2449:-0.016338648 2450:-5.6238463e-018 2451:-0.19916072 2452:-0.06143282 2453:0.0065104244 2454:-0.20049912 2455:-6.6085879e-018 2456:-1.2497437e-018 2457:-0.019986648 2458:-0.28490046 2459:-3.1369099e-014 2460:-0.00034696472 2461:-0.01746238 2462:0.36093554 2463:-3.9991804e-018 2464:-1.310898e-016 2465:-4.7836829e-014 2466:-0.022377629 2467:0.24124978 2468:0.21309297 2469:0.23503923 2470:-0.0083578723 2471:0.0584535 2472:-0.020167127 2473:-1.410313e-017 2474:0.11923322 2475:-0.23412615 2476:-0.50590265 2477:-0.16443355 2478:-0.011695101 2479:-0.34234524 2480:-2.7497396e-019 2481:0.02825251 2482:0.010663914 2483:-0.10958096 2484:-4.7094673e-014 2485:0.039048072 2486:-3.0053933e-017 2487:-0.63117146 2488:-3.1786978e-012 2489:0.022207744 2491:-0.066623122 2492:-5.2868707e-018 2493:-1.8809808e-012 2494:-2.6452283e-013 2495:-0.016878316 2497:-0.286639 2498:0.0076846788 2499:-4.2655163e-005 2500:-2.2068216e-005 2501:-0.10266882 2502:-0.051594459 2503:0.22770764 2504:0.16868247 2505:-0.016133701 2506:-0.099500008 2507:-1.1962858e-013 2508:-0.17841116 2509:-0.053465292 2510:-3.3743079e-018 2511:-0.0022509138 2512:-0.042623088 2513:-0.17739664 2514:0.042135645 2515:1.2054776e-005 2517:-2.0584244e-011 2518:0.31275341 2519:-0.00054220442 2520:-0.36811522 2521:-1.8084904e-016 2522:0.0043170559 2523:-0.20972218 2524:-1.7004041e-017 2525:-0.020561688 2526:-0.035985921 2527:-0.6261133 2528:0.14288436 2529:-0.0061848615 2530:0.0038284361 2532:0.274638 2533:0.070318237 2534:-0.14946562 2535:-0.14105695 2537:-9.7668193e-015 2538:-0.014394215 2539:9.9364368e-019 2540:0.058692157 2541:0.087158211 2542:-0.12240045 2543:-0.097920366 2544:0.17747629 2545:-0.19129992 2546:-2.65665e-019 2547:0.067836024 2548:-0.0023959968 2549:-0.016939417 2550:0.00065696635 2551:0.0010425164 2552:-0.23840863 2554:0.61010683 2556:0.00035189721 2557:-0.071802288 2558:0.00022014888 2559:1.2218103 2560:9.3953481e-020 2561:-0.03945782 2562:0.00059758924 2563:-0.004556587 2565:-0.12694252 2566:0.016815364 2567:-6.6479242e-006 2568:0.0040378156 2570:-0.054290716 2571:-0.13216493 2573:-0.16372898 2574:-3.2108886e-012 2575:0.41895479 2576:-0.12699653 2577:-0.0032765528 2578:0.13877442 2579:0.019212006 2580:-4.9989745e-019 2581:-0.0011664917 2582:-7.6306809e-017 2583:0.27397528 2584:-0.0025025546 2585:-0.61475289 2586:-3.6923598e-015 2587:-0.062679984 2588:-0.26773998 2589:0.51531029 2590:0.25690642 2592:-0.080421902 2593:0.22054152 2594:-2.2230687e-012 2595:-0.10609921 2596:-4.9989745e-019 2597:-0.12279754 2598:0.042522643 2599:0.00061884313 2600:-0.0070929383 2601:-0.0093607642 2602:-4.9989745e-019 2603:-4.8109559e-005 2604:-1.5158748e-017 2608:-0.28095552 2609:-3.135018e-014 2610:8.2059578e-006 2611:0.00036871244 2612:0.080483086 2613:-3.229316e-016 2614:-0.032267403 2615:1.11743e-005 2616:0.4645474 2617:0.011065695 2618:-0.00012525784 2619:-5.2868707e-018 2620:-0.15826552 2621:-0.00013682245 2623:-0.56798184 2625:-0.15682316 2626:-1.2497437e-018 2627:-0.021772277 2628:0.0225293 2629:-4.649235e-012 2630:-0.20892791 2631:0.0072713434 2632:-0.32590151 2633:-0.25836793 2634:-5.1012139e-017 2635:-0.30317 2636:-0.1560968 2637:-0.20795985 2639:0.21040522 2640:0.18297155 2641:-0.00057872408 2642:0.0018756582 2643:-0.71921271 2645:-0.040423065 2646:-1.6168229e-012 2647:0.717242 2648:-0.00060273777 2649:0.03563733 2650:-0.0019455171 2652:0.21480021 2653:-0.00051981187 2654:0.020099239 2655:0.0027064884 2656:-4.7915482e-022 2658:-2.2738123e-017 2659:0.52586687 2660:-4.5762262e-017 2661:-0.023000844 2662:-0.035478611 2663:7.2917108e-005 2664:-0.010637293 2665:-1.4673465e-016 2666:-0.067443691 2667:-0.0094278688 2668:-0.35264242 2669:-3.1255452e-012 2670:5.6682366e-006 2671:0.61869383 2672:-6.2487183e-019 2673:7.2690895e-018 2674:-6.2487183e-019 2675:-0.42325976 2676:0.0084176334 2677:0.011416409 2678:-0.024739446 2680:-0.48110855 2681:1.8871409e-005 2682:-0.0022426799 2683:-0.30835456 2684:0.013775746 2685:-0.14402375 2686:0.03202837 2687:0.032500748 2688:5.0823165e-012 2689:-9.3953481e-020 2690:-0.022385744 2691:-0.075343832 2692:-0.2293946 2693:-4.7915482e-022 2695:0.30493978 2696:0.018974027 2697:0.00094292685 2698:-1.0566047e-017 2699:0.02757859 2700:0.82098699 2702:-0.016265292 2704:-0.084604599 2705:-1.4996925e-018 2706:-0.087420866 2707:-0.20891601 2708:-0.086866498 2709:0.20124392 2710:0.2893706 2711:1.0072188e-011 2712:-0.010388031 2713:0.35264 2714:0.39043587 2715:-0.30886412 2716:0.00060929835 2717:-0.010296801 2718:-0.023078116 2719:-0.0098514464 2721:0.72768438 2722:0.73572087 2723:-2.4371527e-012 2724:-0.46212107 2726:-0.16473685 2727:-0.66363078 2728:-1.4876058e-012 2729:0.027302124 2730:-0.22108391 2731:-0.31336114 2732:-0.49169335 2733:0.20760991 2734:-9.3953487e-020 2735:0.0042066039 2736:-0.013551022 2737:-6.4134462e-013 2738:-0.064274535 2739:0.084140494 2740:0.088350132 2741:0.94073945 2742:-0.111036 2743:-0.19083145 2744:-0.031826403 2745:2.9131514e-005 2746:-0.00012525784 2747:-0.0023938969 2748:-0.50276721 2749:-0.14979859 2750:0.099150568 2751:-0.00025390214 2752:9.4429444e-005 2753:0.58664846 2754:0.0019018932 2755:-0.30016059 2756:-0.18945868 2757:-1.3347451e-016 2758:-0.10532533 2759:-0.022663502 2760:0.1553437 2761:4.4757675e-005 2762:-4.6361121e-005 2763:-0.38598454 2764:-4.3229035e-014 2765:-0.037768926 2766:-0.11781422 2767:1.1340487e-017 2768:0.27876097 2769:-0.20351428 2770:-5.7882383e-014 2771:-0.00020282864 2772:-0.22053221 2773:-0.51889712 2774:0.0086712986 2775:0.00017987088 2776:-0.12146813 2777:-0.21533474 2778:-0.22189514 2779:-0.36193156 2780:-0.13067751 2781:0.18389238 2782:-0.40833551 2783:-0.0013489856 2784:-0.014410007 2785:0.00015353736 2786:-0.12371213 2788:0.060100324 2789:-2.8490187e-018 2790:0.31270438 2791:0.40555111 2792:0.00036871241 2793:-0.095981471 2797:0.076204203 2799:0.0055472408 2800:-0.26560751 2801:-0.00028859629 2802:-0.0049346541 2803:0.078280024 2804:-0.016133701 2805:-0.11439986 2806:0.00094292685 2807:-0.14578807 2809:0.011454234 2810:-0.024693346 2811:0.0020609726 2812:-0.28079861 2813:-0.47807637 2814:0.25496471 2815:-0.070407309 2816:0.00034679406 2817:0.29734695 2818:-7.4516822e-005 2819:0.018486748 2820:0.18202677 2821:-0.00020720919 2822:-0.023010766 2823:0.26658738 2824:0.0083273109 2825:0.00075689133 2826:-2.3755877e-011 2827:-0.039002713 2828:0.079523727 2829:-0.0041442201 2830:-0.067250289 2831:0.20454745 2832:0.18083917 2833:2.1047881e-005 2834:-0.43088624 2835:0.59779412 2836:0.23446906 2837:-8.1952974e-005 2838:-2.2258277e-019 2839:-0.00023043239 2840:-2.0688934e-015 2841:-0.0097510982 2842:0.0083807651 2843:-0.051391754 2844:-0.10207548 2845:-0.0052235802 2847:0.042778797 2848:-0.038699754 2849:-0.01215613 2850:-6.4994825e-013 2851:-0.00082989328 2852:0.00029487297 2854:0.0023163089 2855:-0.00095449295 2856:0.062474031 2858:-6.2487183e-019 2859:-0.47084257 2860:-0.18705177 2861:-0.55059493 2862:-3.1417784e-014 2863:-1.8106281e-020 2864:-0.64498955 2865:-0.011930543 2866:-7.7941073e-017 2867:0.058453497 2868:-0.018032104 2869:0.019073488 2870:-0.054336838 2871:-6.1647038e-014 2873:-0.012175235 2875:-6.1252692e-015 2876:-1.4254193e-015 2877:-0.27283448 2878:0.5985077 2879:-0.020497363 2880:-0.19721794 2881:-0.013860515 2882:-6.5920484e-013 2883:-3.6611224e-014 2884:0.005186101 2885:-0.0093060657 2886:-0.3931112 2887:-0.41040054 2888:0.65834188 2889:-0.98379862 2890:-0.13465573 2891:0.036472142 2892:0.018903749 2893:-0.30522439 2894:0.0026888989 2895:0.50159174 2896:0.39110348 2897:0.26685753 2898:0.52706593 2899:0.01876705 2900:0.00023942393 2901:0.0036814369 2902:-2.8778067e-012 2903:-0.15957403 2904:0.18197687 2905:-0.001791032 2906:-0.0059107817 2907:-0.055176899 2909:-0.0074218335 2910:-3.9210714e-014 2911:-0.37143767 2912:8.6235319e-005 2913:-0.097344264 2914:0.025230307 2915:0.010889005 2916:-0.13296425 2917:0.00073621323 2918:-0.00010942009 2919:6.0021244e-005 2920:0.0069406172 2922:-0.37686077 2923:-0.24138716 2924:0.088551335 2925:0.0017730328 2927:-0.042477828 2928:0.020228326 2929:0.049247872 2930:0.40400684 2931:-0.0025988379 2932:-0.16762634 2934:0.51714212 2935:0.41623372 2936:-0.66438341 2937:-0.21819511 2938:-0.080060884 2939:0.9646064 2940:-0.0011389417 2942:0.00019498682 2943:-0.032858677 2944:0.040046375 2945:-0.053116228 2946:5.3042572e-018 2947:0.096909136 2948:-0.19497015 2950:0.014813752 2952:-0.063022591 2953:-0.017484797 2954:-2.3136123e-017 2955:-0.01174115 2956:0.00041918617 2957:-0.046032917 2958:0.15937808 2959:0.00074390246 2960:0.16277874 2961:0.030299287 2962:-1.9218544e-017 2963:0.020561343 2964:1.8181819e-018 2965:-6.2487183e-019 2966:-0.1564955 2967:-7.7058795e-014 2968:-4.9989745e-019 2969:-0.35642892 2970:0.28464723 2971:-0.16200493 2972:-0.19893752 2973:-1.7422087e-019 2974:-0.025644634 2975:0.73272967 2976:3.0917765e-013 2977:-0.040138412 2978:0.63323307 2979:-0.64973152 2980:-0.064806521 2981:0.054698784 2982:0.071160398 2983:0.25807258 2984:-0.01127399 2985:-0.1821501 2986:0.71081281 2987:-0.00082553568 2989:-0.19941077 2991:-0.00013886775 2992:0.0013030731 2993:-0.00086171285 2994:-3.3574804e-017 2995:-0.00354105 2996:0.077193595 2997:0.394811 2998:-0.00039697875 2999:6.4289155e-016 3000:0.013139536 3001:3.4909962e-018 3002:-0.1365101 3003:0.22870894 3004:-0.19577613 3005:-0.84044123 3006:0.3834593 3007:0.036623381 3008:-8.3815245e-014 3009:-0.4704327 3010:-0.076083913 3011:-0.010600243 3013:0.29662347 3015:0.011348566 3016:0.00051902235 3018:-0.049729016 3019:-0.16755617 3020:2.8290375e-005 3022:-0.027397504 3023:5.1130489e-017 3024:0.35911071 3025:-0.018917268 3026:-0.00023716189 3027:-0.012693855 3028:1.8454832e-005 3029:-0.6469816 3030:-0.17730492 3031:-0.16764463 3032:-0.42531121 3033:1.1412351e-013 3034:0.0019018933 3035:0.12936775 3036:0.20477921 3037:-1.0805621e-012 3038:-0.054635935 3039:0.00023913378 3040:-0.27133811 3041:0.00020364739 3042:0.017743446 3043:0.28168681 3044:-0.00032245298 3045:0.0032275966 3046:-0.51187712 3047:-6.6085879e-018 3048:2.9435486e-014 3049:-0.041096255 3050:0.41878667 3054:0.00085557654 3055:-0.13867733 3057:1.9113479e-005 3058:-0.46558362 3059:-0.29160231 3060:-0.066456914 3061:6.8973452e-014 3062:-0.11070751 3063:-0.00038337847 3064:0.00063934323 3067:-1.6570357 3068:0.098794326 3069:0.033271108 3070:6.2913292e-015 3072:0.032048393 3073:0.26412043 3075:-0.1291033 3076:0.042015724 3077:-0.001293438 3078:-2.0209342e-012 3079:0.42380893 3080:-0.18715508 3081:0.79218185 3082:-0.80059898 3083:-0.21033467 3084:-6.2487183e-019 3085:0.057934757 3086:-9.9364347e-019 3087:0.017311495 3088:-0.37040561 3089:-9.4868185e-005 3090:-1.5939902e-018 3091:-0.14889154 3092:0.0067578494 3093:-0.15440995 3094:-2.5811777e-017 3095:-0.0054117762 3096:0.16942012 3097:-0.017995289 3098:-0.0017717176 3099:-0.21723175 3100:-0.071243577 3101:-1.7248598e-005 3102:-0.032610055 3103:0.10146207 3104:0.20999713 3105:0.0030078101 3106:0.23868354 3107:-1.8746154e-018 3108:0.026070222 3109:6.4136272e-018 3110:0.35742882 3111:-7.505416e-017 3112:0.0027693755 3113:-0.15043925 3114:-0.11437619 3115:-0.0039017336 3117:0.035896026 3118:-0.20772561 3119:-1.2461995e-014 3120:-0.10513229 3122:-5.1947786e-017 3123:-0.0026590684 3124:0.010903535 3125:0.34372517 3126:-0.00023504838 3127:5.9471657e-015 3128:-1.4295025e-005 3131:-0.0048020445 3133:-0.10409384 3134:-1.8934306e-019 3135:0.56727457 3136:-0.0013191652 3137:0.91137218 3138:2.9803976e-014 3139:0.079568818 3140:-0.54280782 3141:-0.0097510982 3142:-0.1055695 3143:-0.015892142 3144:-0.004743861 3145:0.066485539 3146:-0.13078941 3147:-1.2497437e-018 3150:-9.3953481e-020 3151:-0.01300372 3152:0.30656484 3153:0.0060242992 3154:2.691123e-005 3155:0.35683215 3156:-0.15316966 3157:-0.078145593 3158:-0.99378014 3159:-0.00459969 3160:-1.9497221e-012 3161:-0.135157 3162:0.002635086 3163:0.0024355445 3166:-0.20815277 3167:0.012273774 3168:-0.29767227 3169:0.006541708 3170:-0.020505546 3171:0.44334358 3172:-0.06398765 3173:0.062627763 3174:-0.023474006 3175:0.020788485 3176:0.72434616 3178:0.11301366 3179:-0.41888961 3180:0.80138469 3181:0.067510299 3182:-0.0096509783 3183:-0.074898914 3184:-0.29552051 3185:0.022867016 3186:-1.8352572e-016 3187:0.14957002 3188:-0.10327283 3189:0.020889854 3190:0.31561595 3191:0.22316934 3192:-1.7496411e-018 3193:-0.010637292 3194:0.021675497 3195:0.01875555 3196:-0.0025988382 3197:-0.012773287 3198:-0.23547025 3199:0.00096012256 3200:-1.883354e-015 3201:0.31987712 3202:0.28660923 3203:-1.8948435e-017 3204:-0.079307601 3206:0.041156515 3207:-5.847547e-015 3208:-6.3958387e-020 3209:0.024315843 3211:-4.9989745e-019 3212:-4.7915487e-022 3215:5.5710319e-007 3217:0.0011547555 3218:-1.4147195e-012 3219:-0.49016315 3220:-0.3002134 3221:-0.020997616 3222:-5.9144245e-014 3223:-0.028683009 3224:-0.013148169 3225:-0.0029792129 3226:-0.52038878 3227:-0.0038760512 3228:-0.013677308 3229:-5.1970402e-013 3232:0.5032382 3233:0.00071888982 3234:0.062760137 3235:-0.011215073 3236:0.43930084 3237:-0.15741718 3238:-9.5684243e-014 3239:0.29644069 3240:0.1842785 3241:-0.093915679 3242:0.074751988 3243:0.19726369 3244:0.73593247 3245:-0.0023973375 3246:0.42400208 3247:-0.017038759 3248:-0.19364733 3249:-0.12742653 3250:0.36045069 3251:-0.018119838 3252:-1.6963884e-013 3253:-0.066557154 3255:-0.54864872 3256:-4.9749047e-017 3257:-0.043003902 3258:-1.3145958 3259:0.0030148106 3260:-2.2738121e-017 3261:-0.0045524756 3262:-0.010486092 3263:0.1156259 3264:-0.094955198 3265:0.012895107 3266:-0.076821066 3267:-0.2170697 3269:-1.842544e-018 3270:-0.017772399 3272:-1.3603233e-017 3274:-0.25604218 3275:-0.17226803 3278:-0.31367755 3279:-0.49276116 3280:-0.1884757 3282:-8.0597521e-005 3283:-3.4449566e-012 3284:0.85825324 3286:-0.013934074 3287:-7.2027261e-017 3290:-0.013251349 3291:-0.041272651 3292:-0.0083559668 3293:-0.2704123 3294:0.0017243088 3295:-6.9567002e-015 3296:-0.00047438359 3297:0.0038073179 3298:-0.0019864796 3299:6.8240785e-020 3300:0.013139536 3301:-0.12796563 3302:-1.7496411e-018 3303:-0.17713971 3304:0.26921111 3305:-0.15644947 3306:0.01501364 3307:0.13877861 3308:0.077743888 3309:0.024217021 3310:-6.2710938e-014 3311:0.00015353736 3312:-5.765758e-019 3314:-0.01678442 3315:-3.9187102e-014 3316:0.00022014517 3317:-0.0012757374 3318:2.6702214e-021 3319:-1.0290204e-016 3320:0.00022014517 3321:-1.3603232e-017 3322:-0.082059465 3323:0.68220055 3324:-2.2234768e-013 3325:-0.014867567 3326:0.00059575884 3327:-0.12995251 3328:0.0079351151 3329:-0.0010749574 3331:-0.11557211 3332:-0.069516905 3334:0.0080224806 3335:-0.31968015 3336:-0.012720292 3337:-0.10507435 3338:0.11486737 3339:-0.051448774 3340:-0.020309696 3341:0.14840391 3342:-1.0210667e-013 3343:0.22727352 3344:0.39772981 3345:-0.045162939 3346:0.010612456 3347:1.23656e-017 3349:-0.2128039 3350:0.74487054 3351:-0.0089529874 3352:-0.23048906 3353:0.041531224 3355:-0.172157 3356:-0.18242297 3358:0.2032932 3359:6.881396e-014 3360:-0.042502135 3361:-0.32403773 3362:-0.002553575 3363:0.03004407 3364:-0.63878512 3365:0.70736736 3366:0.11860237 3367:-0.37294921 3368:-2.3866777e-018 3369:-0.033746853 3370:-0.015912199 3371:-0.030336499 3372:-0.44751149 3373:-5.120747e-013 3374:-0.37038985 3375:0.051183235 3376:0.00062738056 3377:-4.7033954e-014 3378:7.2461234e-012 3379:0.040425528 3380:0.023454992 3382:-6.2866657e-018 3383:-0.19170137 3384:-0.20294641 3385:0.72977865 3386:0.1792057 3387:0.23893778 3388:3.0176021e-005 3389:-0.36245292 3390:0.31664827 3391:0.017060243 3392:-0.23763223 3393:0.027047599 3394:0.014502835 3395:-5.1458941e-012 3396:-6.2487183e-019 3397:-0.00019645831 3398:0.71902204 3399:-1.8387689e-014 3400:-0.0088644093 3401:-0.030741191 3402:-0.00090210349 3405:-0.10387608 3406:-0.0036074223 3407:-0.076845996 3408:-4.4915875e-016 3409:-2.4468693e-016 3410:-0.013021243 3411:-0.0008872117 3412:0.30607209 3413:-0.30848527 3414:-0.54722536 3415:0.2543509 3416:-0.011916178 3417:0.038536239 3418:-4.9989745e-019 3419:0.00012793798 3420:0.72416955 3421:-0.0010001564 3422:0.18209673 3423:0.017590797 3424:0.088640638 3425:-0.029933149 3426:-0.22170176 3427:0.049961414 3428:-0.13531236 3429:0.032840464 3430:-0.031391002 3431:-0.13317938 3432:-0.6644817 3433:0.16691072 3434:0.3096427 3435:-0.13538526 3436:-0.36774769 3437:-0.023002436 3439:3.3026423e-005 3440:-0.48459366 3441:-0.12329622 3442:-0.0013746622 3443:-0.1593435 3444:0.5706225 3445:0.085462369 3446:3.8877039e-016 3447:0.1553154 3448:0.0037452858 3449:-0.28129163 3450:0.004828488 3451:0.0076279449 3452:-0.16029783 3453:-0.016534705 3454:-0.27085775 3455:0.73536038 3456:-0.48637068 3457:0.29476875 3458:0.068605043 3459:-0.037230667 3460:0.149993 3461:0.00059758924 3463:-1.4996925e-018 3464:4.9990466e-018 3465:-0.0048313071 3466:-0.028196439 3467:0.0062587829 3468:0.0075949049 3470:3.7113801e-005 3471:-0.19415826 3472:0.00044303134 3474:-5.2868707e-018 3476:0.11579558 3477:-4.9989745e-019 3478:-7.7489772e-016 3479:0.13959266 3480:-0.12372378 3481:0.0038908129 3482:-5.4281888e-013 3483:0.00088246923 3484:-0.059335906 3485:-0.011543224 3486:0.22000818 3487:0.45362478 3488:-0.0049048658 3490:0.0024714037 3491:-0.007275519 3492:-0.06925495 3493:0.039940722 3495:-0.025281642 3497:0.77284527 3498:0.17763975 3499:-0.0030684483 3500:-1.2334735e-016 3501:0.02995716 3502:0.063676327 3503:-0.076128677 3504:-0.36300811 3505:1.4073668e-011 3506:-0.00088872388 3507:-0.24905962 3508:-0.123138 3509:0.53693128 3510:-0.41029742 3511:-0.350591 3512:0.0076777623 3513:0.0052037812 3514:0.27434194 3515:0.020468161 3516:-9.2286695e-017 3517:-4.7748519e-005 3518:-3.1004912e-012 3519:-0.0036225158 3520:0.13990924 3521:0.11813297 3522:0.18725909 3523:-0.01940044 3524:-0.011166291 3525:0.12502985 3526:0.3295497 3527:0.048475459 3528:0.0089811496 3529:-1.2913239e-018 3530:0.37739971 3531:-2.4229551e-012 3532:-2.6401179e-013 3533:-2.7284169e-012 3534:0.73599148 3535:-0.37816903 3536:-0.013952454 3537:0.085489318 3538:0.049257457 3539:-0.4655962 3540:-0.0005780374 3541:-0.084123299 3542:-0.19764954 3543:0.0007219183 3544:0.21704671 3545:-4.6119783e-017 3546:-0.0019405561 3547:0.058808167 3548:0.10327814 3550:-0.21553154 3551:0.022393212 3552:0.1380249 3553:-3.0885663e-012 3554:-0.29094854 3555:-0.39587367 3556:0.1003673 3557:7.0255155e-005 3558:-0.0041789361 3559:-6.0542751e-012 3560:-0.026173159 3561:-0.0060239723 3562:0.00063842867 3563:0.43198466 3564:1.8131321e-018 3565:0.059052076 3566:0.028121911 3567:-0.016008591 3568:0.018730091 3569:-1.8809809e-013 3570:0.11796709 3571:0.17967784 3572:-0.00029861601 3573:0.17158987 3574:-0.098425388 3575:-0.27893695 3576:0.027308062 3577:0.018487986 3578:-0.40424493 3579:0.070463195 3580:0.12259514 3581:0.44351003 3582:-2.6244615e-018 3583:0.1125972 3584:-0.13507567 3585:0.10106394 3586:-0.070404813 3587:0.11563198 3588:0.38076454 3589:-0.20472993 3590:0.0075657759 3591:1.8181819e-018 3592:-0.7022953 3593:-0.034971248 3594:-0.018806478 3595:-0.61891031 3596:0.0008872117 3597:0.031093167 3599:-1.4996925e-018 3600:-0.24205914 3601:0.35729071 3603:-0.070341125 3604:-4.066656e-015 3605:-0.13316081 3606:0.13267408 3607:-4.9989745e-019 3608:-0.11394624 3610:-0.0095087374 3611:-6.1999754e-017 3612:-4.9989745e-019 3613:-0.090028293 3614:0.0021522797 3615:-0.056720935 3616:5.1589384e-005 3617:0.00010451983 3618:-3.1291311e-005 3620:-0.032337204 3621:-0.0034663086 3622:0.5598799 3624:-0.09037827 3625:-0.06614995 3626:-0.00043017397 3627:-1.5737801e-016 3629:-3.1349682e-014 3630:0.0076636905 3631:-5.0674987e-021 3632:0.13400905 3633:-0.19474478 3634:-6.322747e-012 3635:-0.053319111 3636:0.028186353 3637:0.15605646 3638:-6.2487183e-019 3639:-2.5258309e-017 3640:-4.9989745e-019 3641:0.24309172 3642:-0.098851331 3643:-0.0013772552 3644:-0.15653872 3645:0.55735934 3646:0.090001144 3647:0.011514246 3648:0.047479834 3650:-0.43201905 3651:-0.32249704 3652:0.0083273109 3653:-2.1562832e-016 3654:-0.11534156 3655:2.3655577e-005 3656:-0.027832359 3659:0.004627476 3660:-0.1058263 3661:-0.28274921 3662:0.45573431 3663:0.36860228 3664:4.5883434e-021 3666:-0.1586152 3667:-0.028078573 3668:-0.28190488 3670:-0.35198238 3671:0.051283237 3672:-0.060526717 3673:-0.014141803 3674:9.4874395e-006 3675:-3.9187102e-014 3678:0.00048432176 3679:-0.014328213 3680:0.099653296 3681:-9.9364347e-019 3682:-1.3190833e-016 3683:-0.019084625 3684:-0.0014539534 3685:-0.18950056 3686:-1.1247692e-018 3687:-0.14726631 3688:0.014858518 3689:0.083877251 3690:-0.00080330489 3691:0.17814864 3692:-0.068390399 3693:0.00038367248 3694:-0.012088182 3695:0.013807724 3696:-0.13893074 3697:-0.050933778 3698:1.384174e-005 3699:0.26740369 3700:0.16966605 3701:-0.034397062 3702:5.4819357e-012 3703:-8.7743902e-005 3704:0.042630699 3705:-1.7592619e-019 3706:-0.23698267 3707:-0.28138864 3708:-0.029448204 3709:-0.038240336 3710:0.59678918 3711:-0.039621457 3712:3.7089066e-015 3713:-0.056427166 3714:-3.1568876e-020 3715:-2.1372632e-015 3716:0.47181824 3717:-1.0439279e-016 3719:-4.9989745e-019 3721:-0.055256896 3722:-0.013934074 3723:0.00073689071 3724:0.10075609 3725:-0.053815734 3726:0.025781706 3727:0.14062446 3728:0.064060047 3729:-0.079480551 3730:-3.0061183e-005 3731:-5.7917074e-005 3733:-2.3878258e-016 3734:-0.0027003854 3737:-0.039880168 3738:-0.0016298292 3740:-0.010813305 3741:-2.0498714e-013 3742:-0.001396696 3743:-0.0023849132 3744:0.28402275 3745:0.00079302641 3746:0.050683867 3747:-5.2868707e-018 3748:-0.11393875 3749:3.2009499e-011 3750:0.0055472404 3752:-0.015089383 3753:0.035678197 3754:0.018074237 3755:0.00047707619 3756:-5.2868707e-018 3757:-0.051768657 3758:0.018830318 3759:-0.11922084 3761:2.5826942e-016 3762:0.75624084 3763:0.055090174 3764:0.16716959 3765:0.72664982 3766:-0.15808892 3767:0.31614593 3768:-0.067206264 3769:-3.1349682e-014 3770:-2.5717217e-016 3771:-0.0028238343 3773:0.17303602 3774:-0.064284898 3775:0.071891718 3776:-0.001918953 3777:-0.046849929 3778:-7.1373605e-015 3779:3.5404388e-011 3780:0.091447227 3782:7.8302759e-007 3784:-0.78530049 3786:-0.068590932 3788:-0.0262879 3789:0.31722257 3790:-0.004161167 3791:-8.0467687e-017 3792:3.3386961e-019 3793:-0.016720889 3794:3.7316106e-006 3795:-0.010388031 3796:0.28155586 3797:0.033697903 3799:0.0650912 3800:-6.2487183e-019 3801:-5.2868707e-018 3803:-0.21035364 3804:0.018291727 3805:-3.0607271e-017 3806:-0.17924429 3807:-0.15304635 3808:-0.00012831208 3809:-7.8664714e-005 3810:1.0486304 3812:-0.099277787 3813:3.0143471e-017 3814:-0.12988459 3815:0.22200571 3816:-2.7559652e-012 3817:-0.6002118 3818:5.6290914e-006 3819:-0.12397011 3820:0.070802115 3821:0.71415663 3823:-2.3612628e-017 3824:0.010304159 3825:0.350591 3826:-2.3221834e-016 3827:0.041915152 3828:1.4884268e-014 3829:-0.01995869 3830:-8.7482053e-019 3831:-9.9979491e-019 3832:-1.2497437e-018 3833:-6.2487183e-019 3834:-1.3243171e-014 3836:0.0045251208 3837:2.6344338e-005 3838:-3.1793196e-017 3840:-0.29112831 3842:-0.03493337 3843:-0.017242556 3844:-0.028317846 3845:-0.51887846 3846:0.20862159 3847:-0.06114994 3848:-3.0618439e-013 3849:-6.9022036e-012 3851:-6.2487183e-019 3852:-5.5518605e-016 3853:-4.4682491e-016 3854:3.5404388e-011 3855:-0.56996679 3856:0.17929836 3857:0.0040466744 3858:0.20179208 3859:0.005639201 3860:-0.001426214 3861:-0.010270169 3862:0.58940941 3863:0.023621 3864:-0.010217794 3865:-0.31938523 3866:0.11057716 3867:-5.7516436e-017 3868:-0.15725507 3869:-0.091075025 3870:-0.27650961 3872:0.10924055 3873:-8.0159214e-017 3875:-1.2811234e-005 3876:-0.0088691069 3877:-8.2722517e-015 3878:-4.5847309e-017 3879:-6.6916959e-017 3880:-0.0013139958 3882:-7.0562055e-005 3883:-0.65334678 3885:0.035400368 3886:0.048298758 3887:-0.50542653 3888:-0.009544435 3889:-1.0487184e-016 3890:0.10075609 3891:-4.7024521e-014 3892:0.5380193 3893:-0.17148168 3894:-7.8721032e-006 3895:-0.34184581 3896:-0.019474465 3897:2.8837024e-013 3898:0.15981972 3899:-0.033578616 3900:-1.3171467e-016 3901:-0.095411718 3902:-5.0657395e-012 3904:-4.8751767e-018 3907:-0.17556733 3908:-1.8181819e-018 3909:-0.0041925116 3910:-0.064826436 3911:-0.0014974979 3914:0.042513583 3915:2.2077048e-013 3916:0.16831414 3917:-4.4521748e-005 3918:-0.072221294 3919:-0.82261527 3920:-0.66451889 3921:4.7989623e-011 3922:-0.014328213 3923:-0.0010121958 3925:-0.24418442 3926:0.19666222 3927:-6.1332561e-005 3928:0.19334269 3929:-0.12299778 3930:-0.87530518 3931:5.5897755e-005 3932:-0.00057796104 3934:-0.00020976651 3935:-3.873372e-007 3936:-1.7297275e-018 3937:1.249249 3938:1.8181821e-018 3940:0.099126026 3941:-0.094183713 3942:-5.9669583e-012 3943:-0.091173418 3944:-0.19190419 3945:-0.02035805 3946:-0.25157204 3947:0.43787074 3948:3.2730557e-005 3949:5.7277066e-014 3950:-0.27868289 3951:0.1147783 3952:-4.3990726e-019 3953:0.0011854719 3954:0.6234569 3955:-4.7915482e-022 3956:-0.10850829 3957:-0.00017117895 3958:-0.17903318 3959:-0.51816958 3961:-0.023300637 3962:0.78175384 3963:-3.4448774e-012 3964:0.20454745 3965:-8.1952974e-005 3966:2.7769485e-005 3967:0.38155794 3968:-0.034495927 3969:-0.068185084 3971:-5.0674987e-021 3973:-4.9989745e-019 3975:-0.066848084 3976:0.021384768 3977:-8.6876389e-005 3978:0.040452469 3979:0.031431925 3980:-4.1340434e-012 3981:0.00030209913 3982:-0.12355436 3983:-0.082107991 3984:0.32257262 3985:0.29920176 3986:2.3792082e-013 3987:-0.022929531 3988:0.050030336 3989:-0.049159087 3990:1.0134997e-020 3991:-0.0094899628 3992:-0.048985362 3993:-6.2384082e-012 3994:-0.00042203086 3996:-0.73033321 3997:-0.32944113 3998:0.0067926999 3999:-0.63562804 4000:0.011651724 4001:0.74055022 4002:0.13843052 4004:2.3743611e-014 4005:0.00092787284 4006:0.0076418999 4007:-1.8412691e-016 4010:0.30454198 4011:-3.6685405e-016 4012:-0.17606308 4013:-1.5857676e-017 4014:-0.11094758 4015:-1.4374646e-021 4018:-0.033512458 4019:-0.36844248 4021:1.0552963 4022:0.088687256 4023:-8.0837344e-013 4024:0.0017243088 4025:0.45473647 4026:-0.00035120579 4027:-0.0018354016 4028:-0.31186509 4029:-0.072380245 4031:-6.0997812e-005 4032:-3.1349679e-014 4033:7.6260553e-006 4034:-7.4984615e-019 4035:-0.030129936 4036:2.998868e-014 4037:-0.46594149 4038:7.9085068e-016 4039:-0.5647167 4040:0.065928437 4041:0.13515723 4042:-2.7964417e-012 4043:0.025350044 4044:-3.1461551e-016 4045:-0.042502135 4046:-0.002611449 4047:-0.20377 4048:-3.1252381e-005 4049:0.31664827 4050:-5.0406851e-017 4051:0.27404121 4052:0.80095118 4053:0.021303324 4055:-0.05026789 4056:3.8877039e-016 4057:0.1553154 4058:0.059200089 4059:1.9806152e-015 4060:-0.0040061991 4061:-0.0051716389 4062:-0.013970067 4063:0.0067578494 4064:0.10517337 4065:-1.2334735e-016 4066:-0.15463094 4069:0.27434194 4070:0.13990924 4071:-0.011166291 4072:0.23080662 4073:-0.1194807 4074:-2.6401179e-013 4075:-0.099277787 4076:-0.25468206 4077:-0.56996679 4078:0.17929836 4079:0.01508217 4080:0.20179208 4081:0.005639201 4082:0.3348918 4083:-0.0018448526 4084:-0.026862245 4086:0.00011948172 4087:-4.9989745e-019 4088:-0.16482882 4089:7.9085068e-016 4090:0.38076454 4091:-0.7022953 4092:-0.61891031 4093:-4.066656e-015 4094:0.0021522797 4095:7.8302759e-007 4096:-0.084453829 4097:-0.0099586034 4098:-0.1744583 4099:-0.0012186766 4100:-2.5004909e-005 4102:-1.7004041e-017 4103:-0.014328213 4104:0.099653296 4106:0.042630699 4107:-0.24254219 4108:-0.0029893857 4109:0.032082882 4110:-0.049159087 4112:0.06590353 4113:-8.2141996e-018 4114:-0.0094899628 4115:0.24941248 4116:0.046720382 4118:-0.07052242 4119:-0.035958111 4120:-0.6002118 4121:3.5404388e-011 4122:0.13302332 4124:0.5380193 4125:0.081201732 4126:4.3955195e-012 #
