SVM-light Version V6.20
0 # kernel type
3 # kernel parameter -d 
1 # kernel parameter -g 
1 # kernel parameter -s 
1 # kernel parameter -r 
empty# kernel parameter -u 
4128 # highest feature index 
336 # number of training documents 
2 # number of support vectors plus 1 
1.0520945 # threshold b, each following line is a SV (starting with alpha*y)
1 1:-0.1472453 2:0.010960433 3:-0.070367515 4:-2.4856231e-018 5:-5.0358607e-018 6:0.066488519 7:0.0053558853 8:0.00021774629 9:-0.65265256 10:-0.011695641 11:0.43217239 12:-0.004368403 13:-0.22045764 14:0.017004002 15:0.67387688 16:-0.10545424 17:0.037898324 18:0.0044274032 19:-0.35818067 20:-0.0067853401 21:0.031266447 22:0.47448158 23:-0.062468037 24:-0.37441614 25:-1.7934997e-011 26:0.06321422 27:-0.00017919303 28:-1.590261e-013 29:0.30788535 30:-0.028274538 31:-0.25646415 32:0.07165058 33:0.31094718 35:0.16496705 36:0.22716457 37:0.029632302 38:-1.3034226 39:0.025509642 40:0.29652646 41:-0.38659036 42:0.67502648 43:-0.012676733 44:-0.12811227 45:5.5962444e-012 46:0.40916282 47:0.25356552 48:0.056164537 49:-0.21800421 50:4.9718429e-017 52:-0.065875761 53:-0.20563349 54:-0.37590781 55:0.18866369 56:0.007925028 58:0.4322674 59:-0.34916952 60:0.0098685455 61:-7.7293132e-014 62:-0.0093565127 63:-0.00052386703 64:0.00029375649 65:0.5122925 66:3.1940935e-016 69:-0.26056683 70:6.7675475e-012 71:0.59827 72:0.13782147 74:-0.02174031 75:0.23251225 76:-0.026956724 77:-0.002138024 78:0.0001131246 79:-0.24066439 82:-0.56961232 83:-0.13586433 84:0.29053861 85:0.03578769 86:-0.037585489 87:0.23757757 88:0.093506306 89:-0.36087632 90:-0.058336414 92:0.21606967 93:-0.063156456 94:-0.18177879 95:-0.26040602 96:-0.33060089 97:-0.060420029 99:-0.00012133683 100:0.34137109 101:0.00046444373 102:-0.017536322 103:0.0036610169 104:-0.18101925 105:-5.7917856e-017 106:-2.0492014e-015 107:0.002440678 109:-0.019454349 110:-0.0023911407 111:-0.28617308 112:-0.020613179 113:-0.0022878353 114:-1.5420971 115:5.79909e-011 116:-0.0011971006 117:0.3031317 118:-0.0015750966 119:0.26373836 120:-0.035302918 121:-0.0042203618 122:-0.43446097 123:-0.30829197 124:1.3141948e-012 125:-0.30619645 126:-0.051279213 127:0.31083372 128:-0.42696998 129:-0.26412603 130:8.1459159e-016 131:-0.1278087 132:-0.00048959546 133:-0.014959577 134:0.0026179454 135:2.8827419e-005 138:1.1831138 139:0.31727949 141:-3.0039903e-013 142:0.73204499 143:0.21920699 145:-0.038939316 146:0.0006738283 147:0.093759343 149:0.7701605 150:-5.9040274e-017 151:0.0099878972 152:0.37992483 153:0.12775511 154:-0.32751733 155:-0.044016365 156:-0.052615821 157:0.00015996459 158:0.57322228 159:-0.023088321 160:0.015774 162:4.0877245e-012 163:0.118292 164:-0.05474066 165:0.0426335 166:0.098051012 167:0.028027736 168:1.6641351e-016 169:0.3272858 170:0.051187247 171:-5.0704199e-005 172:0.18927124 173:-0.067701235 174:-9.3251572e-014 176:-1.0607406e-012 177:3.1940935e-016 178:9.5300609e-005 179:-0.60471231 180:-6.8739263e-012 181:0.057388224 182:9.5131565e-014 183:3.167117e-005 184:0.37344563 185:-0.04768407 186:-0.16261634 187:-0.01514845 188:0.54379416 189:-0.045710035 190:-0.043344133 191:0.32623401 192:-0.063530467 193:-0.026669821 194:0.92526484 195:-0.24769396 196:0.13360728 197:0.04617824 198:0.018450012 199:-0.03578436 200:-0.097336926 201:-0.28293383 202:0.15336543 203:3.9260019e-012 205:0.25370118 206:0.062523827 207:0.00011978089 208:0.1180557 209:0.0027374283 210:1.4332285e-014 211:0.9409911 212:0.15674983 213:1.6493198e-015 214:-3.7573326e-012 215:-5.1719005e-017 216:-2.6284999e-015 217:-0.00079309446 218:0.012209089 219:-0.19148146 220:0.093108162 221:0.19589761 222:0.38392064 223:0.1007363 224:-0.47870365 226:0.31759793 227:-0.21802594 228:0.35908395 229:0.13532577 230:3.0258654e-013 231:7.0604622e-013 232:-0.047069043 233:0.083455987 234:-0.00071405922 235:-1.5765452e-005 236:-0.012071319 237:0.054145768 238:0.080711514 240:0.00011251426 241:-6.3569154e-005 242:-0.065665483 243:0.042323645 244:0.16301584 245:-0.22597876 246:-0.32016605 247:0.11422001 248:-0.9520812 249:0.2523396 250:-0.084160946 251:1.6579242 253:-0.08464656 254:-0.038346801 255:-0.14807104 256:-0.44623986 257:-0.28293389 258:-0.1163128 259:-0.1162963 260:0.32528588 261:0.0008872117 262:0.29262412 263:0.20426327 264:3.0269922e-013 265:0.0050955741 266:0.085151635 267:-0.32236212 268:-0.22020499 270:-0.014758965 271:-0.48028833 272:0.49748927 273:0.061518505 274:-0.020328626 276:0.011550601 277:0.65430558 279:0.20923667 280:0.10732776 281:-0.1172772 282:-1.0373056e-013 283:0.0070924885 284:0.021483997 285:0.11184613 286:0.025842747 287:0.051445719 288:-0.32101971 289:0.42596188 291:-0.10436808 292:0.030425135 293:0.073366284 294:-0.12997822 296:-0.0076824785 297:0.023223734 298:0.43976012 299:-0.34119371 300:0.13056049 301:0.1959186 302:-4.9352449e-005 303:-1.1445115e-017 304:0.012989515 305:0.29705587 306:-1.9637629e-016 307:0.068932697 309:3.7009751e-020 310:0.00086527754 311:0.00087245117 312:0.1184265 313:-0.28217885 314:1.2088646e-013 315:-0.046382532 316:-0.0003399665 317:0.050647106 318:0.21215042 319:-0.097164713 320:-0.01196774 321:-0.0007875333 322:0.045071971 323:0.14128764 324:-0.27469984 325:0.022542596 326:0.0089220572 327:0.10030054 328:0.034160011 329:-1.7502611e-017 330:-1.1171594 331:0.021408243 332:0.32000223 333:0.37952974 334:-0.11263601 335:0.0023087733 336:-0.27193815 337:-1.0126697e-013 338:-0.068835065 339:-0.22304967 340:-0.21205711 341:-0.10801464 342:-5.943072e-012 343:-0.33057645 344:0.1133608 345:-0.00046720353 346:-5.4569684e-019 347:-0.1008747 348:-0.032752141 349:0.012606826 350:-0.11626805 351:3.7009754e-020 355:-0.013041453 356:-4.7079192e-013 357:-0.048257515 358:0.34763426 360:1.0607963 361:-0.12355214 362:-0.15518133 363:0.041015115 364:-0.0036819126 365:-0.54562593 367:-0.16694152 368:0.050627016 369:-0.72611809 370:-0.13588397 372:-0.098923787 373:-0.33021346 374:-0.012430777 375:0.70837224 376:0.11160136 377:-0.42368546 378:-0.00058539072 379:0.13183853 380:0.25223765 381:-1.3514166e-016 382:-0.21031204 384:-0.16232854 385:0.30923295 386:-0.24931231 387:0.00040662198 388:-0.002695661 389:0.31497768 390:0.11848952 391:6.7956567e-017 392:-0.33499339 393:0.053058248 394:0.099322699 395:-0.23372038 396:0.0081876256 397:-8.5566702e-005 398:0.21132793 399:0.15990867 400:-4.584723e-015 401:0.047567967 402:-0.33826953 403:-0.036083743 404:-2.1197395e-013 405:0.075526774 406:-0.14283811 408:-0.12071407 411:-5.9040274e-017 414:-0.0056871665 415:0.3178319 418:-5.7917856e-017 419:-1.0271553e-013 421:-0.1143377 423:-0.0057254625 424:-0.12294129 425:-1.5460686e-013 427:-0.11433769 428:-0.03940773 429:-0.037677463 432:-1.3456759e-017 434:-0.097968467 435:0.86780041 436:-0.15913175 437:0.3251079 438:-0.0035093967 439:-0.0074735139 440:0.037044078 441:-2.1898503e-013 442:-0.021874143 443:-2.1335967e-005 444:-0.038435344 445:-0.33090869 446:0.062701821 447:-0.018852428 448:-5.2443145e-012 449:0.0012483952 450:3.7609842e-014 453:2.8342067e-019 455:-0.016303126 456:-0.1143377 458:-0.083664812 459:0.9048568 460:-0.015566548 461:0.033330195 462:-3.7966566e-012 463:0.027898276 464:-0.11824966 465:-0.023008797 466:7.1838054e-005 467:0.71581101 468:0.050195064 469:0.36660033 470:-4.7693888e-005 471:-0.19805089 472:0.0057794456 473:-0.021930987 474:-0.045404807 475:0.49399891 477:-1.0194145e-016 478:0.015720887 479:-0.07752829 481:-0.23507124 483:0.036154654 484:-0.055354133 485:0.4296602 486:0.00020941999 487:-0.00040769781 489:-6.7570829e-017 490:-2.438369e-018 492:0.0023872834 493:-3.8611904e-017 494:-0.19180055 495:0.93283498 496:-2.5048884e-012 498:-0.00046720344 499:-0.19936845 500:-0.004983854 501:-0.139726 502:-0.015244716 503:-0.00019720366 504:-9.0612393e-014 505:-0.22794688 507:-0.037258759 508:7.2406646e-015 509:-0.79233509 510:-0.2896201 511:-0.12254036 514:0.015499099 515:0.13511306 517:0.31179392 518:0.053741891 519:-0.00046720359 520:-0.094320692 521:-5.9404494e-014 522:0.11306759 523:0.00066484959 524:0.048565578 525:0.033529755 527:-0.00052405935 528:-0.044708669 529:0.0040725176 530:-2.4383688e-018 531:0.12079041 532:0.65959644 534:0.0001306263 535:-0.76017833 537:-0.49748108 539:3.5266646e-016 540:-0.0040827808 541:0.60706729 542:-2.2612541e-014 543:-0.024909703 544:-2.2938883e-015 545:4.9435901e-005 546:0.1653616 547:-0.5343321 548:-0.48510548 549:-3.9340831e-014 552:0.72203529 553:-0.023071984 554:-0.24078521 555:-0.0015631751 556:-0.16819993 557:-0.040569685 558:-6.834532e-014 559:0.13843422 562:0.073914185 563:0.00026536614 564:-0.021923143 565:-0.56359959 566:-0.0053938758 568:-0.00026436482 569:-0.0249303 570:-5.2802492e-014 571:2.3478144e-005 572:1.3181706e-012 573:-0.073669471 574:-1.1079284e-017 575:-0.1046871 577:-0.45713601 578:0.00082595355 579:-8.2137425e-016 581:-1.4752116e-005 582:0.0829252 583:-0.010953351 584:-0.060191672 585:-0.3495405 586:-0.041417912 587:-0.00015427472 589:-0.15102415 590:-0.074764445 591:-0.016686851 593:-0.048587266 595:-0.15982878 596:-0.1036742 597:0.27812916 598:-0.016968854 599:-0.10017923 601:0.31434432 602:-0.035973318 603:-0.12338829 604:-0.002251992 605:-0.070609421 606:0.08507096 607:0.14434479 608:-0.02319744 609:-0.59337938 610:-0.072440282 611:6.3190674e-007 612:0.12860835 613:-2.3908079e-019 614:-0.05374331 615:-0.27910191 616:-0.00082905032 617:-0.077670164 618:0.28783867 619:0.014902504 621:-0.061565876 622:1.0616642e-005 623:0.44263139 624:-0.00023449099 625:0.070322134 626:-0.25276071 627:-0.057529356 628:0.56700319 629:-0.086071201 630:0.050642267 631:0.075020917 632:-0.46470016 634:-0.13528551 635:0.00038614066 636:-0.2975361 637:-0.14329419 639:-0.059941709 641:0.35377476 642:-0.22916323 644:-0.0066156141 645:-0.0014305162 646:-0.083900027 647:-0.0029431644 648:0.04617824 649:-3.85614e-005 650:-0.30655262 651:-6.4902189e-005 653:-3.8611904e-017 654:-4.4538422e-016 655:-0.34211251 656:-0.064895764 657:0.2579549 658:-0.45254153 659:0.68718845 660:0.068035699 661:-0.0021559875 662:-0.092944838 663:0.029718017 664:0.013877129 665:-5.3353611e-005 667:3.1940935e-016 668:0.010010967 669:0.36963406 670:-0.27580917 671:0.059386138 672:-0.16500418 673:-0.074364349 674:-0.13235785 675:-0.23461254 676:0.86223495 677:0.004090643 678:-0.0068245674 679:0.67706114 680:0.12629779 681:0.00052126939 682:-0.14092466 683:-0.29369971 684:-0.11326037 686:0.42791566 687:0.0039287936 688:-5.1131676e-005 689:0.24232948 690:-0.48772582 691:-0.0027994793 692:5.3934968e-005 693:-0.01123227 694:1.6799492e-016 695:-0.052455798 696:0.32385656 697:0.20978093 698:0.24339758 699:0.42140952 700:2.9249583e-017 701:0.4740974 702:-3.7213865e-012 703:-0.0010342636 704:0.50099128 705:0.26309869 707:0.5804227 708:0.014549314 709:2.3016987e-014 710:0.380393 711:2.9439665e-005 712:0.076489955 713:-0.014709624 714:0.058491189 715:-0.16750416 716:-0.00077744352 717:0.00059260637 718:0.59159821 719:-0.40485004 720:-3.2167478e-005 721:1.5484754 722:-0.16262655 723:0.035616737 724:-0.25929934 725:0.23973237 726:-0.00014725108 727:0.041692 728:0.0020202328 730:-0.12094132 731:-1.2273518e-016 732:-0.4674364 733:-0.042668294 735:0.11185464 736:0.071059674 737:-0.048848983 738:0.16296586 739:0.045544639 740:-0.54859394 741:-0.54250515 742:0.7025249 743:0.17437576 744:0.0012790823 745:0.54460621 746:0.00027294806 747:-0.00039629402 748:-0.19511442 750:0.073788479 752:0.2162541 753:0.43125987 754:-0.1318503 755:0.1642098 757:-0.20497689 758:0.42877647 759:0.0036991416 760:1.160398e-013 761:0.06809099 762:-0.007197096 763:0.013344412 764:0.043956328 765:-0.00084382109 766:0.16899759 767:0.25259632 768:-0.92382997 770:-0.023470879 771:-1.4787933e-016 772:0.017098935 773:-0.61684018 774:-0.08179944 776:-0.042641155 777:-1.0853354e-012 778:-0.10950466 779:-0.38000304 780:-0.075358614 781:1.7537196 782:-0.3648991 783:-0.0066813147 784:-0.30439854 785:0.25375286 786:-0.0033822674 787:-0.090647459 788:-0.048752256 789:-0.0021667283 790:-0.11410216 791:-0.24540374 792:-0.18131109 793:-0.012242218 794:0.83925837 795:-0.027817147 796:0.2175758 797:0.0064986665 798:-0.19329515 799:-0.22476913 800:-0.00059574528 801:-3.4580239e-017 803:-0.17242247 804:-0.016906178 806:0.052126963 808:1.5948199e-014 809:-0.16838662 810:-0.39739442 811:-0.49226063 812:0.04161258 813:0.12161294 814:-0.013216519 815:0.0021089993 816:-0.26781267 817:0.056642875 818:-0.011601336 820:-2.6189738e-018 821:-2.6865192e-015 822:-0.034204792 823:0.00054778898 824:-0.012520863 825:-0.011696106 826:-0.0018923646 827:-8.2079484e-017 830:0.3772659 831:-0.041950013 832:-0.026274679 833:-0.064558379 835:-0.19016479 836:0.0058815177 837:-0.12534884 838:0.00030431079 839:-0.071871422 840:3.6895226e-012 841:-0.0025379166 842:0.17396595 843:0.0039405758 844:0.065169878 846:0.066262275 847:-3.7573326e-012 848:-0.45436567 849:0.14187291 850:-1.7871681e-016 851:0.44500452 852:-0.011696106 853:-0.8347947 854:-0.071123779 855:-5.4676255e-014 856:0.00069947215 857:-0.26853305 858:-0.19854356 859:-0.11573403 860:0.43507868 861:-0.29398042 862:0.00017783373 863:1.6981609e-007 864:0.16192862 865:-0.17959321 867:0.04695946 870:-0.032860056 871:-0.031044817 873:-2.0328947e-016 874:-0.021741444 875:-0.060973853 876:-0.0082133794 877:-0.020514067 878:-0.0422474 879:0.031600121 880:-0.090927176 882:0.020790707 884:-0.37849638 885:-0.040650491 886:0.0146957 888:-1.7182924e-016 889:-6.5790874e-015 890:0.011404712 891:-3.3017207e-012 892:0.1163902 893:-0.070021562 894:-4.260707e-016 895:-0.26035401 896:-0.0028422498 897:0.050615191 898:-0.016048251 899:-0.050502531 900:-2.9053012e-017 901:0.00073359814 902:-0.2690419 903:-0.41523799 904:-3.6901553e-017 905:-0.0040116305 909:-0.016430026 910:0.01726011 911:-7.8049599e-019 912:-0.0088136457 913:-0.042012941 915:-1.6519231e-013 916:-3.6936092e-012 917:-0.037539668 918:-0.0022699356 919:-0.028008623 920:-0.30130851 921:-0.022427531 922:0.002768476 923:1.8117185e-005 924:0.1703122 925:-0.051230971 926:-0.15445313 929:0.16550872 930:-0.0062242383 933:0.028733071 935:-7.7578504e-017 936:8.2040551e-006 937:-0.0030707184 939:4.1538991e-005 940:-0.054612331 941:-0.32649431 942:-0.3144286 943:-0.0017052331 944:-2.422837e-005 945:-0.26913404 948:-0.062493417 949:1.0146631e-006 952:-0.25880057 954:-0.03915434 956:-0.082183719 957:0.00040265138 959:0.038136534 961:0.11356433 962:-0.42050141 963:0.026835551 964:0.011633392 965:-0.07752829 966:-0.00029200219 967:0.031559791 968:0.89238214 969:-7.7973455e-006 972:0.0010733178 974:-0.014941399 975:0.020307083 976:0.2467104 977:0.0009343159 978:0.28049427 980:0.12561435 981:0.055653695 983:0.0014219029 984:-1.1827562e-017 985:0.0008872117 986:-0.1021086 987:-0.17427088 988:-0.06735494 989:-0.12685573 991:-0.030944431 992:0.094245225 994:-2.8404715e-016 995:-0.22570476 996:-0.018014928 998:1.0193485e-016 999:-0.23205468 1001:-0.28208551 1002:-0.083659902 1003:-3.5505893e-016 1005:-0.56545889 1006:0.0028012707 1007:-0.24405602 1008:0.0089147333 1009:0.80560684 1010:3.3297823e-005 1011:-0.010573892 1012:-3.2975979e-013 1013:-1.1224172e-018 1014:0.00017819407 1015:0.02437776 1019:-0.51469576 1020:-0.011832901 1021:-0.2857821 1022:-0.031675778 1023:0.0014120308 1025:-3.6961428e-014 1026:0.010453268 1027:0.00021257761 1028:0.00023177685 1029:-0.15861221 1030:0.23857966 1031:0.036433566 1032:0.041521292 1033:-0.18924581 1034:-0.024621846 1035:-0.0011088934 1037:9.6459276e-005 1038:2.0257611e-012 1039:-0.13774735 1040:-1.8581343e-013 1041:-0.015015245 1042:-0.11459446 1043:-0.038954187 1044:0.6440888 1045:-0.17779084 1046:0.0015846018 1047:-0.58513862 1048:-0.0048307762 1049:0.16263606 1050:-0.040625244 1051:-0.019128842 1052:-0.084931761 1053:0.072738893 1054:-0.27460301 1056:0.068730533 1057:-0.00099949667 1059:0.00073106238 1060:-0.27091932 1061:0.0008738818 1062:-9.8772158e-019 1063:-1.0466758e-013 1064:-0.74986625 1065:0.032209557 1066:-1.0349199 1067:-0.26834989 1068:-0.58004236 1070:0.047297105 1071:-0.022662228 1072:-0.25860593 1074:0.49954274 1075:0.031366121 1077:-0.040473022 1081:0.33012429 1083:-4.4715577e-012 1084:-0.0023058672 1086:0.002440678 1087:-4.9572986e-020 1088:-0.19474323 1089:6.522876e-011 1090:1.2970586e-005 1091:-0.13914756 1094:-8.7300474e-013 1095:1.0612385 1096:0.13532579 1098:-0.068923928 1100:-1.1827562e-017 1101:-8.6305518e-019 1102:-0.08997263 1103:-0.036640197 1104:0.058453497 1105:-0.050117504 1106:-0.34871393 1107:-4.7254289e-020 1109:-0.082535654 1110:-0.33512947 1111:0.061025616 1112:-5.8176281e-017 1113:-3.9872287e-014 1114:-0.0063793636 1115:-0.38691995 1116:-0.18345194 1117:-3.8059946e-017 1118:-0.25254521 1119:-0.037731476 1122:-0.095311508 1123:0.45292991 1124:-0.062616982 1125:-0.71619725 1126:-1.6844846e-005 1127:7.1722931e-022 1130:0.018102827 1131:-5.6359995e-012 1133:0.062209953 1135:-1.5653928e-013 1136:0.270127 1137:0.00021813814 1138:0.35027078 1139:0.016101545 1140:-0.064641371 1141:-0.33055496 1142:-0.53481483 1143:-0.0041223937 1144:-0.0097555527 1145:0.00068734761 1146:0.00088721176 1147:-0.075400867 1148:-1.9164672e-012 1149:-0.60606426 1150:0.00052126939 1151:0.0099956524 1152:1.4624791e-017 1153:-0.059404667 1154:-0.25721943 1155:-1.2043308 1157:-0.30499676 1158:-0.062050555 1159:0.82625145 1160:-0.17097041 1161:9.6015545e-005 1162:0.031500787 1163:-3.1311104e-012 1164:-4.8839146e-018 1165:-1.1809907 1166:0.0056469468 1168:0.091051169 1169:-5.7724173e-016 1170:-0.072832257 1173:-0.13465182 1174:-0.087203287 1177:0.00085870037 1178:-0.70934683 1179:-7.4827818e-019 1180:-0.11500569 1181:-7.4827818e-019 1182:-0.030121723 1183:-0.082599431 1184:0.61604089 1185:0.13567039 1186:0.042821728 1188:-2.8404715e-016 1189:1.5125597e-020 1190:-0.17954615 1192:0.14086384 1193:-0.13346405 1194:-5.4676255e-014 1195:0.26168713 1196:-8.455653e-005 1197:-2.504927e-012 1198:0.0067449156 1199:0.049217667 1200:-0.030383464 1201:-0.051488914 1202:0.0053558857 1203:-0.22590461 1204:0.010156707 1205:0.0072747939 1206:2.0181604e-013 1207:7.2780695e-006 1208:0.17396595 1209:0.002833609 1210:-0.040677477 1211:6.1227161e-006 1212:-0.88668579 1213:0.00030814885 1214:0.047492247 1215:-0.045205314 1216:-0.066820405 1217:0.0032215717 1218:-0.16021334 1220:-0.011696108 1221:-1.1224172e-018 1222:0.0059703933 1223:-0.03937066 1224:0.10095268 1225:-0.18232255 1227:-0.12272198 1228:-6.8239113e-016 1229:-0.0027882946 1230:-0.0019873157 1231:-0.0040518567 1232:0.057160635 1233:-0.090045057 1234:-0.18143116 1235:1.0285656 1237:-3.7726981e-020 1238:0.048256677 1239:-0.15465342 1240:0.0094390986 1241:0.80759811 1242:-3.8487242e-013 1243:-0.073901147 1244:-0.2205988 1245:0.02992723 1246:-0.70171171 1247:0.00042833821 1248:-0.56420159 1249:0.024083409 1250:-0.0075308224 1253:-0.46687198 1254:0.124745 1255:-0.20203619 1256:-0.0050837225 1257:-0.10174166 1258:-0.055072203 1260:-2.4547036e-016 1261:-0.60465693 1262:-0.0050307726 1263:-8.3928089e-006 1264:0.69456911 1265:-0.34781769 1266:0.051821861 1267:-2.9199245e-013 1268:-0.27580917 1270:-1.1827561e-017 1271:-0.125678 1274:-0.087603725 1275:-0.0038383978 1277:-0.052781809 1278:-0.022929976 1279:-0.35525593 1281:-0.055056315 1282:-0.64452213 1283:0.042193905 1284:-0.17988007 1285:0.029603841 1287:0.00024970458 1289:-0.25619397 1292:3.701384e-005 1294:-0.1507432 1295:-0.12749505 1296:6.2562997e-013 1297:-3.036072e-014 1298:0.023262408 1299:-5.3316813e-013 1301:0.062084984 1302:0.0096428925 1304:-1.6549404e-013 1305:-0.052302647 1307:-0.0068978127 1309:-0.73436052 1311:0.61357951 1312:-0.052694444 1313:0.013790905 1314:0.00069533067 1315:-1.1319258e-015 1316:-4.8053971e-013 1318:0.049040794 1319:-0.39964643 1320:0.059125356 1322:0.030910335 1323:-6.2622208e-012 1324:-0.43198025 1325:-0.0035443322 1326:-0.0098150736 1327:-0.067755833 1328:-0.22656776 1330:-0.10771909 1331:-1.2997334e-016 1332:-0.30251902 1334:0.090484761 1335:-1.0597587e-013 1336:0.51755244 1337:0.04786782 1339:-0.022232465 1340:0.02069284 1341:-3.7009751e-020 1344:-1.9388745e-017 1345:7.7040837e-005 1346:0.005581894 1347:-4.826488e-017 1348:-2.5048884e-012 1349:-0.001170536 1350:0.12989746 1351:-0.45725971 1352:-0.19846785 1353:-0.20106733 1354:-0.51752782 1355:-7.1011785e-016 1356:-0.1985653 1357:0.12332947 1358:-0.098573327 1359:0.014022284 1360:-0.11696216 1361:-0.280195 1362:-6.9218779e-015 1363:-0.020549713 1364:-1.0286345 1365:-0.10686535 1366:0.0016657262 1367:0.17178208 1368:-0.15802075 1369:0.0027386742 1370:-0.50368589 1371:-0.12294605 1373:-0.061345953 1374:0.30999792 1375:0.00010656418 1379:0.00069947209 1381:1.0355842 1382:-0.028259872 1383:-0.10296063 1384:0.00027486088 1385:0.20687483 1386:0.0052774544 1387:-0.14190233 1388:-0.070197195 1389:3.9353533e-012 1390:0.0057131178 1391:-0.0095584169 1392:0.71882373 1394:1.6460537e-015 1396:-0.5427174 1397:-1.0329353e-011 1398:-0.34196401 1399:-0.0001847986 1400:-0.16091758 1401:-0.31533626 1402:-0.070392229 1403:-3.9360185e-017 1405:0.31255317 1406:-0.0014646145 1407:0.35671303 1408:5.2601594e-019 1409:0.0584535 1410:0.0008872117 1411:0.87818503 1414:0.33887717 1416:0.26901892 1417:-1.2259777e-013 1419:-3.3735154e-013 1420:-0.76797897 1421:-0.018713025 1422:0.00032321739 1423:0.030380823 1424:0.19579108 1426:-0.20792823 1427:-0.13674906 1428:-0.19832259 1429:-1.0135142e-005 1430:0.0049372544 1431:-0.0038284992 1433:-0.2615104 1434:-0.00027020182 1435:-0.00013171323 1436:0.20434263 1437:-0.031610712 1438:-0.41137418 1439:0.026360428 1440:-0.23828703 1441:-0.00011468427 1443:-1.4713182e-011 1444:0.89647776 1446:-0.053056486 1447:-0.00065694546 1448:0.17968141 1449:6.7104607e-005 1450:1.0169076 1451:-2.0249637e-016 1452:-0.033784144 1453:-0.15658493 1454:-2.4009511e-015 1455:0.25733131 1456:-0.28110474 1457:-0.12181583 1458:0.19597369 1459:-0.15573214 1460:0.016313979 1461:2.4563448e-012 1462:-0.41155115 1463:0.0008872117 1464:-1.6062552e-016 1465:0.23635408 1466:-0.36832109 1468:0.0032570595 1469:0.027833408 1470:-0.1274249 1471:-0.040026668 1472:-0.19598101 1473:-0.079344407 1474:-0.036964726 1475:0.0064477199 1476:-3.0447959e-017 1477:-0.010953351 1478:-0.00012377092 1480:-0.3130205 1481:0.36726663 1485:-0.12940064 1486:-0.0051275305 1487:-0.0078939013 1488:-5.0097777e-012 1489:-0.059168309 1490:0.0026189014 1491:-0.82521576 1492:-0.012400152 1493:-0.0069719837 1494:0.34962115 1495:-0.0011444457 1496:7.7146617e-013 1497:-0.74146968 1498:0.099651173 1499:0.0010258628 1500:0.40218979 1501:-0.12843445 1502:0.019170249 1503:-0.78567171 1504:-0.17919429 1505:0.14040956 1506:-0.028382702 1507:1.014663e-006 1508:0.11021255 1509:-0.0013834237 1511:0.012198646 1512:-0.33534241 1513:-0.0024496708 1514:0.80108118 1515:-0.1770543 1516:0.90972435 1517:0.32259047 1518:-0.40244153 1520:-0.016215306 1521:-0.031331468 1522:-0.023756282 1523:0.014626407 1524:-0.91942167 1525:-0.0097962646 1526:0.79137814 1527:0.23385726 1528:-0.014199483 1529:-0.01417108 1530:-0.041367788 1531:-0.00052872964 1532:-1.059842e-013 1533:0.49498624 1534:0.20378169 1535:-0.064984456 1536:-0.011630976 1537:-0.05634455 1538:-0.058624718 1539:5.0508752e-005 1540:-0.032016132 1541:-0.11615733 1542:0.11615385 1543:0.12142407 1544:0.0084068421 1545:-6.9571978e-017 1546:-0.10068003 1547:-0.35333249 1549:-0.088007331 1550:-0.015104583 1551:-0.011035049 1552:0.90273952 1553:0.7177974 1554:0.0050754161 1555:-0.10749154 1556:-0.16765764 1557:-0.13171072 1558:0.0055970717 1559:0.87327462 1561:-0.0020900562 1562:0.34903905 1563:0.28367746 1564:0.043588553 1565:0.1409601 1566:-0.001999005 1567:0.025664525 1568:-0.026259409 1569:-2.2419493e-017 1570:-0.037253663 1571:-0.23759696 1572:0.079730183 1573:0.0029823452 1574:-0.12734182 1575:0.035705887 1576:-0.06479726 1577:1.9767838e-012 1578:0.089594275 1581:-0.15435703 1582:-0.0016352126 1583:0.1109421 1584:-0.32411534 1585:-0.2184654 1586:-0.30310354 1587:0.042792071 1588:-0.003061149 1589:-1.2440795 1590:-0.2492916 1591:0.0039543575 1593:0.013053476 1594:-0.05692606 1595:0.14433046 1596:0.078873746 1597:0.0061270571 1598:0.026110582 1599:-2.4508637e-014 1600:-0.013513643 1602:0.00050098286 1603:-0.062286921 1604:-4.7493975e-013 1607:-2.9053012e-017 1608:-9.7246762e-016 1609:-0.29081446 1610:-0.071673259 1611:0.32767951 1612:-0.10830989 1613:-0.21427529 1614:0.0099357357 1615:-0.076988243 1616:-0.00053704029 1617:-1.2678809 1619:-0.001816041 1620:0.26205519 1621:-0.20332769 1622:0.017028397 1623:-0.1866551 1624:-0.27907836 1625:-0.18220747 1626:-0.0066060415 1627:-0.053507913 1628:-1.8706954e-018 1630:0.07514786 1631:-0.58896327 1632:-3.8611901e-017 1633:-0.059149962 1634:-0.18159756 1635:-0.079559416 1636:-0.10462387 1637:-0.36194962 1638:0.39060274 1639:-0.15932605 1641:0.12327728 1642:0.26740828 1643:-0.062935382 1644:0.2035526 1645:2.6185252e-012 1646:-1.9369609e-014 1647:0.1352296 1648:-0.30071658 1649:-4.0012514e-005 1650:-0.52578914 1651:0.054799695 1652:-0.17678167 1653:-0.091770835 1654:3.3641387e-005 1655:-0.11768986 1656:0.1325445 1657:0.0054218583 1658:-0.72331572 1659:0.0023695016 1660:-0.00021286412 1661:-0.6485433 1662:0.53649461 1663:0.29443261 1664:-0.030622041 1665:-0.014270327 1666:-0.019232051 1667:-0.14747398 1668:0.095960863 1669:0.49096969 1670:0.36525655 1671:-0.013265134 1672:-0.13429992 1673:-8.5531545e-005 1675:-0.45911521 1677:-0.77196574 1678:0.34014806 1680:-0.098824143 1681:-7.4827808e-019 1682:0.062341619 1683:0.014835364 1684:-0.21336551 1685:-0.19561639 1686:-0.071981974 1687:0.092960149 1688:0.0078356527 1689:-0.053307634 1691:-2.2229371e-018 1692:2.4581732e-005 1693:-0.1215993 1694:-4.6370187e-005 1695:-4.920023e-017 1696:4.0912191e-012 1697:-0.10952958 1698:-0.30867544 1699:-0.44691786 1700:-0.30777094 1701:-0.21144295 1702:5.6098021e-012 1703:0.19628607 1704:3.6186908e-011 1705:1.3463602e-013 1706:-0.094262131 1707:-0.12004088 1708:0.21038221 1709:-0.15826899 1710:0.020056596 1711:-0.24091026 1712:-0.00033587485 1713:-0.0039459555 1715:-0.28532624 1716:-0.042203713 1717:-3.6901546e-017 1718:-7.4827818e-019 1719:0.37209764 1720:-0.067321107 1721:-0.21921395 1722:-5.9197995e-005 1723:-6.4490785e-005 1724:4.809941e-013 1725:-0.00081993901 1726:-0.015193196 1727:0.35809547 1728:-0.0010264169 1729:0.22443131 1730:0.0040798341 1731:-0.034196444 1732:-0.13946147 1733:-0.010880424 1734:-0.5343321 1735:0.5058248 1736:0.0021089993 1738:0.81454021 1739:-0.0079737976 1740:-0.59170735 1741:0.078970194 1742:0.32511941 1743:-0.0011963666 1744:0.64304483 1745:0.38331699 1746:-0.025528563 1747:-0.41408098 1748:-0.00078643073 1749:0.039827514 1751:-0.31692138 1754:-0.029691869 1755:0.3634831 1756:0.010718226 1757:-0.23663619 1758:1.3498097e-019 1759:0.053591795 1760:-0.044235114 1761:-0.039826903 1762:-0.21209104 1763:-0.028031696 1764:-0.0058976104 1765:3.837364e-012 1766:-0.11372731 1767:0.021937961 1769:-0.073753692 1770:0.13808681 1772:1.6086667e-013 1773:-0.031343881 1774:-0.0088136457 1777:-0.094724894 1779:-0.77751493 1780:-0.2274797 1781:0.011908166 1782:-0.32937142 1784:-0.0047855554 1785:-0.023073426 1786:-0.0086562578 1787:-6.8506493e-014 1789:0.00030182488 1791:0.0043311543 1793:-2.3318637e-012 1795:-0.68150318 1796:-0.023565533 1798:-0.30967659 1799:-3.5482687e-017 1800:-0.00036370096 1801:-0.013790949 1802:-0.1176469 1803:-0.39320996 1806:-1.0598695e-013 1808:-0.023706397 1809:0.016633207 1810:0.074560069 1811:-0.058674876 1813:-0.00039619749 1814:-0.11430381 1815:0.003552448 1816:-0.0094609009 1818:-2.6501658e-013 1820:-1.2307797e-012 1821:0.047297105 1822:0.086236723 1823:-4.7459595e-013 1824:-0.35930532 1826:-0.0032759297 1827:-9.3534771e-019 1828:-0.11235125 1830:-0.016356483 1831:0.00017335224 1832:0.11227991 1833:0.067243107 1835:0.015811829 1836:-0.081871442 1837:-0.01095335 1838:-0.65868562 1839:-0.29168126 1841:-0.21151876 1842:-0.00013666575 1844:-0.013090373 1845:-0.0007316863 1846:0.00017514933 1847:-0.58689588 1849:0.0074873297 1850:-2.7566037e-005 1851:-0.0039965892 1852:-0.011695641 1857:-0.51228839 1858:-0.023751618 1859:-1.3514547e-014 1860:-1.0602759e-013 1861:-0.1001265 1862:0.028484877 1863:-0.0016828555 1864:-0.082730986 1865:0.31832719 1867:-0.05027286 1868:-0.10706994 1869:-0.023391282 1870:-6.3778477e-014 1871:-0.34436217 1872:0.0070521585 1873:-0.010672043 1874:0.00088721176 1875:0.00035544246 1876:0.54506004 1877:0.49591789 1878:-0.67369562 1879:-0.089879543 1880:0.31137228 1881:-3.3978283e-017 1882:0.41604075 1883:-0.26013181 1884:0.016041435 1885:-1.5356325e-016 1888:0.0003415292 1891:0.018792715 1892:-0.24291627 1896:0.019228244 1897:-0.061460838 1898:-0.24579953 1899:-0.27315986 1900:0.6497311 1901:0.61999184 1902:-0.00068435882 1903:0.013344584 1904:0.071344785 1905:-0.0016377416 1906:0.27392414 1907:0.016463559 1908:0.001660978 1909:-0.3471131 1910:-0.25586563 1911:0.36789814 1912:0.011046418 1913:-0.60746235 1914:-0.0048057148 1915:-0.31436041 1916:-0.013369361 1917:0.31928819 1918:-0.076000325 1919:-0.33139953 1920:-0.52674353 1921:0.043059021 1922:-3.66403e-012 1924:-0.12474449 1925:-2.6609965e-005 1926:-1.3311958e-012 1927:0.56737489 1928:-0.0084102098 1929:-0.055683661 1930:0.032030411 1932:-0.042319879 1934:-0.53942871 1935:8.8054301e-005 1936:-6.5848106e-019 1937:-0.24435432 1938:0.41107059 1939:0.69562966 1940:0.14465801 1941:-0.21351984 1942:-0.23423299 1943:-0.054648984 1944:-0.07327792 1945:-4.4085785e-012 1947:-2.5048882e-012 1948:0.021375075 1949:-0.35061133 1950:-0.00043568545 1951:-0.040194113 1952:0.23767097 1954:-0.44320098 1955:0.00041568637 1956:-0.00093440688 1957:-0.16506241 1958:-0.060538601 1959:-0.002031863 1961:0.11277944 1962:-0.12523398 1963:0.0048186118 1964:-0.61803722 1966:-2.6243075e-019 1967:-0.0008623852 1968:0.18840152 1969:0.013422842 1970:-0.35674137 1971:-0.28511199 1973:-2.1793019e-006 1975:-0.62342793 1976:0.31864384 1977:0.15598202 1978:-0.20499256 1979:-0.023859143 1981:-0.043936864 1982:-9.4376803e-016 1983:-0.22803578 1984:-0.0060815257 1985:3.6708366e-012 1986:-0.050007813 1987:0.057160627 1988:2.4460682e-014 1989:-2.9053015e-017 1990:-0.1440959 1991:-0.23384978 1992:-0.058640197 1993:-0.017589115 1994:-0.066730857 1996:-2.5048884e-012 1997:0.17814937 1998:-0.29410893 1999:-0.022232469 2000:0.014515471 2001:0.79846191 2002:-0.20773801 2003:-0.1491996 2004:0.22089399 2005:-0.17951061 2006:0.00013049661 2007:-0.27219388 2008:-0.16641112 2009:0.030905005 2010:0.19373161 2011:-0.33116135 2012:0.45546919 2013:-0.19707772 2014:-0.014707984 2015:-0.044258535 2016:-0.055530172 2017:0.21818604 2018:-0.40686733 2019:-0.34057137 2020:-2.7873564e-005 2021:0.15897475 2022:-0.053353556 2023:-0.25673887 2024:-0.0058210371 2025:9.0205197e-015 2026:0.010044984 2027:-0.67647243 2028:0.1068856 2029:0.017385527 2030:-0.039394863 2031:-0.10711702 2032:0.71271706 2033:-0.0049375053 2034:-0.030535422 2035:-1.0387215e-017 2036:-0.10886393 2037:0.094446316 2038:-0.001839372 2039:-0.089827128 2040:9.573696e-020 2041:-0.07582774 2043:0.0092447326 2044:0.048112184 2045:0.34506521 2046:-0.02528806 2047:-0.042129897 2048:-0.035967037 2049:-0.15351957 2050:0.047817148 2051:-0.038903043 2052:0.00066484982 2053:-4.0044977e-013 2054:0.037079394 2056:0.51717705 2057:-0.09198489 2058:-0.0094699645 2059:-0.0027240615 2060:0.0060379617 2061:1.4621786e-006 2062:0.0010505065 2063:-3.3672517e-018 2064:-8.2792944e-017 2065:-0.43842372 2066:0.00079083827 2068:0.0010875928 2069:-0.0025845468 2071:0.0017714619 2072:0.34553719 2075:-2.438369e-018 2077:0.010888911 2078:-1.4321137e-016 2079:-0.067025892 2082:-0.32248941 2083:-3.1311104e-012 2084:-0.0069250264 2085:-0.065130398 2086:-2.8404715e-016 2087:-0.0017230337 2088:-0.31855693 2089:0.34019107 2090:-0.5162642 2091:0.0013683878 2092:-0.20109096 2093:-7.4827808e-019 2094:-0.13420406 2095:-0.0665363 2096:-0.1435723 2098:0.00012257193 2099:-0.31926164 2100:-0.24725969 2101:-8.3855884e-005 2102:-0.15928601 2104:-0.00038432772 2106:-0.37314942 2107:-0.0040585021 2108:-0.0037543194 2109:0.0062412182 2110:0.46793523 2112:0.020217085 2113:-0.16112974 2114:0.00099428731 2115:-0.0011327458 2116:2.0519873e-017 2117:0.10328005 2118:-9.1847298e-016 2119:-3.9324206e-014 2120:-0.12163465 2121:0.17092516 2123:-0.22408795 2125:-0.0064292457 2126:-1.0693003 2127:-0.041467752 2128:-0.3087022 2129:-0.0067155673 2130:-0.57982111 2131:8.3276354e-005 2132:0.0003466598 2133:0.12489393 2134:0.0032926188 2135:-0.026387086 2136:-0.0061166361 2137:-0.52653879 2138:0.0025428578 2139:-0.00014838736 2140:0.40864164 2141:0.21660678 2142:0.00048110602 2143:-0.44612226 2145:-9.3534771e-019 2147:0.0016698281 2148:-0.14130233 2152:-0.0011954895 2153:-0.00018357625 2154:-0.018550238 2155:-0.00030292774 2156:0.066596791 2157:-7.3975697e-018 2158:-0.18792921 2159:0.18980351 2160:0.028679173 2161:-0.25689274 2162:-0.83211046 2163:-0.083944634 2164:-0.12515843 2165:-0.09639927 2166:-0.037840426 2167:-0.0023405305 2168:0.071513228 2169:0.0095739393 2170:-0.012106053 2171:-1.0344206 2172:0.2229736 2173:0.33077118 2174:-0.0093723731 2175:-0.3960422 2176:-0.067711815 2177:-0.027326787 2178:-0.13142173 2179:0.0055483244 2180:0.5843119 2181:-0.0048943851 2182:0.34247383 2183:-0.00010305725 2184:0.0039764917 2185:0.010759261 2186:0.23284225 2187:-0.062022634 2189:-2.7371036e-013 2190:0.049685247 2191:-0.021052152 2194:-0.0046739327 2195:0.0098205348 2196:-0.018098889 2197:-0.022643356 2198:0.00018005547 2199:-0.23276991 2200:-0.14590514 2201:-0.62622398 2203:0.0018417523 2204:-0.25688681 2205:0.040701125 2206:-0.3316631 2207:-0.17635988 2208:-0.082828477 2209:-0.29068443 2210:1.4100197e-005 2211:-0.75335282 2212:-0.0032716917 2213:-0.28400329 2214:0.12117642 2215:-0.087961562 2216:-0.041801535 2217:0.17925626 2218:-0.0022344014 2219:0.015278691 2220:-0.13545848 2221:0.0048813559 2222:0.17911169 2223:0.55287981 2224:0.0029390198 2225:3.3337664e-013 2226:-0.018854562 2228:-2.4210844e-017 2229:-0.0094149839 2230:0.69927925 2231:-0.060176712 2232:0.0068856729 2234:-0.10120706 2235:-0.00020885025 2236:0.38376933 2237:0.0063374783 2238:-0.68808222 2240:0.24896915 2241:-0.13983557 2242:-0.025968771 2243:0.0088860923 2244:6.5835848e-017 2245:0.003304214 2247:0.025890501 2248:-8.4820986e-006 2249:-0.11198515 2250:-0.39372072 2251:0.025881523 2252:-0.073692322 2253:0.81454021 2254:-0.067718565 2255:-1.8653598e-013 2256:-0.019949565 2257:-1.0408195e-017 2258:-0.031582084 2260:-0.021621834 2261:0.31413683 2262:0.11553434 2263:-0.0030691153 2264:0.011908166 2266:-1.4784452e-017 2267:0.014987851 2268:0.00029901654 2269:0.73484325 2270:0.0054154485 2271:0.89640445 2272:0.068975925 2273:0.076990493 2274:-1.3094867e-018 2275:3.9817471e-005 2276:0.091625974 2277:4.8662609e-018 2278:1.1022881 2279:-0.34374928 2281:-0.047005802 2282:-0.35471323 2283:-0.62397486 2285:-0.27173236 2286:-0.13752189 2287:1.2218103 2289:0.0034143201 2290:-0.076249205 2291:-0.035458308 2292:-0.0060858824 2293:-0.10975893 2294:-1.8009362e-013 2295:0.042072494 2296:0.33120829 2297:-0.11880713 2299:-0.0026362047 2300:0.50875616 2301:-0.031144736 2303:-0.00080932467 2304:0.02118949 2305:-2.3259294e-012 2306:-0.22795583 2307:-0.15065046 2308:-0.027544262 2309:-0.17396595 2311:-0.079745211 2312:-0.018713025 2314:-0.00025479455 2315:-1.2405213 2316:-0.0028664554 2317:-2.438369e-018 2318:0.0025198935 2319:0.32985008 2320:0.0018752976 2321:7.8049614e-019 2322:-0.016995572 2323:0.050384577 2325:-0.023470879 2326:3.3978283e-017 2327:-0.048831407 2328:3.7009754e-020 2329:-0.21032412 2331:-0.16352418 2332:0.0001852952 2333:-0.1243523 2335:-0.35481 2336:0.97627085 2337:-0.0052581183 2339:0.043737907 2340:-1.5911109e-013 2341:-0.00079206849 2342:-1.7618659e-016 2344:-0.01628965 2345:-0.1788317 2346:-0.20986018 2347:-0.29875076 2348:-0.0052317535 2349:-0.094825588 2351:-4.4213556e-012 2352:-0.54768872 2353:0.98479831 2355:-0.025765045 2356:8.434863e-006 2357:-0.079940133 2358:-0.043780889 2359:0.0584535 2360:-0.064174414 2361:-0.030073604 2362:0.062532574 2363:-0.14131023 2364:-0.19062302 2365:0.40882993 2367:-0.25085431 2368:-0.32753676 2369:0.37199977 2370:-0.003593754 2371:0.064316437 2372:-0.050006833 2373:-0.066259839 2374:0.57577878 2375:-0.00015132787 2376:-0.10995696 2377:0.092960149 2378:-0.018713024 2379:-7.4691886e-019 2380:-0.0087561337 2381:-0.60601795 2382:-0.40528092 2383:-0.33759668 2384:-0.043414101 2385:-0.18537129 2386:-0.59864724 2387:-0.12358176 2388:-0.033970345 2389:0.00022863701 2390:0.42380679 2391:-0.11737753 2392:-0.0030707181 2394:-0.20227636 2395:0.0030815832 2396:0.21654107 2398:-0.00070949883 2399:-0.033250697 2400:0.32777712 2401:0.00088721176 2402:9.8064485e-017 2403:0.43259674 2404:-0.22256804 2405:-0.12070539 2406:-0.082495064 2407:1.2181992e-016 2408:-9.582336e-013 2409:0.62106758 2411:6.7565108e-014 2412:0.57897532 2413:0.0011249629 2414:0.003487444 2415:0.082691595 2416:-0.016229806 2417:-1.1227959 2418:0.0031285426 2419:-0.082571104 2421:0.024635181 2422:-5.2443145e-012 2423:0.46214521 2424:0.091044351 2425:-0.054036003 2426:0.010044984 2427:0.19553712 2428:0.81454021 2429:-3.6478003e-018 2430:0.070980206 2431:-0.15324423 2432:-1.0727287e-015 2433:0.25855944 2434:-0.012310923 2435:0.024146447 2436:-0.27967131 2437:-0.30965105 2438:0.0220371 2440:-5.0970727e-017 2441:-2.1208039e-013 2442:-0.066753134 2443:-0.0038384846 2445:-0.55161434 2446:-0.026535526 2447:-1.4784452e-017 2448:8.6832833e-006 2449:-0.18670805 2450:-1.4760068e-016 2451:-0.17565686 2452:2.1366468e-012 2453:0.015270502 2454:-4.1964271e-012 2455:-0.2011916 2457:0.023846889 2458:-0.32329637 2459:-0.044064119 2460:-0.00032827089 2461:-0.046132766 2462:0.5332765 2463:-0.0045472872 2464:-0.015566548 2466:-0.14725798 2467:0.13169545 2468:0.16550872 2469:0.14473538 2470:-0.0088652633 2471:0.0584535 2472:-2.6493968e-013 2473:-0.0091704288 2474:-0.089488871 2475:-0.11381872 2476:-0.4061043 2477:-0.25284192 2478:-0.016566062 2480:-0.00070749444 2481:0.098917805 2482:0.0036060761 2483:0.085325852 2485:0.091589056 2486:1.3723566e-006 2487:-0.54547894 2488:-0.065013908 2489:0.029320369 2491:-0.0480542 2495:-0.18761913 2496:-0.25621879 2497:0.077995084 2498:0.010822704 2499:-5.208766e-005 2501:-0.042185713 2502:-0.052986383 2503:-0.11251079 2504:0.029473627 2506:0.012891847 2507:-2.3955839e-012 2508:-0.22100797 2509:-5.5821177e-012 2510:-0.029000662 2511:-9.4508584e-020 2512:-0.12728155 2513:-0.086947255 2515:-0.00082989741 2516:-0.012453238 2517:-4.3450806e-013 2518:0.48800117 2519:-0.00039622883 2520:-2.8142671e-013 2521:-0.023565533 2522:0.00055501261 2523:-0.50476933 2524:-0.035307627 2525:-0.0097859893 2526:0.59390444 2527:-1.0414901 2528:0.090365686 2530:0.0026609127 2531:-0.062266193 2532:0.13162476 2533:0.24500647 2534:0.037968595 2535:-1.2713211e-013 2536:-0.33208191 2537:-4.6522539e-015 2538:0.11558533 2539:-4.9272055e-015 2540:-0.22775312 2541:0.13087772 2542:-0.016664095 2543:-0.013331276 2544:0.22517785 2545:-0.13083838 2546:-0.006775633 2547:0.16376397 2548:-0.32007104 2549:0.0017091215 2551:0.0038721326 2552:-0.21824047 2553:-0.094702214 2554:0.22208592 2555:-0.0041487329 2556:-7.9562155e-019 2557:-0.035189167 2558:0.00078304496 2559:1.0025659 2560:3.5001703e-013 2561:0.085889116 2562:-0.0012964759 2563:-0.023906119 2564:-6.5887464e-019 2565:-0.49644729 2566:0.16547135 2567:1.7219178e-005 2568:0.092562802 2570:-0.21508491 2571:0.027297603 2573:-0.20855801 2574:-0.047687147 2575:-0.090970114 2576:-0.15358345 2577:-0.0034027949 2578:0.04064066 2579:0.026270792 2581:0.0074935434 2582:-1.0598696e-013 2583:0.066924602 2584:0.13051958 2585:-0.1575833 2587:-0.063555196 2588:-0.043863576 2589:0.51034313 2590:-0.054107182 2591:0.02519922 2592:-0.060494442 2593:0.0019979172 2594:-1.0824051e-016 2595:-0.14897455 2597:-0.11178079 2598:3.3930658e-017 2599:0.002101013 2601:0.22575197 2602:-0.022659281 2603:3.2747143e-005 2604:-1.9368674e-017 2606:-0.028702689 2607:-0.00038153166 2608:-0.17373765 2610:-5.6386964e-020 2612:0.043928657 2613:-2.384723e-013 2615:4.0196799e-005 2616:0.48025835 2619:-1.8607123e-012 2620:-0.18606791 2621:0.00010907699 2622:-0.0090341279 2623:-0.11542468 2624:-0.1262726 2625:-0.092998877 2627:-0.0053234436 2628:0.25725159 2629:-1.8607049e-012 2630:-0.079300493 2631:0.0043749758 2633:-0.0012198717 2634:-0.04002016 2635:-0.19343463 2636:0.47910559 2637:-2.4319038e-018 2639:0.16844729 2640:0.035462216 2641:0.0041286019 2642:0.0039851912 2643:-0.76979774 2644:-0.0068409583 2645:-0.045898087 2646:-0.15155981 2647:0.64630717 2648:-0.00078643073 2649:0.016054016 2650:-0.038113348 2651:-0.40052012 2652:-0.0094705308 2655:-0.0077200392 2656:9.182678e-007 2659:0.14047313 2660:-0.11615966 2662:0.001042539 2663:3.8927014e-005 2664:-0.02827864 2665:-2.3459457e-012 2667:-0.010573214 2668:-3.4488443e-012 2669:0.0049617672 2670:1.6606725e-018 2671:0.44292378 2672:-0.015566548 2673:-3.2628501e-013 2674:-0.054520745 2675:-0.14879705 2676:0.043689854 2677:-0.003313045 2678:-0.0045401021 2680:-0.36380115 2681:1.2638134e-006 2682:0.016134594 2683:-0.10622272 2684:-0.0099820392 2686:-8.6643003e-013 2687:-0.00082905026 2688:0.13627253 2690:-0.026406229 2691:-0.23127967 2692:-0.37195927 2693:0.00054402184 2695:0.20024702 2696:-0.11040992 2697:0.00085456052 2698:-0.2629461 2699:0.011908166 2700:0.84693927 2702:-0.18431066 2704:-0.093556486 2706:-0.10695003 2707:-0.21844932 2708:-0.17548838 2709:0.28429726 2710:0.50199854 2711:0.0064831609 2712:0.095032014 2713:0.28341162 2714:0.25750837 2715:-0.20015569 2716:0.00062631594 2717:-6.2856268e-018 2718:-0.037543483 2719:-0.001663184 2720:-0.00038827414 2721:0.044376016 2722:1.2581619 2723:-2.1573926e-013 2724:-0.36395174 2725:-5.0097777e-012 2726:-0.46533671 2727:-0.21001698 2728:-0.028349703 2729:0.089858308 2730:-0.03833672 2731:-0.058730014 2732:-0.13601623 2733:-0.2153579 2735:0.0079315398 2736:-1.2127556e-013 2737:-0.015368421 2738:-0.023276567 2739:0.070292532 2740:0.24551219 2741:1.0027311 2742:-0.41865984 2743:-0.30549139 2744:-0.020941729 2745:-2.2556313e-005 2746:-1.4236243e-016 2747:0.0074230772 2748:-0.2654666 2749:0.081761882 2750:-0.06758897 2751:-0.00017336581 2752:1.6981609e-007 2753:0.4926455 2754:0.0008567709 2755:-0.30828509 2756:-0.18485986 2757:-0.040829692 2758:-2.7358161e-013 2760:0.025789969 2761:2.4417061e-015 2762:-1.7406866e-006 2763:-0.1614112 2764:7.1142762e-012 2765:-0.016789947 2766:-0.11706793 2767:4.1285333e-018 2768:0.35803053 2769:-0.18195735 2770:-0.038732518 2771:-1.9936145e-014 2773:-0.55161834 2774:0.004064118 2775:0.0001512095 2776:-0.051088877 2777:-0.060948402 2778:-0.25484979 2779:-0.72643822 2780:-0.32331908 2781:0.17659993 2782:-0.31960189 2783:-1.3259257e-013 2784:-0.10279649 2785:0.00052126945 2786:-0.099079445 2787:-0.098366626 2788:0.061367545 2789:0.17396595 2790:0.17717478 2791:0.637474 2796:-0.0026675307 2797:0.093253896 2798:2.3381656e-017 2800:-0.37594715 2801:8.4507384e-015 2802:1.1606219e-018 2803:0.3194446 2805:0.14089531 2806:0.00085456052 2807:-0.1577473 2809:7.5089401e-006 2810:0.19974019 2811:-1.8451576e-014 2812:-0.2065395 2813:-0.67717403 2814:0.011843999 2815:0.0236995 2816:-0.0061782398 2817:0.41020939 2818:-0.0037345232 2819:0.0097128497 2820:0.10537039 2821:-0.0001145059 2822:-0.00065827795 2823:-0.068568341 2824:0.033982035 2825:-0.0002456517 2826:0.26911789 2827:0.15938075 2828:0.16908662 2829:-2.1441521e-015 2830:0.28451946 2831:0.064744599 2832:0.55456042 2833:-8.5239275e-017 2834:-7.6905754e-017 2835:0.64372057 2836:0.00038920835 2837:0.00054825284 2838:0.00028286266 2839:-0.00025046783 2840:8.0528242e-014 2841:-0.011875932 2842:0.0089199347 2843:0.04099163 2844:-5.1864988e-012 2845:-0.0024644118 2846:-0.06333673 2847:3.9025773e-013 2848:-4.6053498e-013 2849:-0.0082956469 2850:-5.9040274e-017 2851:-0.00044204225 2852:0.00078621891 2853:0.18327346 2854:-4.7086743e-013 2855:-0.040565349 2856:0.010216817 2859:-0.16196126 2860:-0.14083306 2861:-0.56807435 2862:-2.8583144e-015 2863:-1.0727278e-015 2864:-0.38988793 2867:0.0584535 2868:0.10327412 2870:-0.033850346 2871:-1.2427563e-016 2872:0.00079734303 2873:-0.0076347752 2875:-3.2048791e-013 2876:-0.00040331951 2877:-0.3500579 2878:0.5860033 2879:-0.017848887 2880:-0.050340015 2881:-0.015556429 2883:-7.3314635e-013 2884:0.20889777 2885:-0.10722416 2886:-0.54714644 2887:-0.77653682 2888:0.32227197 2889:5.5211196e-012 2890:-0.097342327 2891:0.053252194 2892:0.39143416 2893:0.011615946 2894:-0.038580786 2895:0.082071595 2896:0.0052074888 2897:-2.8654768e-011 2898:0.56749344 2899:0.14637446 2900:-0.00024715322 2901:0.002862172 2903:0.04294128 2904:0.21606714 2905:0.0005760676 2907:0.0024386381 2909:-0.099471994 2910:-4.826488e-017 2911:-0.22867544 2912:0.0010149592 2914:0.87879282 2915:0.0098685427 2916:0.019501889 2917:0.0026483459 2918:3.6808917e-006 2919:3.469578e-015 2920:0.075374104 2921:-1.0598696e-013 2923:-0.25866705 2924:0.1390845 2925:-3.4528443e-015 2926:-6.0147264e-016 2927:-0.065774463 2928:0.0094799781 2929:0.11600785 2930:0.0078995917 2931:0.0075517967 2932:0.13613896 2933:-0.022659279 2934:0.87531102 2935:0.15106256 2936:-0.54419106 2937:-0.24631396 2938:0.031747613 2939:0.20616515 2940:-0.0035151758 2942:-6.31066e-005 2943:-0.062500499 2944:0.034047764 2945:0.063211679 2946:3.7009751e-020 2947:0.045188438 2948:-0.071812108 2949:-0.02334052 2950:4.4293769e-014 2952:-0.23853604 2954:0.45780692 2955:0.17033282 2956:2.2882858e-014 2958:5.5028378e-012 2959:-1.6500193e-015 2960:0.096679948 2961:0.015596182 2963:-4.7254292e-020 2964:1.3254724e-012 2965:-0.0005783629 2966:-0.18336032 2969:-0.58172435 2970:0.16734527 2971:-3.301707e-012 2972:1.1117622 2974:0.031004036 2975:1.2628171 2976:-0.13928728 2977:-0.13663822 2978:-0.075599857 2979:-0.13235991 2980:-0.0034552361 2981:0.06854409 2982:0.15790026 2983:0.045648009 2985:-0.048082445 2986:0.81454021 2988:1.0169122e-016 2989:0.10857874 2990:-5.6691853e-005 2991:-0.00016709875 2992:0.02195303 2993:9.3067727e-005 2994:0.0075777145 2995:-0.00037014237 2996:0.058811635 2997:0.56616896 2998:-0.00019612789 2999:0.10116614 3000:0.011908166 3001:-0.039566118 3002:-0.085168093 3003:0.047620472 3004:-0.069642782 3005:-0.71512079 3006:0.37849635 3007:0.018102828 3009:-0.024691444 3010:-0.10567708 3011:-0.053171273 3012:-0.0338559 3013:-0.033699319 3015:0.12849249 3016:-0.040498558 3018:-0.048798822 3019:-1.8876047e-012 3022:-0.034251574 3023:4.1871654e-014 3024:0.36469349 3025:0.0070986268 3027:1.3115847 3028:0.00010530552 3029:-0.27900457 3030:-0.07293573 3032:-0.18268502 3033:0.41501874 3034:0.00085677084 3035:0.19474484 3038:-0.056416132 3039:0.012251528 3040:0.073639371 3041:0.0013295476 3042:0.02063363 3043:0.76568145 3044:-0.0005408455 3045:0.00081114483 3046:-0.33497384 3049:-0.051377364 3050:0.25282252 3051:0.019178225 3054:-0.029455159 3055:0.42884317 3056:1.0616642e-005 3058:-0.34898609 3059:-0.20009096 3060:0.023617366 3061:-0.024766965 3062:-0.043072402 3063:-0.00024967204 3064:0.00087555352 3067:-1.5580871 3068:9.3440528e-014 3069:4.1964316e-018 3070:0.001112389 3072:0.026291875 3073:0.68777037 3075:-0.02113259 3076:-0.024476508 3077:0.0010425502 3079:0.39395112 3080:-1.3248025e-013 3081:0.10144039 3082:2.9180255e-013 3083:-0.14061336 3085:-0.36492756 3086:-0.035514243 3087:0.10875919 3088:-0.35687044 3089:-1.7723076e-005 3090:0.0023488726 3091:-0.15793046 3092:0.059505548 3093:-0.18805699 3094:-0.067636594 3095:-0.0079316329 3096:-0.10583805 3097:-0.0075687207 3098:-0.0010367667 3099:-0.34344628 3100:-0.15003872 3101:6.0416231e-005 3102:-0.043545578 3103:4.1443026e-011 3104:-0.015122548 3105:1.3217798e-018 3106:0.031007983 3108:0.0071591958 3109:4.5847163e-012 3110:-0.087830402 3111:-0.083494686 3112:0.00082690426 3113:-0.027048329 3114:-0.13746302 3115:-0.00038335845 3117:-0.038698934 3118:-0.33673817 3119:-0.020205218 3120:0.77664506 3121:-0.0046060779 3123:-0.0030318408 3124:-0.038040306 3125:-0.11915451 3126:-0.00034465754 3127:-0.022497417 3128:1.2181992e-016 3130:-0.15467924 3131:0.020624392 3133:-0.028278641 3135:0.63124001 3136:0.03134869 3137:0.94215608 3138:3.3978283e-017 3139:2.0039001e-013 3140:-0.46762159 3141:-0.0013367446 3142:-0.024338443 3143:-0.023425156 3145:0.18200037 3146:-0.31228513 3149:-0.013691689 3152:0.38298827 3153:0.0079023363 3155:-0.013405727 3156:0.042702675 3157:-0.071483493 3158:-0.73434126 3160:-1.7249323e-013 3161:-0.35899159 3162:0.013596718 3163:0.003577858 3165:-0.34351367 3166:-0.76035589 3167:0.019204557 3168:-0.22796038 3169:0.009451895 3170:-0.067067295 3171:0.36210588 3173:0.082118943 3174:-0.033803381 3175:0.15025018 3176:-0.093287155 3177:-0.50392687 3178:0.17298932 3179:0.012511115 3180:0.31313613 3181:0.074353822 3182:0.014010545 3183:8.8068436e-013 3184:-0.31142727 3185:0.00046453415 3187:0.18195523 3188:-0.10709654 3189:0.14992367 3190:0.37222698 3191:0.31983998 3192:-0.029814068 3194:-6.5321833e-018 3195:-0.058166325 3196:-6.7502392e-018 3197:-0.011360092 3198:-0.1319041 3199:-0.12945932 3200:0.27988034 3202:0.27375156 3203:-0.06668146 3204:-0.093257755 3205:-0.00033423357 3206:0.0057261093 3207:-0.0016095248 3209:0.0063164011 3210:-0.10101809 3212:0.00034837815 3214:-1.8606932e-012 3217:6.193626e-015 3219:-0.40913412 3220:-0.034008496 3221:-0.046992052 3222:0.00055422512 3223:0.075905345 3224:-0.018510008 3225:0.0024879568 3227:-9.0764386e-018 3228:0.087975375 3229:-0.020625718 3232:0.09457127 3233:0.002440678 3234:-0.08174561 3235:-0.10950297 3236:1.085853 3237:-0.19094066 3239:0.17304932 3240:-0.2009017 3241:-0.057236873 3242:-0.26296744 3243:0.14918275 3244:1.1056459 3245:-0.00029794456 3246:0.62043977 3249:-0.066753134 3250:0.18949455 3251:-0.31189084 3252:-2.9195423e-013 3253:-0.29039404 3254:-0.30439854 3255:-0.53669977 3256:-1.3253449e-013 3258:-0.65264457 3259:0.29751045 3261:-0.036351599 3262:-0.0072205062 3263:-0.056566164 3264:-4.826488e-017 3265:0.38184267 3267:-0.11820324 3268:-0.0018160408 3269:-1.3500478e-017 3270:-0.044385992 3271:-0.0057292138 3274:-0.060999803 3275:-0.13039294 3278:-0.027763087 3279:-0.51698095 3280:-1.2767504e-013 3282:4.0466961e-007 3283:-6.3713408e-017 3284:0.60235679 3286:-0.0088136457 3287:-0.6388225 3288:-3.9324206e-014 3289:0.1100262 3290:0.6835857 3291:0.047285385 3292:-0.3723301 3293:-0.50476933 3294:0.0032999266 3295:5.0141029e-017 3296:-0.00050323096 3297:0.0042087934 3299:2.7502228e-015 3300:0.011908166 3301:0.73273045 3303:0.0014739532 3304:-0.43740088 3305:-0.1084589 3306:0.11709958 3307:0.17564937 3311:0.00052126939 3312:0.012775204 3314:-0.015000614 3315:-0.06668146 3316:-9.487464e-013 3317:0.038477723 3318:2.4009882e-015 3319:-3.5594818e-013 3320:-0.0056874668 3321:-7.4827818e-019 3322:0.11084782 3323:0.70464176 3324:-3.3538174e-012 3325:0.0059757419 3326:0.0011935899 3327:-0.014721628 3328:-0.21067773 3329:0.0020567805 3331:1.0573726e-012 3332:-0.1457064 3333:-0.002270051 3334:0.037831686 3335:-0.049905781 3336:-0.012984386 3337:-0.031865206 3338:0.14144798 3339:-0.048071664 3340:-0.10461521 3341:0.17715335 3342:-0.0022626186 3343:0.11332671 3344:0.22014047 3345:-0.0018927912 3346:0.0027758521 3347:6.3013641e-014 3349:-0.14761037 3350:0.35674909 3351:-1.9919774e-014 3352:-0.18548781 3353:0.12347293 3355:0.10275844 3356:-0.033371244 3357:3.8612766e-018 3358:0.14045124 3359:1.66548e-017 3360:0.012766746 3361:-0.24404523 3362:-0.00045579355 3363:-1.3825186e-014 3364:-0.34248507 3365:0.68959588 3366:0.093672447 3367:-0.36483821 3368:4.9136449e-015 3369:-5.6310971e-014 3370:-0.069772154 3371:-0.25799447 3372:-0.18254882 3373:-4.7078476e-013 3374:-0.68875492 3375:0.039150815 3376:0.013125917 3378:0.0055239052 3379:0.019602221 3380:0.0031062802 3381:1.6260729e-014 3383:-0.36725098 3384:-0.19154318 3385:0.51285583 3386:0.1467471 3387:-0.28842458 3388:3.7009754e-020 3389:-0.80527836 3390:-0.036873545 3391:-0.76185876 3392:-0.11164495 3393:0.018777512 3394:0.11876774 3396:-3.2636099e-012 3397:0.00079508091 3398:0.7727688 3399:5.5609711e-013 3402:-0.00034472268 3404:-0.40996084 3405:-0.049696416 3406:-0.056253344 3407:-0.023491206 3408:0.0014482926 3409:-2.229414e-016 3410:0.0033475116 3412:-0.17898622 3413:-0.28347075 3415:0.13409808 3416:-0.011244733 3417:0.013419291 3418:-1.549494e-016 3419:8.3276362e-005 3420:0.14539422 3421:-0.012681953 3422:0.083211653 3423:0.011784742 3424:0.20504348 3425:-0.019800581 3426:-0.6145795 3427:0.052029587 3428:-0.11378757 3429:-0.71380371 3430:-0.022937339 3431:-0.23134239 3432:-0.14741857 3433:0.92790037 3434:0.52505952 3435:0.033899464 3436:-0.68039554 3437:-0.017304225 3439:0.00011212688 3440:-0.43478587 3441:-1.1551099 3442:0.34914419 3443:-0.097109146 3444:0.47517514 3445:4.6570382e-012 3447:0.26703569 3448:-0.035222448 3449:-0.40650186 3450:0.010303691 3451:7.0258719e-013 3452:-0.017898247 3453:0.54554355 3454:-0.68667442 3455:0.30562967 3456:0.20561808 3457:0.36770123 3458:-0.054286201 3459:0.0062165959 3460:0.23617923 3461:0.0024386384 3464:-0.071615405 3465:0.0041351127 3466:0.0050186417 3467:0.00060192111 3468:-0.039275777 3470:1.8117185e-005 3471:-0.2229936 3474:-2.3733676e-013 3476:-0.15284953 3477:-3.9360182e-017 3478:-1.71711e-005 3479:0.25049025 3480:-0.026481546 3481:0.0018285951 3482:-1.2265082e-013 3483:0.00081844424 3484:-0.03637547 3485:0.053174529 3486:0.046371583 3487:0.45000234 3488:0.041684434 3490:1.4063552e-019 3491:-0.029940313 3492:0.059886459 3493:-0.24784076 3495:-0.025076363 3497:0.0055317348 3498:0.088847689 3499:-5.2583107e-015 3500:-0.017649584 3501:0.102297 3502:-0.10907467 3503:-0.091375962 3504:-0.29733706 3507:-0.20724626 3508:-0.036710862 3509:0.46009603 3510:0.062205128 3512:0.084770985 3513:-0.071248591 3514:0.13316043 3515:-0.0035095052 3516:0.070727147 3517:-0.00047053889 3519:-0.03941635 3520:0.2122217 3521:0.17865965 3522:0.3077082 3523:0.036876168 3524:0.051039021 3525:0.10902125 3526:0.017948778 3527:0.0025395954 3528:-0.0091542955 3529:0.19402464 3530:0.46118471 3531:-0.033713304 3532:0.074749 3534:0.10949881 3535:-0.29887262 3536:-0.029639106 3537:0.099007383 3538:0.026892792 3539:-0.2569876 3540:-0.00081887079 3541:-0.10466447 3542:-0.24838462 3543:0.0039331163 3544:0.33055314 3545:-3.7213869e-012 3546:0.072957657 3547:0.016006324 3548:0.1554364 3549:3.8587343e-013 3550:-0.016909244 3551:0.019946318 3552:0.050705824 3553:-0.092743628 3554:0.82266563 3555:0.64675558 3556:0.094673693 3558:-0.0044326317 3559:-2.3281363e-013 3560:-0.022993499 3561:3.3978283e-017 3562:0.00071621599 3564:0.0012092445 3565:0.082754359 3566:0.032971647 3567:0.011411622 3568:0.0086178584 3570:-0.10227655 3571:0.41056994 3572:0.0013157791 3573:0.34038061 3574:-0.38052395 3575:0.081019558 3576:0.017200194 3577:0.17799567 3578:-0.42204428 3579:0.085429572 3580:-0.048647765 3581:0.4699071 3582:-0.015080339 3583:0.11252853 3584:-0.044715658 3585:0.080950141 3586:-0.020875392 3587:0.61206627 3588:0.018206501 3589:0.10871742 3590:-3.3395728e-013 3591:9.1107347e-012 3592:-0.43263242 3593:0.18436524 3594:-0.025041923 3595:-0.04693412 3596:0.00088721176 3597:0.13557845 3598:-1.1977781e-012 3600:-1.1977781e-012 3601:0.02628861 3602:-1.8606932e-012 3603:-0.16834998 3604:-0.00013421958 3605:0.15259872 3606:5.7670249e-016 3610:-0.021006007 3611:4.0877245e-012 3612:-1.0598695e-013 3613:-0.20592946 3614:-0.01847773 3615:-0.87929422 3616:0.00017514931 3617:0.018554201 3618:-4.3936325e-005 3620:-0.031190475 3621:-0.00013828225 3622:0.24181591 3623:-0.010810914 3624:-0.27515313 3625:-0.053883716 3626:-0.00018541166 3627:-2.3730982e-013 3629:-2.5048884e-012 3630:0.014113756 3631:-8.4556523e-005 3632:0.44238177 3633:-0.29271656 3634:-0.0033623669 3635:-0.0871851 3636:0.16008769 3637:0.34360763 3638:-0.00029200219 3639:-1.0935254e-013 3640:-0.019992977 3641:1.6829281e-014 3642:6.1011566e-014 3643:-0.0015972639 3644:-0.12030973 3645:0.98788768 3646:0.10884368 3647:0.26395231 3648:0.012813801 3650:-0.72559714 3651:-0.17150654 3652:0.079368643 3653:-0.029904518 3654:-0.29384333 3655:3.2010554e-005 3656:-0.035721522 3657:-0.13648847 3659:0.0029108089 3660:-0.014936013 3661:-0.27580917 3662:0.44946423 3663:0.069830507 3664:-0.00015427472 3666:-0.11746003 3667:-0.14816865 3668:-0.17286624 3669:-0.001136822 3670:-0.23623957 3671:0.14886981 3672:-0.064622968 3673:-0.015859822 3676:3.2693943e-013 3679:-0.16157097 3680:0.0087569579 3681:0.0061372463 3683:-8.3295342e-018 3684:-0.017784858 3687:-0.69248557 3688:0.030728713 3689:0.24550225 3690:0.0045306156 3691:0.27569601 3692:-0.010899865 3694:-0.033117823 3695:0.018968787 3697:-0.12669633 3698:-6.4334956e-005 3699:0.74851054 3700:3.3819009e-012 3701:1.0706258e-012 3702:1.3035133e-012 3703:0.032991748 3704:-0.091455646 3705:-0.0079352167 3706:0.14905436 3707:-0.045015421 3708:-0.12874697 3709:-0.34299275 3710:0.75822616 3711:-0.092579879 3713:-0.06055557 3714:-5.8971938e-014 3715:1.65433e-012 3716:0.34056652 3719:-9.8188139e-017 3721:0.12079041 3722:-0.0088136457 3723:0.0010123263 3724:0.050788399 3725:4.1764216e-013 3727:4.8075107e-012 3728:-0.32087404 3729:-0.079073973 3730:-0.00060087984 3731:-0.0001580328 3733:-3.9360185e-017 3737:-0.021954928 3739:-5.4758282e-016 3740:-0.029980021 3741:-6.6924514e-015 3742:0.020307083 3743:0.017241603 3745:0.0008872117 3746:0.17207505 3748:-0.014282224 3749:2.1668821e-013 3752:-0.027279338 3753:0.016101545 3754:0.042936448 3755:0.00030254305 3757:-0.047708403 3758:0.018710347 3759:-0.11861095 3760:-2.6227216e-014 3761:0.00079230103 3762:0.61604089 3763:0.14086384 3764:0.21195138 3765:0.17459774 3766:-0.16487256 3767:0.19505571 3773:0.1604819 3774:-0.077664316 3775:-0.012359286 3776:-0.00043086219 3777:-0.043787986 3780:0.020175144 3781:-3.4369865e-016 3782:2.6584298e-006 3784:-0.21689834 3785:-4.1729949e-016 3787:-0.25721321 3788:-4.6203499e-014 3789:0.38420919 3790:-9.328504e-014 3791:0.12327728 3792:-0.00018139697 3793:-0.011270411 3794:-1.0159711e-016 3795:0.15509765 3796:-0.030622041 3797:0.098390073 3798:-0.0024495444 3799:0.017535973 3800:-9.3534771e-019 3803:-5.7917856e-017 3804:0.014099487 3806:-0.015864622 3807:-0.34436217 3808:-9.6581217e-016 3809:4.6936471e-005 3810:0.93127871 3811:2.0816391e-017 3812:-0.54356998 3813:0.00015677627 3814:-0.11111774 3815:0.19564804 3816:-0.16609518 3817:-0.020362528 3818:-0.00027862287 3819:-7.2612283e-017 3820:-0.5045737 3821:0.66521543 3824:1.7261577e-012 3825:0.15702075 3827:0.077156238 3828:4.4599808e-014 3829:-0.0035624728 3832:-1.1977781e-012 3834:-8.491691e-014 3836:-0.42091185 3837:-3.2331991e-005 3839:-0.11771724 3840:-0.32120678 3843:-1.3116906e-012 3844:-0.0026966785 3845:-0.25706795 3846:0.28322858 3847:0.12024215 3848:0.0023106299 3849:-9.3179197e-012 3850:-0.10919077 3852:-2.2448346e-018 3853:-4.6517764e-012 3855:-0.60590839 3856:0.16782475 3857:-0.00044829072 3858:0.3527647 3859:0.015971273 3860:-0.0012995126 3861:0.029971575 3862:0.64926893 3863:0.0085477782 3864:-0.87379944 3866:0.10248724 3867:-4.6203499e-014 3868:-0.34209928 3870:-0.2470077 3871:0.00033039865 3872:-0.13805617 3873:-0.0027264096 3875:-1.8147057e-005 3876:-0.068809845 3878:-3.6644703e-019 3879:-2.2181899e-016 3880:0.00039507667 3882:-0.00018527461 3884:-5.4758282e-016 3885:0.029352786 3886:0.16782475 3887:-0.46065241 3889:-0.0028724459 3890:0.050246097 3892:-2.1050607e-012 3893:-0.083725564 3894:-7.6010016e-005 3896:0.44944242 3897:0.1120223 3898:0.20462985 3900:-2.9662251e-013 3901:-0.29851627 3902:-5.0181933e-012 3907:-0.31384325 3909:-0.0085638985 3911:-0.20004438 3912:0.00014587922 3914:0.016120827 3915:-0.054632843 3916:0.11651334 3918:-0.11139814 3919:0.41317967 3920:-0.28253475 3921:0.030472137 3922:-0.16157097 3923:-0.0016898626 3925:-0.2916941 3926:0.087204471 3927:-5.1131676e-005 3928:0.11991307 3929:0.82805848 3930:-0.081542902 3931:-6.4608197e-005 3932:0.019982778 3933:-0.13648847 3934:-0.00032544008 3935:0.00037627699 3936:0.18992342 3937:0.80286157 3938:-0.19416596 3940:0.14505054 3941:-0.093471497 3942:-0.11471312 3943:-0.33236507 3945:0.0020802754 3946:-0.39328247 3949:1.291653e-015 3950:-0.055892445 3951:0.52820122 3952:0.012604737 3953:0.00098400062 3954:0.56692499 3956:-0.34047255 3957:-0.00021646432 3958:-0.254958 3959:-0.097386368 3960:-0.010251459 3961:-2.6166892e-014 3962:0.83445293 3964:0.064744599 3965:0.00054825284 3966:2.3275823e-005 3967:0.3527647 3968:0.0050290441 3969:-9.6635174e-012 3976:0.40220162 3977:-0.0002718074 3978:-0.010856564 3979:-0.0094647547 3980:-2.2448344e-018 3981:0.00036299997 3982:0.063716255 3983:0.02306148 3984:0.36742961 3985:0.0010472913 3986:-0.00069925521 3987:-0.032752141 3988:0.29852816 3989:-0.057946902 3990:-0.0003848169 3991:0.64945197 3992:0.026369601 3993:-0.035370622 3994:-0.0005978049 3995:-0.045796748 3996:0.074622594 3997:0.016636673 3998:-0.0069973958 3999:0.21949576 4000:0.0064443876 4001:0.73527026 4002:0.60846907 4004:-5.4878404e-018 4005:0.0006497096 4006:0.0023828272 4007:-2.3729876e-013 4008:-0.37988961 4009:-3.9360182e-017 4010:0.098536044 4011:-5.9040281e-017 4012:0.24841832 4013:-6.6943741e-015 4014:-0.12742491 4016:-0.12491409 4019:-0.20070274 4021:-0.011731457 4022:-0.2901516 4023:-0.066184789 4024:0.0032999269 4025:0.40049979 4026:-4.0930394e-005 4027:-5.5028373e-012 4028:-0.28465846 4029:-0.016686849 4033:1.8989662e-005 4034:-0.012926006 4035:-0.0083719678 4036:0.091263771 4037:-0.23840153 4038:1.758816e-012 4039:-0.40294874 4041:0.030881833 4043:-0.01964491 4045:0.012766746 4047:-0.29861036 4048:9.9023334e-021 4049:-0.036873545 4051:0.19624941 4052:0.65009809 4053:0.022664463 4055:-0.30327004 4057:0.26703569 4058:0.033978146 4059:-0.012758727 4060:-0.0061478689 4061:0.013710686 4062:-0.046722248 4063:0.02294334 4064:0.51218188 4065:-0.017649584 4066:-0.08179944 4067:-0.028766619 4069:0.13316043 4070:0.2122217 4071:0.051039021 4072:0.29263568 4073:-0.18658151 4074:0.074749 4075:-0.54356998 4076:-0.14837329 4077:-0.60590839 4078:0.16782475 4079:5.0032721e-017 4080:0.3527647 4081:0.015971273 4082:-0.0061458545 4083:-0.0034567781 4084:0.013852704 4085:-1.7290118e-017 4086:-4.2788892e-005 4087:-0.0086173378 4088:-0.12206143 4089:1.758816e-012 4090:0.018206501 4091:-0.43263242 4092:-0.04693412 4093:-0.00013421958 4094:-0.01847773 4095:2.6584298e-006 4096:-0.24516004 4097:-0.24165091 4099:0.0088103879 4100:-1.4342872e-005 4103:-0.16157097 4104:0.0087569579 4106:-0.091455646 4107:0.016166287 4108:-0.076152623 4109:0.089040734 4110:-0.057946902 4111:-0.00019240844 4112:-0.18474178 4113:-2.9887715e-005 4114:0.64945197 4115:0.17235787 4116:-0.048128303 4117:0.64533806 4118:-0.058537398 4119:-0.20794734 4120:-0.020362528 4122:0.23254599 4123:-5.4758282e-016 4124:-2.1050607e-012 4125:-0.12442306 4126:1.1096157e-017 #
