SVM-light Version V6.20
0 # kernel type
3 # kernel parameter -d 
1 # kernel parameter -g 
1 # kernel parameter -s 
1 # kernel parameter -r 
empty# kernel parameter -u 
4128 # highest feature index 
340 # number of training documents 
2 # number of support vectors plus 1 
1.113343 # threshold b, each following line is a SV (starting with alpha*y)
1 1:-0.13822122 2:-0.017644824 3:-0.092564292 4:-0.00088040333 5:-0.0010562449 6:-0.0052804621 7:-0.020445526 8:7.4779426e-005 9:0.1100205 10:-0.010086229 11:0.012145739 12:-0.020783922 13:0.095868424 16:-0.1048081 17:-0.014705833 18:-0.028196698 19:-0.19120866 20:4.94145e-020 21:0.093489133 22:0.1858087 23:0.023143403 24:-0.24634773 25:-2.2456725e-016 26:-0.41596264 27:0.0024563575 29:0.31803825 30:-2.0416137e-018 31:-0.27687624 32:0.01206917 33:0.42383656 35:0.21922143 36:0.0058164634 37:0.18344265 38:-1.0461843 39:0.0020294138 40:0.21693526 41:-0.094700679 42:0.67362529 43:6.3850731e-020 44:-0.13245484 45:-0.036927458 46:0.34759012 47:0.51301879 48:0.019143378 49:-5.7081769e-017 50:-2.4004084e-012 52:-0.078865618 53:0.022731302 54:-0.40481609 55:-0.30454555 56:4.5689421e-011 57:5.4880444e-011 59:-0.04245932 60:-0.0082751857 61:0.2932837 62:-0.0080689834 63:0.011117346 64:0.00012210917 65:0.061607741 67:-6.081563e-018 68:-4.3604615e-018 69:-0.011910852 71:0.56504929 72:0.029194795 73:-3.6865521e-018 74:-0.089276761 75:0.54745466 76:-0.11233243 77:-0.0010537748 78:0.0020063522 79:0.093387499 82:-0.40788913 83:-0.12320203 84:0.10236959 85:-1.5292523e-017 86:-0.50248992 87:0.6392653 88:0.009775728 89:-0.30267954 90:-0.18466088 91:-1.0135939e-018 92:0.18470693 93:-0.05446564 94:-0.082711391 95:-0.30699617 96:-0.3717227 97:-0.67953634 98:-0.011540781 99:-5.3733915e-005 100:0.58735716 101:-0.00077755313 102:-1.8899732e-012 103:0.0028122894 104:-2.4991108e-017 105:-0.13313952 106:-0.057077922 107:0.0016659258 108:-0.14578409 109:0.0050881184 110:-0.0010544658 111:-0.35837045 112:-0.016560394 113:-6.5823573e-005 114:-0.7138325 116:0.0094117941 117:0.50295675 118:-0.0021192853 119:0.55456501 120:-0.016670058 121:-0.0044831745 122:-0.29957548 123:-0.21906121 124:2.2544406e-017 125:-0.53642613 126:-0.038751807 127:9.8090664e-017 128:-0.2226906 129:-0.68778914 130:0.14958608 131:-0.020944446 132:-0.00033602986 133:0.025216015 134:-5.4920532e-013 135:-0.00034392788 136:-0.072000653 137:-3.3089088e-016 138:-0.12994699 139:0.41245434 140:3.9914649e-016 141:-9.4472813e-013 142:0.4999136 143:0.24900918 144:-0.058753241 145:-0.048306413 146:0.00091498578 147:0.3352119 149:0.65050048 150:-0.0839734 151:0.058947612 152:0.31733248 153:0.22572692 154:-0.36326158 155:-0.049422022 156:-0.0063816714 157:0.00016357309 158:0.18888506 159:-0.01805743 161:-4.355443e-018 162:-2.226703e-018 163:0.0065469374 164:-0.21342897 165:-0.48484457 166:0.091339312 167:0.30701074 168:0.15405115 169:0.0091972463 170:0.35224104 171:9.6781987e-005 172:0.23432505 173:-5.2771949e-012 174:3.524557e-017 175:0.81454021 176:-2.9974974e-011 177:1.6769509e-017 179:-0.48942676 180:-0.36133137 181:0.089417726 182:0.041359156 184:0.12949732 185:-0.3121652 186:-0.15207471 187:-0.086223006 188:0.86663586 189:-0.0085724695 190:-0.021928778 191:0.48785079 192:-0.32350612 193:-0.033243738 194:1.0463673 195:-0.30555519 196:0.43585515 197:0.15188555 199:0.0074493731 200:-0.060618341 201:-0.3272821 202:0.66493434 203:0.32848075 204:-0.029430449 205:0.36724505 206:0.042435791 207:0.00035686119 208:-0.013775807 209:-0.022416709 210:7.2899631e-016 211:0.29874963 212:0.074566796 213:-0.0021101348 216:-0.00012641374 217:0.00023707522 218:-0.017879419 219:-0.19137272 220:0.088955291 221:0.032171119 222:-0.0091734957 223:-0.22741938 224:-0.10623991 225:-1.4582956e-018 226:0.32187259 227:-0.14716844 228:0.17630163 229:0.44555432 231:0.0054126922 232:-0.25721446 233:0.10117951 234:-0.00042021667 235:-1.3362829e-005 236:0.04948448 237:0.038775671 238:0.15177234 239:-0.00041471981 241:6.1588158e-005 242:-3.1913153e-018 243:0.031026985 244:0.076216653 245:-0.19045968 246:-0.098642379 247:0.25664046 248:-1.0844008 249:-0.16742197 250:-0.0047828536 251:1.2656398 253:0.048189063 254:-0.15676911 255:-0.65163618 256:-1.0156308e-011 257:-0.16570802 258:-0.16195475 259:-0.25238171 260:0.46204904 261:0.0008872117 262:4.7264471e-013 263:0.29585212 264:1.2577131e-017 265:-0.0036726254 266:-0.46730042 267:-4.2194642e-017 268:-0.12470305 269:0.079121545 270:0.02037034 271:-0.31842113 272:-0.0055509913 273:0.25361955 274:-0.0032320423 276:0.097069107 277:0.26956061 278:0.11465051 279:0.10120716 280:0.17578302 281:-0.038210519 282:0.00094067771 283:-0.037710983 284:0.023273434 285:0.26555744 286:0.01167555 288:-0.2974987 289:0.036162123 290:-6.5331643e-018 291:-0.34051263 292:0.20226158 293:1.3073962 294:-0.32300538 295:-0.014569417 296:-0.0043230867 297:0.3117629 298:0.14369737 299:-0.037633155 300:0.086332522 301:0.13811466 302:0.0003461522 303:0.11585859 304:0.022979181 305:0.215124 306:-2.5016703e-016 307:0.06630484 308:-4.1087832e-015 309:1.7327882e-005 310:-2.7097982e-016 311:0.00088374619 312:0.022241754 313:-0.46234241 314:-3.6075708e-018 315:-2.1777215e-018 316:-0.00023763951 317:0.077554092 318:0.21594784 319:0.0093984753 320:-0.0008846487 321:-0.0036456075 322:9.5782366e-013 323:0.16433129 324:-0.11457068 325:0.028288802 326:-0.026550367 327:-0.16313419 328:-0.008587799 329:-0.0017736804 330:-0.80993158 331:-0.2935878 332:-0.10454529 333:0.27280888 334:-0.077369399 335:0.0028428345 336:-0.24430723 337:-0.00077056087 338:-0.057042729 339:-0.33189982 340:-0.11846955 341:-0.11419284 342:-0.13787244 343:-0.035234354 344:0.26381016 346:-0.16460082 347:-0.11491345 348:-0.056454025 349:-0.0013322552 350:-0.042849399 351:-1.1182283e-021 352:0.00067531923 353:-0.079041883 354:-8.2199016e-015 355:-0.012808993 356:-0.0068096858 357:-0.065058403 358:0.2029171 360:1.2313179 361:-8.631415e-012 362:-0.047902789 363:0.038988452 364:0.016455406 365:-0.2483224 366:-1.8937521e-016 367:-0.17190409 368:0.053196546 369:-0.10009193 370:0.031951431 371:-0.0099667581 372:0.036334515 373:-0.69859272 374:-0.0055446047 375:0.11759619 376:0.11527161 377:-0.28355393 378:0.0020028704 379:0.30863494 380:0.4854486 381:-1.4483798e-011 382:-0.093945868 383:-0.10678313 384:-0.13166764 385:0.33898282 386:-0.59068972 387:0.00045242504 388:-0.034523901 389:0.098958433 390:3.2293758e-016 392:-0.21583089 393:0.15392838 394:0.11202376 395:-0.18829982 396:0.014648975 397:2.4971365e-020 398:0.17065971 399:0.14984208 400:-1.2238646e-013 401:-0.00066742371 402:-0.54226494 403:-0.076135948 404:-4.3604607e-018 405:0.13130207 406:0.016450323 408:-1.7499548e-018 409:-1.1666365e-018 410:-1.1666365e-018 411:-3.7257098e-017 412:9.3409369e-012 413:-4.10995e-015 414:0.0075058052 415:0.66899425 416:-1.1666364e-018 417:-0.036199722 418:-1.5203907e-018 419:-1.148834e-013 421:-0.064584009 423:-0.12871882 424:-1.0135938e-018 425:6.249878e-014 426:0.0036770545 427:-0.064584009 428:0.0075255423 429:-0.044820089 431:0.032133065 432:-4.065882e-019 434:-0.38728654 435:-3.3788263e-012 436:-0.078943178 437:-0.064037405 438:-0.027653024 439:0.034382436 440:-0.042240102 441:-6.182525e-012 442:1.5399476e-013 443:-7.3641345e-006 444:-0.059125785 445:-6.016053e-013 446:0.01621725 447:-0.0036466692 448:-0.0098555237 449:0.0016088537 450:-0.00036998495 451:-0.062915616 452:-3.3316813e-012 454:-0.0050102118 455:-5.7814966e-018 456:-0.064584009 457:-0.024517875 459:0.75672817 461:-0.0026202057 462:-0.051368803 463:-2.1624246e-016 464:0.32640189 465:-0.029854715 466:7.9263169e-005 467:0.43644515 468:0.093077905 469:0.22534482 470:-7.7924886e-020 471:-1.0616393e-016 472:-0.0057570045 473:-0.024007233 474:-0.049325898 475:1.1734432 476:-0.037269659 477:-0.15212807 478:0.00018805533 480:-3.4889372e-014 481:-1.2381917e-014 482:-2.8485211e-013 483:-0.018852944 484:2.5334504e-012 485:-0.42711729 486:0.00061501178 487:-0.0015185366 488:-3.6370494e-015 489:-0.083188184 490:1.7846517e-018 492:-0.0021697269 493:-1.1666365e-018 494:-0.1678472 495:0.47842428 496:-1.1666365e-018 497:-0.053586338 499:-0.48029786 500:1.6802179e-013 501:-3.5325251e-017 502:-0.0015572062 503:0.00056990102 504:1.0222905e-018 505:-0.21376508 507:0.0065139881 508:-3.5083856e-005 509:-0.42475152 510:-0.080478773 511:-0.23295352 513:-0.0038449699 514:8.7039476e-018 515:-0.12204567 516:-9.0654931e-012 517:0.21297176 519:-0.049429897 520:-0.038210295 521:-5.8504936e-017 522:0.052555665 523:0.0004538045 524:-0.009339774 525:0.029156769 526:-2.0416137e-018 527:0.00073593931 528:-0.0054700039 530:-1.3768309e-019 531:0.10441551 532:0.74161643 533:-4.7869728e-018 535:-0.84691417 536:-0.016079739 537:-0.46011421 539:0.20014437 540:-0.052698392 541:0.62068784 542:-2.4542659e-017 543:-7.7222744e-016 544:-8.5739004e-017 545:6.4151871e-005 546:0.19735971 548:-0.67801231 550:0.0030221904 551:7.6553524e-019 552:-0.36073413 553:-0.083199926 554:-0.036140073 555:-0.00089551619 556:0.10563937 557:-0.11530355 558:-1.2669923e-018 559:0.61114997 560:3.0588957e-021 561:2.0153382e-019 562:-0.17495069 563:1.3752464e-019 564:-0.0067689242 565:0.10624571 566:0.0047240993 567:-1.1666364e-018 569:-0.023737358 571:1.1709834e-014 572:-0.015576438 573:-0.021798762 575:-0.010103446 576:-0.051179834 577:-0.076539226 578:0.001472666 579:-1.1175626e-016 580:-1.1666365e-018 581:-1.0837716e-013 582:-1.7012307e-012 584:-0.42142746 585:-0.13734084 586:-0.034523945 587:9.7153615e-022 588:0.022806065 589:-0.037978269 590:0.10208687 591:-2.333273e-018 593:0.22354695 594:-0.013523106 595:-0.16563201 597:0.20797595 598:-0.013778558 599:0.011483593 601:0.09880694 603:0.043355931 604:0.00027099787 605:0.0038580899 606:0.10973807 607:0.69752949 608:-0.034982663 609:-0.62317055 610:-0.32552761 611:9.4650131e-006 612:-0.037706215 613:-0.0014927826 614:-2.6493942e-018 615:-0.062735893 616:-0.010625039 617:-0.13313262 618:0.33854395 619:0.016618686 621:-0.0011204184 622:2.2786035e-005 623:-0.11527539 624:-4.1071416e-005 625:-0.29230633 626:-0.10963305 627:0.11549449 628:0.58111417 629:-0.017250212 630:0.06945508 631:0.43285888 632:-0.25772458 633:-9.0094454e-017 634:-0.13852108 635:-0.0059456979 636:-0.49800047 637:-0.25302237 638:-1.437221e-017 639:0.0086162267 640:-1.4482976e-016 641:0.71076071 642:-0.1068778 643:-0.80510151 644:-0.34005979 645:-0.0014506822 646:-0.068284862 647:0.0049122134 648:0.13193737 649:-1.0897811e-005 650:-0.27192819 651:-2.0667605e-005 654:-0.0045643384 655:-0.059975386 656:-0.015766023 657:-0.26030409 658:-0.52553403 659:0.69636232 660:0.049774565 661:0.00011573171 662:-0.095700584 663:0.11735258 664:-0.02096802 665:-0.00029182166 666:-1.1666364e-018 667:4.1284539e-016 668:-0.0031131841 669:0.6279853 670:-0.15546621 671:4.8803309e-011 672:-0.023118274 673:-5.7965737e-012 674:-3.5475791e-018 675:0.0053197998 676:0.93988919 677:-2.2707537e-012 678:-0.009594406 679:0.65109634 680:0.09371797 681:0.0003558012 682:-0.087598756 683:-0.27619231 684:-0.096034326 686:0.18127914 687:0.03404345 688:-2.3635395e-005 689:0.18971278 690:0.24717169 692:3.5556754e-005 693:-0.018546227 694:2.1035155e-005 695:-0.085769027 696:-0.15751055 697:0.066979237 698:0.35017064 699:0.54461062 701:0.81454027 703:-0.00070118741 704:-0.0483284 705:-1.5557236e-017 706:-0.053586338 707:0.90746289 708:0.0097884377 709:3.4353612e-017 710:0.079586565 712:0.36238956 713:0.0053305598 714:0.388713 715:-0.0022980892 716:-1.8992456e-014 717:0.00016582101 718:0.25820774 719:-0.18656462 720:-0.0001176883 721:1.2289345 722:-0.016148701 723:-0.025044478 724:-0.29362068 725:0.088734709 726:-0.0033180602 727:0.12664735 728:0.0021321303 729:-0.016564289 730:-0.32310936 731:-1.4582956e-018 732:-0.18245922 733:-0.11087184 735:0.056426913 736:0.13714579 737:-0.03778594 738:0.21030241 739:-0.064055108 740:-0.026655108 741:-0.44755784 742:8.3651841e-018 743:0.33107162 744:0.00087305915 745:-0.28407899 746:5.1864674e-005 747:-0.00025218626 748:-0.17751932 750:0.070046492 752:-0.10290143 753:0.44174659 754:-0.091701888 755:3.1157208e-013 756:-0.014758727 757:-0.1142863 758:-1.2590934e-012 759:-1.157326e-018 760:0.023280453 761:0.03693381 762:-0.0055695497 763:0.0072602029 764:0.042721108 765:-0.00033779937 766:0.12668908 767:1.5036783e-011 768:-0.88922566 769:-0.027882613 770:-3.5275569e-016 771:-3.7252086e-017 772:0.014912653 773:-0.75084394 774:-1.0135939e-018 775:2.8731472e-015 776:-0.047773827 778:-0.12307422 779:-0.23424186 780:-0.099809259 781:1.085075 782:-0.42886251 783:0.0025636237 784:-0.35228035 785:0.10987903 786:0.00051700475 787:-0.012189203 788:0.0070839818 789:-0.00061342423 790:-0.26087558 791:-0.21883194 792:-0.24946725 794:0.69556075 795:-2.4172181e-012 796:5.5819101e-017 797:-0.0093963202 798:-0.047350332 799:-0.19927286 800:-5.8381425e-005 801:-4.7049909e-018 802:-3.1938242e-018 803:-0.051984794 804:-0.011138115 805:-0.011138616 806:-0.36610383 808:0.012089049 809:-0.29949188 810:-0.3325946 811:-0.17645214 812:0.029541297 813:-0.11143569 814:-0.29164475 815:0.01246725 816:-9.3375362e-013 817:0.017897768 818:-3.1748842e-012 819:-1.4582956e-018 820:-0.075398795 821:-2.4749682e-018 822:-0.069710515 823:-0.015826229 824:-0.51387155 825:-0.0054443702 826:0.84700543 828:0.007583994 829:-3.0407815e-018 830:0.81145793 831:-0.044330452 832:-0.015429593 833:-0.32423517 834:-0.12402233 835:0.013578428 836:0.0061652279 837:-5.5848017e-018 838:0.00040554293 839:-0.030865604 840:0.015833493 841:-2.2963327e-014 842:0.17151591 843:0.71239418 844:-1.0937626e-018 845:-0.10229263 846:-0.089184605 848:-0.84025091 849:-2.466098e-016 850:-0.038226489 851:4.2650957e-012 852:0.022225847 853:-1.1180098 854:-0.36504135 855:-0.01008755 856:0.0015012466 858:0.54161507 859:-0.23063825 860:0.49191013 861:-0.51167065 862:-0.00065577927 863:-3.205047e-005 864:0.40597689 865:-0.010610281 866:0.47096902 867:0.074278668 868:-1.1666365e-018 869:-4.5327457e-012 870:-0.38441929 871:-0.012640612 873:1.0164845e-005 875:-0.024826918 876:-0.020746928 877:-0.018949622 878:-0.15455696 879:-0.00011079194 880:-0.0061476077 882:-0.00080320193 884:-6.4604664e-013 885:-0.010153386 886:-1.2857719e-016 887:0.00012683679 888:-2.2066987e-016 889:-1.6318658e-011 890:0.018122993 891:-0.059859946 892:-0.072842568 893:-0.1069727 894:-1.749955e-018 895:-0.25589249 896:-0.0050893081 897:0.054121893 899:-0.092708118 900:-0.10949475 902:-0.35163787 903:-0.37015957 904:-1.934431e-017 905:0.010499832 906:-1.1666365e-018 907:-2.333273e-018 908:-2.9165913e-018 910:0.017792819 911:-0.00013531861 913:-2.280586e-018 915:-0.028012468 916:-0.026550896 917:-0.011073326 918:0.16683032 919:-3.4999099e-018 920:-0.19645882 921:-2.7574641e-013 922:-0.047085751 923:-9.0878479e-005 924:0.012315528 925:0.03648052 926:3.6865521e-018 927:-2.9165913e-018 929:0.20769757 930:-0.78997201 932:1.2805722e-016 933:0.020483291 934:-0.13925159 935:-0.37139487 936:1.889317e-005 937:-0.054302089 940:-0.15232453 941:-0.19167267 942:-0.42653987 944:-4.043751e-005 945:-0.2337721 947:8.2146645e-017 948:0.17919807 949:8.5270403e-006 950:0.022806065 951:-0.022694439 952:-0.27569693 954:-4.0832282e-018 956:0.33572912 957:-5.6068184e-005 959:4.9737672e-017 960:-5.4245459e-017 961:0.063597329 962:-0.083652623 963:0.1496176 964:0.065844707 966:-1.0444846e-016 967:0.0093625505 968:0.68517709 969:0.00015371866 970:-3.344358e-018 971:0.078204483 972:0.023078579 973:-0.17239204 974:-0.70118207 975:0.026493993 976:-0.1157307 977:-0.00891387 978:0.90881753 979:-0.0089957537 980:-0.097780302 981:0.033564448 983:0.05061679 984:-2.333273e-018 985:-2.2364567e-021 986:-0.46847755 987:-0.0020260068 988:-0.10846638 989:-0.12441416 991:-0.12782799 992:-0.011950158 993:-1.749955e-018 994:-1.124469e-013 995:-0.091251813 996:-0.049131554 1000:0.48797953 1001:-8.9927562e-012 1002:-0.010556722 1004:-0.083188176 1005:-0.016137965 1006:-0.00051239209 1007:-0.076433405 1008:0.00045237507 1009:0.48347309 1010:-9.8223361e-013 1011:-0.052165154 1012:-0.0028156387 1013:-0.088248201 1014:0.00020630368 1015:-1.1529733e-017 1016:-0.015768837 1017:-0.00049735844 1018:-0.0022980892 1019:-0.45584756 1021:-0.34013042 1022:-0.022266394 1023:-1.0642755e-019 1024:-0.098898999 1025:7.5660374e-018 1026:6.0265237e-011 1027:0.0003028776 1028:-0.00014728065 1029:-0.28540811 1030:0.17160575 1031:-0.0088337976 1032:0.012384904 1033:8.2954258e-017 1034:-0.008622881 1035:-0.017873678 1036:-2.9273796e-017 1037:-0.0031811623 1038:-1.1407619e-014 1039:-0.055286828 1040:-3.5475783e-018 1041:-0.0094319377 1042:-0.10607832 1043:-0.0045583369 1044:0.41735181 1045:-0.13783145 1046:0.0058351634 1047:-0.23488992 1048:0.035555143 1049:0.27187344 1050:-1.5583846e-017 1051:-0.27077362 1052:-0.041716672 1053:0.12276646 1054:-0.31064156 1057:-0.00086731516 1059:0.0008711979 1060:-0.29108036 1061:0.00075302407 1062:-1.3379363e-018 1063:-0.089639902 1064:-0.65152335 1065:-0.077089153 1066:-0.38142815 1067:-0.19106765 1068:-0.4238449 1069:-0.12860723 1070:0.025787635 1071:0.0036230921 1072:-0.16555014 1073:-5.4245459e-017 1074:-9.3380767e-018 1075:0.03207368 1077:-0.09140528 1078:-1.1666365e-018 1080:-0.021470822 1081:0.22632241 1084:-0.023782719 1085:-0.008027765 1086:0.0016659258 1087:-9.4328912e-005 1088:-0.34933496 1089:0.30566135 1090:2.6327501e-015 1091:-8.5473062e-017 1092:0.015663212 1093:1.6581302e-012 1094:-0.043394476 1095:0.63976711 1096:0.36100572 1098:-3.3816407e-012 1100:-1.1666365e-018 1101:0.0024539202 1102:-0.12149632 1103:-0.3156119 1104:-7.367392e-020 1105:-0.027156794 1106:-0.9559195 1107:2.2775559e-013 1108:-2.8624786e-013 1109:-0.20240347 1110:-0.34892014 1111:-3.5974017e-012 1112:0.066447116 1113:-1.1267325e-012 1114:-0.0027059696 1115:-0.04921823 1116:-0.22962126 1117:-3.2565465e-017 1118:-0.32931986 1119:-0.026675373 1120:-5.2498639e-018 1123:-1.5016104e-017 1124:-0.070145212 1125:-0.70389771 1126:-8.0091601e-020 1127:9.7153615e-022 1128:1.4137587e-015 1130:0.00098882243 1131:-0.27282947 1132:-5.450576e-018 1133:-0.044613212 1134:-0.26513296 1135:-7.367392e-020 1136:0.19474037 1137:0.00025270056 1138:0.66435486 1139:0.054678366 1140:0.038230482 1141:-0.56459683 1142:-0.066429622 1143:0.13570313 1144:0.00060136442 1145:-0.0078578023 1146:0.0008872117 1147:-0.085990496 1148:-1.1934313e-016 1149:-0.49947512 1150:-0.0038560529 1151:0.01204236 1152:0.0034458661 1153:-2.6685166e-017 1154:-0.06397479 1155:-1.1879239 1156:-0.0940926 1157:-0.22454515 1158:-0.20440337 1159:0.56040823 1160:-0.034884464 1161:-1.0630107e-005 1162:-0.30232677 1163:-0.15564142 1164:0.27007416 1165:-0.20600256 1166:-0.0034915628 1167:-0.090719134 1168:-0.024390925 1169:-3.3317194e-012 1170:-0.11368981 1171:-4.1087836e-015 1172:-4.8798021e-017 1173:-0.663396 1174:-0.041827276 1178:-0.22201608 1180:-0.20072018 1181:-0.097452946 1182:-0.09917096 1183:-0.0050904686 1184:0.6885463 1185:0.81344098 1186:0.78672588 1187:-0.025286412 1189:-8.7150911e-005 1190:-0.23901027 1191:0.093464129 1192:0.13653156 1193:-0.3664794 1195:0.025002705 1196:-7.3860756e-005 1197:-3.4999095e-018 1198:0.0004109299 1199:9.9901381e-012 1200:-0.086640149 1201:-4.2229734e-017 1202:-0.00058304676 1203:-0.10733528 1204:-0.1075018 1205:-0.13589479 1206:0.1472404 1207:1.1561551e-005 1208:0.17396598 1209:-0.24935316 1211:-0.00031414698 1212:-0.58256608 1213:8.868087e-005 1214:0.055731475 1215:-3.7161956e-017 1216:-0.38631397 1217:0.0015550649 1218:-0.10552547 1219:1.0278545e-016 1220:1.3605403e-017 1221:-2.2270601e-012 1222:0.0046334038 1223:-0.0051528946 1224:2.0491452e-011 1225:-0.12008784 1226:8.4298627e-012 1227:-0.65671188 1228:-4.239118e-014 1229:-0.0018780878 1230:0.0051691025 1231:-0.00053031411 1232:0.079242818 1233:-0.14183809 1234:-1.4582956e-018 1235:1.1999226 1236:-0.048451174 1237:-2.2982599e-020 1238:-0.060323574 1239:-0.81711572 1240:0.08007139 1241:0.88315362 1242:-0.002403361 1243:-0.0016323178 1244:-0.059953913 1245:-0.019803207 1246:-1.1727225e-012 1247:0.014847401 1248:-0.14157809 1249:-0.25591952 1250:-1.3708657e-012 1252:-1.4582956e-018 1253:-0.042807329 1254:-0.43803477 1255:-0.085698798 1256:0.0018748543 1257:-0.30261341 1258:1.8548858e-012 1260:-0.10717268 1261:-0.35003734 1262:0.016889343 1263:-8.0974924e-006 1264:0.14680251 1265:-0.31665793 1266:0.70274073 1267:-0.19335419 1269:-8.2259833e-015 1270:-2.333273e-018 1271:-0.19619538 1274:-0.098459378 1275:-0.0039028181 1276:8.436986e-015 1277:-0.52425408 1278:-0.012315745 1279:-0.36900759 1281:-0.24589998 1282:-0.51976997 1283:-0.022043657 1284:-0.13612802 1285:0.066485964 1287:0.0037401994 1288:-0.0009555677 1289:-0.1504474 1290:7.5738077e-005 1291:-3.8536794e-020 1292:5.2595347e-005 1293:-0.01952713 1295:-0.20846361 1296:0.0012093615 1297:-0.00557358 1298:1.9163841e-018 1299:1.7093294e-014 1300:-3.5325251e-017 1301:-0.13738376 1302:0.00086283259 1304:-0.058021497 1305:0.22423072 1307:-0.0082682427 1308:-0.033639982 1309:-0.55670279 1310:-4.3604607e-018 1311:0.19437969 1312:-0.029960468 1313:0.030440073 1314:0.00055752025 1315:-3.4674435e-014 1316:-0.18547568 1317:-0.014702958 1318:-1.4926301e-019 1319:-0.32721919 1320:0.26089987 1321:-1.1092455e-017 1322:-7.3918385e-019 1323:-8.3671668e-018 1324:-0.23285975 1325:-9.8923238e-017 1326:-0.018036757 1327:-0.15588914 1328:-0.22693987 1329:2.1119169e-014 1330:-0.022133768 1332:-0.12129094 1334:0.083417587 1335:-1.9325487e-012 1336:0.20321847 1337:0.010807136 1339:0.010198753 1340:0.0038553318 1341:-9.7153605e-022 1342:-5.9651501e-017 1344:-2.2271148e-016 1346:0.00070514891 1347:-0.18811466 1348:-0.047046296 1349:-0.0027205765 1350:0.21377438 1351:-0.2653265 1352:-0.74577093 1353:-0.41727412 1354:-0.040671714 1355:-7.3862054e-012 1356:-0.08364781 1358:0.73716205 1359:-0.16688375 1360:-0.15689011 1361:-0.11333086 1362:-0.0092344172 1363:-4.2168401e-013 1364:-0.84238613 1366:-0.00087484124 1367:0.082075767 1368:-0.14824361 1369:2.5947284e-013 1371:-0.81112826 1373:-0.15649453 1374:0.22320758 1375:0.00027791003 1376:-0.088660903 1377:-0.062915608 1378:0.81211376 1379:0.0015012466 1380:1.0837202e-019 1381:0.26122165 1382:0.047024935 1383:-0.088012815 1384:1.0728269e-013 1385:-0.050502725 1386:-0.0043815197 1387:-0.18301442 1388:0.046486106 1389:3.349698e-017 1390:0.00033907965 1391:1.7313328e-014 1392:0.57369995 1393:-4.9737791e-013 1396:-0.77605134 1397:0.31937006 1398:-0.31581521 1399:1.6437889e-016 1400:-0.10309647 1401:-0.24530359 1402:-0.13981032 1403:-2.3824474e-017 1404:-1.1923301e-012 1405:0.63371867 1406:0.0011192934 1407:0.69369513 1409:0.0584535 1411:1.2000436 1412:-0.018384716 1413:2.8083417e-018 1414:0.13492601 1415:-0.15365642 1416:0.34426296 1417:1.2968226e-019 1419:-0.041224189 1420:0.0017945269 1421:-0.016137967 1422:0.024459762 1423:0.034602925 1424:0.0077038198 1425:8.2145798e-017 1426:-0.089939341 1427:-0.15648682 1428:-2.0416902e-018 1429:-4.0997229e-006 1430:0.045018591 1431:-0.0083658826 1432:-1.1666364e-018 1433:-0.61077356 1434:-0.00019142183 1435:-0.018406134 1436:0.083497897 1437:-0.18660931 1438:-0.10088434 1439:0.027595367 1440:-0.11542863 1441:-0.0022336687 1442:-1.4582956e-018 1443:3.1249398e-017 1444:1.418725 1445:-1.0266343e-018 1446:-0.033137921 1447:0.00045231744 1448:0.8046214 1449:5.9681101e-013 1450:1.094378 1451:-0.32010677 1452:-0.14462903 1453:-0.094599649 1454:7.2761315e-005 1455:0.2062503 1456:-0.46709603 1457:0.21186417 1458:0.19002141 1459:-0.52392715 1461:-1.6664925e-016 1462:-0.44971913 1463:0.00019472785 1464:4.9758552e-012 1465:0.17767955 1466:-0.92561913 1467:5.7334895e-005 1468:0.0042266143 1469:-0.069109567 1470:-0.1226518 1471:0.038476009 1472:-2.2929844e-012 1473:-0.14969282 1474:-0.039475009 1475:-0.030606812 1478:3.7611098e-005 1480:-0.13062362 1481:0.22082786 1482:-0.30242029 1483:9.4640309e-006 1484:-3.9891443e-018 1485:-0.23322491 1486:0.011245678 1487:-0.0036633988 1488:-0.18104281 1489:-0.0041898713 1490:0.018459005 1491:-0.99810135 1492:-0.014625103 1493:-0.21479771 1494:0.46406129 1495:-0.00057769264 1496:2.678522e-017 1497:-1.3083878 1498:0.37193453 1499:0.010512439 1500:0.20271632 1501:-0.073212594 1502:0.04366073 1503:-0.1826058 1504:-0.10949475 1505:0.22205339 1506:-0.31940129 1507:-0.00022142507 1508:-0.37795955 1510:1.7324287e-015 1511:0.021707049 1512:-8.7821388e-017 1513:0.00021337018 1514:6.0104472e-017 1515:9.0886486e-018 1516:-0.1676496 1517:0.3225905 1520:0.010135605 1521:0.052698925 1522:-1.9662052e-013 1523:0.020783603 1524:-1.3041804 1525:-0.012062074 1526:0.73738945 1527:0.029953314 1528:-1.2365594e-016 1529:2.7321262e-016 1530:-5.6659321e-012 1531:-4.5671818e-020 1532:-0.12503764 1533:0.3418906 1534:0.20403767 1535:-0.84157473 1536:0.10793002 1537:-0.029796995 1538:-6.6444324e-012 1539:-3.6833622e-005 1540:-7.1932553e-017 1541:-0.03142821 1542:0.21082854 1543:-0.058168646 1544:0.0033578768 1545:0.00060202245 1547:-0.38273722 1548:0.22946893 1549:0.011402463 1550:0.013125942 1551:-0.0083938641 1552:1.1078289 1553:0.0715091 1554:0.0053232699 1555:0.15497017 1556:-0.17293642 1557:-0.070791058 1558:-4.3116789e-014 1559:0.53392678 1560:-0.044379834 1561:-0.0055552102 1562:0.068263657 1563:0.15466847 1564:0.029981343 1565:0.11846848 1566:-0.12517317 1567:3.6269997e-017 1568:-0.74671626 1569:-3.1913151e-018 1570:-0.096720427 1571:0.36042479 1572:-0.05516107 1573:0.096346833 1574:-0.29913902 1575:-0.052891582 1576:-1.2799492e-013 1577:1.2639395e-017 1578:0.06063056 1580:-0.12813976 1581:-0.39772975 1582:-1.3917676e-012 1583:-1.6497188e-013 1584:-0.095899269 1585:-0.32314482 1586:-0.063173994 1587:0.010853684 1588:-0.0029803368 1589:-0.76011479 1590:-0.14106736 1591:-0.057354294 1592:-0.18228528 1594:-0.12969173 1595:-0.47882247 1596:0.11687019 1597:-0.026312888 1598:0.26215008 1599:-0.060727138 1600:-0.08707688 1603:-1.2726123e-016 1604:-0.095028237 1606:-0.23865689 1607:-5.8557624e-017 1608:-9.6689801e-006 1609:-0.0044293301 1610:-0.011653561 1611:-0.09605322 1612:-0.070772678 1613:-0.025992854 1614:-5.1207334e-019 1615:-3.433572e-012 1616:-1.8211355e-013 1617:-0.38917905 1618:2.3377691e-016 1619:-0.058616541 1620:-0.10069045 1621:-0.46358714 1622:0.022451859 1623:-0.04921823 1624:-0.0087691173 1625:-0.028983625 1626:-0.20435047 1627:-0.11295482 1628:-0.087946266 1629:3.8268806e-017 1630:0.28723204 1631:-2.333273e-018 1632:-2.1799794e-017 1633:-0.041033354 1634:-0.091406636 1635:-0.046668269 1636:0.15023349 1637:3.9078339e-019 1638:0.015750213 1639:-0.3635323 1641:0.13176985 1642:0.26314566 1643:-0.24901083 1644:0.22038122 1645:0.21908683 1646:-6.6417727e-018 1647:0.61782873 1648:-0.041868564 1649:-1.6017857e-005 1650:-0.16443934 1651:0.39363766 1652:-0.12682492 1653:-0.2056284 1654:-0.00014955108 1655:-0.38646224 1656:0.058888342 1657:-0.0014530185 1658:-0.53392702 1659:0.008454686 1660:-2.8275609e-015 1661:-0.082479604 1662:0.83125019 1663:-0.0032400968 1664:0.33782926 1665:-0.091952667 1666:0.048860945 1667:-0.1226518 1668:0.17703664 1669:0.31825581 1670:0.25630122 1671:0.020321107 1672:0.20461583 1673:-7.9806137e-005 1675:0.0013195464 1676:-9.6647508e-021 1677:-0.017966112 1678:0.35452008 1679:-0.0068130954 1680:-0.36913091 1681:-1.1666365e-018 1682:-0.8108809 1683:-0.016809475 1684:-0.4813433 1685:-3.3540262e-014 1686:1.5510052e-018 1687:2.21002e-018 1688:-0.12271656 1689:-0.049373511 1690:-0.06397479 1691:-2.192641e-019 1692:7.693855e-006 1693:-0.079345055 1694:-0.00012697802 1695:-2.9780593e-017 1696:2.2267028e-018 1697:-0.012569021 1698:-0.12725164 1699:-0.031522673 1700:-0.79061872 1701:-4.9582054e-018 1702:-0.11536539 1703:-0.087035701 1705:-3.6037206e-012 1706:-0.018233348 1707:-0.29869783 1708:0.18614809 1709:-0.1011621 1710:0.0040943152 1711:-0.27076337 1712:0.00058929034 1713:-0.074948207 1714:1.3525331e-012 1715:-0.27231717 1716:-0.05534482 1717:2.8102826e-012 1719:-0.091406874 1720:-0.038969561 1721:-0.17765065 1722:-0.011086598 1723:3.8125819e-016 1724:-5.0596263e-014 1725:-0.0016997455 1726:0.092772178 1727:-0.040393509 1728:-0.0003082593 1729:0.23218085 1730:-0.21759674 1731:-0.029618893 1732:0.20312919 1733:0.29410729 1735:0.071103401 1736:0.012214132 1737:0.092549145 1738:0.52694905 1739:-0.010770154 1740:-0.82089025 1741:0.048236277 1742:0.3829993 1743:-0.0010937713 1744:0.28055921 1745:0.27377167 1746:0.2230273 1747:-0.3748579 1748:0.0020155886 1749:-0.10986812 1750:-3.4999099e-018 1751:-0.17295827 1752:-8.1644934e-013 1753:-3.1913153e-018 1754:-1.4582956e-018 1755:0.36070868 1756:-0.17289403 1757:-0.074989125 1758:0.00047294991 1760:-0.10924781 1761:-2.3332734e-018 1762:5.990309e-017 1763:-5.7788527e-012 1764:0.33312017 1766:-0.072479673 1767:-0.022815665 1768:-2.1802301e-018 1770:-0.31108528 1771:-2.2966431e-017 1772:0.0020155883 1773:-5.8557624e-017 1777:-2.4852716e-013 1778:-0.013388692 1779:0.025636686 1780:-0.5229333 1781:-1.5716873e-012 1782:-0.13428973 1783:-0.035155881 1784:0.0098532476 1785:-0.01817283 1786:-0.012164925 1787:-0.091392659 1788:-0.036808819 1790:-0.0028726116 1791:-9.4276831e-020 1792:-2.9273796e-017 1793:-3.1562533e-016 1794:-1.749955e-018 1795:-0.52677697 1796:-0.0045583369 1798:-0.42940673 1799:-3.4999095e-018 1800:-1.7499548e-018 1801:-0.0037706008 1802:-0.19885659 1803:-0.077342942 1805:-4.8246062e-018 1806:-2.9975863e-012 1807:-1.2625013e-016 1809:0.047914103 1810:-0.25157264 1811:-0.075638048 1812:-2.0271875e-018 1813:4.5668406e-013 1814:-0.01507003 1815:0.0098334169 1817:-2.1802303e-018 1818:-2.9780593e-017 1819:-1.1182283e-021 1820:-4.1804476e-018 1821:0.025787633 1822:-0.24856032 1823:-0.018030811 1824:-0.1102283 1825:-1.7737891e-018 1826:-2.238945e-019 1827:-4.12199e-016 1828:-0.32623774 1829:-0.052576359 1830:-0.0050102118 1832:0.53674865 1833:0.024797706 1835:0.0025593545 1836:-0.0139396 1837:-1.2741677e-016 1838:-0.29559052 1839:-0.12137479 1841:-0.14937291 1842:-0.0016615693 1843:0.01381352 1844:-0.24242018 1845:-0.00046526542 1846:-0.010126058 1847:-0.56433952 1848:0.071354829 1849:0.00043888841 1850:0.0002584933 1851:-4.9511724e-013 1852:-0.010086229 1854:0.087438539 1855:-3.9891443e-018 1856:-4.2390306e-017 1857:-0.769063 1858:-0.08707688 1859:0.14507517 1860:-3.0075131e-013 1862:0.17980945 1863:-9.8998531e-017 1865:0.65964359 1866:-0.27955419 1867:-0.0018994901 1868:-0.043113753 1869:-0.020172458 1870:-4.2390306e-017 1871:-0.38778335 1872:0.011122488 1875:0.00042917836 1876:0.36375049 1877:0.5391553 1878:-0.18063021 1879:0.23048222 1880:0.42582393 1881:-0.029425217 1882:0.22494416 1883:-0.041826311 1884:-0.017956 1885:-3.369206e-013 1886:-0.023432555 1887:-2.6249319e-018 1888:0.00022164575 1889:-2.0416139e-018 1891:-0.031671073 1892:0.61305535 1896:0.86420751 1897:-0.0038016322 1898:0.31224376 1899:-0.25415426 1900:0.27270845 1901:0.68407369 1902:0.0020553176 1903:0.27794963 1904:0.19955271 1905:9.46403e-006 1906:0.37807056 1907:0.0079152808 1908:0.015193774 1909:-0.3225905 1910:0.055752024 1911:-2.1875252e-018 1912:-0.41666344 1913:-0.62076658 1914:-0.0022694559 1915:-0.079797134 1916:0.098779529 1917:0.23560336 1918:-0.07727585 1919:-0.15989009 1920:-0.055325661 1921:0.045710985 1924:0.043283373 1925:-1.1548274e-005 1926:-0.039246459 1927:-0.0635738 1928:-0.066358313 1930:-0.1000478 1932:-0.020858336 1933:-3.3077282e-017 1934:-0.29044124 1935:9.1671318e-005 1936:1.7817073e-018 1937:0.03840898 1938:0.65057224 1939:0.28933355 1940:7.8702001e-019 1941:0.041772656 1942:-0.080385402 1943:-0.31183714 1944:-0.0073763239 1945:-2.0532687e-018 1946:-0.045569081 1947:-0.18742876 1948:0.018034076 1949:-0.57327515 1950:-6.677099e-005 1951:-0.015621704 1952:0.15076524 1954:-0.44886553 1955:0.012285539 1956:-0.17568542 1957:-0.0985303 1958:-0.042744685 1959:-0.013845884 1960:9.9749831e-013 1961:0.047335837 1962:-0.050133809 1963:0.0010937704 1964:-0.19913691 1966:-3.5706353e-020 1967:-0.0009539742 1968:0.37117922 1969:0.073977672 1970:-0.25255182 1971:-0.6567468 1972:-4.4187968e-019 1973:1.9430721e-021 1974:-0.21009438 1975:-0.10117554 1976:0.00036085144 1977:0.16098902 1978:0.13560255 1979:-0.024446197 1980:-1.0775478 1981:-0.58313632 1982:2.2884002e-020 1983:-0.49212179 1984:0.039895881 1985:0.50881732 1986:0.22078604 1987:0.079242818 1988:-0.14405826 1989:-0.10546595 1990:-9.2835462e-012 1991:-0.36157256 1992:0.15180951 1993:5.6393038e-017 1994:-0.12105741 1995:2.3063983e-012 1996:-0.00077925343 1997:0.68932337 1998:-0.029274262 1999:-0.0017472151 2000:0.0080569545 2001:1.0994382 2002:7.3153804e-013 2003:-0.056869637 2004:0.1510963 2005:-0.14697725 2006:-2.1924605e-005 2007:-0.058818672 2008:-0.2577821 2009:0.021496966 2010:0.050932668 2011:-0.20983827 2012:0.096176624 2013:-0.17194112 2014:-0.25451526 2015:-0.54926491 2016:-0.081941128 2017:0.013343423 2018:-0.077939123 2019:-0.35355905 2020:0.027248815 2021:0.5229156 2022:0.0092093749 2023:-0.2540538 2024:0.15455656 2025:0.0026616349 2026:0.027805192 2027:-0.46010441 2028:0.13894053 2029:-0.30246991 2030:-0.080474585 2031:-0.073212132 2032:0.62370205 2033:-0.072363347 2034:-0.039520942 2035:-3.8787412e-017 2036:0.032353181 2037:0.42180434 2038:-0.0011513191 2039:1.1068877e-011 2040:0.026760785 2041:0.044163723 2042:-8.5076696e-005 2043:0.031749658 2044:0.024024546 2045:0.27118042 2046:0.0054610507 2047:0.093897365 2048:-0.033742011 2049:-0.17032434 2050:-1.6263528e-018 2051:0.02007713 2052:0.0037911674 2053:-0.15456307 2054:0.31779888 2055:-0.10255572 2056:-0.23465483 2057:-0.080528602 2058:-0.0057322946 2059:-0.087924808 2060:0.0019780602 2062:-0.019056115 2064:-0.25364026 2065:-0.52648932 2066:0.00080728834 2067:-3.7915685e-018 2068:-0.00050623738 2069:-0.0027020795 2071:0.044323906 2072:0.2286583 2073:-8.7497734e-018 2074:-0.039246459 2075:0.011185186 2076:-3.8391267e-019 2077:-6.0161746e-017 2078:-0.03170523 2080:-3.2100976e-016 2081:-3.722156e-018 2082:-0.26338845 2084:-0.018500213 2085:-0.024002155 2086:-1.1666365e-018 2087:0.010971952 2088:-0.19814417 2089:-0.12857546 2090:0.16083327 2092:-0.18694179 2093:-3.3443578e-018 2094:-0.18953802 2095:0.14482129 2096:-0.010106249 2097:-0.32072169 2098:7.0664872e-013 2099:0.18327934 2100:-0.27473125 2101:-4.1071416e-005 2102:-0.13968857 2103:0.054561101 2104:0.0011156901 2106:-0.13324302 2107:-0.018126756 2108:0.029645409 2109:-0.11445133 2110:0.3300325 2112:0.049667686 2113:0.064349659 2114:0.0034147312 2115:-0.042159904 2116:-2.3270523e-017 2117:-0.052269012 2118:-5.7195578e-020 2120:-0.10489678 2121:0.23572181 2123:-0.021411173 2124:-1.1666365e-018 2125:-0.019767955 2126:-1.2136719 2127:-0.054649115 2128:-0.090581708 2129:-6.0665102e-017 2130:-0.36602643 2132:0.00049259118 2133:-0.31642991 2134:0.0044500744 2135:-0.086223021 2136:-0.0055195163 2137:-0.47274467 2138:0.0078640431 2139:9.9452254e-006 2140:0.0090218335 2141:0.39905727 2142:0.0097463457 2143:-0.054758236 2144:-3.140937e-005 2145:-0.073540159 2147:0.0023727661 2148:-0.18336253 2151:-0.015131544 2152:-0.0014446632 2153:0.0024198412 2154:0.024794178 2155:-0.00028418485 2156:-0.069439463 2157:-7.4398899e-018 2158:0.0024988889 2159:0.09747608 2160:0.06357532 2161:0.82698405 2162:-1.3975739 2163:-0.26928151 2164:-0.014407434 2165:-1.1666365e-018 2166:0.1903832 2167:-1.9549868e-017 2168:0.042791802 2169:-0.10860933 2170:-0.0035156447 2171:-0.95793337 2172:0.18011014 2173:0.59195828 2174:-0.014619298 2175:-0.33677009 2176:-0.033373345 2177:-0.015288884 2178:-0.10490843 2179:0.28543514 2180:-5.566332e-019 2181:-0.0024635759 2182:0.35099697 2183:-0.00028260166 2184:0.0051847575 2185:-0.015556645 2186:0.043835752 2188:-0.064153038 2189:-0.016287776 2190:0.10184789 2191:-0.041660238 2192:-6.0875848e-017 2193:-0.017652096 2194:0.048574466 2195:0.0055923099 2196:-0.14541048 2197:-0.041910112 2198:-0.0031131841 2199:0.042416859 2200:-1.7147464e-011 2201:-0.98406786 2202:-0.052448358 2203:-0.015635898 2204:-0.24532157 2205:0.047330149 2206:-0.11579218 2207:-0.36467019 2208:-0.13800648 2209:-0.31118771 2210:4.5177629e-020 2211:-0.43209517 2212:-9.1313771e-017 2213:-0.23558624 2214:-0.015726982 2215:-0.14130899 2216:0.69689661 2217:0.12785754 2218:-0.0070613129 2219:0.0059131789 2220:-0.35188621 2221:0.0033318517 2222:0.028586719 2223:0.29247549 2224:0.047817376 2226:-0.036068667 2227:-7.5188076e-013 2229:0.33547086 2230:0.45848754 2231:-0.17998226 2232:-0.0089449575 2234:-0.19795345 2235:2.5241157e-005 2236:0.50230861 2237:0.12013711 2238:-0.44731581 2239:0.81475568 2240:0.17713226 2241:-0.045309242 2242:-0.036494777 2243:0.00075542869 2244:2.4971361e-020 2245:-0.011325211 2246:0.021746853 2247:-0.078108065 2248:-5.1265899e-005 2249:-0.12432297 2250:-0.3528375 2251:-0.31241661 2252:-0.12702155 2253:0.81454021 2254:-0.065181956 2256:0.0050162626 2257:7.5419793e-014 2258:-0.25620419 2259:1.2087547e-018 2260:-0.13932304 2261:0.52641797 2262:0.032283731 2263:-0.00019717256 2264:2.5346717e-012 2266:-1.4582956e-018 2267:-0.01523162 2268:-0.00031771802 2269:0.62098706 2270:-1.3130157e-018 2271:1.068234 2272:2.8745761e-018 2273:0.090612762 2275:0.00062894216 2276:0.19665283 2277:-0.017423278 2278:1.0039735 2279:-0.10473776 2281:-0.28831613 2282:-0.43777823 2283:-0.16447832 2285:-0.14597289 2286:-0.081538282 2287:1.2218103 2289:0.16078879 2291:0.21340173 2292:-1.5758121e-012 2293:-0.05899255 2294:0.0018557227 2295:0.29659265 2296:0.15852393 2297:-0.97803771 2298:0.050501071 2299:0.0046944348 2300:-0.047051478 2301:-1.1716558e-019 2302:-6.7669047e-013 2303:-0.0009595849 2304:-0.009388092 2305:-0.041797418 2306:-0.46801913 2307:-1.1745644e-016 2308:-1.1781209e-016 2309:-0.17396595 2310:0.00032057575 2312:-0.016137967 2313:-0.00012840969 2314:-0.00034585356 2315:-0.16189416 2316:0.0072343978 2317:3.3516478e-013 2318:0.060735088 2319:0.31067678 2321:-4.7164475e-020 2322:-0.00054107391 2323:0.060755432 2324:-6.9268186e-014 2325:-0.20917605 2326:0.019283267 2327:-0.18531626 2329:-0.076172195 2330:-1.5203909e-018 2331:-0.055478696 2332:0.000131693 2333:-0.01645069 2335:-0.030316232 2336:0.47666514 2337:0.81782621 2338:0.1803764 2340:-0.06656976 2341:-0.50231779 2342:-0.049024094 2343:2.7087582e-020 2344:-0.027579477 2345:-0.57257473 2346:-0.3479495 2347:-0.20124654 2348:-1.8929964e-013 2349:-5.8331826e-018 2350:-0.010041518 2351:-1.1934316e-016 2352:-3.9572498e-016 2353:0.6655643 2354:7.2833341e-014 2355:-0.02724136 2356:0.00019432788 2357:-0.023105947 2358:0.091852129 2360:0.0024988889 2361:-0.01647735 2362:0.024801267 2363:-0.039950896 2364:-3.1524274e-016 2365:0.55328685 2366:-6.4252392e-017 2367:-0.38899365 2368:-0.39420444 2369:0.52924728 2370:0.00065977324 2371:-1.9217292e-018 2372:-0.064366907 2373:-0.054284371 2374:-0.066899858 2375:-3.7418565e-020 2376:-0.061675329 2377:0.097567447 2378:-0.016137967 2379:-1.4734784e-019 2380:-0.072775841 2381:-0.40856227 2382:-0.58948272 2383:-0.28547788 2384:-0.10025966 2385:-0.038604621 2386:-0.072302021 2387:-0.11084227 2388:0.51988828 2389:-3.0857489e-005 2390:0.11170474 2391:-0.030162431 2392:-0.050168555 2393:-0.086104907 2394:0.16158274 2395:0.33986744 2396:0.11177868 2397:-0.051555809 2398:-0.00035199735 2399:-0.02065468 2400:0.035983443 2401:0.0008872117 2402:-0.0079427138 2403:0.38772118 2404:-0.30556872 2405:-0.050666705 2406:0.010921043 2407:-8.2484372e-022 2408:-5.9671579e-017 2409:0.21393858 2411:2.0306027e-016 2412:0.55086136 2413:0.0010191164 2414:0.0004732876 2415:0.091909528 2416:-0.033644628 2417:-1.0202444 2418:-0.0037212349 2419:-0.32859418 2421:0.16187625 2422:-0.053586338 2423:0.40338019 2424:0.021359302 2425:0.003304081 2426:0.027805196 2427:-0.14960366 2428:0.12938821 2429:-0.020350043 2430:0.062620193 2431:-0.031639937 2432:2.7057154e-006 2433:-0.16281667 2435:0.064000256 2436:-0.22039244 2437:-0.41391894 2438:0.043949366 2439:-0.0022395996 2440:-5.9651508e-017 2441:-0.055052999 2442:-0.069523014 2443:0.15373336 2445:-0.12371941 2446:-0.64253128 2447:-4.1804476e-018 2448:-0.0059456797 2449:-0.086305007 2450:-0.052279897 2451:-0.14655858 2452:0.029629832 2453:-7.367392e-020 2455:-0.10608798 2456:-0.019705454 2457:-0.025722271 2458:-0.36396617 2459:-1.0135939e-018 2460:4.9773816e-015 2461:-0.0154145 2462:0.30295095 2463:-2.3227352e-017 2465:-1.1666365e-018 2466:-2.1451604e-012 2467:-0.093444936 2468:0.17827235 2469:0.19427054 2470:-1.9901999e-013 2472:-7.0650502e-017 2473:-1.1666365e-018 2474:-0.097126245 2475:-1.3031101e-012 2476:-0.37231433 2477:-0.21962379 2478:-2.0416137e-018 2479:-0.3543317 2480:0.00029793187 2481:0.10919593 2482:0.14946656 2483:0.12784292 2484:-1.5203907e-018 2485:4.2561149e-014 2486:-1.7544038e-005 2487:-0.5438717 2488:-0.15404128 2489:0.0007912349 2491:-6.0320638e-014 2492:-2.8260202e-017 2495:-0.25875467 2496:-0.14876993 2497:-0.42273337 2499:1.8145561e-006 2500:-1.1182283e-021 2501:0.038778398 2502:-0.060629684 2503:0.018532343 2504:0.093661234 2506:-0.13407402 2507:-0.065720446 2508:-0.23183106 2509:-0.1392516 2510:-4.473538e-013 2511:-1.8606858e-013 2512:-0.25467327 2513:-0.068586387 2514:0.06535776 2515:-0.00096490607 2517:-0.16133 2518:0.14324412 2519:0.0010314424 2520:-1.4499548e-013 2521:-0.0045583369 2522:0.0065712314 2523:-0.43898076 2525:1.3555169e-005 2526:0.67460215 2527:-0.96604282 2528:0.22104573 2529:-5.1244195e-018 2532:0.2310631 2533:0.032379776 2534:0.13129322 2535:-1.1666364e-018 2536:-0.36486533 2538:0.11895047 2539:0.00039492792 2540:-0.11660396 2541:0.017113442 2542:-0.17187352 2543:-0.13749883 2545:-0.16001949 2546:-0.0162769 2547:0.058851637 2548:-0.20031676 2549:-0.053823061 2550:0.005185626 2551:2.12885e-012 2552:-0.37187973 2553:-0.088630706 2554:0.78608668 2556:2.270854e-015 2557:-0.060716923 2558:0.0074430299 2559:1.0115894 2560:1.2066599e-018 2561:-0.15518869 2562:0.0031716814 2563:0.045167327 2564:-0.00014745428 2565:-0.13861305 2566:0.033202559 2567:-4.1595692e-020 2568:0.062717505 2570:-3.0340557e-018 2571:0.080411531 2572:1.5504093e-017 2573:-0.26698765 2574:-1.3633438e-012 2575:-0.26117906 2577:-3.9814662e-014 2578:0.038726967 2579:0.032171119 2581:-0.00030443442 2582:-0.0044293306 2583:0.1533329 2584:-0.21940996 2585:-0.024259644 2586:-0.003447134 2587:-0.14399856 2588:-0.31500793 2589:0.61050081 2590:-0.13536504 2591:0.01020678 2592:-0.037323978 2593:-1.4171429e-012 2594:-8.36215e-018 2595:-0.10599976 2598:0.044832472 2599:0.0014340817 2600:-1.8937521e-016 2601:0.07032077 2602:-1.1666364e-018 2603:-4.4425491e-005 2604:-0.013035899 2606:-7.5306474e-014 2607:-0.00020458968 2608:-0.49128711 2610:-4.0817202e-005 2611:0.00035905707 2612:0.084037215 2613:-5.2498639e-018 2615:5.5084392e-006 2616:0.43826297 2617:0.0091138761 2618:-9.4328912e-005 2619:-0.099790111 2620:-0.075305611 2621:-2.2711412e-015 2622:-0.34261984 2623:-0.28168643 2624:-0.053561747 2625:-1.1976465e-016 2627:-0.0021294721 2628:-5.6965912e-013 2630:-0.56268013 2632:-1.1727697e-012 2633:-0.0070538083 2634:-1.6916229e-017 2635:-0.26300547 2636:0.87371671 2637:-0.14423445 2638:-0.12153187 2639:0.1525465 2640:-0.035223957 2641:-2.2933695e-012 2642:0.0013792388 2643:-0.77551353 2644:-0.013942104 2645:0.049528789 2646:-3.9770005e-013 2647:0.41018379 2648:-0.0032320425 2650:-0.0024397082 2651:-0.36581168 2652:-0.13576968 2653:-1.0876379e-005 2654:0.0072099445 2655:-9.5732363e-013 2656:5.2939991e-015 2659:0.031889144 2660:-1.1336751e-012 2661:-0.015710311 2662:-0.026727131 2663:6.044417e-005 2664:-0.015511521 2665:-1.1666364e-018 2666:-0.032313768 2667:-0.033468962 2668:-0.1326575 2669:0.095935777 2670:3.205588e-021 2671:0.59784013 2673:0.086837262 2674:-1.2669923e-018 2675:-0.45641521 2676:0.31428766 2677:-0.080550246 2678:-0.14654134 2680:-0.29623425 2681:0.00019574678 2682:0.016231077 2683:-0.18183658 2684:-0.016562508 2685:-0.088922113 2686:-0.019965321 2687:0.16597036 2688:2.4868836e-017 2690:-0.05116979 2691:-0.13266832 2692:-1.1690672e-018 2693:0.00088721176 2694:-1.0135938e-018 2695:0.15095431 2696:-0.33196342 2697:1.7345758e-013 2698:-0.043672688 2699:0.0024840902 2700:0.70663214 2702:-0.093148135 2703:-1.1666365e-018 2704:-0.016681982 2705:-1.749955e-018 2706:0.012916351 2707:-0.60929811 2708:-0.16134402 2709:0.16436468 2710:-0.09749537 2711:9.5377637e-017 2712:0.34070659 2713:0.13648267 2714:0.4194355 2715:-6.9998199e-018 2716:0.00033596298 2717:-0.0094950469 2718:-0.028628711 2719:-0.010052304 2720:-1.379699e-006 2721:0.049819712 2722:1.0285741 2723:-0.04970701 2724:-0.39850748 2726:-0.4599283 2727:-0.65105325 2728:-0.18118913 2729:0.075954005 2730:-0.11986052 2731:-1.1431325e-012 2732:-0.1365419 2733:-0.28560278 2734:9.9749831e-013 2735:0.012701768 2736:-0.015119789 2737:-8.5190898e-013 2738:-1.5083905e-017 2739:0.048538893 2740:0.11060397 2741:1.4007384 2742:-0.31839064 2743:-2.1468122e-016 2744:-0.00028270209 2745:2.6689175e-005 2746:-9.4328912e-005 2747:-0.0015705813 2748:-0.51208562 2749:0.16903892 2750:-0.34403893 2751:-5.0841369e-005 2752:4.0520751e-021 2753:0.17610458 2754:-1.5280569e-014 2755:-0.11375577 2756:-0.015762724 2757:-0.38271859 2759:-0.058807876 2760:0.083801746 2761:3.0592761e-005 2762:-8.4393585e-005 2763:-0.35834876 2764:0.019748094 2765:-0.087484799 2766:-0.083938412 2768:0.10632433 2769:0.12837327 2770:-0.093737096 2771:-5.6336619e-013 2773:-1.1666365e-018 2774:0.0013528942 2775:0.00014477962 2776:-1.0752994e-015 2777:-0.31757447 2778:-0.24530359 2779:-0.61503553 2780:-4.9645964e-013 2781:0.21546295 2782:-0.13656972 2783:-3.746873e-012 2784:-0.1317783 2785:0.0003558012 2786:-0.11589317 2787:-0.25310081 2788:0.072330743 2789:0.10517906 2790:0.11706579 2791:1.5837748e-010 2792:-0.0036297441 2793:-0.06656976 2795:-1.0135939e-018 2796:-0.0060122544 2797:0.094991349 2798:-3.0940559e-005 2799:0.0073070605 2800:-0.20128 2801:-2.7772008e-005 2802:-0.025360949 2803:0.45391941 2805:0.17885013 2806:-0.01670477 2807:-0.12739775 2809:-0.0015181495 2810:-0.030430643 2811:-0.0035156447 2812:-0.20174113 2813:-0.79300135 2814:2.6227263e-016 2815:-0.055546954 2816:-0.00069753634 2817:0.13070911 2818:-0.00395054 2819:-0.017337684 2820:0.0022249487 2821:-2.8731201e-015 2822:-0.044327367 2823:0.12912866 2824:0.048287261 2825:0.00088721176 2826:0.6761654 2827:0.055618759 2828:0.12755877 2829:-0.0028864329 2830:0.17306966 2831:0.044405542 2832:-5.2493027e-017 2833:-0.0024681452 2834:-0.15378223 2835:0.42437425 2836:-1.6602761e-012 2837:-2.8355133e-015 2838:0.00013296006 2839:1.3424505e-005 2840:-4.3829499e-020 2841:-2.0153382e-019 2842:-2.6909529e-014 2843:0.076505877 2844:-0.23735532 2845:-0.0076875724 2846:-0.15099137 2847:-3.0723181e-015 2848:-0.013626191 2849:-0.0082855737 2850:-6.9953037e-017 2851:0.00011303221 2852:-0.00072101067 2853:0.32586727 2854:-0.0062845093 2855:-2.333273e-018 2856:-0.12097941 2859:-0.21032515 2861:-0.28927043 2862:-1.1666365e-018 2863:-2.8205809e-020 2864:-0.86890912 2865:-0.06397479 2866:7.3370953e-018 2867:0.05746698 2868:-0.030163303 2869:1.3467677e-019 2870:-0.038695414 2871:-7.5580866e-013 2872:0.042344015 2873:-2.9358806e-015 2874:-6.4009162e-020 2875:-3.370494e-013 2876:-0.0061223921 2877:-0.88150978 2878:0.0013598948 2879:-0.095641933 2880:-0.019553848 2881:-0.010874798 2882:-1.0608018e-017 2883:-4.5654834e-017 2884:0.25736466 2885:-0.012348158 2886:-0.16904265 2887:-0.063438162 2888:0.39383158 2889:-0.13015382 2890:-0.30326873 2891:-0.18876588 2892:0.39309394 2893:-0.39954448 2894:-0.013345516 2895:0.30125993 2896:8.297034e-014 2897:0.093728915 2898:0.13109817 2900:-0.00091724255 2901:-0.012922841 2902:-0.13128757 2903:0.025647899 2904:0.32420897 2905:-0.027971487 2906:-1.5781267e-016 2907:-0.016156111 2909:-0.22872879 2910:-5.1889577e-015 2911:-0.3338874 2912:0.00088508747 2913:-1.7737894e-018 2914:0.19883285 2915:-0.10303416 2916:-0.001448893 2917:0.00036292075 2918:5.0502254e-005 2919:3.6046767e-005 2920:-0.11178134 2921:-2.9975855e-012 2922:-0.31642804 2923:-0.1821415 2924:0.2044542 2925:0.0039383182 2926:-0.16552526 2927:-0.13596381 2928:0.014940422 2929:-0.022971913 2930:0.28794643 2931:-0.014886133 2932:0.2659038 2933:-1.1666364e-018 2934:0.77713543 2935:-0.25102922 2936:-0.19623762 2937:-0.057242028 2938:0.02115605 2939:0.94846755 2940:-0.0050264839 2941:-3.3443578e-018 2942:0.00030160518 2943:-0.029005209 2944:0.038592268 2945:-0.020531053 2946:2.4971361e-020 2947:0.12038688 2948:0.15939733 2952:-0.58896315 2954:0.53822547 2955:0.21206582 2956:-0.0090497872 2957:-0.029047227 2958:-0.07345777 2959:0.00051740417 2960:0.13816868 2961:0.0024988889 2963:0.011950987 2964:3.6865521e-018 2965:-3.5482058e-017 2966:-0.16580631 2968:-1.1666364e-018 2969:-0.092340037 2971:-0.059859946 2972:0.6362403 2973:0.0025861291 2974:-0.041263178 2975:0.031093927 2976:-9.2577789e-018 2977:4.8603717e-012 2978:0.50422192 2979:-1.3254659 2980:0.0033652266 2981:0.0035539947 2982:0.10329636 2983:0.44903803 2984:-0.013941307 2985:-0.056659337 2986:0.81454027 2987:-8.8352935e-017 2989:-0.071322747 2990:-4.4553249e-006 2991:-5.0321414e-005 2992:-0.006729146 2993:-0.00011676286 2994:-1.0266343e-018 2995:0.0063282973 2996:0.06940034 2997:0.34636614 2998:-0.00035544767 2999:0.2171284 3000:1.9411532e-012 3002:-0.078652427 3003:-0.11662806 3004:-0.062443361 3005:-1.2552981 3006:0.23238121 3008:-2.0416137e-018 3009:-0.21423274 3010:-0.23940216 3011:-0.0045193988 3012:-0.016686669 3013:5.2493027e-017 3014:-1.0135938e-018 3015:0.1367131 3016:-0.00084120448 3017:-1.2669923e-018 3018:0.15199946 3019:-0.013134486 3020:0.00034564119 3021:-0.034131255 3022:-0.03270952 3023:-0.017585227 3024:0.24837027 3025:-3.5325082e-019 3026:-0.00038739934 3027:0.32290766 3028:7.4757729e-005 3029:-0.33516487 3030:-0.14256245 3031:-0.23359123 3032:0.1606611 3033:0.27085617 3034:-0.0034661992 3035:0.087136731 3036:0.15540756 3037:-0.0039017126 3039:5.4967919e-014 3040:-0.28210476 3041:0.00093818858 3042:0.014555478 3043:0.28438151 3044:-0.00056613557 3045:0.0043612528 3046:-0.55363476 3047:-0.068284862 3048:2.9919696e-018 3049:-0.12215398 3051:0.035526767 3054:0.013223617 3055:0.45805526 3056:2.2786036e-005 3057:4.1693779e-006 3058:-0.30908737 3059:-0.11302201 3060:-0.85988939 3061:-0.21333806 3062:-0.116907 3063:-0.00030538533 3064:0.0015797805 3067:-0.17054264 3068:0.10416084 3069:0.043826111 3070:0.0033666741 3071:-3.1938244e-018 3072:0.025115449 3073:0.17152524 3074:-2.192641e-019 3075:-0.026371753 3076:-0.026932871 3077:0.000455806 3078:-3.6873594e-012 3079:0.40251002 3080:-0.15629704 3081:1.0568335 3082:-0.36440834 3083:-0.0076662856 3085:0.065814406 3086:-0.025246581 3087:-0.0031998092 3088:0.6067242 3089:3.8787089e-006 3090:0.010043393 3091:-0.27709803 3092:0.17199434 3094:0.043508712 3095:-0.0054877396 3096:0.030974528 3097:-1.1666364e-018 3098:-0.0014102464 3099:-0.10593342 3100:-0.30476052 3101:-6.9297392e-005 3102:-0.02135466 3103:0.49482363 3104:-0.65108216 3105:0.0015111391 3106:0.40319264 3107:-7.0650502e-017 3108:-0.0076271486 3109:-1.1954169e-012 3110:0.25747547 3111:1.2189386e-010 3112:0.0050862441 3113:-0.20850107 3114:0.026724089 3115:-0.0025129386 3117:0.033933084 3118:-0.0062761833 3119:-0.009339774 3120:0.26785868 3121:-0.075252831 3122:-0.040295407 3123:-0.0012028572 3124:-0.013050123 3125:0.41636133 3126:-0.00027229846 3127:-0.006761075 3128:-8.1881837e-005 3130:-0.10413861 3131:0.039732646 3132:7.1125592e-006 3133:-0.0054700049 3134:3.8391267e-019 3135:0.30933693 3136:-0.042589933 3137:0.53092724 3139:0.14712067 3140:0.10884307 3141:0.01077693 3142:-2.6674651e-017 3143:-0.027494263 3144:-0.15004174 3145:0.33348987 3146:-0.23717476 3147:-2.7221517e-018 3148:-0.055172771 3150:-0.0088421404 3151:-3.4718798e-016 3152:-0.028173871 3153:0.006709402 3154:5.9776095e-005 3155:-0.23330422 3156:0.1269155 3157:-0.079700828 3158:-0.81681222 3159:-0.13232218 3161:-0.091449752 3162:0.0081347041 3163:1.1312702e-013 3165:-0.11966587 3166:-0.41111374 3167:-0.020257503 3168:-0.025123695 3169:0.0090923049 3170:-0.13662402 3171:0.84903359 3172:-0.044379834 3173:0.11510044 3174:-0.026209855 3175:0.033111244 3176:0.85315454 3177:-0.40785566 3178:0.13380073 3179:0.34667194 3180:0.69680971 3181:0.063363515 3182:0.034043144 3183:-0.0072826287 3184:-0.29545084 3185:0.010668055 3187:0.12266973 3188:4.7942752e-012 3189:0.34526017 3190:0.060967375 3191:0.15944906 3192:-1.3229794e-012 3193:-3.2703458e-018 3194:0.053795304 3195:-0.032724459 3196:-0.0073045888 3197:1.6500784e-018 3198:-0.16473609 3199:0.023465982 3200:0.17263322 3201:4.7110368e-018 3202:-0.062027391 3203:-0.030823212 3204:-0.024398679 3205:2.2039674e-013 3206:-1.4597861e-012 3207:-0.0052779736 3208:1.1113192e-017 3209:0.018190008 3210:-0.042849399 3212:0.00047969751 3215:1.2805722e-016 3217:-0.0012578432 3218:-4.9455349e-017 3219:-0.23287292 3220:-0.035155881 3221:-0.37595022 3222:-9.2016948e-005 3223:-0.25907496 3224:-0.036895663 3225:0.01077693 3226:-0.21217595 3227:-0.012437745 3228:-0.10591371 3229:-0.00081043702 3230:-7.6022676e-017 3232:0.14100884 3233:0.0016659258 3234:-0.030090185 3235:-0.038212113 3236:1.2595468 3237:-0.11702933 3238:-0.036607046 3239:0.5389688 3240:0.19017869 3241:-1.3207129e-011 3242:-0.1620779 3243:0.10607371 3244:0.73122269 3245:-0.0021583363 3246:2.9422854e-016 3247:-0.038729072 3248:-0.23338471 3249:-0.069523014 3250:0.37726879 3251:-0.15725607 3252:-0.062573954 3253:-0.085698813 3254:-0.35228035 3255:-0.49975103 3257:-0.044330452 3258:-0.60547513 3259:0.063190825 3260:-9.6014182e-017 3261:-0.31535947 3262:-0.004078526 3263:0.021083592 3264:-0.070170365 3265:0.14248881 3267:0.079532988 3268:-0.086741239 3269:-0.014940438 3270:-0.033001427 3271:-9.4499343e-013 3272:-3.344358e-018 3274:-0.15808374 3275:-0.1553375 3276:-0.27062991 3277:-1.7499548e-018 3278:-3.587094e-018 3279:-0.48957548 3280:-0.39886189 3281:-3.4999099e-018 3282:-1.6017857e-005 3283:-0.15598813 3284:0.88884979 3287:-0.32053697 3289:1.9986142e-012 3290:0.86328954 3291:0.11791188 3292:-0.23845574 3293:-0.46151927 3295:-1.1096673e-019 3296:-0.00012502976 3297:0.00033501661 3298:-3.9038418e-017 3299:4.1554807e-020 3300:2.4171466e-012 3301:0.90686345 3303:-0.0064028818 3304:0.039266571 3307:0.35661623 3308:9.6881267e-016 3309:0.039657939 3310:-8.2175681e-015 3311:0.0003558012 3312:-0.014391895 3313:-1.1666365e-018 3314:-0.075883292 3315:-0.044554338 3316:-0.040196683 3317:0.10593994 3319:-6.1827972e-017 3320:5.0603154e-014 3321:-2.499111e-017 3322:0.013018722 3323:-0.2086052 3324:-7.3992207e-015 3325:0.0076016337 3326:0.0013805872 3327:-8.6293446e-012 3328:-0.11134534 3329:5.1623452e-013 3330:-3.5966273e-017 3331:-0.1205564 3332:-0.0078405514 3333:-0.073270671 3334:0.016853532 3335:-0.01008755 3337:-0.15292613 3338:-0.061607286 3339:-0.0010719299 3340:-0.024219882 3341:0.4012621 3342:-1.1154073e-019 3343:0.38323551 3344:0.15076172 3345:-0.0076410775 3346:-0.002639553 3347:-2.6182928e-018 3348:-1.1666365e-018 3349:-0.63029337 3350:0.58145034 3351:0.004118436 3352:-0.14850296 3353:-0.040625203 3355:0.64035887 3356:-0.21929941 3357:9.0358762e-018 3358:0.34229377 3359:2.4671497e-013 3360:-0.03349686 3361:0.064561956 3362:-0.021610275 3363:0.019197412 3364:-0.27738768 3365:-2.2933912e-012 3366:-0.38261223 3367:-0.68151683 3368:-2.1926407e-019 3369:-0.023585176 3370:-0.15690814 3371:-0.47720301 3372:-0.53253657 3373:-0.023401687 3374:-0.16821015 3375:0.016717376 3376:0.015536446 3377:-6.1631748e-015 3378:-0.079311922 3379:0.025350284 3380:0.010668055 3381:-3.899295e-017 3382:-0.042869072 3383:-1.6072899e-018 3384:-0.034336537 3386:-0.0023624995 3387:0.89511299 3388:1.732788e-005 3389:-0.28945956 3390:0.32923368 3391:-0.65279818 3392:-0.11544182 3393:0.028384335 3394:0.10035572 3395:-0.081230082 3396:-5.638743e-018 3398:0.80366451 3399:2.8699788e-018 3400:-2.725288e-018 3401:-3.0567209e-017 3402:-0.00097878464 3403:-1.1666365e-018 3404:-0.27611119 3405:-0.0088369148 3406:-0.063263364 3407:-0.04168047 3408:0.021693248 3409:-0.0050234003 3410:0.013088137 3411:-0.0008872117 3412:0.35759339 3413:-0.2947875 3414:-0.065112531 3415:0.52005619 3416:-0.018165862 3417:0.044411667 3418:-4.5109943e-018 3419:-2.8731203e-015 3420:0.85012108 3422:0.30236575 3423:0.012597178 3424:0.19251779 3425:0.05410761 3426:-0.18667184 3427:0.057312857 3428:-0.062284358 3429:-1.0117804 3430:-0.0062177787 3431:-0.39500287 3432:-0.33172885 3433:0.053497758 3434:0.30294469 3435:-0.16246074 3436:-0.94139445 3437:-0.026284209 3439:8.8391816e-006 3440:-0.40865242 3441:-0.95304799 3442:-0.07580702 3443:-0.21377566 3444:0.27353036 3445:0.037925392 3446:1.3171278e-010 3447:0.14458147 3448:-5.3686969e-019 3449:0.19077559 3450:0.0048928135 3451:0.030770874 3452:-0.017590703 3453:0.5043745 3454:-0.34803289 3455:0.65366232 3456:-0.017094124 3457:0.1699874 3458:0.024402309 3459:0.1129688 3460:0.080240205 3461:0.0034652178 3462:4.668838e-015 3465:0.0062743146 3466:0.03637984 3467:0.017219305 3468:-0.035213191 3470:5.01496e-005 3471:-0.3581768 3472:0.00034939992 3474:-5.5245884e-018 3476:-0.13434601 3478:-8.4648683e-022 3479:0.30360577 3480:-0.029430447 3481:-0.00044051337 3482:0.0060790242 3483:0.00080787943 3484:-0.10919511 3485:-0.086724833 3486:0.39928696 3487:0.38192666 3488:0.018393107 3490:0.032672651 3491:-0.0025654559 3492:-0.014172776 3493:0.097128838 3494:-2.1777215e-018 3495:-0.022508383 3496:-1.4894349e-014 3497:2.8908406e-016 3498:0.28582019 3499:-8.1664547e-018 3500:-8.7497734e-018 3501:5.0530333e-011 3502:-0.13152084 3503:-0.022465808 3504:-0.072857365 3505:3.6865521e-018 3506:-0.0091579221 3507:-0.16884628 3508:0.0062102256 3509:0.83136606 3510:-0.082848363 3511:-0.24712162 3512:0.13532326 3513:-0.00015416525 3514:0.18676485 3515:0.037328456 3516:0.01274341 3517:-0.00047327005 3518:-0.011195309 3519:-0.031572483 3520:-0.094756521 3521:0.30040982 3522:0.25172237 3523:0.0011618264 3524:0.031648055 3525:0.50734144 3526:1.7641796e-013 3527:0.054402664 3528:0.023604238 3529:0.44523668 3530:0.17491961 3531:-3.2511255e-012 3532:0.079898402 3533:-0.0098518161 3534:0.2813876 3535:-0.17444228 3536:-0.0062603913 3537:2.6650543e-017 3538:-0.062420208 3539:-0.38839304 3540:-5.007018e-020 3541:-0.11783609 3542:0.35515791 3543:0.0016500859 3544:0.1930422 3546:0.050937109 3547:0.041893244 3548:0.09180785 3549:-4.2431847e-018 3550:0.1437714 3551:0.006037958 3552:0.015442103 3553:-0.010076251 3554:1.2498939 3555:-0.091141656 3556:-0.50619066 3557:1.9060203e-016 3558:-9.951e-014 3560:0.01603194 3561:0.0080059003 3562:0.00070307078 3563:0.71690392 3564:0.0068454114 3565:0.098001651 3566:0.0025073967 3567:-0.0091995206 3568:0.019107198 3569:-7.8356576e-017 3570:0.29552612 3571:0.062635191 3572:0.0025494921 3573:0.21521412 3574:-0.39384833 3575:-0.34871 3576:-0.026850913 3577:0.25527388 3578:0.021840705 3579:0.10489887 3580:0.10104819 3581:0.072898619 3582:-0.13082582 3583:0.02453181 3584:0.034672778 3585:0.095544025 3586:-0.26467383 3587:0.3758814 3588:0.22670574 3589:-0.0070728613 3590:-0.021621199 3591:3.1158e-013 3592:-0.076884329 3593:0.28311211 3594:-0.015934063 3595:0.051829215 3596:-3.3546851e-021 3597:0.16428673 3598:-4.5530185e-017 3600:-0.29173088 3601:0.04278237 3602:-6.6154564e-017 3603:-0.0079590576 3604:-0.00029968357 3605:1.7352989e-016 3606:0.18470697 3608:-0.08420445 3609:-5.4443034e-018 3611:-2.226703e-018 3612:-2.9975855e-012 3613:-0.39144066 3614:-0.054888088 3615:-0.92561907 3616:-0.0052948729 3617:0.028629228 3618:-3.1261981e-005 3620:-0.0050658509 3621:-0.0046717124 3622:9.8988614e-014 3623:-0.069661506 3624:-0.12611642 3625:-0.092295729 3626:-0.0057355012 3627:-1.1666364e-018 3629:-6.0665095e-017 3630:2.8157741e-018 3631:-0.00015609115 3632:-0.28823677 3633:-0.28640211 3634:-0.035155881 3635:0.050435353 3636:0.12913497 3637:0.17625625 3639:-0.024465445 3640:-1.1666364e-018 3641:0.12213053 3642:-0.027598891 3643:-8.8958484e-005 3644:-0.21421815 3645:6.1997895e-013 3647:1.1838647e-016 3648:0.046799969 3649:-2.333273e-018 3650:-0.18330938 3651:-0.1410217 3652:0.10718445 3653:-0.22829112 3654:-0.54271972 3655:0.00018922887 3656:5.1584411e-005 3657:-0.037317492 3659:-0.0020555411 3661:-0.022409974 3662:-6.7632914e-017 3663:0.17210443 3665:-9.9295673e-015 3666:-2.0416139e-018 3667:-3.3057719e-016 3668:-0.0188445 3669:-1.1666365e-018 3670:-0.067982949 3671:1.67732e-013 3672:-0.023390578 3673:-0.050203443 3674:-0.00025150701 3676:0.0009070306 3678:0.00067531923 3679:-0.21423379 3680:0.073591851 3681:-1.9050041e-019 3682:-1.0135939e-018 3684:-0.022795508 3686:-0.077333704 3687:-0.70805568 3688:-0.0030639756 3689:0.043058116 3690:0.0023923679 3691:0.39244989 3692:-0.13069597 3693:0.00038544726 3694:-0.062344093 3695:8.5770497e-015 3696:-0.01202451 3697:-0.14115235 3698:4.6589623e-005 3699:0.53654832 3700:0.029189289 3701:-7.2886052e-016 3702:-0.40922675 3703:0.17357317 3704:-0.022505213 3705:-0.011600595 3706:0.40253609 3707:-0.10898632 3708:4.2286717e-014 3709:-0.10146789 3710:1.2363375 3711:-0.082729883 3712:-1.2198068e-019 3713:-0.031929672 3714:-1.3752463e-019 3715:0.32572445 3716:0.040568732 3717:-1.4582956e-018 3718:-0.0071575968 3720:-2.8485211e-013 3721:0.10441551 3722:-2.7221517e-018 3723:-2.507933e-018 3724:4.2602725e-014 3725:-0.0041107466 3726:0.021475008 3727:2.9016947e-013 3728:-0.28066283 3729:-0.024465442 3730:-1.9058421e-016 3731:-0.0001419201 3733:-1.4789439e-016 3734:-1.749955e-018 3736:-3.4999099e-018 3738:-6.5363145e-013 3739:-7.4504171e-017 3740:-1.1666365e-018 3741:3.3516478e-013 3742:0.026493993 3743:-0.12586913 3744:0.71099079 3745:0.000261304 3746:0.11745272 3750:0.0064266571 3751:6.4009168e-020 3753:0.054678366 3754:0.045710985 3757:-0.093003154 3758:0.018710345 3759:-0.12868522 3761:0.0029175822 3762:0.6885463 3763:0.13653156 3764:-0.0054432219 3765:0.95717394 3766:-3.2009926e-016 3767:0.042576149 3768:-0.0040081698 3771:-2.3699385e-017 3773:0.15841036 3774:3.8443525e-018 3775:0.039301395 3776:-1.1666365e-018 3777:0.0089299539 3778:-2.0268132e-012 3780:0.056728903 3781:-0.094585888 3782:-8.0365986e-005 3783:2.3301095e-006 3784:-0.031367939 3785:-5.3160508e-016 3786:-1.0135939e-018 3787:0.197909 3788:-0.031824946 3789:0.031320725 3790:-1.110995e-016 3791:0.13176985 3792:-0.0023461704 3793:-4.2578467e-017 3794:-4.0590519e-005 3795:0.0017944798 3796:0.33782926 3797:0.29248795 3798:-2.0416139e-018 3799:0.011689178 3800:-1.2669923e-018 3801:-1.0135939e-018 3803:-0.33728936 3804:0.0077766241 3805:-6.6475848e-012 3807:-0.38778335 3808:2.7087579e-020 3809:-8.0124039e-005 3810:0.81454027 3811:-0.10354396 3812:-0.40682694 3813:3.1147039e-017 3814:-0.03843737 3815:0.033571135 3816:-0.19679031 3817:-0.4444885 3818:-0.00029827535 3819:-0.0075706579 3820:-4.1026074e-018 3821:0.36744979 3823:-3.6592244e-017 3824:0.20868137 3825:0.19485287 3826:-0.058832131 3827:0.00037472954 3828:0.0046583368 3829:-4.1218645e-017 3832:-4.9901934e-017 3834:-0.0074687898 3836:0.030949872 3837:1.5102953e-015 3838:-0.10608798 3839:-0.11563075 3840:-0.62719518 3841:-1.1666364e-018 3842:-6.2995865e-017 3843:-3.3689286e-017 3844:-0.016283637 3845:-0.091392659 3846:0.18545163 3847:-0.4078308 3848:-0.030799793 3849:-9.369095e-016 3850:-0.02985399 3851:-4.1835834e-018 3852:-2.1802303e-018 3853:-1.4582956e-018 3856:3.149293e-011 3857:-0.059851993 3858:0.011738635 3859:-1.151738e-018 3860:-0.00049236539 3861:-0.035152692 3862:0.79102945 3863:-7.3673914e-020 3864:-1.3328958 3865:-0.07686463 3866:0.2461862 3867:-0.11010233 3868:-0.21350698 3869:-0.024383115 3870:-0.23039283 3871:0.00021847458 3872:-0.23382989 3873:-7.6094806e-017 3874:-4.355443e-018 3875:1.2518434e-017 3876:-0.070035048 3877:-0.17815937 3878:-3.6677893e-020 3879:-4.6065204e-016 3880:9.9991033e-014 3881:-1.1666364e-018 3882:-2.8451557e-005 3883:-0.49314684 3884:-7.4504171e-017 3885:0.032087285 3886:0.047033973 3887:-3.8387671e-016 3888:-0.051179834 3889:-0.024919204 3890:4.2616836e-014 3891:-0.07130415 3892:0.73474044 3893:-0.23111342 3894:-0.00034392788 3895:-0.12953298 3896:0.24006023 3897:1.6486279e-011 3898:0.2819218 3899:-1.6859078e-013 3900:-6.5231289e-018 3901:-2.282377e-012 3907:-0.0098956553 3909:-0.0034671912 3910:-0.049491838 3911:-0.09246964 3912:-1.1989333e-019 3915:-0.058486335 3917:0.00029183418 3918:-0.04933257 3919:-0.70976496 3920:-0.52287304 3921:4.4829383e-016 3922:-0.21423379 3923:-0.0040238509 3925:-0.070043251 3926:0.13166213 3927:-6.6173743e-005 3928:0.50208408 3929:0.48713803 3930:-0.059214909 3931:-2.529107e-015 3932:0.016166834 3933:-0.037317492 3934:-0.00040802971 3935:0.00059355266 3936:0.01287888 3937:0.53279012 3938:-0.35223925 3939:-1.4582956e-018 3940:-2.5760795e-017 3941:-0.15186305 3942:-0.16241914 3943:-0.056060057 3944:-0.078464195 3945:0.022576291 3946:-0.33303717 3947:0.37110537 3948:-7.0785129e-005 3949:2.6939136e-016 3950:-0.1127435 3951:0.11990824 3952:3.524557e-017 3954:0.43882281 3955:-0.00011648905 3956:-0.50697446 3957:-0.00023067783 3958:-0.19500859 3959:-0.20551711 3960:-0.020679872 3961:-0.022409974 3962:0.34013018 3963:-4.8798021e-017 3964:0.044405542 3965:-2.8355133e-015 3966:2.4259278e-005 3967:0.38542172 3968:-0.0042979149 3969:0.015820956 3971:-8.1348786e-005 3974:-5.2237713e-017 3975:-0.049399659 3976:0.010444993 3977:-0.00014716752 3978:0.0032218946 3979:-0.011304298 3980:-0.073089711 3981:0.00019033188 3982:0.2285095 3983:-0.055886269 3984:-0.26930055 3985:-1.3483846e-012 3986:0.026271639 3987:-0.11522403 3988:0.33252221 3990:-8.4613515e-005 3991:0.34596112 3992:-0.028849848 3993:-4.0088492e-012 3994:-3.9685686e-018 3995:-0.014623333 3996:-0.62402362 3997:-0.29616544 3998:-0.062091585 3999:0.27787635 4000:-0.0021717248 4001:-0.33500469 4002:0.44287905 4004:-0.00015937461 4005:0.00086657872 4006:0.0026702378 4007:-4.2385281e-017 4008:-0.2631034 4010:-0.13585654 4011:-2.2184157e-016 4012:0.3942796 4013:-1.8486608e-018 4014:-0.1226518 4015:-2.9146085e-021 4016:-0.04351487 4017:2.8745761e-018 4018:-0.049491841 4019:-0.10561077 4020:-1.7499548e-018 4021:0.98460293 4022:-0.0091242855 4024:-0.00092006894 4025:0.50799358 4026:-0.00023599695 4027:-2.1304144e-016 4028:-0.0534852 4029:-1.1666365e-018 4033:-4.0590519e-005 4034:-0.11213643 4035:-0.022333343 4036:0.33607119 4037:-5.2346977e-012 4038:2.7042909e-016 4039:-1.1666365e-018 4040:0.11990824 4041:-0.032400295 4042:-0.027196655 4043:0.0046071499 4044:-1.0135939e-018 4045:-0.03349686 4046:-0.00060242275 4047:-1.3470167e-013 4049:0.32923368 4050:-0.00044235124 4051:0.45067695 4052:0.56201923 4053:0.0016366398 4055:-1.5237894e-012 4056:1.3171278e-010 4057:0.14458147 4058:0.072955631 4059:-0.0024114267 4060:0.0040826253 4061:1.767271e-017 4062:-0.00087043305 4063:0.015660362 4064:0.27610937 4065:-8.7497734e-018 4067:-3.9693895e-012 4068:-2.9165913e-018 4069:0.18676485 4070:-0.094756521 4071:0.031648055 4072:-0.0075151487 4073:2.5629128e-018 4074:0.079898402 4075:-0.40682694 4076:-0.070546031 4078:3.149293e-011 4079:-0.20409596 4080:0.011738635 4081:-1.151738e-018 4082:-0.016192164 4083:-0.0041248538 4084:0.049680784 4085:-0.00049790659 4086:-0.00067946763 4087:-0.074757628 4088:4.1404556e-014 4089:2.7042909e-016 4090:0.22670574 4091:-0.076884329 4092:0.051829215 4093:-0.00029968357 4094:-0.054888088 4095:-8.0365986e-005 4096:-0.82591027 4097:-0.24810413 4098:-0.071331069 4099:-0.064318575 4100:-1.567179e-019 4101:-4.3748867e-018 4102:-3.6931027e-012 4103:-0.21423379 4104:0.073591851 4105:-2.8260199e-017 4106:-0.022505213 4107:-0.38803825 4108:9.882845e-014 4109:0.085646965 4111:3.6447032e-020 4112:-0.23653208 4113:-0.0065596602 4114:0.34596112 4115:0.33396569 4116:0.57160145 4117:0.18089491 4118:-0.11897194 4119:-0.054669842 4120:-0.4444885 4122:0.0077382247 4123:-7.4504171e-017 4124:0.73474044 4125:0.10498416 4126:-3.6865521e-018 #
