SVM-light Version V6.20
0 # kernel type
3 # kernel parameter -d 
1 # kernel parameter -g 
1 # kernel parameter -s 
1 # kernel parameter -r 
empty# kernel parameter -u 
4128 # highest feature index 
337 # number of training documents 
2 # number of support vectors plus 1 
1.1936762 # threshold b, each following line is a SV (starting with alpha*y)
1 1:-0.11130118 2:0.0064577349 3:-0.08728224 4:-1.1411373e-020 5:1.649368e-014 6:0.075783372 7:-0.030517979 8:8.976728e-005 9:-0.13009471 10:-0.031984758 11:0.34485668 12:0.001408927 13:0.20891346 15:0.24365866 16:-0.020412836 17:0.0092604551 18:-0.017910622 19:-0.30501688 21:0.031392675 22:0.80965745 23:-0.28786513 24:-0.36068219 25:5.8935083e-013 26:-0.36714181 27:-0.0029113237 28:-3.3487024e-017 29:0.23702629 30:-0.0078692771 31:-6.5653646e-012 32:-0.041313473 33:0.33922806 35:0.22912715 36:0.29154381 37:3.6467254e-016 38:-0.20942421 39:0.021104867 40:-0.10572194 41:-1.6036914e-013 42:0.60849285 43:-0.0098154712 44:-0.056876898 45:-0.033251323 46:0.50538003 47:0.70364791 48:0.062541835 49:-0.13327049 50:-0.037651919 52:-0.09859018 53:-0.17789558 54:-0.25395933 55:-0.012228829 57:0.0082351426 58:0.28931183 59:0.078356981 60:-4.2689256e-017 61:0.321922 62:-8.022043e-014 63:-0.057267398 64:-0.00013981895 65:0.018600507 68:-0.071057126 69:0.0073054219 71:0.45755953 72:0.18260853 74:-0.11426384 75:0.12096215 76:-0.16561931 77:-1.0165647e-014 78:0.001050542 79:0.09117607 81:2.2958978e-020 82:-0.42476529 83:-0.18551478 84:0.32892936 85:0.060367171 87:-0.011313272 88:7.0180393e-014 89:-0.28661683 92:0.66895801 93:-0.092128418 94:-0.052069981 95:-0.1685956 96:-0.26903912 97:-0.58478582 98:-0.08453986 99:7.6857321e-017 100:0.42970765 101:0.00088750711 102:-0.16817497 103:2.2221244e-012 105:-0.14005822 106:-6.3371194e-013 108:-0.11877583 109:-0.059060894 110:-0.002523486 111:-0.18785439 112:-0.021754079 113:-0.0014495014 114:-1.735814 115:2.3084565e-016 116:0.014597526 117:0.23948468 118:-0.004679366 119:0.98709428 120:-0.031268332 121:0.00031890802 122:-0.23386143 125:-1.0756583 127:0.27250406 128:-0.81145453 129:-0.36720544 130:-7.5270589e-013 131:-0.059233703 132:0.00025638231 133:-0.012614551 134:0.063178934 135:-0.00020898056 136:-0.039585404 137:-1.1238984e-011 138:0.89821702 139:0.53734595 140:2.0901169e-015 141:-0.070826858 142:0.69626367 143:0.22368662 144:-0.01437718 145:-0.05095334 146:-0.00078056694 147:0.30088019 149:0.50513047 150:-0.011554089 151:-0.075672813 152:0.22003637 153:0.15290983 154:-0.012025474 155:-0.030826429 156:-0.084340684 157:0.00014820478 158:0.097875603 159:-0.08088816 162:-0.13638097 163:0.1057474 164:-0.077394292 165:-0.21895422 166:0.10333028 167:0.25302824 168:0.074675806 169:0.20173749 170:0.41686416 171:-9.9606186e-005 172:0.26653755 173:-1.6077908e-013 174:-0.040955491 175:0.81481135 176:-8.0162152e-013 177:4.1849704e-015 178:0.00010944714 179:-0.70061284 180:-0.5126729 181:0.094493911 182:9.3775194e-013 183:8.4427127e-005 184:0.076286882 185:-0.32293376 186:-0.17334267 187:-2.8108277e-013 188:0.049958594 189:-0.060433168 190:-0.019228622 191:0.045083646 192:-0.32854804 193:-0.039840244 194:-0.033423852 195:-0.44183394 196:3.7910051e-017 197:1.812954e-011 198:2.1354229e-010 199:-0.012129912 200:-0.31630757 201:-0.60547107 202:0.33933076 203:0.066518858 204:-0.0082192216 206:0.046218101 207:1.8718183e-005 208:0.29691568 209:0.077569649 210:0.10854311 211:0.53173572 212:-0.07251285 213:-0.0020992134 214:-4.3387537e-012 216:-2.1153951e-015 217:-0.000107884 218:-0.0027198563 219:-0.18516603 220:0.17473142 221:0.13948554 222:0.22049047 223:-0.0028040092 224:-0.049380437 226:-0.021968978 227:-0.13147277 228:-6.5124056e-013 229:0.46254143 231:6.2620721e-011 232:-0.013490187 233:0.10342716 234:-0.00010356125 235:-1.7320269e-022 236:-0.029004276 237:-0.038874414 238:0.18282309 239:-2.9062357e-016 240:2.3814129e-005 241:-1.4233767e-005 242:-0.025378687 243:0.024147714 244:0.049418923 245:-0.29870752 246:-0.20170057 247:0.28812721 248:-0.036125679 249:-0.63568503 250:0.0076943869 251:1.5349102 252:-4.3689394e-017 253:0.1488494 254:-0.06400419 255:-0.076784208 256:-0.43202448 257:-0.26856613 258:-0.16667017 259:-0.078197345 260:0.2605193 262:0.23683645 263:0.28476378 264:0.10152864 265:0.0016670214 266:-0.21295322 267:-0.5474363 268:-0.11815014 269:0.0035543803 270:-0.0089957044 271:0.051794615 272:0.59875929 273:-0.12764938 276:0.082699649 277:0.44090042 278:0.056383152 279:0.21795467 280:0.23312141 281:-0.13440947 282:4.2258114e-005 283:0.0051093162 284:0.018134208 285:0.36219314 286:0.026827052 287:0.079869248 288:-0.2542254 289:0.39669666 291:-0.11602572 292:0.17536953 293:0.89052761 294:-0.13899763 295:-4.3253868e-012 296:-0.0027930576 297:0.14306173 298:0.33156809 299:-0.16241521 300:0.086249158 301:0.11596175 302:0.00036703647 303:0.13893972 304:0.017690372 305:-0.053570364 306:-0.10280367 307:0.062495604 308:-8.0561398e-014 309:-3.351253e-005 310:3.1840017e-011 311:0.00088750711 312:0.11626226 313:-0.7195664 315:-0.021850832 316:-0.00023646529 317:8.4976893e-017 318:0.41532791 319:-0.043861583 320:-0.027111374 321:-0.0062371003 322:0.0055924947 323:0.0033858211 324:-0.27088857 325:0.015012691 326:-0.02101258 327:-0.11790277 328:0.062695839 329:-0.0062604942 330:-0.37878168 331:-0.26781642 332:0.016282139 333:0.2760787 334:-0.18456955 335:0.0026625216 336:-0.21989492 337:-1.1433146e-013 338:-0.080923624 339:-0.23817866 340:-0.24497128 341:-0.033875089 342:-7.6617055e-017 343:-0.25942397 344:0.46024638 345:-0.014150325 346:-0.2380285 347:-0.41608745 348:-4.3771545e-012 349:0.23354717 350:-0.072038956 352:0.00088750711 353:-0.035680026 354:-1.611228e-013 355:-0.038428359 356:-0.021256283 357:-0.083267175 358:0.87230897 360:0.21100627 361:-0.44176716 362:-0.00032912023 363:0.059772737 364:-0.020555099 365:-0.04950837 366:-4.4752197e-012 367:-0.074330695 368:0.092527896 369:-0.22184783 370:-0.026889667 371:-4.4707786e-016 372:-0.25462538 373:-0.61658466 374:-0.003027505 375:0.69123256 376:0.08743944 377:-0.2911028 378:-0.015864855 379:-0.053983591 380:0.18529467 381:-0.018725766 382:-0.052912854 383:-0.076958001 384:-0.20858748 385:0.14883441 386:-0.4466444 387:0.00088750705 388:-0.021099729 389:0.011972707 390:0.03941565 392:-0.41581523 393:0.04293102 394:0.088601507 395:-0.094952792 396:0.012581814 397:1.9084015e-007 398:-0.027890071 399:-0.099415213 400:-3.48361e-015 401:-0.065027975 402:-0.54284239 403:-0.098033346 404:-0.12181357 405:0.013624645 406:-0.0019584303 408:-6.0193196e-012 411:-1.2024323e-013 412:1.4137396e-013 413:-8.0561392e-014 414:0.011456804 415:-0.17897715 416:-4.3784764e-017 417:0.042549629 419:-0.35859594 420:5.884069e-015 423:-0.030327624 424:-0.020255368 425:-0.048207641 426:-1.0256187e-014 428:-1.7400076e-011 429:-1.1021755e-013 431:0.039868742 432:2.8004122e-014 434:-0.26531035 435:0.58330339 436:-0.26130298 437:0.3266865 438:-0.035425443 439:-0.015232607 440:-0.0178224 441:-0.21820359 442:-0.12571979 443:-9.0263084e-006 444:-0.011735382 445:-0.41547132 446:8.446644e-018 447:-0.02964944 449:0.0010760232 450:-0.00088571169 451:-0.010682329 452:-0.00045944119 454:-1.0020268e-013 455:-0.0089158416 457:-0.0057766922 458:-1.6074895e-013 459:0.34497771 461:0.0299973 462:-0.0040924745 463:0.15932441 464:0.40056986 465:-0.030429939 468:-0.17469738 469:-8.3692341e-013 470:-4.0703264e-005 471:-2.8060662e-013 472:0.037683412 473:-0.015066375 474:0.0018648891 475:1.1165777 476:-1.7240728e-011 477:-0.19564344 478:0.0029122182 479:-0.063221902 480:-0.016883466 481:-0.38915563 483:0.06496796 484:-4.2750261e-014 485:0.19636215 486:6.4195051e-020 487:-0.00065379299 488:-1.4846467e-014 489:-1.4519176e-013 490:0.00027620586 492:-0.00049832021 494:-0.42992526 495:0.8373186 496:-1.0099157e-017 497:-0.0037509415 498:-2.0198318e-017 501:-0.63908219 502:-0.021856926 503:0.00064047537 504:-3.6532907e-019 505:-0.48000115 506:-4.3689397e-017 507:0.0034233825 508:0.00023024456 509:-0.32267836 510:-0.62024754 511:-1.0376057e-011 513:0.00090122788 514:-1.390754e-017 515:-0.31247571 516:-0.091019921 517:9.0259312e-016 518:0.22972322 520:-0.14680782 521:-1.6598596e-011 522:0.12047357 524:0.042461224 525:0.039615687 527:-0.00024200742 528:-0.044474162 529:0.0021855454 531:0.031711731 532:-0.95940781 534:6.1626342e-005 535:-0.82688493 536:0.00022964148 537:-0.55572468 539:0.33095554 540:0.040841039 541:0.60376561 542:-0.027826061 543:0.0011508398 544:-0.15809508 545:-0.00012869191 546:0.01531201 547:-0.45449996 548:-0.58529514 550:0.0020389957 551:4.5319602e-019 552:1.3411769 553:-0.051203586 554:0.20871383 555:0.0014093017 556:0.026479553 557:-0.04261189 559:0.093491361 560:1.9084015e-007 561:1.4177423e-013 562:0.065128244 563:0.0033183724 564:-0.029649438 565:0.11781313 566:-0.0039418461 568:-0.00013009011 569:-1.0738975e-005 571:-3.0738651e-016 572:1.1387214e-013 573:-0.052535865 574:-0.0022594624 575:-0.22102235 577:-0.36186555 578:0.00078161719 581:-0.0035067201 582:0.10515495 584:-0.57770675 585:0.35070774 587:-7.6835927e-017 588:0.024182016 589:-0.075616278 590:-0.021444628 591:-0.10216375 592:-1.6032434e-013 593:0.25630915 595:-0.077150017 596:-0.051016569 597:0.29878795 598:-0.01239088 599:0.0031055615 601:1.1738001e-011 602:-0.024711447 603:0.044063222 604:-0.00095432362 605:-0.0011693216 606:-0.045554683 607:0.56997865 608:-0.03427916 609:0.060898092 610:-1.0075244e-013 611:3.3632423e-005 612:0.088305637 613:-0.00010353223 615:-0.22759883 616:0.09058816 617:-0.13994102 618:-0.27601838 619:0.014027833 621:-0.14434694 622:1.0253961e-005 623:0.46356919 624:-0.00043199741 625:-0.14941843 626:-0.22725992 627:0.11824258 628:0.34828562 629:-0.051229306 630:0.056144699 631:0.60313892 632:0.12963487 633:-0.10742534 634:-0.0017550504 635:0.0028675168 636:-0.40501729 637:-0.47507456 638:-0.028302571 639:-0.01444911 641:0.44373485 642:-6.1755839e-012 643:-0.34347919 644:-0.81679761 645:-0.0017322436 646:-0.10054158 647:0.00054168806 648:-9.1221119e-012 649:6.4350452e-006 650:-0.39284807 651:2.3450701e-005 653:-2.2890756e-016 654:-4.2812962e-014 655:-0.19818667 656:0.028463705 657:0.027811758 658:-0.48809594 659:0.72782367 660:0.051501494 661:-0.014233984 662:-1.4063592e-013 663:0.23073724 664:0.019046459 665:-9.1572882e-005 666:-1.0099156e-017 668:0.019434623 669:0.56612492 670:-0.1357217 671:1.5610702e-015 672:-0.15195027 673:-1.7515103e-013 674:-0.27313331 675:-0.26023841 676:0.64770156 677:0.023361275 678:-0.0034609621 679:0.36402583 680:-0.063021779 681:-0.0034580794 682:-0.0067579006 683:-0.092230551 684:-0.10671148 685:-4.3689397e-017 686:0.69426477 687:0.088890463 688:-3.7963266e-005 689:0.17652427 690:-0.68509895 691:-2.8701283e-016 693:0.0015047783 694:-7.6889058e-017 696:0.27785185 697:0.075611316 698:0.082338706 699:0.084231988 701:0.81481135 702:-0.0062894612 703:-0.00078455603 704:0.099142283 705:0.40020004 707:0.51720798 708:0.039155856 709:1.9645612e-017 710:0.44029716 711:4.4203869e-005 712:0.18219014 713:-0.0042158416 714:0.35658684 715:-0.07596495 716:-0.002309663 717:-0.00057499512 718:0.027396627 719:-0.31369597 720:-0.00013349108 721:0.7502324 722:-9.1339636e-012 723:0.051560916 724:-0.50497037 725:0.17846601 726:8.1208877e-015 727:0.040267728 728:0.0047229109 729:-7.6628088e-012 730:-0.10246064 731:-1.2661593e-016 732:-0.1336439 733:-0.11028785 735:0.16422448 736:-0.25611991 738:0.13708109 739:0.025346849 740:-0.23867816 741:-0.48188585 742:0.64905185 743:0.33435196 744:-0.031190317 745:0.48040378 746:9.0109519e-005 747:-0.00047932414 748:-0.18674426 750:0.012694587 751:-8.0162155e-014 752:0.35466769 753:0.6883114 754:0.31740731 755:0.088065475 756:-2.2075447e-013 757:0.34906283 758:0.59112692 759:0.0108232 760:-0.029758081 761:0.008051401 762:-0.0015715424 764:0.15135717 766:-3.9238563e-016 767:0.076638654 768:-0.29685816 769:-7.2969009e-012 770:-0.14135505 771:-2.8701283e-016 772:0.037965406 773:-0.84925377 774:-0.063795611 776:0.0058120019 777:-2.5974713e-016 778:-0.098331645 780:-2.2045695e-013 781:1.8330051 782:-0.46521986 783:0.0012834691 784:-0.019597083 785:-0.051331479 786:-2.7996338e-014 787:-0.060079016 788:-0.13691875 789:-0.00095873623 790:-0.2452803 791:-0.21809387 792:-0.11685907 793:-0.0020505355 794:1.0994478 795:-0.061243139 796:0.12583373 797:-0.033286132 799:-0.17821489 800:-0.00014824845 803:-0.12449473 804:0.018827103 805:-0.010493258 806:0.02378013 807:-0.0021496762 808:1.2810715e-013 809:0.060501203 810:-0.33379206 811:-0.17152342 812:5.9586602e-013 813:-0.08376684 814:-0.071236856 815:0.015176284 816:-0.0013783233 817:0.3094891 818:0.001379988 820:-2.8115772e-013 821:-2.72605e-020 822:-4.0081076e-013 823:-0.030143104 824:-0.080356792 825:-0.033777036 826:1.0512439 827:-4.862174e-016 828:8.0097001e-014 829:-0.033818513 830:-0.35806847 831:-0.050270792 832:-9.3025265e-014 833:-0.28051755 834:-8.0162249e-014 835:0.13797086 836:0.0050089513 837:-0.28196943 838:0.0001642178 839:-0.049589142 840:0.07610479 841:0.0054162377 842:-0.0041580359 843:0.61819738 844:-0.059522893 845:4.9399126e-016 846:-0.11232585 847:-0.024194051 848:-0.67369229 849:-1.6235751e-013 850:-0.065730982 851:0.41772908 852:-0.044676542 853:-0.75940746 854:-0.40535873 855:-1.0488823e-013 856:0.00067557709 857:-0.3065007 858:-0.35419983 859:-0.21350342 860:0.32687885 861:-0.3708474 862:0.00019432075 863:-1.8895211e-005 864:0.30314356 865:-8.2263493e-013 866:0.47235817 867:0.040160429 868:-2.7607042e-019 869:-0.045509968 870:-0.2770488 871:-0.095563531 873:-1.0349268e-005 874:-0.058653682 875:-1.0899409e-013 876:-0.0095168436 877:-0.018492265 878:0.17479882 879:0.027822241 880:-0.035398941 882:0.045761138 883:4.8686315e-013 884:-0.69391859 885:-0.064718351 886:2.0442895e-017 887:5.8005517e-005 888:-0.089953206 890:0.019782623 891:-0.0062947772 892:4.6916509e-016 893:-0.021662602 895:-0.18235667 896:-0.0094807409 897:-1.1381243e-018 899:-0.050085086 900:-0.011758249 901:0.00065886363 902:-0.1345558 903:-0.038803082 904:2.1047795e-012 905:0.0072347708 907:-1.6066155e-013 910:1.9754085e-005 911:-0.00068808853 912:-2.0040538e-013 913:-0.27434841 915:-0.014432861 916:-4.3773058e-012 917:-4.0134158e-013 918:0.22002573 920:-0.17617986 921:-0.037090484 922:-0.039238941 923:-0.00018066677 924:0.28563723 925:-0.0099722808 926:-0.078885436 927:-2.1079228e-016 929:-0.014626102 930:-1.142375 932:2.4641348e-016 933:0.033353571 934:-6.5534099e-017 935:-0.06874717 938:-8.0391064e-014 939:3.7906335e-005 940:-8.0699282e-014 942:-0.10696317 944:-7.1949711e-005 945:-0.22242974 948:-0.0086360658 949:7.2647554e-006 950:0.024182018 951:-2.0414149e-016 952:-0.24379994 954:-9.6120071e-015 956:0.64867294 957:-3.9068786e-006 959:0.02046624 961:-0.0013454821 962:-0.49146926 963:0.0020587859 964:0.02418671 965:-0.063221909 966:-3.5476793e-012 967:6.7314894e-015 968:1.1180928 969:0.00020924844 971:0.085221276 972:0.010015054 973:-0.2406126 974:2.7775005e-012 975:0.042852499 976:-0.099419065 977:-0.00086961425 978:0.75969815 979:-0.0086530279 980:0.12389093 981:0.066557996 983:0.072027221 984:-8.0264219e-014 985:0.00088750711 986:-0.30033383 987:0.77467114 988:-0.29951206 989:0.17329261 991:0.034800049 992:0.084821038 993:-0.030175893 995:-0.068200774 996:-0.0071773147 999:-0.40793285 1000:0.49571037 1001:-0.45975101 1002:-0.01206411 1004:-2.8577062e-013 1005:-0.69079751 1006:0.0036988908 1007:-0.040216632 1008:0.010010822 1009:0.57113528 1010:1.1285908e-012 1011:-0.034163158 1012:-0.0020371622 1013:-0.043349646 1015:0.031718932 1017:4.2506144e-005 1018:-2.9408023e-016 1019:-0.42483896 1020:-0.036555775 1021:-0.10347601 1022:2.4083486e-013 1023:0.00026478025 1024:-3.0446037e-014 1025:-0.023038099 1027:0.00013820671 1028:0.0004175503 1029:-0.075401962 1030:0.25734222 1031:-0.010143355 1032:0.023105163 1033:-7.5325932e-017 1034:-0.11338216 1035:-0.008779292 1037:5.0867591e-005 1038:-3.5726129e-014 1039:-0.056516804 1040:-0.03992423 1041:-0.028007619 1042:-0.23201574 1043:-0.08277908 1044:0.29189327 1045:-0.10486357 1046:-1.0131956e-014 1047:-0.40271178 1048:0.046718542 1049:0.25830066 1050:0.0043699946 1051:-4.3253868e-012 1052:-3.0223334e-013 1053:0.040371388 1054:-0.21376926 1056:0.094861254 1057:-0.00016400238 1059:0.00068938395 1060:-0.42275232 1061:0.0006863139 1063:-1.6049904e-013 1064:-0.57348228 1065:0.15915021 1066:-1.1941779 1067:-0.19102506 1068:-0.30837733 1070:0.041166257 1071:-0.031099027 1072:-0.13932945 1074:0.68501478 1075:0.029060243 1077:-0.28081796 1079:-9.5369776e-020 1081:0.010309164 1082:-1.4028374e-013 1084:1.5827349e-013 1085:-0.0057855644 1087:-9.1412526e-023 1088:-0.17568263 1089:0.32798582 1090:-2.7908054e-005 1091:-0.065552488 1092:0.023140974 1093:3.0104618e-015 1094:8.9596035e-014 1095:1.3986796 1096:0.45306376 1098:-7.8004027e-012 1099:-8.6334748e-019 1100:-8.0162148e-014 1101:0.011964681 1102:-0.11467566 1104:0.058472965 1105:-0.013451771 1106:-0.87650073 1107:-0.042611834 1108:2.0750681e-013 1109:-0.22454783 1110:-0.290874 1111:0.078466311 1112:0.25957823 1113:-3.0132235e-014 1114:-0.0045493105 1115:-0.34769884 1116:-0.34254706 1117:-2.1710602e-013 1118:-0.20337173 1119:-0.046319082 1120:-1.3114346e-016 1121:-1.4028374e-013 1122:-1.0048882e-013 1123:0.3817586 1124:-0.13761081 1125:-0.6710822 1126:-1.7779692e-005 1127:-5.3339078e-005 1128:6.9348207e-005 1130:0.024292139 1131:-6.5663312e-012 1132:-1.6309852e-012 1133:0.046009969 1134:-2.2068762e-012 1135:-0.0020965578 1136:0.13770545 1137:0.0001870836 1138:0.32280725 1139:0.0073057013 1140:-0.063177772 1141:-0.85139191 1142:-0.15723737 1143:0.17885211 1144:-2.8350721e-013 1145:-0.012315563 1146:-2.249133e-019 1147:-0.12968591 1148:-1.6034472e-013 1149:-1.0266259 1150:-8.2112259e-018 1151:0.0083364546 1152:3.0451434e-014 1153:-0.026252925 1154:-0.17059398 1155:-1.1317722 1156:-0.057240088 1157:-0.32756767 1158:-0.12145776 1159:0.69641566 1160:-0.00022971099 1161:-2.6428622e-019 1162:-0.11918134 1163:-0.011080627 1164:0.016846281 1165:-0.035432011 1166:9.6123299e-019 1167:-1.4028374e-013 1168:-0.14640942 1169:-8.0688088e-014 1170:-0.079501785 1171:-8.0561398e-014 1173:-0.17923762 1174:-0.049448647 1175:-8.0162148e-014 1177:0.011050859 1178:-0.17417011 1179:-5.5321909e-013 1180:-0.03081613 1181:-0.03067017 1182:-1.6028645e-016 1183:-0.07840351 1184:0.71777213 1185:-0.0398468 1186:0.13686636 1187:-0.0062947772 1189:-1.6203872e-015 1190:-0.055059042 1191:-0.015354656 1192:0.097555235 1193:-0.096889548 1195:0.1560259 1196:-5.2511947e-005 1197:-0.033199277 1198:0.0072193034 1199:-0.057713009 1200:-0.2348519 1202:0.00066455407 1203:0.046433721 1204:0.015072314 1205:0.12960686 1206:0.21588731 1207:2.982922e-005 1209:-0.085350759 1210:-0.0093954401 1211:-0.0016041999 1212:-0.61322159 1213:1.0560219e-005 1214:-0.12963657 1215:2.2608582e-013 1216:0.31089827 1217:-0.0009199325 1218:-0.019797511 1219:-2.9262294e-013 1220:-0.02048073 1221:-1.2117762e-013 1222:0.026299309 1223:-0.055982832 1225:-0.022529539 1227:-0.39903718 1228:-0.00208934 1229:-0.00070191373 1230:-0.00041908404 1231:-0.048643496 1232:0.099201128 1233:-0.1283014 1234:-0.4977954 1235:0.49443161 1236:-1.1370158e-013 1238:0.0015889643 1239:-0.88170683 1240:0.014165808 1241:0.8906191 1242:-0.0050360668 1243:-0.023576763 1244:-0.14510325 1245:-0.022975624 1246:-3.3115711e-012 1247:0.018822102 1248:-0.17447926 1249:-0.2892006 1250:-2.0833927e-012 1251:-1.7961643e-016 1252:-2.8590856e-016 1253:-0.21795098 1254:-0.49604473 1255:-0.14407791 1256:-0.001011212 1257:0.067876689 1258:-1.1691974e-013 1260:-0.12850457 1261:-0.39181027 1262:-0.0086744688 1263:-6.192633e-005 1264:1.1163144 1265:-0.009167281 1266:0.23392817 1267:-0.23187925 1268:-0.1357217 1269:-0.023658339 1270:-8.0205841e-014 1271:-0.022522766 1274:-8.0162148e-014 1275:-1.002573e-013 1276:1.623483e-014 1277:0.034925368 1278:-0.31997102 1279:-1.0942522e-011 1281:-0.077190027 1282:-7.6832906e-012 1283:-0.06079448 1284:-0.14979419 1285:0.077644676 1286:4.1458036e-015 1287:0.013290205 1289:-0.014352645 1290:0.0002574095 1291:-4.1876558e-020 1292:2.4942805e-005 1293:-2.7905854e-017 1294:-0.20408957 1296:0.00040997547 1297:-0.0051897275 1298:0.036933124 1299:-3.7938145e-014 1301:0.26514685 1302:0.0055034617 1304:-0.028517308 1305:0.14812772 1307:-0.0043491414 1308:-0.133544 1309:-0.55364734 1310:-1.3047883e-012 1311:-0.012377087 1312:-0.19102386 1313:-0.07832969 1314:0.001824143 1315:-2.8060348e-013 1316:-0.12553856 1317:-0.066780128 1318:0.071605831 1319:-0.23199797 1320:0.36224315 1321:-2.4464779e-012 1322:0.069232345 1323:-0.040323425 1324:-0.69990659 1325:-2.9787991e-017 1326:-0.063536085 1327:-0.0076431846 1328:-0.3817502 1329:0.01177056 1330:-2.6937058e-011 1331:-0.00028713868 1332:-0.0075845188 1333:-4.2722939e-014 1334:0.13700299 1335:-8.0206024e-014 1336:0.27525404 1337:0.033933099 1339:-0.0071871392 1340:0.022571879 1341:2.3557969e-019 1342:-0.067631885 1345:-1.5291061e-016 1346:0.011779179 1347:-0.095152423 1348:-0.028620047 1349:-0.00046192177 1350:0.15305541 1351:-0.61430848 1352:-0.91842836 1353:-0.74066633 1354:-0.54617208 1356:-0.12349638 1357:4.4264906e-013 1358:0.51439613 1359:-0.11362852 1361:-0.074711338 1362:-1.2228249e-014 1363:-0.019021155 1365:-0.0096152136 1366:0.0053735236 1367:0.28141326 1369:-2.0749616e-013 1370:-0.11759061 1371:-0.61873549 1372:-0.059123874 1373:-0.22498012 1374:-0.061625261 1375:0.00010871849 1376:-0.2251045 1377:-0.010682329 1378:1.0679537 1379:0.00067557703 1380:2.8354855e-013 1381:1.484669 1382:-0.0043858499 1383:0.20337473 1384:0.0032086612 1385:0.35815686 1386:0.012146111 1387:-0.039337892 1388:0.022600455 1389:-0.029955396 1390:0.0021767935 1391:0.0011844143 1392:-1.8658189e-017 1393:-1.5839686e-012 1396:-0.48776448 1397:1.3411509 1398:-0.94560552 1399:-0.00010356126 1400:7.9003075e-016 1401:-8.7539706e-012 1402:-0.43097007 1405:0.35877317 1406:0.0016764352 1407:0.69369054 1410:0.00088750711 1411:0.37111413 1412:-4.8332551e-013 1413:0.00017520842 1414:0.74327177 1416:0.26689491 1417:0.00078342878 1419:-4.1501135e-019 1420:-0.10203557 1422:1.9872567e-013 1423:0.030838391 1424:0.092928857 1425:-2.8051137e-019 1426:-0.033231061 1427:-0.046686072 1428:0.14093219 1429:-1.4523122e-005 1430:0.039635602 1431:-0.0047174757 1433:0.11856079 1434:2.1249722e-005 1435:-4.5198356e-014 1436:0.39743719 1437:-0.38862401 1438:0.091591202 1439:0.020265765 1440:-0.52654982 1441:-0.0018939654 1442:-2.1079228e-016 1443:-1.1648247e-017 1444:1.2801046 1446:-0.10838056 1447:-0.0032178296 1448:0.54278141 1449:0.080308691 1450:-0.30798218 1451:-0.52076542 1452:-5.7412851e-012 1453:-0.014168517 1454:5.8812839e-006 1455:-0.29184607 1456:-0.22815596 1457:-0.20818384 1458:-2.0980585e-011 1459:-0.64446801 1460:-0.16128382 1461:0.12912233 1462:-0.27295029 1463:0.0008501056 1464:-1.5018622e-013 1465:0.13242066 1466:-0.92592722 1467:7.8359808e-006 1468:-5.0637061e-015 1469:-0.056510299 1470:-4.4575472e-012 1471:-0.025683697 1473:-0.069512419 1474:-2.4211564e-012 1475:-0.054851636 1478:-2.6586063e-006 1480:-0.32277873 1481:0.44544989 1482:-0.16672279 1485:-0.0015730882 1486:3.037098e-014 1487:-1.0153504e-014 1488:-0.077791378 1489:-0.014577041 1490:7.5412485e-005 1491:-0.13830948 1492:-0.045909435 1493:-0.28085902 1494:0.20801315 1495:0.0005908988 1496:-0.11371927 1497:-0.29346782 1498:0.54232275 1499:0.0095722526 1500:-0.019619389 1501:-0.019796517 1502:0.27983966 1503:-0.82374901 1504:-0.11703312 1505:0.22212479 1506:-0.32113948 1507:7.2647545e-006 1508:-0.21466647 1510:3.1800175e-014 1512:-0.14879645 1513:-0.10747356 1514:0.90760696 1515:-0.11684345 1516:0.35358703 1517:0.32269791 1518:-0.0078618256 1519:-2.2587581e-019 1520:-0.0073411255 1521:0.024390141 1523:0.0098564122 1524:-1.1999599 1525:0.0065731229 1526:0.79952019 1527:0.42114428 1528:-0.043866925 1529:-0.036941871 1530:-0.082615875 1531:-8.7775072e-005 1532:-4.3784764e-017 1533:0.43688259 1534:0.085513465 1535:-0.17165624 1536:0.10602541 1537:-0.023259372 1538:0.12734541 1539:-8.2854051e-005 1540:-0.03548751 1541:2.1520413e-016 1542:-0.06297712 1543:-0.087664925 1544:0.066908762 1545:0.00039035178 1546:-0.12064991 1547:-0.36983708 1548:0.094524927 1549:-0.012755312 1550:0.032078505 1551:-0.006525496 1552:0.25909901 1553:0.59347093 1554:1.9392506e-015 1555:-0.015527723 1556:-0.12705153 1557:-0.27827299 1558:4.3027342e-018 1559:0.29330409 1560:-0.046686072 1561:6.1625841e-014 1562:0.28308356 1563:0.21704735 1564:-0.033368185 1565:0.15844132 1566:-0.23567121 1567:1.9729535e-017 1568:-0.44191146 1569:-0.078665309 1570:-0.068094656 1571:0.18886189 1572:0.19872224 1573:0.04089994 1574:0.19445938 1575:-0.12304091 1576:-0.020840833 1577:9.0203493e-016 1578:-0.014014668 1579:-6.0284879e-006 1580:-0.092349604 1581:-0.031752296 1582:-0.015816223 1583:0.036294792 1584:0.07441888 1585:-0.18401839 1586:-0.16953449 1587:0.077602021 1588:-0.0059422869 1589:-1.2675723 1590:0.040598735 1591:-0.087825879 1592:-1.6028645e-016 1594:-0.097550124 1595:0.052317802 1596:0.1604412 1597:0.010347221 1598:0.033560079 1599:-0.059017621 1600:-0.0050950092 1602:0.00058401935 1603:-8.0162148e-014 1606:-0.70246112 1607:-0.011758249 1608:-7.7424694e-017 1609:-0.20404167 1610:-0.0743367 1611:0.15443544 1612:-0.12676089 1613:0.24383076 1614:0.0086968429 1615:-0.12669004 1616:-0.0046140649 1617:-1.3408202 1618:0.036181036 1619:-0.03259702 1620:0.2291829 1621:-0.15606575 1622:-0.035270836 1623:-1.2819737e-012 1624:-0.013271789 1625:-0.1790055 1626:-0.19962358 1627:-0.048895534 1628:-0.070652656 1629:0.045749407 1630:0.18152335 1631:-0.27144346 1632:-4.3767069e-012 1633:-0.0011074335 1634:-8.7928934e-016 1635:-0.1533727 1636:-0.050167572 1637:-0.34988177 1638:0.66718566 1639:-3.0694942e-017 1641:0.12804158 1642:0.29151267 1643:-0.077131718 1644:0.51737958 1645:0.04436608 1646:2.4350688e-017 1647:0.52254623 1648:-0.21051033 1649:-3.5778881e-005 1650:-0.25947124 1651:0.19660346 1652:-0.28626543 1653:-0.27270845 1654:4.0314775e-005 1655:-0.18630245 1656:-0.15781805 1657:0.0063773715 1658:-0.50001025 1659:0.0092503456 1660:-9.6957745e-005 1661:-0.56171536 1662:0.78556126 1663:0.69510365 1664:0.23845312 1665:-0.0053802999 1666:0.022179835 1667:-0.044800129 1668:0.055001061 1669:-0.41802043 1670:0.58595687 1671:0.0082535455 1672:0.18579085 1675:-0.086586677 1676:5.0637065e-015 1677:-0.54532212 1678:0.31362519 1679:3.7420257e-005 1680:-0.68493468 1682:-0.76296902 1683:0.014699515 1684:-0.48492494 1685:-0.086797893 1686:-0.73641145 1687:0.093430363 1688:-0.070281215 1689:0.041789398 1690:-5.4730958e-017 1691:-1.5066117e-014 1692:4.8123769e-005 1693:-0.042454518 1694:-7.1602204e-005 1696:0.013683058 1697:-0.15216646 1698:0.064683892 1699:-0.046714477 1700:-0.21221751 1701:-0.30228424 1702:-0.079828292 1703:0.080863163 1704:3.7093092e-016 1705:0.045144368 1706:-0.14824721 1707:-0.34745935 1708:0.16033643 1709:-0.024369815 1710:0.041602451 1711:-2.8959788e-017 1712:7.6336056e-007 1713:-0.10280237 1714:1.9450024e-016 1715:-0.092265874 1716:-0.031420249 1717:-8.9412499e-020 1719:0.057465173 1720:-0.032962058 1721:-1.2024323e-013 1722:-0.018034572 1723:-3.0916384e-005 1724:4.0918039e-016 1725:-5.0622962e-015 1726:0.0096506942 1727:0.64480692 1728:-2.6786997e-014 1729:0.072846167 1730:0.001748699 1731:-0.027384594 1732:-0.11762532 1733:0.30038771 1734:-0.45449999 1735:0.19611791 1736:0.015176284 1737:0.0053607007 1739:-7.2442788e-005 1740:-1.9572334e-012 1741:0.043495744 1742:0.30180785 1743:-0.00023233279 1744:0.13608539 1745:0.082787305 1746:0.21246548 1747:-0.39007998 1748:5.1346062e-015 1749:0.11383951 1750:-0.039415911 1751:-0.35440499 1752:-2.8937193e-017 1753:-4.8006206e-013 1754:-0.032189526 1755:3.0331803e-015 1756:-3.0114572e-013 1757:0.14645022 1758:0.00057149219 1759:0.094032384 1760:-0.13136271 1761:-2.0389051e-017 1762:-0.076256499 1764:0.31194791 1765:-0.081288598 1766:-0.13245918 1767:-0.060769539 1768:-1.0194526e-017 1769:-9.5369776e-020 1770:0.073452078 1772:5.1179785e-015 1773:-0.80167866 1774:-0.011744786 1777:-2.0067078e-013 1779:-0.36344197 1780:-0.042518634 1781:-5.7228007e-012 1782:-3.2068293e-013 1783:-2.0040538e-013 1784:0.0099650566 1785:-0.0033339346 1786:-0.061027244 1788:-2.2324683e-017 1789:0.00022461146 1790:-4.4045774e-016 1791:0.0010364873 1793:-7.0367839e-016 1795:-0.45785999 1796:-0.037061799 1798:-0.091189131 1799:-3.6072968e-013 1801:-1.0163062e-014 1802:-0.11236142 1803:-0.10839377 1807:-2.9834798e-012 1808:-0.22180401 1810:-0.11062177 1811:-0.0050017647 1812:-1.6032428e-013 1813:8.9539033e-014 1814:-0.22675698 1816:-1.0032943e-013 1817:-0.1133 1818:-2.0093619e-013 1819:-7.6814526e-017 1820:-0.024217259 1821:0.028193474 1822:0.058694802 1823:-0.0060015065 1824:-0.53966141 1827:-2.0069151e-013 1828:-0.20808753 1830:-0.12808837 1831:1.9645612e-017 1832:0.47069892 1833:0.053148113 1835:-0.0016660434 1836:0.023754157 1839:-0.22259255 1841:-0.1056907 1842:-0.0014999617 1843:0.00066455413 1844:-0.31572106 1845:-0.00073191611 1847:-0.52335107 1848:0.17124937 1849:-0.0029937921 1850:7.2989973e-016 1851:1.0246252e-012 1854:0.026742201 1855:-1.0042083e-013 1857:-0.11248529 1858:-0.0050950092 1859:0.19231285 1860:-0.041774277 1861:-0.35353079 1862:4.4256883e-013 1863:-0.5126791 1864:-0.15745783 1865:0.42734173 1867:-0.03960599 1868:-0.022346215 1869:-2.0040535e-013 1871:-0.51286429 1872:0.0039485376 1874:0.00088750711 1875:0.00020218108 1876:0.63556856 1877:0.69487786 1878:-0.31712827 1879:0.50609094 1880:0.34126052 1881:-0.0031537402 1882:0.35279468 1883:-0.32989341 1884:0.010962949 1885:-1.9002599e-012 1886:-3.3487027e-017 1887:-1.3114346e-016 1888:0.00029466287 1891:-0.013131578 1892:-0.19419886 1894:-6.7564968e-015 1896:0.98484141 1897:-0.0038459832 1898:0.25312111 1899:-0.30378735 1900:0.39174011 1901:0.067685761 1902:1.3735227e-013 1903:0.13186802 1904:-0.38624862 1905:-0.00020727962 1906:0.40426034 1907:0.0047120028 1908:0.072450958 1909:-0.37750226 1910:-0.102178 1911:0.69398606 1912:-0.35070774 1913:-0.2812621 1914:-0.0009657364 1915:-0.20668074 1916:-0.12236065 1917:0.26374826 1918:-0.12463669 1919:-0.15516286 1920:-0.31056353 1922:-2.1079228e-016 1923:-1.6044087e-013 1924:0.060659416 1925:-1.7320269e-022 1926:-0.0060644113 1927:0.65232313 1928:-0.082444891 1929:-0.060088083 1930:-0.039729077 1932:-1.0101532e-013 1934:-0.5890168 1935:0.00034973514 1936:1.9756013e-012 1937:-0.071366869 1938:0.30376256 1939:0.33408362 1940:0.10619993 1941:-0.039784715 1942:0.0076631419 1943:-0.47316796 1944:-0.030887434 1945:-1.7774416e-017 1946:-0.43217987 1947:-0.010682328 1948:0.01102541 1949:-0.027499618 1950:-0.00043400549 1951:-0.036907405 1952:0.45093179 1953:-0.038948659 1954:-0.42069426 1955:0.0133013 1956:-0.27967989 1957:-0.065713719 1958:0.015374881 1959:-0.00076606742 1960:1.5097019e-014 1961:-0.0052517396 1963:0.001153769 1964:-6.8618049e-016 1967:-0.0024115928 1968:0.48614183 1969:-0.36481336 1970:-0.30918109 1971:-0.095064737 1973:-3.0734387e-016 1974:-8.0172427e-014 1975:-0.98899621 1976:0.0028707441 1977:0.11103676 1978:0.23938194 1979:-0.013885284 1980:-0.79137576 1981:-0.13460444 1982:1.7484501e-005 1983:-0.90537643 1984:0.0014084075 1985:0.16460581 1986:0.2145993 1987:0.099201128 1988:4.4334366e-013 1990:-0.22479486 1991:-0.3113718 1992:0.08889287 1993:-9.3264852e-017 1994:-0.089354761 1995:1.2832766e-018 1996:-4.3409814e-016 1997:0.95573759 1998:-0.21520001 1999:-0.023462994 2000:0.0065278909 2001:0.84081513 2002:0.001233101 2003:-0.082290784 2004:0.16385685 2005:-0.094886392 2006:4.8058937e-005 2007:-0.09787555 2008:-0.16989774 2009:0.012243103 2010:0.4078483 2011:-0.23284218 2012:0.26566079 2013:-0.3400203 2014:-0.11944596 2015:-0.16054592 2016:-0.08231695 2017:0.46646243 2018:-0.25939509 2019:-1.0624706 2020:0.028687796 2021:0.34727436 2022:0.14337902 2023:-0.0033936617 2024:0.1683713 2025:0.0016397868 2026:-4.2968087e-014 2027:-0.58964825 2028:0.093275487 2029:0.12447638 2030:-0.07881812 2031:-0.063884951 2032:0.93253696 2033:0.096843131 2034:-0.017840013 2035:-0.051904872 2036:-0.14742923 2037:0.31386119 2038:-0.017523799 2039:-0.35853422 2040:3.5728629e-015 2041:0.069029026 2042:-8.9497786e-005 2043:-3.0175257e-014 2044:0.0017425164 2045:0.33298424 2046:-0.039260164 2047:0.11621307 2048:-0.032249998 2049:-0.4855133 2050:0.043594278 2051:0.031005587 2052:0.0021639483 2053:-0.10461545 2054:0.3369725 2055:-0.13691114 2056:0.038895752 2057:0.027118986 2058:-0.020170067 2059:-0.048895534 2060:0.0035406095 2062:-0.034104578 2063:-2.7082505e-017 2064:-6.1796445e-013 2065:-0.33677307 2066:0.00088750705 2067:-2.2969055e-017 2068:8.4260323e-018 2069:-0.0055393605 2071:0.030333681 2072:-0.16786765 2074:-0.27276298 2075:0.005924202 2077:4.698298e-013 2078:0.00014519885 2079:-8.0162249e-014 2080:0.015653878 2081:-0.070225008 2082:-0.31691054 2083:-0.020161707 2084:-0.10068917 2085:-0.084762424 2087:0.005566095 2088:-0.051109478 2089:0.3914808 2090:-0.17675018 2091:0.00073435513 2092:-1.6091016e-013 2093:-6.3338543e-013 2094:-0.15433028 2095:0.457486 2096:-0.21968478 2097:-0.22263682 2099:-0.13544615 2100:-0.053672794 2101:-6.9049784e-005 2102:-0.15745562 2103:0.034450699 2104:-3.9841172e-013 2105:-0.012982886 2106:-0.18394832 2107:-0.0058313878 2108:-0.025142668 2109:-0.10313005 2110:0.1031667 2111:-8.0172346e-014 2112:0.022351004 2113:0.020321157 2114:-0.00038597512 2115:-0.017447347 2116:-2.5512367e-013 2117:0.049208283 2118:1.0172771e-019 2120:-0.0063613942 2121:0.20133235 2123:0.061468929 2125:-0.047286991 2126:-0.10789764 2127:-0.025272794 2128:-0.04613426 2129:-0.018726889 2130:-0.56117231 2131:4.088577e-005 2132:0.00023360635 2133:-0.15984543 2134:-3.4935796e-014 2135:-1.4076014e-013 2136:-0.021419806 2137:-0.70478207 2138:0.01987819 2139:-4.1051648e-005 2140:0.44882503 2141:0.22803135 2142:0.013527295 2143:-1.1359787 2144:7.8751525e-015 2145:-0.057474837 2147:0.0011252603 2148:4.6517712e-012 2152:-0.0020490836 2153:-0.0041179648 2154:0.064719714 2155:-7.7218601e-017 2156:-3.0188436e-013 2157:-0.0091269091 2158:-0.49982786 2159:0.10188062 2160:0.21453197 2161:0.30757114 2162:-0.74463892 2163:-0.23408584 2164:-0.14664045 2165:-0.054022208 2166:0.24739864 2168:0.09407068 2169:0.22675166 2170:-0.020603927 2171:-1.8136141e-013 2172:0.25604826 2173:-0.095231459 2174:-0.018168401 2175:-0.88291425 2176:-0.13526377 2177:-0.050660625 2178:-0.3030026 2179:0.34810895 2180:0.20892507 2181:-1.3549006e-017 2182:0.2103669 2183:-0.0011697828 2184:-0.0058665778 2185:-0.055108856 2186:0.064437889 2187:-0.050577525 2188:-0.022300016 2189:-0.038927067 2190:0.1821619 2191:-1.8036505e-013 2193:-0.02740127 2194:0.11657719 2195:-0.0027642047 2196:-0.07615111 2197:-0.026960185 2198:-1.5592262e-012 2199:0.019440053 2200:-0.13892296 2201:0.37046054 2202:-0.026529502 2203:-0.0028942879 2204:-0.26715001 2205:-0.001739035 2206:-0.17929006 2207:-0.1931642 2208:-3.3145697e-014 2209:-0.52346891 2211:-0.79204506 2213:-0.61995488 2214:0.011920151 2215:-0.081808932 2216:0.39451858 2217:0.16561738 2218:-0.058918394 2219:0.05036144 2220:-0.062811941 2222:0.10818618 2223:0.46106225 2224:0.068945326 2225:-0.60939699 2226:-0.091784932 2227:-7.7334367e-016 2228:-0.034945108 2229:0.37245938 2230:9.6936452e-016 2231:0.044098999 2232:-0.0035643 2234:-0.25488669 2235:-9.6933814e-005 2236:-0.19606817 2237:0.045374885 2238:-0.24738994 2239:0.85893852 2240:0.26347104 2241:-0.38357377 2242:-0.12496032 2243:0.0048405225 2244:1.9084015e-007 2245:-0.0072931563 2246:0.014225791 2247:-0.082167014 2248:-2.0071054e-016 2249:-0.1387251 2250:-0.055403121 2251:0.056300521 2252:-9.8482169e-012 2253:0.81481135 2254:-0.023947231 2255:-1.4145827e-013 2256:0.00054972246 2257:5.7658735e-012 2258:-2.218589e-012 2259:8.5033022e-013 2260:-0.0081520155 2261:-0.4777199 2262:1.8147808e-011 2263:-0.0031692139 2264:2.2617848e-013 2266:-0.024690215 2267:0.025270496 2268:0.00072671054 2269:0.64180487 2270:-0.023447411 2271:0.85251123 2272:0.046164829 2273:0.1311423 2274:-9.6813323e-013 2275:0.00065171107 2276:0.088495888 2277:-2.606203e-013 2278:0.79962748 2279:0.073839411 2281:-0.19930038 2282:-0.21477912 2283:-0.66725683 2284:4.3481502e-016 2285:-0.012139939 2286:-0.20716438 2287:1.2222171 2289:-0.13674065 2291:-0.010518132 2292:-6.4692717e-012 2293:-0.16065727 2295:0.25530899 2296:0.094370022 2297:-0.21057415 2298:-7.5117868e-018 2299:0.014438839 2300:0.58591789 2301:-0.02539756 2302:-0.041736085 2303:-0.0010480765 2304:0.022468109 2305:-0.0044797696 2306:-0.033108633 2307:-0.083084464 2308:-0.00096055429 2309:-3.0919455e-017 2310:0.00030846981 2311:-0.088349484 2312:-2.2872685e-016 2313:2.4641348e-016 2314:-1.9360209e-020 2315:-0.85579616 2316:0.012384709 2317:5.0726796e-015 2318:3.8015784e-012 2319:-0.049698878 2320:0.0072003091 2322:-0.0016533309 2323:-0.0077214888 2324:0.00046704969 2325:-0.26900971 2326:0.031886507 2327:-0.047241271 2328:-7.6835927e-017 2329:-0.71825731 2330:-0.11705716 2331:-0.29656225 2332:0.00018353002 2333:-0.086110294 2335:-0.077694461 2336:0.35064572 2337:0.84982765 2338:0.21485084 2339:0.044587433 2340:-0.07002911 2341:-0.028271792 2342:-0.12889105 2343:-5.4757365e-005 2344:-0.099388778 2345:-0.39737892 2346:-0.19848338 2347:-0.05977951 2348:-0.0057914513 2352:-0.27094308 2353:0.70911562 2354:9.1542662e-015 2355:-0.020165434 2356:1.0908683e-005 2357:-0.092193745 2358:0.081944726 2359:0.058472965 2360:2.9633587e-012 2361:-0.076079696 2362:0.17289652 2363:-0.075011767 2364:-0.28722635 2365:0.18485692 2366:-0.065191939 2367:-0.57014173 2368:0.12995681 2369:0.48384884 2370:-0.020441582 2371:0.05863649 2372:-0.005280612 2373:-0.00011495922 2374:0.33179343 2375:2.9116911e-005 2376:-3.0366382e-014 2377:-0.0011993443 2379:-5.0622962e-015 2380:-0.086528137 2381:-0.44933006 2382:-0.63294649 2383:-0.12497776 2384:-0.22796841 2385:-1.7181812e-012 2386:-0.20782448 2387:-0.10373957 2388:-0.029361138 2389:0.00018708358 2390:0.41339159 2391:-0.14263107 2392:-0.028620046 2393:-0.052380871 2394:-0.48972052 2395:0.39477494 2396:-0.08627674 2397:-2.7105096e-019 2398:-0.00021943529 2399:-0.043028578 2400:0.17949578 2402:0.073737569 2403:0.061583474 2404:-0.060163833 2405:-0.053148627 2406:2.0004335e-012 2407:-4.3220341e-005 2409:0.089502789 2411:0.0067312922 2412:0.78225189 2413:-0.0001656292 2414:-0.00033596792 2415:0.14735249 2416:-0.0063403831 2417:-0.55982435 2418:-0.066273898 2419:-0.19853473 2421:0.075498134 2423:0.11007549 2424:0.0011559514 2425:-0.038293663 2426:-5.3670861e-018 2427:0.1011275 2428:0.81481135 2429:-0.054116938 2430:0.0071430695 2431:-0.051409006 2432:-4.1954529e-005 2433:0.81520623 2434:-0.036573831 2435:-0.1314047 2436:-0.063750155 2437:-0.60227573 2438:0.040975876 2439:-5.0767521e-015 2440:-0.067631893 2441:-0.14799239 2442:-4.8097295e-013 2443:0.3171252 2445:-0.49398991 2446:-0.32742158 2447:-1.0020269e-013 2449:-0.13862342 2450:-3.0170219e-013 2451:-0.13669442 2452:-0.089979447 2453:0.027510094 2454:-2.477155e-016 2455:-0.011637185 2456:-6.0013209e-013 2457:-0.015067114 2458:-0.38739505 2459:-0.021850832 2460:-0.0022298957 2461:-0.0010402133 2462:0.33511353 2463:-1.2110153e-015 2465:-1.0099156e-017 2466:-0.023322811 2467:0.070013456 2468:-0.0031537402 2469:0.09550184 2470:0.0078986557 2471:0.058472965 2472:-1.0041372e-013 2473:-0.075652309 2474:0.016692244 2475:-0.21623212 2476:-0.064465187 2477:-0.41935498 2478:-0.051178075 2479:-0.35917881 2480:7.4211755e-014 2481:0.19206782 2482:0.030267661 2483:0.065338746 2484:-0.027824061 2485:0.18872042 2486:-7.7218601e-017 2487:-0.11072225 2488:-0.038018048 2489:-2.7352818e-017 2491:-0.012052805 2493:-0.035458002 2495:-0.15741026 2496:-0.083168171 2497:-0.029316759 2498:1.7295789e-012 2499:-3.8547892e-005 2501:-0.12159761 2502:-0.040359743 2503:-0.14719225 2504:-0.20790628 2505:-8.0330789e-014 2506:-0.045833249 2508:-0.17514099 2509:-2.40632e-013 2510:-7.214593e-013 2511:0.0012959819 2512:-0.21628259 2513:-0.10600606 2514:0.071969129 2515:-0.00058584579 2517:0.00036439899 2518:0.10343917 2519:0.00029088242 2520:-5.5531173e-016 2521:-0.037061799 2522:3.5679126e-013 2523:-0.38154995 2525:-0.01714341 2526:0.47539958 2527:-0.85245365 2528:5.4148835e-013 2530:9.9358957e-014 2532:0.22184204 2533:0.053904511 2534:0.047734406 2535:-0.049813651 2536:-0.019373806 2537:-3.2264057e-015 2538:0.10307105 2539:0.0050446652 2540:0.0049545434 2541:0.0092604561 2543:-6.3341888e-013 2544:0.1712036 2545:-0.018709639 2546:-4.310241e-014 2547:0.24432637 2548:-0.28326789 2549:-0.043038055 2550:0.0094232317 2552:-0.20871915 2553:-2.2659729e-017 2554:-0.57010591 2555:-3.6122619e-020 2556:0.00080203125 2557:-0.081190996 2558:0.010887106 2559:-0.016376311 2560:-0.014312909 2561:-0.037218425 2562:-0.0022985013 2563:0.0059265802 2564:1.5367185e-016 2565:-0.42061749 2566:0.11532176 2568:-4.0918039e-016 2570:2.1533379e-016 2571:0.029036209 2572:-3.8565592e-018 2573:-0.033144102 2574:-0.0052946201 2575:0.46732837 2576:-0.066815428 2577:-5.0622966e-015 2578:0.048508462 2579:-0.1345921 2580:-9.5369776e-020 2581:0.00080916041 2582:-8.0711737e-014 2583:1.1807184e-010 2584:0.04023302 2585:-0.14351349 2586:-4.4112039e-016 2587:-0.07815288 2588:-0.3751002 2589:-0.33947709 2590:-0.012206723 2591:0.0032774326 2592:-0.05843525 2593:7.5823408e-014 2594:-0.10358499 2595:-0.023443725 2596:-0.0062894607 2597:-0.049598802 2598:7.5412492e-005 2600:-4.4752201e-012 2601:0.39007691 2603:6.6000677e-005 2604:-0.023672994 2606:-3.044294e-014 2607:-0.00037730654 2608:-0.16687773 2609:-3.099869e-016 2610:0.00023225471 2611:8.1303889e-015 2612:0.089883998 2613:-1.8074424e-013 2614:-1.6066158e-013 2616:0.56706184 2617:0.012451576 2618:-4.4037725e-007 2619:-5.8285991e-017 2620:-0.15173262 2621:-1.3166018e-014 2622:-8.3963825e-012 2623:-0.34828827 2624:-0.090048686 2625:-0.17596103 2627:-0.0029777 2628:0.29211414 2629:-3.0093495e-016 2630:-0.51631403 2631:-0.0025857664 2632:-0.45895794 2633:-0.10352816 2634:-0.00086141605 2635:-0.10236866 2636:0.76425117 2637:-0.1517297 2638:-8.0162155e-014 2639:0.041488264 2640:-0.022238865 2641:-6.0522476e-014 2642:-0.003283873 2643:-0.60833102 2644:-8.0162148e-014 2645:-3.0362519e-014 2646:-6.7322103e-012 2647:0.19761956 2648:1.417736e-013 2649:0.035957471 2650:-1.2274719e-012 2651:-0.31671214 2652:0.092402793 2653:-4.7639467e-005 2654:-0.045034282 2655:-0.012255802 2656:-3.4640538e-022 2658:-0.059123874 2659:0.13113055 2660:-0.027817868 2662:-6.0264463e-014 2663:-1.0172771e-019 2664:-0.044474162 2665:-2.4389455e-014 2666:-1.2049618e-013 2667:-0.040945962 2668:-0.12453412 2669:0.02298406 2671:0.37692201 2673:-0.0096233031 2674:-0.085083999 2675:-0.29503495 2676:0.018204406 2677:-0.021045348 2678:-0.081492536 2680:-0.021931205 2681:0.00027276095 2682:0.018716572 2683:-0.082962461 2684:0.0067518563 2685:-0.040140029 2686:-5.57572e-013 2687:0.24629278 2688:0.11496119 2689:-0.0072299587 2690:-0.12499309 2691:0.002062605 2692:-0.21344453 2693:0.00025227465 2694:-0.054250557 2695:-0.053107027 2696:0.083452582 2697:-3.6808015e-018 2698:-0.088236593 2699:-0.03851803 2700:-0.11102033 2701:-8.0162155e-014 2702:-0.26925501 2704:-0.062900096 2706:-0.03097829 2707:-0.090122215 2708:-0.010867433 2709:-0.059331868 2710:0.33698359 2711:0.1139443 2712:-3.0945344e-012 2713:0.22781712 2714:0.010257874 2715:-0.19831182 2716:-9.6801054e-021 2717:0.053183805 2718:-0.07116738 2719:-5.4496812e-014 2720:-6.3153631e-005 2721:0.32913426 2722:-5.5452049e-012 2723:-0.023764163 2724:-0.20153183 2725:-8.0162152e-013 2726:-0.61824954 2727:0.10742576 2728:-0.021048542 2729:0.067644522 2730:-0.061654676 2731:-0.075153656 2732:-0.003662067 2733:-0.110223 2734:-0.0011820759 2735:0.010871706 2736:-0.072935991 2737:-0.17402388 2738:-0.074910492 2739:0.082680047 2740:0.12896036 2741:1.5413755e-011 2742:1.9145567e-011 2743:-0.21710607 2744:-0.0081906822 2745:1.7305274e-005 2746:-9.1412526e-023 2747:-0.0089830281 2748:-0.21229145 2749:0.48062193 2750:-0.23490991 2751:2.139835e-020 2752:5.7557596e-015 2753:0.17440958 2754:0.0019189784 2755:-0.1330781 2756:-0.036988776 2757:-0.28151289 2758:-0.56086069 2759:-0.035775054 2761:-5.1999497e-005 2762:-3.9122624e-005 2763:-0.26409179 2764:-0.1081595 2765:0.019578135 2766:-0.11747999 2767:1.7103145e-015 2768:0.43921351 2769:-0.056408223 2770:-0.0037352059 2771:-3.0132235e-014 2772:-1.0292707e-015 2773:-0.2714434 2774:0.0034150775 2775:-1.037619e-005 2776:-0.045955069 2777:-0.084440678 2778:-8.7539732e-012 2779:-0.6323064 2780:-0.2355129 2781:0.10057767 2782:-0.2354335 2783:-1.0020269e-013 2784:-0.23810336 2786:-0.08551874 2787:-4.8261586e-012 2788:0.049131438 2789:0.090400144 2790:0.117683 2791:0.33224183 2792:-0.034233402 2793:-0.070029102 2797:0.034048807 2798:7.8427056e-006 2799:0.0050979578 2800:-0.21307056 2801:1.5587427e-016 2802:2.2588248e-017 2803:0.21526666 2804:-0.020117259 2805:0.11512727 2806:-1.0149811e-014 2809:0.0043106806 2810:-0.029731181 2811:-3.6545416e-014 2812:-0.056400429 2813:0.088936001 2814:4.5853295e-012 2815:-0.02418847 2816:0.0030061796 2817:0.36509049 2818:-0.0038657419 2819:0.033361353 2820:0.050132781 2821:-6.371746e-005 2822:0.067001984 2823:0.079894282 2824:0.022899741 2825:0.00032293086 2826:0.47168344 2827:0.060731683 2828:-0.1784467 2829:-0.0013448497 2830:0.33716831 2831:0.16675165 2832:0.7983318 2833:-3.480902e-015 2834:-0.097573757 2835:2.675323e-011 2836:1.3191837e-011 2837:0.00076549238 2838:4.835107e-005 2839:-0.00088750711 2841:-0.019355735 2842:0.010361212 2843:-0.049798764 2844:-1.9577699e-016 2845:0.0042565539 2846:-0.21333732 2847:-6.5556068e-011 2848:-0.048712723 2849:0.0092653055 2850:-1.4305467e-019 2851:-0.00036793345 2852:0.00069744914 2853:0.17972802 2854:-0.0010414377 2855:-0.089600272 2856:-0.0078086308 2859:-0.46391308 2860:-7.0226151e-012 2861:-0.80682755 2862:-9.5369776e-020 2863:-6.0854338e-005 2864:-0.83189654 2866:1.0398403e-013 2868:-0.021516208 2869:0.013219608 2870:-0.025414353 2871:-0.041172802 2872:3.2532679e-013 2873:-5.6214327e-014 2874:1.4098196e-018 2875:-0.054902036 2876:0.0010714899 2877:-1.0647048 2878:0.753479 2879:-0.17109172 2880:-0.31937271 2881:-0.010505579 2882:-2.5430665e-012 2883:-6.1332219e-014 2884:0.31958851 2885:-0.079294518 2886:-0.34558266 2887:-0.78525561 2888:0.37620696 2889:0.055731505 2890:0.090059675 2891:0.45699176 2892:0.35070774 2893:0.015022729 2894:-0.032628957 2895:-0.40477136 2896:0.051442448 2897:3.9827884e-011 2898:0.51737666 2899:0.050118826 2900:0.00025630335 2901:0.0040346519 2902:-0.0093097482 2903:-0.04082397 2904:0.28873393 2905:-0.001939968 2906:-3.7293493e-012 2907:0.0016433445 2909:-0.04293007 2910:-0.065089911 2911:-3.219164e-013 2912:0.0013412759 2913:-4.5536551e-017 2914:0.44145992 2915:-5.8459856e-014 2916:0.055397946 2917:-0.0012704191 2918:-5.194093e-005 2919:-2.192361e-019 2920:0.05652247 2922:-0.30791855 2923:0.082555018 2924:-0.09262953 2925:0.0015047785 2927:-0.18042229 2928:0.033744294 2929:0.64534932 2930:0.45419997 2931:-0.0084433919 2932:0.21360588 2934:0.47577417 2935:0.37799397 2936:-0.16315936 2937:4.7953416e-013 2938:0.027562115 2939:0.96281981 2940:-0.0031592464 2941:-1.8070063e-019 2942:0.00028385493 2944:0.040038645 2945:0.050025195 2947:0.1617506 2948:0.061411332 2950:-0.042066783 2952:-0.091211483 2953:-0.0031148687 2954:0.48907593 2955:0.15620697 2956:-0.0063777119 2957:-0.041083511 2958:0.15106888 2959:-0.0012704191 2960:0.20555757 2961:5.7669676e-017 2962:0.0032541412 2963:0.0049770144 2965:-0.17619729 2966:-0.14392339 2969:-0.59018385 2970:0.1245347 2971:-1.0020269e-013 2972:0.84294635 2973:-0.0041226204 2974:0.036465686 2975:0.58622366 2976:-5.3465434e-016 2977:-0.23366009 2978:0.6462515 2979:-1.0699245 2980:-0.064199314 2981:0.001782244 2982:0.18793179 2983:0.11484779 2984:-2.8381433e-012 2985:-3.2110244e-013 2987:-2.0795644e-012 2988:1.5079086e-015 2989:-0.15814281 2990:-7.2273826e-005 2991:-6.518091e-005 2992:0.0050112959 2993:-0.00025469132 2994:-1.4098064e-016 2995:-0.034616943 2996:0.0017591433 2997:0.3718251 2998:-0.00018246872 2999:0.15363768 3000:1.818169e-012 3001:0.028495906 3002:-0.40327105 3003:0.11134532 3004:-0.068696819 3005:-0.58992392 3006:0.35642549 3007:0.015870525 3008:-0.044778664 3009:-0.21347749 3010:-0.079297528 3011:-0.50656563 3012:-8.0812269e-014 3013:0.21851738 3014:-8.0184469e-014 3015:-7.7031203e-012 3016:-1.5066117e-014 3018:0.11287872 3019:-0.0025635809 3020:0.0005929154 3023:-0.0094765248 3024:0.65587229 3025:0.011316771 3027:1.5451452 3028:-2.1684375e-005 3029:0.090562433 3030:-0.1112757 3031:-0.14014779 3032:-0.15785845 3033:0.31594333 3034:0.0020427532 3035:0.13368542 3036:0.21630281 3038:-0.047191817 3039:-0.0076318434 3040:-0.027478179 3041:0.0011969624 3042:0.0083121099 3044:0.00015379624 3045:-0.0063061006 3046:-0.61928159 3047:-1.0020268e-013 3048:2.1047795e-012 3049:-0.023002628 3051:0.010541714 3052:0.079141706 3054:0.013471507 3055:0.52005678 3056:9.8135833e-006 3057:-4.2494044e-005 3058:-0.073137365 3059:-1.4028374e-013 3060:0.031581659 3061:4.9319355e-012 3062:-0.061039668 3063:-9.4359733e-005 3064:0.00089453632 3067:-1.2132596 3068:7.3645959e-012 3069:0.030576412 3070:0.0016906162 3071:-0.013616316 3072:-0.065912813 3073:0.40661195 3075:-0.52694845 3076:-5.4204628e-013 3077:-0.00094370614 3078:-1.9181792e-012 3079:0.20540948 3080:-1.1921222e-019 3081:0.66941983 3082:-0.14139827 3083:-0.17948203 3085:-0.016635463 3086:-0.030215511 3087:-0.024470842 3088:-0.3794328 3089:3.511355e-005 3090:0.015334731 3091:-0.41538569 3092:0.23869821 3093:-0.3065007 3094:-0.017239559 3095:0.0021484329 3096:0.27749929 3097:-8.0162155e-014 3098:-0.0016696863 3099:-0.25599644 3100:-0.67286605 3101:0.0002256127 3102:-0.044056274 3103:0.069274753 3104:-0.33648756 3105:0.0031302387 3106:0.29769966 3108:-0.037051331 3110:0.85276586 3112:-0.00044525159 3113:-0.047816616 3114:-0.12538832 3115:-0.001778319 3116:1.9645611e-017 3117:0.029972283 3118:-0.18299165 3119:-0.015001582 3120:0.27714083 3121:-0.042930074 3123:-0.00159586 3124:0.0084095895 3125:0.20875508 3126:-0.00037562341 3127:0.011247725 3128:-5.9011782e-005 3130:-0.15236643 3131:0.014697854 3133:-0.082771324 3134:0.0018358323 3135:0.49381199 3136:0.071373157 3137:0.63223207 3139:0.10424466 3140:-0.058514226 3141:-0.0095913373 3142:-0.15268242 3145:0.27723482 3146:-5.5811716e-017 3147:-2.0040538e-013 3148:-0.17907251 3150:-0.0053790095 3151:-8.2045681e-012 3152:0.2039329 3153:-0.0018569514 3154:2.2839642e-005 3155:0.075570174 3156:0.067158125 3157:-0.036229692 3158:-0.6280368 3160:-0.01901133 3161:-0.17309928 3162:0.0007340759 3163:0.051425256 3164:-0.19600345 3166:-0.065089867 3167:-0.036102556 3168:-0.21457554 3169:0.0050783213 3170:-0.084649645 3171:0.99527591 3172:-0.046686072 3173:0.12458932 3174:-0.016817937 3175:0.057167429 3176:0.73472357 3177:-0.58384407 3178:0.20009392 3179:0.39830801 3180:0.45896024 3181:0.10053322 3182:0.037623812 3183:0.027369542 3184:-0.080271535 3185:-5.0757048e-015 3186:-2.0400098e-016 3187:0.070003666 3188:-0.1057179 3189:4.1023877e-012 3190:0.086883381 3191:0.1441461 3192:-0.067808323 3193:-9.7859123e-013 3194:0.026840789 3195:-0.045965821 3196:-0.013119701 3197:-0.014615167 3198:0.054015934 3199:-0.12281574 3200:0.20532002 3201:0.10229298 3202:0.11428142 3203:-0.072695084 3204:-0.070379108 3205:3.1693974e-017 3206:0.013466077 3207:-6.7540793e-016 3208:-0.0028845617 3209:0.0048722937 3210:-0.072038956 3212:0.00036312416 3215:2.4641348e-016 3217:-0.0020149951 3218:-5.7500276e-012 3219:-0.044497594 3220:-0.17631087 3221:-0.094467394 3222:-0.0012872898 3223:-0.028703166 3224:-1.1550424e-016 3225:0.0097643984 3226:-0.02327437 3227:-0.00085909065 3228:0.00022582954 3229:-0.0093587777 3230:-0.084539868 3232:-0.2255448 3234:0.086658366 3235:-0.27075577 3236:1.0623807 3237:-0.24876459 3238:-1.603445e-013 3239:-0.24077672 3240:0.6281538 3241:-0.16278665 3242:-0.31218651 3243:0.085882224 3244:1.2311238 3245:0.0022787643 3246:0.3588278 3247:-0.022645239 3248:-0.36524656 3249:-1.8055002e-017 3250:0.44943807 3252:-0.1148793 3253:-0.1440779 3255:-0.4536002 3256:-0.052217837 3257:-6.000775e-013 3258:-0.22591703 3259:0.22189523 3260:-0.1619688 3261:-0.078249179 3262:1.6234828e-014 3263:0.19833797 3264:-1.0059641e-013 3265:0.13192667 3267:0.12918431 3268:-0.03259702 3270:-0.099388778 3274:-0.24635158 3275:-0.18370527 3276:-0.078157634 3278:-0.43357033 3279:-0.35672033 3280:-0.096917309 3282:-6.864524e-005 3283:-0.14144599 3284:5.2012051e-013 3287:-0.031984758 3290:0.54837811 3291:0.10838906 3292:-0.33705053 3293:-0.38154992 3294:0.00093818584 3295:-0.00013729048 3296:0.00012278352 3297:0.0032351799 3298:-0.020117259 3299:4.964407e-005 3301:0.81888282 3302:-7.6456436e-017 3303:-0.00568663 3304:-0.050075546 3305:-0.1113994 3307:0.08209613 3308:0.050757885 3309:0.065541968 3310:-1.612102e-013 3311:-1.5066117e-014 3312:0.01233878 3313:-1.8070063e-019 3314:0.0084366528 3315:-0.056907952 3316:6.6986042e-014 3317:-0.015685871 3320:-0.024047228 3321:-1.0099156e-017 3322:-0.3034378 3323:0.671933 3324:-1.4100029e-013 3325:3.6815876e-012 3326:-4.2506228e-017 3327:-0.12949093 3328:-0.19286691 3329:-0.0012682684 3330:-1.4305467e-019 3331:-0.25484285 3332:-0.013590968 3333:-0.040746268 3334:0.021176541 3335:-0.29380193 3336:-1.4305467e-019 3337:-5.7193629e-016 3338:0.23547603 3339:-2.7640368e-013 3340:-0.12813193 3341:0.11100635 3342:2.4280863e-019 3343:0.0078064403 3344:0.32782233 3345:0.0018362806 3346:0.022714522 3347:0.021136114 3349:-0.24541627 3350:0.29262158 3351:0.0068101822 3352:-0.030404601 3353:0.10186601 3355:-0.021686524 3356:-0.067031309 3358:0.27237368 3359:4.5389174e-012 3360:-0.0036414736 3361:0.18414736 3362:-0.0093850289 3363:0.029275838 3364:-0.3920601 3365:0.70842874 3366:0.15003407 3367:-0.56351382 3369:-0.024810797 3370:-0.063992985 3371:-0.32112309 3372:-0.28849185 3373:4.0687424e-013 3374:-0.51422268 3375:0.018718893 3376:0.037031144 3377:-1.208421e-013 3378:-0.0067607919 3379:-0.00238222 3381:-1.0285451e-014 3382:-0.02640672 3383:0.04034723 3384:-0.14824398 3385:0.38449985 3386:0.19285037 3387:0.30895382 3388:-6.0284874e-006 3389:-4.8729232e-012 3390:0.32971668 3391:-0.051144689 3394:0.045824051 3395:-2.8196488e-013 3396:-0.025146572 3397:0.00037519151 3398:0.91983378 3399:3.8653085e-014 3400:-8.1621011e-013 3401:-1.9524365e-012 3402:-0.00084516336 3403:-0.031757154 3404:-0.3629145 3405:0.041770354 3406:-0.047684278 3407:-0.020795122 3408:0.1844677 3409:-0.20190959 3410:-0.085944243 3411:-0.00088750711 3412:0.18811873 3413:-0.3023617 3414:-0.087993704 3415:0.4837817 3416:-0.0011139378 3417:0.055145897 3418:-0.056989484 3419:4.0885774e-005 3420:0.34629667 3421:-0.027773252 3422:0.043034993 3423:0.0037577895 3424:-0.070514806 3425:0.29068753 3426:-0.32014692 3427:0.012536873 3428:1.1732425e-012 3429:-0.51799995 3430:-0.0085709216 3431:0.011297112 3432:-0.24905483 3433:0.48174551 3434:0.49378857 3435:0.043490212 3436:-0.73770821 3437:-0.01932727 3439:-0.0014660279 3440:-0.15408653 3441:-0.31380224 3442:-0.01222341 3443:0.01638378 3444:-0.20568267 3445:-0.2668227 3446:0.0016470286 3447:0.23375985 3448:-0.002329614 3449:-0.18882573 3450:-0.036628895 3451:0.0094644465 3452:-0.060784973 3453:0.50557208 3454:-0.31390819 3455:0.18461135 3456:-0.37361142 3457:0.30078989 3458:-0.018028732 3459:0.086387202 3460:0.15204224 3461:0.00082346617 3462:-9.6801054e-021 3464:-0.012944726 3465:0.0048445277 3466:-0.019484591 3467:0.0085914517 3468:0.012785849 3471:-2.1069681e-011 3472:0.00087335729 3474:-0.10755362 3476:-0.11676985 3477:-9.5369776e-020 3479:0.25273418 3480:-0.044793051 3481:0.0082473736 3483:-1.6454256e-020 3484:-0.13071284 3485:0.00078342884 3486:0.40903661 3487:0.052907079 3488:0.039306853 3490:0.0033340629 3491:-5.500314e-017 3492:0.044026401 3493:-0.36906445 3495:0.03308567 3496:-7.7354933e-017 3497:0.41169396 3498:0.25025281 3499:-3.1622608e-019 3500:-1.203437e-013 3502:0.31057766 3503:-0.049851011 3504:-0.012993028 3505:2.4352578e-016 3506:-0.0028821605 3507:0.013843286 3508:-0.18137969 3509:0.35254014 3510:0.23224373 3511:-0.35070774 3512:-0.018786231 3513:-0.0099004945 3514:4.1271062e-012 3515:0.021724196 3516:0.14074923 3517:-0.00079115713 3519:-0.045623902 3520:0.087342374 3521:0.37511194 3522:-1.5594133e-017 3523:0.018965559 3524:0.051784329 3525:0.13261227 3526:0.23928995 3527:-0.061220318 3528:-0.025833406 3529:0.45536304 3530:0.59457749 3531:-0.088066936 3532:0.077637874 3534:0.9888497 3535:-0.20773566 3536:-0.01109279 3537:0.083541237 3538:-0.072238863 3539:0.063167945 3540:-0.00010363982 3541:0.59443253 3542:0.11424842 3543:0.0058605163 3544:0.23717901 3545:-0.028300645 3546:0.073833652 3547:0.046829648 3548:0.18562314 3549:5.7230761e-012 3550:0.040965576 3551:0.049822152 3552:0.001475611 3553:-4.3769354e-012 3554:0.43660727 3555:-0.29817489 3556:-0.38568023 3557:3.7869009e-005 3558:-2.074972e-013 3560:0.017425001 3561:0.0022931073 3562:-0.00022087137 3563:0.4588905 3564:0.019981157 3565:-2.4263854e-016 3566:0.0062202071 3567:-0.019529507 3568:-0.0046921265 3569:-4.9290259e-012 3570:0.10331251 3571:0.38787517 3572:0.00075650052 3573:0.36440396 3574:-0.086921901 3575:-0.19824411 3576:0.029756065 3577:0.0015921985 3578:-0.20768188 3579:0.16059716 3580:-0.076769449 3581:0.27988696 3583:0.050757475 3584:-0.058525685 3585:0.040277686 3586:-0.48618793 3587:0.42609423 3588:0.3274993 3589:0.1447757 3590:-0.0085291611 3591:0.18037115 3592:-0.41596761 3593:0.65424722 3594:-0.033334982 3595:-0.03575984 3596:0.00088750711 3597:0.71423227 3599:-8.7569535e-017 3600:-0.45655817 3601:0.24174827 3603:0.013597912 3604:-0.00041105971 3605:-0.11966663 3606:0.19626315 3608:-4.724691e-016 3609:-1.1921222e-019 3610:-0.017049182 3611:-0.13638097 3613:-4.4451687e-013 3614:0.042127509 3615:-0.92592728 3617:0.015879802 3618:-4.891304e-005 3620:0.00054592377 3621:-0.0023037435 3622:0.35942423 3623:-0.0040760078 3624:-0.061765458 3625:-5.8285991e-017 3626:-0.0056862039 3629:-3.7286355e-012 3630:0.039560121 3631:-5.8482023e-005 3632:0.085836753 3633:-0.30723786 3635:-0.045377608 3636:0.18555732 3637:0.2756812 3639:-4.877891e-014 3641:0.25298643 3642:1.0760991e-011 3643:-0.00043273723 3644:-0.20053798 3645:0.61891282 3646:0.064423196 3647:1.6281572e-011 3648:-0.0065662311 3650:-0.55659527 3651:-0.012328832 3652:0.022899741 3653:-0.12094979 3654:-0.75457937 3655:0.00023034678 3656:-0.048307452 3657:-1.0023541e-013 3659:0.008889812 3661:-0.15547387 3662:0.45744112 3663:-0.13094695 3664:1.0172771e-019 3665:-5.1569953e-017 3666:-0.14075823 3667:-1.3424184e-011 3668:-0.23160897 3669:-0.018549375 3670:-0.4081749 3671:0.1790989 3672:-0.005755824 3674:9.9430727e-006 3676:7.0566065e-015 3677:-0.0028243281 3678:0.00088750711 3679:-0.27419436 3680:0.11277629 3681:-0.0023354318 3682:-6.3344984e-013 3684:-0.014581328 3685:-0.052846875 3686:-1.8036522e-013 3687:-0.015791273 3688:0.18164799 3689:0.22646108 3690:0.017677542 3691:0.024131665 3692:-2.0040538e-013 3693:0.00036694619 3694:-0.074185312 3695:0.0045394148 3696:-6.4940653e-012 3697:-0.14284998 3698:-4.714297e-005 3699:0.49677616 3700:0.20389135 3701:-2.1702485e-011 3702:-0.038210202 3703:-0.0083996058 3704:-0.064457983 3705:-0.01730567 3706:0.15393315 3707:-0.0096264919 3708:0.047958154 3709:-0.9524101 3710:0.029715516 3711:-0.025412526 3712:4.2779255e-020 3713:-0.062426087 3714:-0.00068912277 3715:-0.014230832 3716:0.43859559 3718:-0.11523637 3719:-2.2872685e-016 3721:0.031711731 3723:-0.00079677039 3725:-0.034007333 3726:0.13760431 3727:0.012520416 3728:-0.32193801 3730:-0.00048762537 3731:-4.6947822e-005 3737:-0.03539044 3738:-0.12111551 3741:1.0383081e-017 3742:0.042852499 3743:-0.094443902 3744:0.16470793 3745:0.0005407905 3748:-0.0034472602 3749:0.054730762 3750:0.0050979578 3752:-0.07116738 3753:0.0073057013 3754:-3.0633963e-014 3755:0.00042905312 3757:-0.010192135 3758:3.1798444e-014 3762:0.71777213 3763:0.097555235 3764:-0.032852974 3765:0.66779703 3766:-0.34464726 3767:-0.31974664 3768:-0.0050723073 3770:-9.7409509e-005 3771:-0.016922954 3773:-3.2263779e-018 3774:-0.034978751 3775:0.034967512 3776:-0.00038431256 3777:-0.052159365 3778:-5.3883925e-017 3779:5.3132407e-012 3780:0.088985093 3783:2.7168273e-006 3784:-0.12154996 3785:-0.21845783 3786:-8.0640776e-014 3787:-0.19518921 3788:-0.16516243 3789:0.63622206 3790:-2.6254669e-012 3791:0.12804158 3792:0.0019551131 3793:-0.23266225 3794:4.1922731e-006 3795:0.51709092 3796:0.23845312 3797:-0.46340698 3799:-0.031751376 3803:-2.6520832e-016 3804:0.0032142869 3806:-0.24775445 3807:-0.51286429 3808:-4.2725193e-015 3809:0.00028166684 3810:-0.016323356 3811:-0.050863292 3812:-0.67566574 3814:-0.16864151 3815:0.3448303 3816:-0.027741451 3817:-0.41873538 3818:-0.00050174823 3819:4.4152084e-013 3820:-0.2250078 3821:0.25004414 3823:-1.0020269e-013 3824:0.029246561 3825:-0.0058083748 3826:-0.030407442 3827:0.051142659 3828:1.5075774e-014 3829:-4.3310629e-012 3830:-1.4038591e-013 3832:-0.23130935 3834:-0.062057339 3836:-0.16524394 3837:0.00020323055 3838:-0.011637186 3839:-0.26201358 3840:-0.24468209 3842:-2.4590757e-012 3843:-1.6911564e-017 3844:0.0027830719 3845:-0.26214108 3846:0.38634738 3847:-0.30912018 3848:-4.1906498e-013 3849:-2.0084773e-013 3850:-8.0188318e-014 3852:-1.6032431e-013 3853:-6.5423978e-017 3854:5.3132407e-012 3855:-0.29815876 3856:0.18058871 3857:0.0011005972 3858:-0.010820971 3859:3.0434853e-014 3860:7.0786638e-014 3861:0.036026135 3862:0.15305416 3863:0.021366214 3864:-1.0938346 3865:-1.1921221e-019 3866:0.38990405 3867:-0.018694075 3868:-0.551171 3869:-0.015834164 3870:-0.073111534 3871:0.00025722134 3872:0.12223627 3875:-3.6391786e-005 3876:-0.08824598 3879:-0.093120813 3880:-0.0017390347 3882:7.6835927e-017 3883:-0.74337572 3885:-0.0037265739 3886:0.02155612 3887:-0.37473887 3888:-8.0162148e-014 3891:-0.0075537334 3892:0.22368979 3893:-0.10716031 3894:-0.00020898059 3895:-0.0054510199 3896:0.18275587 3897:0.11216426 3898:0.27126706 3899:-0.13308242 3901:-0.16109316 3902:-0.055188168 3908:-2.9147732e-013 3909:-1.5102701e-014 3910:-0.034040418 3911:-0.17704241 3912:0.00020186146 3914:0.0029062321 3915:-0.098383635 3916:0.041108385 3917:0.00058047124 3918:8.2304714e-014 3919:-0.41002411 3920:-0.33571967 3921:0.53556079 3922:-0.27419436 3923:-0.0046182941 3925:-0.16345802 3926:0.18767597 3927:-8.2712155e-005 3928:-0.23079097 3929:1.0614202 3930:0.1724418 3931:2.5291887e-015 3932:0.015972754 3933:-1.0023539e-013 3934:3.6853683e-021 3935:0.00085195567 3936:0.29681599 3937:-0.1644225 3938:-0.25999442 3939:-1.0027555e-013 3940:0.083889157 3941:-0.0099849068 3943:-0.13647516 3944:-0.27958015 3945:-0.016344417 3947:0.5241285 3948:3.2901495e-005 3949:2.5679591e-015 3950:-0.091584332 3951:0.49307171 3952:-0.034365788 3954:0.15976585 3955:-7.6835927e-017 3956:-0.70788783 3957:-5.3120311e-005 3958:0.083206728 3959:-0.32854804 3961:-4.3689394e-017 3962:0.92254496 3964:0.16675165 3965:0.00076549238 3966:4.0743413e-005 3967:0.050257973 3968:0.0067408136 3969:-0.39785689 3970:-2.2872682e-016 3971:-8.9234518e-006 3974:-3.2860171e-012 3975:-2.7718028e-016 3977:-0.00026610511 3978:-0.0085709216 3979:0.024113383 3980:-0.023002626 3981:-3.5375979e-005 3982:0.053442895 3983:-0.07854972 3984:0.25297025 3985:0.31109345 3986:-0.064081751 3987:-0.20746548 3988:0.75987262 3989:0.047045417 3990:-0.0007488979 3991:0.44331083 3992:0.066229761 3993:-0.032478333 3994:-0.0041690855 3995:-0.25558174 3996:-4.0597098e-017 3997:-0.14863147 3998:0.012447297 3999:0.45606425 4000:0.022486662 4001:0.24401627 4002:0.16885678 4004:6.2660346e-018 4005:-0.00019921237 4006:-0.0023727345 4007:-0.01135318 4008:-0.45997003 4009:-1.9073955e-019 4010:0.20786443 4011:-2.4057405e-013 4012:0.40850961 4013:-1.4098194e-018 4014:-4.3769853e-012 4015:-6.4195051e-020 4017:8.7546238e-012 4018:-0.031757154 4019:0.1627169 4021:1.4703672 4022:0.27093145 4023:-0.12596627 4024:0.0022086047 4025:3.2158577e-016 4026:-2.139835e-020 4027:0.009608441 4028:-0.1357217 4029:-0.10216375 4031:-6.8226604e-005 4033:-3.3027492e-015 4035:-3.7293497e-012 4036:4.4626511e-015 4037:-0.15112504 4038:2.3262982e-016 4039:-0.57891512 4040:0.075711861 4041:0.048035271 4042:-0.097872831 4043:0.017133106 4045:-0.0036414736 4046:-0.0003123238 4047:-0.15587722 4048:-5.300945e-016 4049:0.32971668 4051:0.049817398 4052:0.4378702 4053:0.0066084336 4055:-3.1464106e-012 4056:0.0016470286 4057:0.23375985 4058:0.040197078 4059:-0.009098622 4060:0.0037053102 4061:-4.7598096e-013 4062:-0.022351157 4063:3.5782328e-011 4064:0.18306173 4065:-1.203437e-013 4066:-0.0095450617 4067:-0.004571605 4069:4.1271062e-012 4070:0.087342374 4071:0.051784329 4072:-0.045359235 4073:-0.095294692 4074:0.077637874 4075:-0.67566574 4076:-0.14461504 4077:-0.29815876 4078:0.18058871 4079:0.0067312922 4080:-0.010820971 4081:3.0434853e-014 4082:-0.012548651 4083:-0.0017390347 4084:0.011619143 4085:6.0226685e-021 4086:-0.0004681205 4088:-0.1462723 4089:2.3262982e-016 4090:0.3274993 4091:-0.41596761 4092:-0.03575984 4093:-0.00041105971 4094:0.042127509 4096:-0.42157114 4097:-0.14825778 4098:-0.2541638 4099:-0.048260424 4100:-0.00054374733 4103:-0.27419436 4104:0.11277629 4106:-0.064457983 4107:-1.0724161 4108:1.818169e-012 4109:0.075599566 4110:0.047045417 4111:-0.00015568867 4112:-0.48770326 4113:-0.0027389959 4114:0.44331083 4115:0.2490344 4116:0.085612759 4117:0.74973053 4118:-0.20272154 4119:-0.098633349 4120:-0.41873538 4121:5.3132407e-012 4122:-0.024762016 4124:0.22368979 4125:-0.05074523 4126:1.0459122e-015 #
